/*static float weights[32384] =
{-0.07856559000000000459,
-0.08444756999999999958,
-0.00879207400000000042,
0.00560060600000000016,
0.05503051999999999944,
0.00039995679999999998,
0.05017337000000000186,
-0.02216827500000000117,
-0.04878369700000000087,
-0.02857205000000000161,
0.02701900499999999872,
0.05017855400000000715,
0.10407188500000000286,
-0.01249277800000000126,
-0.05022521700000000255,
0.03454321299999999623,
0.01359840800000000106,
-0.12451380500000000517,
0.05985652299999999482,
0.01601628000000000079,
0.11013639000000000068,
-0.02192112600000000258,
0.02872520899999999808,
0.07021072999999999897,
0.07743215999999999988,
-0.10455846000000000584,
-0.03407753300000000013,
-0.01445605500000000064,
0.04844206599999999890,
-0.06434959999999999292,
0.01652078300000000069,
-0.02228061100000000225,
-0.11026091999999999838,
-0.11072671400000000386,
-0.10629639999999999922,
0.01675586600000000120,
-0.01795485000000000136,
-0.07865637000000000323,
0.02340751100000000237,
-0.02751259299999999838,
0.04601416400000000323,
-0.13204513000000001055,
-0.02538252400000000006,
0.04633299599999999435,
-0.00274788940000000002,
0.02168186000000000072,
0.02444247899999999959,
-0.02109781299999999651,
-0.02283978500000000134,
-0.11716384999999999994,
-0.00300685299999999987,
0.05015280000000000432,
-0.03250650299999999909,
0.12985930000000001083,
0.03733970999999999818,
0.02394741799999999810,
0.04555745799999999512,
0.01146938600000000155,
0.00480195969999999955,
0.00374287090000000044,
-0.09101811999999999403,
-0.00409086699999999977,
0.10802451000000000414,
0.11096167999999999310,
0.02725455700000000217,
-0.03136507399999999973,
0.09096094999999999875,
-0.06597822000000000409,
-0.04839014599999999500,
0.06960612500000000480,
0.01531597999999999987,
0.06039859400000000683,
0.00335723979999999998,
0.00303661259999999994,
-0.03627211600000000008,
0.02056420000000000123,
0.05926018200000000152,
-0.02764606099999999955,
0.00648497300000000065,
-0.07266453000000000495,
0.02281299600000000205,
-0.07279317999999999900,
-0.02888220000000000023,
-0.06336303999999999548,
-0.01064652949999999980,
-0.03937227700000000413,
-0.08571292499999999537,
-0.01970122800000000118,
0.00072639424000000001,
-0.08808560999999999475,
0.13130801999999999752,
0.03220269500000000340,
0.07366594999999999394,
-0.13031919999999999615,
0.04495265999999999845,
0.06624079500000000509,
0.16315852000000000133,
-0.10358216000000000645,
0.11144439000000000428,
-0.04220246999999999887,
-0.03585235999999999978,
-0.06831452000000000357,
-0.04410893500000000189,
0.05183059300000000119,
-0.00605307430000000084,
-0.05332401999999999975,
-0.01484521199999999999,
-0.02121215499999999990,
-0.08821740000000000137,
-0.04124176000000000231,
-0.10491738500000000189,
0.06787324999999999608,
0.12092347400000000301,
-0.06748714000000000102,
0.06336210000000000453,
-0.08912051499999999737,
-0.04089908299999999580,
0.02208119600000000085,
-0.02452487999999999890,
0.02793692600000000081,
0.04970167200000000229,
-0.02890813000000000063,
-0.06072165000000000201,
-0.05577844800000000131,
-0.06191596799999999484,
0.09812307000000000667,
0.01424667500000000031,
-0.05515448400000000362,
0.04336840299999999981,
0.08059393599999999103,
-0.03165905000000000108,
-0.00558121180000000026,
-0.00512589300000000029,
0.02978625099999999970,
0.02884019399999999955,
-0.00379408799999999971,
-0.04984737000000000195,
0.03323386600000000080,
0.01639670300000000205,
-0.04433210200000000517,
-0.19260327999999998783,
0.02818339499999999997,
0.03239318399999999848,
-0.01316881800000000054,
-0.05769169299999999528,
-0.00972980499999999936,
-0.03165261400000000253,
0.00692213800000000042,
0.00245956299999999968,
-0.04206851500000000077,
-0.12624974999999999392,
-0.04748175300000000154,
-0.04879760699999999979,
0.04287607000000000224,
0.02714519799999999886,
0.01748924899999999838,
0.07068164000000000391,
-0.05908589400000000685,
-0.02991280500000000064,
-0.00440513060000000036,
0.10215048000000000183,
-0.10255547599999999264,
0.12867258000000000862,
-0.02120088399999999970,
0.10352468500000000518,
0.00986496100000000022,
-0.01147152899999999941,
-0.04133525500000000130,
0.08599453399999999748,
-0.11481058599999999226,
0.08575122999999999773,
-0.04180348700000000028,
0.02155324000000000129,
-0.02042262400000000033,
-0.03989612299999999862,
-0.05134703999999999657,
0.10198329000000000422,
-0.06905165000000000608,
0.04316520700000000405,
0.03033831999999999848,
0.08281530000000000835,
0.06586398000000000252,
-0.08054495999999999878,
-0.02062080600000000194,
0.05335224000000000216,
-0.03290879000000000026,
0.08505258999999999736,
0.02497525000000000092,
-0.08345347000000000182,
0.08475575600000000154,
-0.03541631299999999788,
0.08044746999999999315,
0.08536581000000000030,
-0.10338437600000000005,
-0.03211848800000000059,
0.06059435800000000094,
-0.01202067699999999871,
0.04570003200000000154,
0.05331852000000000119,
-0.06474570999999999799,
0.04966294999999999737,
-0.02091682899999999790,
0.07234833000000000236,
0.00221944549999999975,
0.06201188299999999681,
0.01661593700000000076,
0.01078631600000000065,
-0.11803721000000000352,
-0.02806953499999999962,
-0.10089320000000000233,
0.00108781760000000003,
0.03891729000000000022,
-0.10760053999999999452,
0.09598924000000000345,
-0.00875597499999999918,
-0.05344388299999999759,
-0.01429098999999999994,
0.06104453700000000288,
0.01513929600000000174,
0.03982831500000000302,
0.02319733400000000001,
-0.03952032700000000093,
-0.27633007999999997795,
-0.06959867000000000137,
0.00856728849999999903,
0.04753049499999999900,
0.01046468300000000066,
0.00845354699999999876,
0.08149307000000000079,
0.01402293050000000089,
-0.09924336000000000269,
0.02994230200000000050,
0.02625310399999999933,
-0.06990889999999999604,
0.01521645600000000147,
-0.03158608499999999986,
0.01387247299999999975,
0.06150261700000000248,
-0.07463989000000000040,
0.10344253000000000475,
0.02246216299999999680,
-0.01691054200000000063,
0.06148142000000000190,
0.03118286099999999922,
0.01849206700000000092,
-0.04716859000000000329,
-0.21300234000000001222,
-0.01683285600000000021,
0.10523765000000000203,
0.07989303000000000377,
0.18881074999999999942,
-0.05934398999999999924,
0.11024976499999999957,
0.07595807000000000253,
0.04831140000000000434,
0.08859788999999999859,
0.02644686400000000048,
-0.00324030799999999990,
0.10774198999999999582,
0.09829670000000000074,
-0.13515817999999998889,
-0.17039612000000001202,
0.09939997999999999889,
-0.01899205099999999938,
0.07483892999999999796,
-0.09276920599999999295,
0.02041849000000000094,
-0.06936602999999999519,
-0.05267026299999999495,
0.03110672999999999910,
-0.11316255000000000064,
0.01906186699999999970,
0.13604926999999999992,
-0.10445893000000000539,
0.07030488999999999489,
0.00373769409999999977,
-0.00957046449999999875,
-0.00956331099999999969,
-0.09402341000000000171,
0.02321758700000000133,
-0.05608412299999999961,
-0.08653742999999999852,
0.00564075599999999937,
-0.00049256026999999997,
0.08194685999999999637,
0.12647568000000000699,
-0.13751753999999999367,
-0.04263151400000000230,
0.03744244600000000422,
0.00966674650000000010,
-0.00502079730000000012,
-0.06107984000000000330,
-0.10911476600000000192,
0.04161383999999999916,
-0.41213473999999999942,
-0.10634310000000000984,
-0.10348218000000000694,
0.14877351999999999244,
-0.03268179000000000223,
0.02794286200000000234,
0.08940177000000000540,
0.00145378299999999994,
-0.17313349000000000100,
0.01621658499999999864,
-0.01747354500000000005,
0.09539691999999999616,
0.05772371599999999436,
0.01959142800000000101,
-0.02991956700000000108,
0.06937545500000000254,
0.00537311500000000036,
-0.09935476000000000030,
-0.08401131000000000570,
-0.09051067999999999614,
0.04567712499999999898,
-0.02942319799999999763,
-0.01801368600000000098,
-0.04625917599999999907,
-0.13562103000000000352,
0.09791901000000000077,
0.06869118000000000446,
0.00350022400000000013,
0.05677610999999999769,
0.01095463600000000023,
0.00139505059999999988,
0.04543276000000000259,
-0.02428851500000000010,
0.14376691999999999250,
0.06699552999999999758,
-0.01980994800000000083,
0.07657628499999999394,
-0.00813951199999999979,
-0.00639519800000000038,
-0.12755274999999999253,
-0.06885457000000000383,
-0.02703549499999999967,
-0.05473377599999999787,
-0.09821402999999999384,
-0.05500118799999999947,
-0.05901353000000000154,
0.04370568999999999843,
-0.02497634100000000260,
-0.10292012999999999856,
-0.06033158699999999902,
0.03032965200000000208,
0.07150083000000000133,
0.03556792799999999866,
0.04158448000000000006,
0.06280882999999999605,
-0.04096656700000000234,
-0.11550133999999999401,
0.07414136000000000337,
0.12270580999999999849,
-0.10478026399999999796,
0.04599521300000000007,
-0.03399890000000000551,
0.02410410899999999856,
0.14842184999999999406,
-0.11363576999999999706,
-0.01693679799999999944,
0.01817223800000000028,
0.02971272499999999886,
-0.01813843700000000031,
-0.01879602699999999987,
0.02200818200000000113,
0.07338896000000000308,
-0.13353120000000001655,
-0.09473552000000000362,
-0.10335827599999999893,
0.10053937000000000290,
0.06033556500000000072,
0.00830517199999999955,
0.06759257999999999933,
-0.02077116399999999821,
-0.06835399600000000020,
-0.03629145999999999761,
-0.05851441200000000176,
-0.11700103000000000586,
0.08724378000000000688,
-0.01741101200000000002,
-0.00477627659999999964,
-0.01548206000000000061,
-0.11039001499999999412,
-0.08916082000000000174,
-0.01861723100000000145,
-0.03625219299999999506,
0.05497224299999999703,
0.04431384799999999596,
-0.01522762100000000021,
-0.00279174929999999972,
-0.08329593999999999887,
0.01197215499999999995,
0.11706888999999999490,
0.09796289999999999165,
0.01117006899999999948,
0.07236357000000000206,
0.10235113999999999324,
-0.02847397999999999943,
0.02317507400000000037,
-0.06217835000000000029,
0.02474247899999999778,
-0.05582919999999998856,
0.12039193500000000547,
-0.02640699799999999750,
0.02808248600000000025,
-0.06049904200000000287,
-0.01275291899999999971,
0.03794316999999999829,
-0.01868052199999999802,
-0.13014851999999998977,
-0.10514580499999999497,
0.01711578700000000036,
0.02328017500000000017,
-0.14699579999999998203,
-0.01761888699999999974,
-0.09864887599999999646,
0.02127802999999999986,
0.04217609400000000425,
-0.06421037999999999746,
-0.05458862999999999910,
0.00697064540000000028,
0.02049351500000000034,
-0.14514827999999999064,
0.08058218999999999799,
-0.05118261999999999812,
0.03379191000000000139,
0.00446395059999999972,
-0.03498089700000000385,
-0.00718666660000000061,
0.03448092600000000202,
-0.13366880999999999902,
0.03335637999999999798,
0.04821446000000000065,
-0.00215671750000000001,
-0.05948282400000000358,
0.02698242000000000002,
-0.01986659699999999973,
0.04807074700000000395,
-0.00966827900000000011,
0.03169347700000000462,
-0.06459138999999999853,
0.02181110500000000077,
-0.10473668599999999551,
-0.02791950299999999829,
0.02808865299999999815,
-0.06910160999999999387,
0.05699977999999999989,
0.00272959539999999973,
-0.05061219999999999608,
-0.04218728499999999798,
0.00618790999999999959,
0.05211055299999999696,
-0.00924776799999999996,
-0.03055270200000000103,
-0.11503886000000000667,
-0.08391843999999999693,
-0.12171125400000000483,
-0.01639157700000000092,
0.00364896599999999958,
-0.06515131000000000394,
0.13960378000000001064,
-0.10338506000000000085,
0.01693671199999999960,
-0.09101415000000000199,
0.09677249000000000267,
0.00017221631000000000,
0.05778812200000000426,
-0.00132498769999999993,
0.03920274600000000359,
-0.03610117700000000512,
-0.04663358299999999929,
-0.03907104200000000027,
0.00048280300000000002,
0.01152572899999999845,
-0.13585110999999999715,
-0.04518682499999999991,
-0.06587203599999999493,
-0.02692628700000000014,
-0.06230886000000000063,
0.04003521399999999952,
-0.11312693000000000054,
-0.02657618700000000111,
-0.12127134999999999998,
-0.06330041999999999613,
-0.08706257500000000316,
-0.15670857999999998622,
0.03130410599999999821,
0.02220042799999999775,
0.01274131799999999974,
0.06258187400000000955,
-0.04217879499999999809,
0.01145207199999999891,
0.01141104850000000150,
-0.02861816999999999833,
-0.13864857999999999350,
0.09892713000000000201,
0.01220247899999999872,
0.08225668999999999342,
-0.09323459000000000607,
0.01519259399999999850,
-0.06269760400000000400,
0.00469912599999999965,
-0.12555062999999999640,
-0.01990331299999999887,
0.14311688000000000187,
-0.12047998599999999725,
-0.03233499499999999832,
0.05717309599999999964,
-0.05189430299999999580,
0.11161857000000000029,
0.01897345300000000123,
0.12278226000000000417,
0.18883440000000001335,
-0.07603701000000000210,
-0.11558308000000000471,
0.04310520400000000113,
-0.08023062999999999723,
0.06735842999999999692,
-0.03376905200000000079,
0.08409476000000000451,
0.02829808200000000218,
-0.08327710000000000667,
0.12283647000000000316,
0.06274860999999999633,
0.01787176700000000021,
-0.11375665000000000082,
0.01019242400000000028,
0.00261470840000000001,
-0.24472336000000000089,
0.09612589999999998636,
0.08717070500000000111,
-0.00576862899999999994,
0.02510948899999999873,
-0.24927336999999999412,
0.07213142000000000165,
-0.02481732099999999983,
-0.11153628999999999627,
0.00747388459999999942,
-0.10330016999999999672,
-0.05852182000000000217,
0.02213689100000000229,
0.00516024099999999944,
-0.05096908700000000320,
-0.10009166599999999581,
0.00592187140000000056,
0.04815636000000000222,
-0.11518470999999999571,
0.06853390500000000607,
0.05119876599999999972,
-0.01841341000000000158,
-0.01207789100000000032,
-0.08863635999999999737,
-0.12392614999999999881,
0.02112609500000000098,
-0.13805579000000001155,
-0.07938425000000000342,
0.07637792000000000192,
0.00485428900000000035,
-0.05227848499999999954,
0.00847488700000000039,
-0.02200560999999999837,
0.10237279500000000254,
-0.03521051000000000042,
-0.01046762499999999950,
-0.12230288000000000270,
-0.16831020999999998788,
0.01416462500000000013,
0.06590007999999999977,
-0.00207393550000000001,
0.03070337000000000066,
-0.10867926999999999449,
0.06769471600000000200,
-0.09925122599999999795,
0.07907913599999999432,
-0.07736944400000000943,
0.00218214800000000007,
0.20531519000000000852,
-0.07373027999999999527,
0.09114689400000000608,
0.04899019000000000290,
0.01960834100000000135,
0.06499696000000000640,
-0.01949826399999999779,
-0.00233166359999999965,
0.10647536000000000500,
-0.07641511400000000620,
0.20700425999999999549,
-0.03859099700000000188,
-0.07604369499999999449,
0.04910410999999999943,
0.00284595669999999999,
-0.02342706700000000281,
0.00518695300000000022,
0.00592448599999999964,
0.28096493999999999636,
0.01814568999999999904,
-0.08610516999999999477,
-0.05452601599999999660,
0.08641567999999999472,
-0.06561009599999999276,
-0.15842037999999999953,
0.24055424000000000251,
0.06953847000000000500,
0.02948223200000000058,
-0.04121053999999999690,
-0.20335787999999999087,
0.01727201600000000115,
0.10971031000000000533,
-0.07489237999999999451,
0.11912796000000000496,
-0.19131238999999999884,
0.02049097000000000071,
-0.04097607999999999806,
0.02619485400000000005,
-0.05241023400000000693,
-0.15735313000000000772,
-0.14913588999999999318,
0.20000897000000000814,
0.06743073500000000553,
0.05560351499999999919,
-0.06070434699999999878,
-0.10225642499999999802,
0.01939687099999999956,
-0.02450950399999999793,
-0.14684205999999999648,
0.02488429299999999830,
-0.03543083400000000133,
-0.04193859999999999949,
-0.06199894999999999712,
-0.00399616639999999992,
-0.06164979200000000187,
-0.07005839999999999290,
-0.07552672000000000552,
0.00398484800000000004,
-0.01202911699999999889,
-0.03386887499999999968,
-0.03322841199999999884,
-0.10225196000000000285,
-0.12408234999999999404,
-0.04299997500000000278,
0.11155801999999999385,
0.08832384000000000068,
-0.08810624000000000233,
0.00988109300000000051,
-0.09596420999999999424,
-0.03538602200000000308,
-0.02454702400000000062,
-0.09593880000000000463,
-0.05401375499999999663,
-0.08872654000000000651,
-0.08263689999999998537,
0.04297439400000000603,
0.09304215000000000402,
-0.03221863500000000241,
0.04977005999999999791,
0.01843144399999999822,
-0.04098438499999999818,
-0.02069661600000000101,
-0.00595971800000000013,
0.00918459899999999989,
0.06811900999999999373,
0.01580800699999999892,
0.10871628999999999321,
-0.08763467499999999522,
-0.16237762999999999503,
-0.02053166399999999808,
-0.07166348999999999636,
-0.03505367799999999784,
0.04403439499999999701,
0.00485593599999999993,
0.11511383999999999506,
0.05879342599999999586,
-0.18282445999999999420,
-0.04157162500000000094,
-0.13519278000000001239,
0.05802206700000000356,
0.03869775999999999772,
0.03729380300000000037,
0.08597523999999999444,
0.06680835999999999719,
-0.11082719000000000598,
-0.05382308000000000231,
-0.03723618000000000067,
-0.00988928000000000029,
0.01130832600000000049,
-0.06092510699999999918,
-0.06875386999999999471,
0.06496050000000000435,
-0.03720655700000000121,
0.02605502900000000038,
0.04806089400000000678,
-0.01966800200000000040,
-0.00489625940000000016,
0.09848826400000000592,
0.06238908299999999796,
0.04294873800000000019,
-0.02501109200000000213,
-0.07951198499999999336,
0.13602149999999998964,
0.03146042699999999914,
-0.06017233999999999777,
0.06836839999999999584,
0.07440702000000000427,
0.10121932000000000151,
-0.00243244790000000021,
0.06619234000000000229,
0.04742846599999999552,
-0.04387131699999999995,
-0.00107927130000000002,
0.06886370999999999465,
0.07308019000000000320,
0.00867930100000000038,
0.02238651700000000161,
-0.01911989399999999839,
0.01838514600000000151,
0.01196910300000000003,
-0.04345158999999999827,
0.05128685799999999767,
0.05175700999999999913,
0.00732897900000000022,
-0.19744733999999999896,
-0.02919025899999999965,
-0.03827831500000000026,
0.02431037999999999949,
0.02139680500000000138,
-0.04418942000000000009,
-0.01862022099999999930,
-0.03571431299999999753,
-0.12819823999999999109,
-0.01628441400000000053,
-0.08792717999999999368,
-0.03704603399999999852,
-0.02750232000000000024,
-0.06449032000000000375,
0.05108424000000000298,
-0.07355849400000000204,
0.07430003999999999775,
0.04925611200000000467,
-0.00864888599999999973,
-0.03400700499999999987,
-0.02187293400000000013,
-0.04436874999999999847,
0.02457399899999999915,
0.00664790999999999993,
0.09285783999999999705,
-0.01437480399999999971,
-0.07609247400000000716,
-0.03645468500000000056,
-0.07823845000000000105,
0.02828910799999999684,
-0.05429224700000000181,
0.06670270999999999839,
0.00187188209999999988,
-0.06284526999999999475,
-0.03445490000000000358,
-0.02820170500000000052,
-0.12303920000000000134,
0.06902121999999999424,
0.15473622000000000765,
0.08245302999999999660,
0.04359179999999999999,
0.02299841299999999880,
0.03560490499999999919,
0.04205464599999999414,
-0.16917498000000000258,
0.05189988799999999819,
0.11144748999999999628,
0.06346924599999999306,
-0.00266868799999999979,
0.06842530500000000571,
-0.01107737600000000162,
0.01333834100000000009,
-0.13615187000000000817,
0.04043434200000000506,
0.00013055962000000000,
0.02258085299999999795,
-0.06143846000000000029,
0.06414474000000000564,
0.03723010999999999682,
-0.04732642000000000099,
-0.09777363000000000026,
-0.05703519700000000275,
0.05444482999999999961,
0.09161772599999999656,
-0.05393235999999999863,
0.01603904399999999883,
0.08968589000000000422,
-0.01049451199999999924,
-0.05004735999999999907,
-0.00430143000000000018,
0.04626123599999999725,
0.03438905600000000118,
-0.25768732999999999222,
0.09562518000000000407,
-0.11413980000000001347,
-0.06707509600000000072,
0.09140916000000000319,
0.01878975899999999963,
-0.03134175799999999734,
-0.11425575599999999998,
-0.04111491500000000188,
0.07843645000000000478,
-0.05506181000000000270,
0.00398986739999999951,
0.04843099799999999594,
-0.04719820200000000160,
-0.02592972899999999858,
-0.06347795000000000520,
0.01580051999999999846,
0.02054125999999999869,
0.03239229700000000045,
-0.02205640299999999873,
0.05837845800000000113,
0.08384510000000000574,
0.11139890599999999199,
0.10922184599999999743,
-0.01152611699999999892,
-0.01424714550000000073,
-0.02679914400000000044,
0.00617642839999999957,
-0.03911742199999999892,
0.05173644400000000643,
0.12557876000000001149,
-0.01528141399999999837,
-0.02556048899999999874,
-0.07977325999999999862,
0.00375019179999999978,
-0.03527593600000000079,
-0.09298250000000000959,
0.01967042899999999969,
0.14248857000000000883,
0.07215689000000000131,
-0.00759751680000000061,
0.08527136000000000438,
0.10760885000000000589,
-0.04554405000000000259,
0.00364404749999999982,
0.15832161999999999624,
-0.00831355800000000041,
-0.07088955500000000687,
-0.12533136999999999750,
0.04131119700000000089,
0.07454508499999999704,
-0.03886643000000000042,
0.04416770999999999892,
0.05528599000000000013,
0.07972519999999999607,
-0.06940987999999999325,
-0.03300256000000000023,
0.03093069200000000268,
0.08007239999999998803,
0.01966274499999999884,
-0.00833836850000000025,
-0.03816358400000000040,
0.06374151000000000122,
-0.03586906599999999806,
-0.02375246200000000196,
-0.01912031900000000020,
0.08603342599999999618,
0.03398079400000000166,
-0.10655818000000000234,
-0.10616547599999999474,
0.03310498200000000502,
0.05141519400000000434,
-0.09708870000000000000,
0.08791828999999999616,
-0.06036633999999999750,
0.04178008999999999890,
0.02832035200000000350,
-0.06403185399999999916,
-0.19459588999999999359,
-0.14837125000000001007,
-0.04778795300000000107,
0.05026946599999999876,
-0.07809704500000000382,
0.02341225200000000145,
0.00317697859999999978,
0.08516092599999999790,
-0.10184395000000000253,
-0.00945352900000000045,
0.03427603500000000331,
0.08192298600000000319,
0.00642070900000000014,
0.03834421999999999831,
-0.05443672000000000094,
0.07139178999999999664,
-0.15013291000000000830,
0.06774816000000000171,
0.00489480599999999981,
0.00658975729999999957,
-0.03699471000000000009,
-0.05872269299999999942,
-0.08654288999999999732,
0.09981552000000000480,
-0.15910645000000001037,
0.01960684999999999858,
-0.05628009500000000220,
0.07197549000000000308,
0.00367543599999999981,
-0.02646835499999999897,
-0.06085609299999999999,
0.03593620299999999990,
-0.11493399999999999450,
0.11023995000000000322,
-0.04768420799999999876,
0.10305016000000000176,
-0.03461953999999999726,
0.00743881660000000021,
-0.01922758000000000106,
-0.10759614000000000678,
-0.06749911599999999789,
-0.01430652299999999981,
0.03490174199999999949,
-0.01484744250000000036,
-0.05906821400000000083,
-0.05694884799999999636,
0.00619318569999999929,
0.03404697999999999752,
-0.04855443999999999732,
0.02485762399999999830,
-0.08279367999999999450,
-0.01898020899999999789,
-0.00956581699999999903,
-0.01191377550000000118,
0.03912647000000000347,
0.00121871200000000005,
-0.08528608000000000022,
0.00552674300000000063,
0.05817632999999999832,
-0.02428619700000000242,
0.05544845999999999803,
0.04025346800000000058,
0.07409992999999999441,
0.03700307399999999691,
0.04020398000000000027,
0.02163682899999999978,
-0.04855493999999999782,
0.03122933399999999748,
-0.08264175999999999467,
0.01325142999999999981,
0.05932903700000000113,
-0.04900983299999999571,
-0.16330620000000001246,
-0.06708604999999999430,
-0.01524942999999999958,
0.13700362999999998737,
-0.11258184000000000247,
-0.02618112600000000248,
-0.12348061000000000453,
0.09354851999999999612,
-0.18543479999999998298,
-0.08824078999999999950,
0.00749991229999999974,
0.12202699000000000185,
-0.02596301200000000059,
0.06720405999999999602,
-0.16560170000000001833,
-0.04100013000000000268,
-0.01356958600000000154,
0.00810892300000000052,
0.05325485400000000424,
0.07732445000000000290,
0.04589369999999999561,
-0.02340654500000000082,
-0.04899097000000000174,
0.07879875999999999547,
0.07920491999999999810,
0.16080575999999999204,
0.00008628551600000000,
0.05443938000000000249,
0.05455034000000000272,
0.02598769200000000321,
-0.02013136299999999934,
0.04494010699999999997,
-0.00950403399999999975,
0.08765512999999999777,
-0.01394334899999999898,
0.00666521400000000003,
-0.00943388900000000086,
-0.00585974430000000060,
0.05945990999999999777,
0.05401598999999999984,
-0.03760323299999999980,
-0.05331741999999999732,
0.00315078439999999993,
-0.02396682600000000010,
0.11784087999999999508,
-0.01921187499999999979,
-0.02429587000000000066,
-0.00439629299999999990,
-0.07761107999999999896,
-0.04994014000000000092,
0.06155501000000000028,
-0.02381637700000000316,
0.07949045000000000416,
-0.04899527499999999786,
0.05080333700000000396,
-0.01719748000000000110,
0.04045829499999999829,
-0.08679636999999999769,
0.03693753999999999788,
0.00282415650000000015,
0.01851397399999999901,
-0.00746761079999999980,
0.00692849930000000083,
0.09519426500000000013,
-0.00703809740000000024,
-0.09561562499999999576,
0.15199667000000000039,
0.06151654000000000150,
-0.01987331999999999987,
0.06185397499999999854,
-0.00760658739999999986,
-0.01354029600000000028,
-0.03936255999999999783,
-0.12815013999999999572,
0.02663930499999999854,
-0.01386220500000000071,
-0.06707130999999999510,
-0.01019161499999999936,
-0.02034313199999999988,
0.06665426000000000684,
0.08366155599999999803,
-0.14760325999999998614,
0.05263970400000000244,
0.09754369999999999707,
0.05558522800000000041,
-0.05715159999999999685,
-0.08105010499999999729,
0.01607120399999999866,
0.11706333599999999007,
-0.14239101000000001229,
0.00328862639999999993,
0.06938423000000000507,
-0.02383713600000000182,
0.00252509679999999995,
0.10183575000000000266,
0.06570399600000000062,
0.12529539000000000648,
-0.19909910999999999581,
0.02578703700000000223,
-0.10512575000000000391,
0.00197600149999999997,
0.03984379799999999971,
0.08954447999999999575,
-0.14747753999999999031,
0.02729073400000000052,
-0.07889330399999999743,
0.01509690749999999942,
-0.12821395999999998794,
0.06239672999999999747,
-0.03914024299999999817,
-0.05909486500000000336,
0.01296539600000000056,
-0.00884224400000000084,
-0.21922660000000002145,
0.07759858000000000033,
-0.04828894999999999715,
-0.00983791049999999979,
-0.06002009299999999659,
-0.03171468999999999677,
0.01062538300000000040,
-0.01645963300000000129,
-0.04166200800000000037,
0.03901628799999999619,
-0.00842665800000000006,
-0.02182751000000000136,
0.05287787000000000043,
0.01574426699999999929,
0.13004573999999999301,
0.01241790300000000097,
-0.08619090000000000085,
0.01576809800000000122,
-0.08529404599999999836,
0.00378228119999999982,
0.00919243699999999948,
0.11956137999999999488,
0.04327954400000000312,
0.01123135399999999895,
-0.03671878600000000326,
0.13407031999999999283,
0.05695386200000000093,
-0.06212349200000000238,
0.05391250599999999893,
-0.11926174999999999971,
0.01696590000000000251,
0.08113165999999999434,
-0.05433614999999999973,
0.06572007000000000543,
0.07975668499999999383,
0.06820160999999999585,
-0.02937998600000000030,
-0.04615242400000000439,
0.15137739999999999529,
0.07760937499999999434,
-0.11701675500000000008,
0.06126162799999999853,
0.00815386799999999988,
0.05928094999999999892,
0.07556627000000000483,
-0.00931751200000000002,
0.06120011599999999885,
0.06913223999999999758,
-0.24473843000000000680,
-0.06641950000000000631,
0.05873353799999999486,
0.13465571000000001178,
0.00167222149999999995,
0.12902716000000000185,
-0.10630942000000000169,
0.05536081599999999325,
-0.14071390000000000287,
-0.01133484600000000085,
0.01260889500000000017,
-0.04321558999999999817,
-0.06334012999999999449,
0.02190396399999999799,
-0.06301982999999999890,
0.00133294440000000011,
-0.11133458499999999980,
0.05085616599999999432,
0.07640418399999999999,
-0.07977260000000001294,
-0.00515303099999999976,
0.08446705999999999659,
0.02329004399999999933,
0.01016558700000000023,
-0.12016743000000000563,
-0.00975194849999999960,
0.01234023300000000080,
-0.01821190899999999835,
-0.01377650700000000034,
0.08505516500000000202,
-0.02493827600000000227,
0.02240397799999999801,
-0.04958247999999999822,
0.04347365999999999731,
0.06515034000000000103,
-0.01036550800000000071,
0.00065920815999999990,
0.06215134599999999621,
-0.08990296999999999872,
0.05367436999999999903,
-0.03255888399999999627,
0.04708515499999999659,
-0.07534224500000000213,
0.02330366700000000013,
0.03921477999999999769,
0.06150512000000000340,
-0.00035443724000000000,
0.00138754440000000002,
0.06399649999999999783,
-0.00232338629999999987,
-0.11731276999999999677,
-0.00695657699999999938,
-0.03772180499999999714,
-0.06893921999999999550,
0.04850547799999999771,
0.08395897599999999072,
0.12262365000000000070,
0.08135639000000000065,
-0.02326911700000000235,
0.05029971500000000179,
-0.02640693600000000238,
-0.05112917700000000482,
0.06454293400000001013,
-0.01132231100000000157,
0.11337142399999999842,
-0.07028513399999999911,
0.00802336900000000068,
0.02374871400000000063,
-0.01398754500000000053,
-0.00382453789999999969,
-0.06095673000000000064,
0.05094704799999999478,
0.07704463599999999968,
-0.03514995399999999715,
-0.04239490299999999767,
0.03368931000000000009,
-0.05189956999999999904,
0.08316300999999999555,
0.02132960999999999885,
-0.00321518630000000019,
-0.00490377599999999945,
0.05924217999999999845,
-0.04385270000000000140,
-0.13528044999999999654,
0.05316745500000000235,
0.02022103999999999915,
-0.05354093000000000047,
-0.06388774499999999579,
-0.03251556299999999733,
0.06686040999999999512,
-0.04876798400000000033,
-0.02759810000000000041,
-0.04680793700000000085,
0.11677883000000000013,
-0.08634672000000000180,
-0.01894249199999999828,
-0.06271343999999999530,
0.09869756000000000362,
-0.06034753999999999813,
-0.13148545000000000371,
-0.01389393600000000083,
0.08223715400000000675,
-0.02467725799999999706,
-0.06673653000000000224,
-0.00163117390000000017,
0.14063665000000000194,
-0.05837430999999999870,
-0.08273698399999999953,
-0.05467006599999999633,
-0.02600350400000000020,
-0.03590805500000000122,
-0.05951522700000000388,
-0.07956469999999998821,
0.04484683599999999409,
-0.05576730500000000312,
0.01515113499999999960,
-0.04857567000000000135,
0.07288036999999999987,
-0.00467845900000000026,
0.00521262700000000006,
-0.05873144400000000070,
0.14791520999999999142,
-0.07090878000000000458,
0.02300013200000000299,
-0.05253603700000000071,
-0.07549111499999999753,
0.04605829300000000015,
-0.02861662600000000264,
0.10807933000000000123,
0.07945294999999999441,
-0.15546475000000001265,
0.08206066500000000485,
0.05274823299999999854,
-0.07531738999999999795,
0.00651514060000000020,
-0.04788749299999999626,
0.05465150299999999711,
-0.11421143999999999741,
-0.16912921999999999678,
0.01268618899999999876,
-0.02949828000000000172,
-0.07217342000000000202,
-0.05900991299999999717,
-0.07037242999999999971,
0.00668845740000000022,
-0.04826732699999999876,
-0.06659734000000000487,
-0.10325478999999999907,
0.04035517999999999744,
0.05453531999999999824,
0.03257170999999999678,
0.02390847499999999848,
0.10421869000000000272,
0.06939966000000000190,
-0.07984487999999999308,
0.01045752500000000050,
-0.00127728749999999995,
0.00372891700000000000,
-0.06511369999999999658,
0.02162305799999999709,
0.02739713299999999713,
0.06702658499999999964,
0.01488004300000000078,
0.01415183199999999961,
0.03140484500000000068,
-0.00175001129999999999,
-0.01472892899999999825,
0.02781821399999999736,
0.04501097599999999421,
0.01736562999999999996,
-0.09431963399999999942,
-0.01971912199999999865,
-0.05108251800000000037,
-0.00265095200000000026,
-0.07748412999999999828,
-0.03813222000000000139,
-0.02306509200000000231,
0.08521160999999999319,
-0.02483807999999999849,
-0.01222853800000000060,
0.00658063099999999998,
-0.05905785400000000684,
0.03465616299999999678,
-0.02952724099999999921,
-0.01803569999999999826,
-0.03336686600000000197,
0.01884717500000000073,
0.01666790400000000075,
-0.03101801100000000158,
-0.03374618000000000062,
-0.02365190700000000326,
0.00088313100000000011,
-0.02436645900000000003,
-0.08432826400000000000,
0.00705022459999999924,
0.00824287100000000057,
-0.01538454649999999868,
-0.01255011399999999937,
-0.01966596199999999864,
0.03024407700000000115,
0.04104977499999999668,
-0.01196167799999999989,
-0.08863300999999999819,
-0.03783327699999999849,
-0.00718281459999999938,
-0.02813730799999999976,
-0.08413107000000000224,
0.10111211999999999978,
-0.01573203899999999975,
-0.03365353499999999831,
-0.10317228999999999983,
0.00250632299999999997,
-0.05985123299999999674,
-0.06029464999999999825,
-0.09941632999999999720,
0.05843348000000000292,
-0.00663339500000000026,
-0.04092080000000000023,
-0.05883291400000000698,
0.00703633800000000049,
-0.00261400299999999973,
-0.04460819799999999474,
-0.04418862599999999474,
0.08285761599999999505,
0.06345583500000000210,
0.02340861200000000225,
-0.07197815000000000463,
-0.01507122999999999970,
-0.02034690399999999899,
-0.10427470499999999531,
0.05203129700000000413,
0.10032091999999999399,
0.11371665000000000245,
0.02980917899999999815,
-0.04854138000000000203,
0.08042844999999999855,
-0.00844279599999999894,
-0.10189773000000000580,
0.12034082999999999586,
0.07011285000000000434,
0.07980410999999999755,
0.11184057000000000026,
-0.03146224999999999716,
0.15786744999999999250,
0.01848595999999999920,
-0.12546182999999999641,
0.03883965000000000334,
0.09403872000000000619,
0.05916686000000000167,
-0.00419588300000000008,
0.05360365699999999900,
0.13106935000000000113,
0.01503979999999999900,
-0.06586111999999999522,
-0.01689439600000000249,
0.01932388999999999982,
0.07443355000000000110,
-0.05254690700000000381,
0.04699742800000000081,
0.05162253199999999875,
0.01705935199999999985,
-0.02222932099999999980,
0.00511096319999999969,
-0.04825598999999999861,
0.03867641000000000134,
-0.25240509999999999335,
0.17432479999999997422,
-0.09442960499999999979,
-0.01912464999999999998,
-0.04626817999999999903,
-0.04480102999999999863,
-0.04243070599999999859,
-0.13039848000000001105,
-0.09756853000000000053,
0.12454581000000000679,
-0.07034171399999999963,
0.01787795000000000009,
0.03550770000000000315,
-0.00187220380000000007,
0.01069900100000000139,
-0.06477309000000000538,
0.04167185400000000123,
0.14823440000000001615,
0.09734234999999999416,
0.03048624000000000125,
-0.05637703000000000159,
0.01641720899999999858,
0.09635303000000000617,
0.18005525000000000002,
-0.02060694600000000098,
0.04500459999999999877,
-0.00534892099999999954,
-0.00310436820000000021,
-0.14624144000000000032,
0.05479425999999999741,
0.08974068000000000322,
0.10958334000000000130,
0.01998297300000000110,
0.04658372999999999681,
0.02633777399999999783,
-0.04092201599999999856,
-0.21346654000000001017,
0.02444807799999999809,
0.07470003000000000060,
0.10680912400000000528,
0.02983954999999999941,
0.14981353000000000031,
-0.04367543400000000603,
-0.06204636000000000179,
-0.14781500000000000195,
0.14086898000000000475,
-0.02087240899999999802,
0.02249566299999999908,
-0.08704401000000000499,
0.01045952900000000040,
0.01464712800000000058,
-0.01610698600000000022,
-0.17969004999999999006,
0.05920032400000000555,
0.03045538600000000096,
0.01559391399999999865,
-0.08520812499999999567,
0.01828220499999999929,
0.12806894999999998697,
0.02876367000000000160,
-0.17739868000000000303,
0.05235857499999999748,
-0.06267633999999999705,
-0.02433670700000000256,
-0.08628895999999999789,
0.03045741000000000073,
0.06536502400000000768,
0.03703591600000000206,
-0.08066645999999999539,
-0.04185434999999999850,
-0.00024968875000000001,
0.07618705000000000616,
-0.14395416999999999241,
0.04227369699999999897,
-0.18621970000000001577,
-0.06538947999999999983,
0.16899129999999998319,
-0.13193311999999998707,
-0.10732426500000000202,
-0.09773568000000000533,
-0.10295044000000000417,
0.13043339999999997714,
0.05204964400000000602,
0.04119264000000000259,
0.08775114000000000525,
-0.03495713699999999924,
0.00753715399999999990,
0.06690568500000000640,
0.04021213600000000249,
0.03813876199999999966,
0.11441228500000000246,
-0.01483444300000000098,
0.07471872000000000236,
-0.00831268899999999984,
-0.02621720000000000300,
0.17365401999999999227,
0.09295372999999999830,
-0.00962470099999999940,
-0.01459389600000000030,
-0.05419447000000000153,
0.08839045500000000666,
0.13839693000000000134,
-0.04832017000000000256,
0.01815629399999999991,
0.02598478499999999983,
0.04433560400000000068,
0.01018783300000000031,
0.00863613599999999912,
-0.03199830700000000361,
0.17433138000000000800,
0.01984255799999999972,
-0.05755149200000000270,
-0.00338847450000000000,
-0.03591969200000000306,
-0.00521715870000000019,
-0.01120366499999999980,
0.00343042679999999971,
-0.03574104000000000170,
-0.05903552499999999842,
-0.01329422649999999900,
-0.04072488999999999970,
-0.03847082000000000279,
0.01488756600000000138,
-0.07096813999999999900,
0.08246027999999999691,
-0.01852412699999999787,
-0.07842030400000001011,
-0.04957748199999999911,
-0.04290406799999999660,
0.03404838000000000309,
0.03117419000000000093,
0.00919621299999999996,
0.01316691399999999831,
-0.02034423999999999955,
-0.08422783999999999827,
-0.04333454999999999946,
-0.01472716399999999919,
0.04793262499999999954,
0.02369325400000000040,
0.04065566000000000318,
-0.03802639600000000397,
-0.01678275899999999779,
0.04436262700000000170,
-0.04219535400000000436,
0.00022810938999999998,
0.11751235000000000153,
-0.02125048299999999710,
-0.06718872500000000469,
-0.01153334299999999972,
-0.06421209999999999418,
-0.20815012999999998877,
-0.16435305999999999527,
-0.05302612000000000297,
0.16649367000000001027,
-0.05926399000000000250,
-0.00124442240000000016,
-0.06847548000000000523,
0.08482536999999999716,
-0.26280009999999998094,
-0.08328275400000000050,
-0.07878561000000000591,
0.02578808600000000173,
0.10722876000000000629,
0.03143466600000000000,
-0.17075892000000000848,
0.02803866600000000028,
-0.24064714000000000937,
0.10745937999999999324,
-0.05129230799999999479,
0.04899848999999999871,
0.16909209999999999519,
0.03311814700000000056,
-0.01096246600000000057,
0.06400823599999999614,
-0.19395544000000000673,
0.27090933999999999848,
-0.09122726999999999919,
-0.03763412700000000333,
-0.00690708030000000001,
0.07981925500000000562,
-0.01251396399999999895,
0.02375121799999999755,
-0.11228090999999999766,
0.06528499000000000108,
0.03513275500000000162,
-0.02125885500000000011,
-0.06387877499999999875,
0.03952516600000000047,
0.05193206999999999685,
0.04111673299999999559,
-0.11390474999999999905,
0.02522446200000000305,
0.11199823000000000417,
0.02835803299999999777,
-0.00661958239999999986,
-0.03928103299999999992,
0.09283568999999999849,
-0.01688784700000000097,
-0.03566542600000000007,
0.08800775599999999255,
0.04911489400000000616,
-0.04539071799999999657,
0.07160648999999999487,
-0.04415009500000000031,
0.03257583499999999743,
-0.02256403499999999965,
-0.04389371400000000034,
-0.02664306200000000208,
0.05779778199999999894,
-0.01654586599999999935,
-0.00056320540000000003,
-0.01615675999999999918,
0.00359210049999999972,
0.07608814499999999592,
0.05139220000000000593,
-0.05539490299999999534,
0.07841828500000000424,
0.12447813000000000627,
-0.06196953700000000509,
-0.03712323700000000337,
-0.06861322000000000254,
-0.00180460450000000019,
-0.23347846999999999351,
-0.25445864000000001370,
-0.00212850819999999994,
0.07950206999999999413,
-0.09868712999999999791,
0.00348505680000000010,
-0.12026009000000000004,
-0.05898396000000000194,
0.02534686400000000020,
-0.15906813999999999676,
0.07773122999999999838,
0.02168326500000000018,
0.01025889400000000104,
-0.00451159939999999995,
-0.05441148200000000407,
-0.03968894500000000325,
0.18302867999999999915,
0.05612622999999999918,
-0.02168283200000000258,
-0.07964406000000000263,
0.06914531000000000149,
-0.05671035499999999702,
0.10233850999999999365,
0.11283031999999999784,
0.16401224000000000358,
0.12075119999999998910,
-0.02680142799999999867,
-0.16969792999999999683,
0.05909303599999999462,
0.04968876800000000121,
0.12747120000000000672,
-0.05218460800000000038,
0.07486212000000000422,
0.01849997000000000100,
-0.11096635000000000526,
-0.07742564400000000180,
-0.05313989499999999949,
-0.05779248000000000024,
0.01547382999999999918,
0.04034113000000000282,
-0.04785516499999999812,
-0.04792548700000000272,
0.06162419999999999703,
0.04374930999999999959,
0.07131453999999999571,
-0.01487563699999999885,
0.05980128400000000316,
0.06403298999999999797,
0.07579553999999999458,
-0.03521351500000000079,
0.12052356499999999917,
-0.03212044000000000010,
0.09911617000000000344,
0.02248088799999999748,
0.06745814999999999451,
0.08359950000000000714,
0.00798299400000000020,
-0.04113700600000000374,
0.06163518500000000205,
-0.00826683400000000068,
0.02904093799999999878,
-0.05107449700000000342,
0.07966795599999999811,
0.11479195000000000371,
0.05888246999999999926,
-0.04221640499999999852,
0.08343647999999999343,
-0.01211728999999999931,
-0.02184932100000000141,
0.02868992299999999912,
-0.02619434700000000324,
-0.01351164899999999884,
0.14581960000000002142,
-0.24690323999999999605,
0.01700513399999999814,
0.10877549000000000246,
-0.09352172000000000263,
0.05125741999999999798,
0.04858695299999999523,
0.10290775400000000406,
0.12285070000000000712,
-0.26724779999999997981,
0.09114306400000000974,
-0.00504972700000000038,
-0.09449401999999999802,
0.03617743999999999821,
0.13502923999999999483,
0.03951554000000000177,
0.09672203000000000050,
-0.27288394999999998625,
-0.01343669649999999945,
-0.10065643000000000506,
0.02266984799999999939,
-0.01677951399999999885,
0.17370424000000000975,
-0.06606936500000000489,
0.10271908999999999901,
-0.26365634999999998378,
0.01840926000000000021,
-0.12084410000000000984,
0.01414272399999999888,
-0.07722808000000000450,
0.00795404899999999949,
-0.17472069000000001182,
0.03308378499999999750,
-0.06906489000000000378,
0.06422108399999999773,
0.00454322159999999940,
-0.04543027700000000502,
-0.01735694999999999946,
0.10423019000000000034,
-0.04001537000000000149,
0.02122018100000000115,
-0.11553679999999999506,
0.10182344000000000117,
0.08460125000000000284,
-0.08109075000000000311,
0.04909821599999999314,
0.09836343000000000170,
-0.04829096400000000566,
-0.03972367200000000154,
-0.00842934400000000007,
0.05134220999999999924,
0.06854153999999999802,
0.02157636200000000171,
-0.01053234399999999904,
0.10172903499999999544,
-0.01957114000000000076,
0.03624918700000000216,
0.01941055200000000105,
-0.01024695949999999967,
-0.00190354140000000005,
-0.08854251000000000482,
-0.03535684600000000427,
0.07903453000000000561,
0.00744795900000000052,
0.03303865000000000274,
-0.00702727170000000054,
0.06242668299999999670,
0.01795350399999999860,
-0.02827193000000000067,
-0.05375413599999999403,
-0.09970099000000000322,
0.08840815999999999952,
0.14462170000000001968,
0.07450319999999999165,
0.05804512599999999550,
0.04874187700000000290,
0.08680960999999999539,
-0.03479590600000000145,
-0.04187135000000000162,
0.00610418600000000016,
0.06860471499999999667,
-0.04765628999999999699,
-0.15183677000000000978,
0.06283066400000000828,
0.09914998999999999341,
-0.05877515999999999990,
-0.01103147899999999855,
-0.03720880000000000021,
0.12781222000000000416,
-0.13400493999999998906,
-0.05005816400000000221,
0.09285166000000000253,
-0.07811308999999999614,
-0.04790022000000000030,
0.08122849000000000041,
-0.02335099700000000181,
0.08503269400000000589,
-0.09978971999999999842,
0.05548663799999999785,
0.13194394000000000955,
-0.17410910000000001663,
0.00299169049999999971,
0.05393693599999999783,
0.01947478600000000087,
0.02553084100000000203,
-0.00851560199999999885,
0.00334188760000000019,
0.08368101000000000012,
-0.07524280999999999331,
-0.05344231400000000465,
-0.02144276499999999905,
-0.09584571399999999852,
0.06616577999999999349,
-0.07774342599999999048,
0.10983042400000000982,
0.03235480999999999774,
-0.10122045000000000348,
-0.00643735430000000070,
0.07805543400000000687,
-0.10296064000000000604,
0.00694521199999999922,
0.00541138500000000033,
0.13126028000000000695,
0.02596336399999999919,
-0.10319909500000000457,
-0.02871364200000000103,
0.02072547199999999826,
-0.09272057999999999689,
0.07122480999999999951,
-0.06155298000000000019,
-0.02042290199999999972,
-0.06003371599999999392,
0.03758835799999999533,
0.05099121499999999946,
0.03350763999999999826,
0.00038955928000000001,
0.07512040400000000173,
0.00964912700000000040,
0.21031974000000000502,
-0.14160332000000000474,
-0.02216941099999999998,
-0.00863908000000000037,
-0.07277730999999999784,
0.13954743999999999482,
0.00160542780000000004,
0.09589676599999999440,
0.00352390180000000013,
-0.07922695999999999905,
0.05704606999999999734,
-0.03588844000000000062,
-0.17627040999999998849,
0.05019715999999999761,
-0.01811838300000000179,
0.07678479000000000554,
-0.15040966999999999532,
-0.19728265999999999858,
-0.07472558999999999452,
0.00534438500000000011,
-0.04756942400000000598,
-0.04482100499999999710,
-0.08664869499999999780,
0.01688488800000000067,
-0.10329246999999999734,
-0.08487946000000000379,
-0.23275187999999999433,
-0.05662274999999999947,
0.02997301499999999869,
-0.10624567000000000039,
-0.00394077799999999982,
-0.01745802000000000118,
0.09306741999999999793,
0.00609080599999999982,
-0.09737872000000000194,
-0.00377303250000000012,
0.12898572999999999289,
-0.07860175499999999538,
-0.04211196999999999857,
-0.13178993999999999431,
0.04647151799999999638,
-0.07529656599999999533,
-0.12803445999999998883,
-0.01566817600000000241,
0.08885427599999999593,
-0.00432579700000000015,
-0.00528042160000000062,
-0.05504239999999999827,
0.14695333999999998786,
0.02093726400000000057,
-0.08931595999999999980,
-0.04997828599999999677,
0.01348552899999999957,
-0.08038489999999999525,
0.03190798300000000087,
-0.01948314899999999822,
0.16434418000000000637,
-0.03744001300000000115,
-0.07487360999999999323,
0.05681484599999999524,
-0.05214476200000000422,
0.02034469499999999945,
-0.02467530600000000102,
-0.04801817200000000480,
0.02139693499999999887,
0.02914936299999999758,
0.01872986600000000126,
0.00713791560000000096,
-0.04505925599999999892,
0.00605016569999999951,
0.02211343099999999937,
-0.01730987399999999940,
0.12963088000000000388,
-0.14916371000000000491,
0.13968585000000000029,
0.00600462030000000011,
-0.04738136400000000220,
0.14659268000000000298,
0.03902233000000000090,
-0.01707281700000000055,
0.15494172000000000500,
-0.08643804500000000501,
0.14870579999999999909,
0.03669681400000000121,
-0.12968002000000000695,
0.13680278000000001271,
0.00507828969999999952,
-0.06981407000000000584,
0.08829763000000000195,
-0.13771905000000000951,
-0.04155324999999999991,
-0.04458199000000000189,
0.00244825149999999998,
0.13431612000000001106,
0.07418637999999999622,
0.02202956999999999832,
-0.06859334599999999948,
-0.27694869999999999211,
-0.13715974999999999695,
0.04180955000000000088,
-0.06488858999999999599,
-0.01759904600000000013,
0.02245136700000000332,
-0.00942891599999999899,
-0.12761664000000000341,
-0.09878818999999999795,
-0.04577223200000000297,
0.08354383999999999422,
-0.03916195399999999882,
-0.11785401400000000693,
-0.11379652499999999560,
-0.06418387000000000397,
-0.14755420000000002423,
-0.18425168000000000101,
0.00660863569999999966,
-0.06626812999999999454,
-0.07087284000000000639,
-0.08573439999999998840,
-0.14166372999999998772,
-0.01476199699999999893,
0.01580664700000000006,
-0.11352060999999999402,
0.01691882899999999981,
0.03874121999999999982,
0.01232838899999999863,
-0.03049160200000000306,
-0.06595039999999999236,
-0.14159975999999999119,
0.07341248000000000218,
0.02883274100000000201,
-0.04946259799999999651,
-0.06105489700000000380,
-0.09248219400000000368,
0.02110060100000000008,
0.02676800000000000013,
-0.06622045499999999751,
0.05827639599999999420,
-0.00132424129999999998,
-0.03463168999999999970,
0.00031001115000000001,
-0.11150446499999999705,
0.01175818500000000086,
0.06893916399999999722,
-0.10006513400000000003,
-0.01439496300000000020,
-0.04889054000000000316,
0.01440430600000000040,
-0.02082017400000000032,
0.00177617450000000011,
-0.05350667599999999607,
0.08940741000000000660,
0.01922739999999999866,
-0.01441696750000000075,
-0.00950633300000000049,
-0.06993786000000000447,
0.07264241000000000448,
0.01381978399999999989,
-0.01973172600000000151,
-0.05792952999999999991,
-0.05721623499999999723,
0.03836192199999999969,
0.05367400499999999686,
0.02850473700000000221,
0.08619409000000000098,
-0.04730165700000000389,
0.06100086999999999871,
0.02054200100000000070,
-0.02981852200000000355,
0.03469045999999999935,
0.11233710000000000917,
0.03509503200000000517,
0.13545384999999998676,
0.02453343600000000221,
-0.06158169700000000468,
-0.03403553700000000459,
-0.11452972000000000152,
0.05423286599999999763,
-0.08461054400000000975,
-0.06022957699999999942,
-0.01136332100000000088,
0.05354931000000000274,
-0.04636619599999999841,
0.05620143999999999834,
-0.12489512599999999520,
0.08005244999999999722,
-0.11456562599999998986,
-0.02356234799999999685,
0.05306697999999999971,
-0.02942063799999999896,
-0.02105458600000000013,
0.05713577999999999713,
-0.05160381599999999680,
0.01390625000000000021,
-0.02585674799999999884,
0.07180348999999999760,
0.01517913300000000090,
0.00980271100000000041,
0.04880748700000000356,
0.01570648499999999920,
-0.07033939000000000163,
-0.01179428600000000105,
0.02312304000000000095,
0.05192308999999999813,
-0.08090643000000000140,
-0.05444533400000000495,
0.01343628600000000041,
-0.05455912599999999946,
0.05105980000000000241,
0.04055604700000000479,
0.02643678899999999873,
0.04516777000000000292,
0.01824310800000000093,
0.03412777599999999856,
-0.00967492099999999952,
-0.04188566299999999659,
0.04782760999999999957,
0.12070946400000000243,
-0.01057235299999999961,
0.04496542400000000383,
0.07061889000000000360,
-0.02630145700000000031,
-0.09994743999999999851,
0.09981927000000000161,
-0.04404417000000000054,
0.14490543000000000173,
-0.14553474999999999051,
-0.00001252072800000000,
0.07020382599999999695,
-0.02085063200000000089,
-0.03608288999999999941,
-0.00716248569999999949,
-0.05656333599999999878,
0.08659857999999999445,
-0.08845132999999999468,
-0.00262483879999999984,
0.06483211999999999309,
-0.01623214800000000180,
0.04787827299999999897,
0.04828987299999999705,
-0.10041413999999999895,
-0.10243470000000000353,
0.18736188000000000842,
-0.01877766100000000105,
0.18009800000000000808,
-0.02014931899999999887,
0.02266831999999999875,
0.06087003299999999700,
-0.11368786000000000169,
0.01608792499999999945,
0.07342888399999999982,
-0.04474535999999999791,
0.12227995999999999310,
-0.03077018600000000145,
-0.14703645000000001297,
-0.00280868700000000025,
-0.09005651600000000312,
-0.05305674999999999975,
-0.12052232000000000223,
-0.01048445300000000122,
0.06767811599999999650,
-0.00780813860000000026,
-0.02942033100000000095,
-0.01313995800000000019,
-0.05890339199999999886,
-0.03180315999999999699,
-0.00828347500000000021,
0.04753741599999999901,
0.02915084999999999898,
0.08333466999999999958,
-0.06145731000000000110,
-0.04615226000000000051,
-0.06174874999999999808,
-0.00110328130000000011,
-0.06048893999999999799,
-0.00447103239999999992,
0.00443669640000000053,
0.00845961699999999914,
0.10390309999999999824,
-0.11014732000000000689,
0.09840049599999999008,
-0.07286028599999999633,
-0.02785856600000000127,
0.00852725600000000042,
0.07379278000000000226,
0.04550334799999999902,
-0.03735881299999999766,
-0.08864879999999999982,
0.10992983000000000615,
0.12624103000000000407,
-0.09305953999999999615,
0.06153758599999999829,
-0.06832144400000000894,
-0.05341655400000000498,
-0.05300091200000000419,
0.05771481200000000422,
-0.00386702900000000013,
0.28241741999999997459,
-0.15453927000000000636,
-0.09975451999999999930,
0.05791862999999999873,
0.01019896800000000096,
-0.04292308499999999971,
-0.11215914000000000439,
-0.01292089800000000011,
0.13515176000000000966,
0.00453866549999999962,
0.04127577999999999803,
0.01193068899999999953,
0.02130763000000000101,
-0.03383325799999999800,
-0.03600674499999999972,
0.00084199005999999990,
-0.15793252999999998765,
0.15598871999999999738,
0.03707665999999999740,
0.14657106000000000301,
0.01079988100000000076,
0.03417689000000000143,
-0.05193215999999999805,
-0.12859043000000000556,
0.04430075400000000468,
0.25676543000000001671,
-0.08383414999999999617,
0.10430349400000001048,
0.00227177380000000021,
-0.04017098599999999881,
-0.09600511000000000461,
-0.15986854999999999816,
-0.17890470999999999457,
-0.07603103999999999418,
-0.01021843799999999983,
0.06596417999999999726,
0.03141897500000000176,
-0.09761722000000000454,
-0.20142002000000000517,
-0.08844303000000000581,
0.04050887699999999869,
-0.07848687999999999498,
-0.08520184999999999564,
0.02803564999999999877,
0.07902704000000000673,
-0.15924801999999999014,
-0.13801648999999999168,
0.10865299000000000484,
-0.00329961329999999995,
-0.00484278400000000015,
-0.05574971000000000093,
0.01568543500000000104,
-0.05023016400000000076,
-0.00598931639999999987,
-0.13727485000000000381,
0.04485295300000000096,
-0.06277037400000000378,
-0.02020262600000000131,
-0.05821741400000000205,
0.04202904599999999352,
0.01472669199999999956,
0.01765625600000000212,
-0.06754216600000000070,
0.07264563000000000270,
0.17174280999999999575,
-0.00315033880000000020,
-0.00173077910000000003,
-0.08012035500000000421,
-0.02072993500000000142,
0.08351362499999999411,
-0.02878071200000000343,
-0.07697097999999999440,
0.15380667000000000644,
-0.09571301999999999588,
-0.02399045399999999786,
0.10012701000000000240,
-0.03031823399999999946,
-0.04634908199999999978,
-0.00187554299999999992,
-0.09632867000000000512,
0.05977705999999999992,
0.10394151499999999821,
0.00471328150000000032,
0.09362336000000000269,
0.04081963999999999732,
0.02071564799999999970,
-0.06681233000000000311,
-0.08426355599999998947,
-0.19210095999999998728,
0.09969243400000001032,
0.06621858499999999648,
0.17399666999999999217,
0.04568689299999999925,
0.05783315700000000309,
-0.01344974149999999917,
0.01573955800000000071,
-0.04098817999999999906,
0.03446813299999999802,
-0.11321936000000000500,
-0.00832021099999999923,
-0.04518304799999999649,
0.00081480270000000002,
-0.05343318700000000004,
-0.16335018000000001148,
-0.05973126700000000455,
0.04801963299999999907,
-0.06371274999999999855,
-0.02338302100000000036,
-0.07254571499999999673,
0.01934059700000000104,
-0.12295741599999999993,
-0.02166386000000000006,
0.00686914240000000009,
-0.06306080999999999492,
0.01510176249999999921,
0.04933436599999999755,
-0.00299386729999999998,
0.01837431800000000059,
-0.04313288599999999529,
0.15303104000000000706,
-0.02959039799999999693,
-0.02684008100000000174,
-0.03627486500000000336,
-0.05209182999999999869,
0.05566938999999999915,
-0.04655835400000000318,
-0.17166613000000000011,
0.01960766899999999771,
0.07731762500000000093,
-0.01563424199999999958,
-0.02356600399999999804,
0.06305607000000000573,
0.04887950799999999513,
0.02227848399999999771,
-0.09233188999999999980,
0.12805194000000000298,
0.06551078000000000456,
0.01720530399999999766,
0.02049518000000000173,
-0.06216547599999999729,
0.04205172499999999813,
0.07841188000000000324,
-0.14342051999999999579,
0.02405050400000000033,
-0.05302210999999999730,
-0.11062784500000000243,
0.06784017999999999993,
0.18451892999999999767,
-0.02179787299999999886,
0.10893334999999999824,
0.03672728000000000104,
-0.06092154000000000319,
-0.06776848000000000594,
-0.01084182100000000148,
0.04529201000000000060,
0.16670139999999999958,
-0.03604107700000000469,
0.06817890999999999535,
0.00916482700000000039,
-0.14812462000000001239,
-0.13206973999999999103,
0.08781163999999999636,
0.05329024799999999840,
0.07156896000000000091,
0.11239235999999999671,
-0.10225481999999999627,
-0.07973634500000000014,
-0.07413736999999999411,
-0.03772258399999999651,
-0.02621810899999999986,
-0.13432992999999998629,
-0.07733732999999999580,
-0.04765839499999999923,
-0.01058592700000000018,
-0.02318029899999999796,
-0.10928824500000000608,
0.00979741899999999992,
0.11116326599999999669,
-0.08188164000000000553,
0.05042698599999999309,
0.03018442000000000000,
0.00503762400000000009,
-0.03960286999999999835,
0.02045415000000000080,
0.04310145199999999843,
-0.02479676700000000081,
-0.04326036599999999455,
-0.09394682999999999506,
-0.01342938399999999907,
0.01392040600000000149,
0.03388131399999999571,
0.11001202499999999940,
-0.06423950999999999967,
0.05918931599999999876,
0.00235820839999999980,
0.03617610400000000059,
-0.00646169900000000044,
-0.00379844569999999992,
-0.02351189600000000088,
0.11355940999999999952,
0.12797386999999998958,
0.02045879100000000048,
0.00099809750000000004,
0.05487146999999999858,
0.02424288000000000137,
0.00601078099999999976,
0.07322170999999999541,
0.02300760700000000283,
-0.05136279400000000328,
-0.07796439500000000578,
0.02731984100000000096,
0.14431661000000001183,
-0.00205823799999999999,
0.06724872400000000972,
-0.10806704000000000310,
-0.05377255799999999808,
0.03092489600000000033,
-0.01441745000000000006,
0.13566394000000001063,
0.21270185999999999260,
0.05470067299999999827,
0.01046124399999999975,
0.01444492399999999961,
-0.03368722299999999531,
-0.08301827999999999985,
0.01099923600000000078,
0.08427830999999999517,
0.18788024999999999864,
0.02043939999999999993,
0.04667127499999999818,
0.16472664000000000750,
-0.12906500000000001305,
-0.04900745700000000427,
0.06075180300000000005,
0.11302955400000000430,
-0.09433786599999999245,
0.09272405499999999967,
-0.04949727300000000135,
-0.03759571999999999914,
-0.08888405600000000295,
-0.00615625269999999988,
0.06051649999999999391,
-0.00480955800000000024,
0.06451482000000000050,
-0.06035151299999999552,
-0.00052723220000000005,
-0.04142024700000000031,
-0.04857956199999999974,
-0.05385177000000000019,
-0.00165170349999999998,
0.02395532299999999712,
0.16049853000000000036,
-0.04939737000000000294,
0.05339134499999999978,
-0.06033043200000000328,
0.08090199500000000432,
-0.02764278299999999716,
0.02470454999999999873,
0.05640462000000000253,
-0.09988664999999999350,
0.00782351300000000069,
-0.04488869799999999771,
-0.05723738700000000068,
-0.00482042550000000031,
0.08736075999999999564,
0.05817301999999999890,
0.15395369000000000415,
0.02120803500000000008,
-0.02706238299999999888,
-0.04090586699999999853,
-0.01140153699999999978,
0.10289436600000000099,
-0.00275727659999999968,
0.04822560000000000041,
0.00762309400000000040,
-0.00173555359999999991,
-0.04826148999999999717,
-0.16744756999999999003,
0.14118125000000000813,
0.01401317100000000135,
0.04929004599999999708,
0.01959139000000000019,
0.11883251000000000230,
0.01333595899999999966,
-0.03826850700000000022,
0.01677059600000000220,
0.09021301599999999310,
-0.09859413999999999678,
0.11634914999999999841,
-0.02186857200000000279,
0.15051110000000000877,
0.12844779000000000613,
-0.01476100199999999876,
-0.03840252799999999828,
0.03180492700000000367,
-0.04349802800000000108,
0.01292391399999999989,
-0.01066089399999999889,
0.03576971000000000317,
0.08488880999999999510,
-0.01382604500000000035,
-0.01623647800000000210,
0.02032353199999999832,
-0.00833085599999999933,
-0.07693399500000000502,
-0.02770304100000000116,
-0.07228979000000000654,
0.00736053800000000067,
0.07968329000000000384,
-0.05594058299999999512,
0.12873672999999999367,
-0.14499455999999999456,
-0.00234983419999999993,
0.03640597300000000119,
0.06899179499999999465,
0.10960401000000000171,
-0.06483954000000000106,
0.08796901000000000026,
-0.01605879699999999966,
-0.03969377299999999470,
-0.03629724299999999987,
-0.10022689399999999693,
0.05983388799999999480,
0.10614340999999999360,
-0.09651746599999999621,
0.05645878199999999902,
-0.02522887700000000025,
0.08136625999999999581,
-0.01071235600000000100,
0.00425248700000000011,
0.22806910000000002459,
-0.00267960570000000007,
-0.03618723499999999815,
-0.04910758500000000221,
0.00401224749999999977,
-0.05532825699999999874,
-0.00587061199999999988,
0.02655476500000000101,
0.16828538000000001218,
-0.02092152300000000090,
-0.01039548700000000013,
-0.10559367000000000059,
-0.09129421000000000064,
0.02323236000000000051,
-0.02672204400000000035,
0.01582092200000000115,
0.04118995000000000295,
-0.06598469599999999546,
0.06537269999999999193,
-0.16684260000000000757,
0.13124059999999998505,
-0.01301713899999999875,
0.10060776999999999914,
-0.04474904799999999960,
0.06140294699999999939,
-0.05554276999999999825,
-0.02108173799999999917,
-0.04264819000000000249,
0.12106227999999999434,
-0.03602132999999999724,
0.03767411799999999950,
0.00012424893999999999,
0.01072735600000000039,
0.02447538799999999723,
0.00847789199999999903,
-0.01928309999999999746,
-0.01120778700000000030,
-0.12214708999999999983,
0.08048668500000000225,
0.04776713999999999960,
-0.05605660400000000293,
-0.02259789400000000031,
0.04015835699999999869,
-0.06865197400000000449,
0.09670903000000000138,
0.06310369999999999868,
-0.02350012799999999860,
-0.05951635499999999995,
-0.01185046300000000032,
-0.01736177699999999838,
0.00995805900000000001,
-0.03387318599999999957,
0.11672945999999999322,
0.00941794400000000101,
0.06428040599999999827,
-0.06690147500000000191,
0.03638407200000000341,
0.05949828799999999640,
-0.00978566999999999979,
0.13276592000000000948,
0.02377391200000000121,
-0.10838678499999999938,
-0.05195570700000000375,
-0.12838113000000000996,
0.13599924999999998820,
-0.01850784200000000004,
0.00655800199999999941,
0.20684740000000001459,
0.05232788000000000023,
0.03365966700000000422,
0.13446881999999998891,
-0.04641239999999999949,
0.16706845000000000723,
-0.00054667089999999995,
-0.05762670999999999766,
-0.01837218399999999974,
-0.02966765999999999848,
-0.07223493999999999748,
-0.03756185000000000079,
0.04158602000000000132,
0.11161232999999999571,
0.09960296000000000427,
-0.02607536499999999965,
-0.09155340500000000437,
-0.12534550999999999332,
0.00539509160000000050,
-0.04362604400000000271,
0.12982872000000000856,
-0.01028426199999999888,
-0.05956419999999999076,
0.02680143000000000109,
-0.06539013000000000464,
0.10597110499999999600,
0.02500126299999999926,
-0.02903742299999999971,
-0.03414808600000000111,
-0.01288723850000000025,
0.00543139800000000048,
0.03836791600000000191,
0.03386458999999999997,
0.02549575299999999947,
-0.01690173899999999896,
-0.04311723599999999629,
0.03248391299999999621,
-0.05486391999999999658,
-0.00943853700000000032,
0.01688419700000000009,
0.01093771399999999942,
0.01460407700000000003,
-0.00734676999999999986,
0.06115841000000000333,
-0.02372726200000000243,
-0.11988925999999999750,
-0.05158961199999999997,
0.00867734700000000019,
0.09682440999999999964,
-0.03010129599999999961,
0.00959776700000000010,
-0.05386015799999999826,
-0.06668129999999999891,
-0.00622238170000000059,
-0.00575258800000000032,
-0.00264918900000000014,
-0.03548180700000000409,
-0.07024997500000000616,
-0.09157637000000000416,
0.08281120999999999621,
-0.10318056000000000449,
0.05995083599999999346,
0.07271265000000000367,
0.01584607700000000008,
-0.09246801000000000326,
0.01194058100000000046,
-0.13543278000000000261,
-0.04384393200000000212,
0.05546546400000000598,
0.17422304999999999042,
0.01129701399999999932,
-0.01988447999999999952,
0.15154703999999999398,
-0.10058214499999999780,
-0.03448596599999999984,
0.09781629000000000018,
-0.18518840000000000301,
-0.05539923499999999806,
-0.12982945000000001290,
0.04639180400000000176,
0.10801773000000000624,
-0.09679554399999999725,
0.06202190999999999954,
-0.11637596000000000052,
0.03837032600000000321,
0.07537544999999999662,
0.01273706649999999975,
0.04721921700000000083,
0.00141440339999999998,
0.02197660499999999975,
-0.05033193500000000126,
-0.00953701499999999938,
0.06477346000000000492,
0.04011564299999999944,
0.00001453792600000000,
-0.00471752229999999970,
0.05818315599999999282,
0.01148820899999999923,
-0.04395868299999999840,
-0.02608672200000000316,
0.13682711000000000179,
-0.03995659000000000016,
0.00330020490000000003,
0.04621204999999999757,
-0.05617068000000000061,
0.02777195000000000011,
-0.05281239700000000398,
0.05707965999999999734,
0.14438576999999999662,
-0.08828313000000000133,
0.08071043999999999441,
0.08028435000000000432,
-0.03076290200000000169,
0.03695046500000000178,
-0.09608042999999999445,
0.11062094599999999778,
0.12901808000000000720,
-0.13433919999999999195,
-0.04505044200000000304,
0.05505113299999999515,
-0.01574509799999999904,
0.01087813999999999968,
0.01356414899999999930,
0.04395463000000000148,
-0.11115743999999999625,
-0.09982802000000000342,
0.05537976000000000010,
0.06179361400000000365,
-0.06665287999999999768,
-0.03349536300000000022,
-0.05151238299999999493,
-0.02128245100000000084,
-0.23666773999999998757,
-0.09965021999999999769,
-0.04647445000000000048,
0.03576699600000000229,
-0.10812539000000000178,
0.15020586999999999134,
0.08011693000000000286,
0.06727216400000000929,
-0.16881260000000000709,
-0.07246478000000000641,
-0.06175875000000000115,
-0.02996156999999999987,
-0.05195300700000000244,
0.00777067240000000031,
0.07933777999999999664,
0.02811204000000000133,
-0.02810989499999999933,
-0.00056855109999999996,
-0.06171656400000000153,
0.02818002000000000007,
-0.02657158100000000037,
-0.03788240299999999505,
-0.02884955499999999895,
-0.00286907900000000007,
-0.04755645599999999695,
-0.01275701450000000028,
-0.06160371400000000386,
-0.05878976400000000130,
0.03866199799999999603,
0.03433128399999999664,
-0.05736845400000000622,
0.06638547999999999671,
0.02704097299999999940,
0.02809040399999999937,
-0.01794754700000000119,
0.01344304300000000001,
-0.02694066799999999748,
-0.05992648999999999893,
0.00197689559999999999,
0.00565924959999999921,
0.10723789000000000238,
-0.09020622000000000362,
-0.00328957900000000037,
-0.04446732299999999610,
-0.09921605999999999481,
0.00158700519999999991,
-0.05338411400000000334,
0.00740372949999999926,
0.05502693400000000651,
-0.02891549499999999939,
-0.05350684700000000321,
0.04342694200000000310,
-0.11488790999999999587,
-0.07458686999999999956,
-0.03595445299999999733,
-0.06156949700000000081,
-0.02649038500000000171,
-0.00482230499999999982,
-0.09839758999999999312,
-0.05811943499999999707,
-0.01203029999999999898,
0.01064283100000000017,
-0.01256500699999999957,
-0.10839253000000000082,
-0.12846559999999998536,
-0.07392260999999999971,
-0.09433263000000000065,
-0.05020554700000000314,
-0.00167557150000000000,
-0.09561019400000000945,
-0.02534804899999999750,
0.02208346500000000004,
-0.11954594400000000121,
-0.06272039599999999770,
-0.10086387400000000614,
-0.00570388199999999953,
0.04188955600000000140,
0.02151247299999999724,
-0.06166197000000000344,
0.07880057000000000034,
-0.00706337000000000024,
-0.01805009499999999864,
-0.01881295399999999979,
-0.05258656700000000073,
-0.02167550999999999853,
-0.10366214999999999458,
0.04447649000000000047,
0.01820745000000000002,
-0.02350181499999999882,
0.02191124499999999933,
0.01105315399999999906,
-0.04907795400000000696,
0.03947612600000000027,
-0.04881518700000000294,
0.06372150999999999510,
-0.02885640999999999901,
-0.07454891499999999338,
-0.09912582500000000074,
-0.05244941999999999660,
0.01535058800000000008,
0.03937531600000000048,
-0.09591927000000000092,
0.05011492199999999925,
-0.03091913500000000037,
0.00780304569999999958,
0.02423186600000000121,
-0.04919082300000000157,
0.01316535800000000027,
0.03757213999999999693,
-0.08088372000000000617,
-0.01905503899999999931,
-0.00658693000000000039,
0.09713560000000001637,
-0.11488059999999999938,
-0.03484073000000000031,
-0.06362684999999999869,
-0.15128257999999999983,
0.03634695999999999760,
0.07251380400000000115,
-0.04140564399999999839,
-0.05722945599999999799,
-0.03802678699999999939,
-0.04356681599999999432,
-0.06535452599999999612,
-0.11290798000000000501,
0.07340678600000000165,
0.02349031200000000277,
-0.07797579999999999789,
0.03922286299999999670,
0.01279307800000000113,
-0.06378119999999999623,
-0.07856776999999999511,
-0.00916975000000000082,
0.01087543000000000017,
-0.08563993999999999773,
-0.06179795400000000216,
0.06283937000000000550,
-0.02767470700000000325,
-0.11321486999999999523,
0.00220931200000000017,
-0.01142361199999999966,
0.05447325000000000084,
-0.12583428999999998754,
0.02708951200000000309,
-0.06380360599999999882,
0.00682129499999999979,
0.03883953400000000195,
-0.02527650799999999962,
-0.01416494199999999981,
0.01073245500000000012,
-0.09926282000000000161,
-0.01140124199999999893,
-0.09800013999999999947,
-0.08921012000000000386,
0.05004016299999999862,
0.02687463200000000246,
-0.06174721999999999850,
-0.09181184000000000567,
-0.00232777880000000024,
-0.01791323499999999957,
-0.13366750999999998939,
-0.09583413000000000348,
0.04675001700000000482,
0.03574448000000000208,
0.03990203999999999973,
0.03247103500000000226,
0.13530306999999999751,
0.02580116999999999827,
-0.06057866700000000271,
-0.03726611999999999980,
-0.02830403700000000064,
0.01303701199999999887,
0.07419618999999999520,
-0.10864461000000000257,
0.01749698300000000067,
-0.00649444199999999958,
-0.00013137528999999999,
-0.04737366400000000283,
-0.03067077099999999945,
-0.05464192999999999828,
0.04493041999999999869,
-0.05656130000000000879,
0.02107080299999999906,
0.08695069999999999188,
0.04773308999999999885,
-0.02552669899999999992,
-0.05157233400000000439,
-0.02437257599999999996,
-0.02217001000000000041,
-0.02554027500000000117,
0.03131846700000000261,
0.02003241899999999923,
0.07893203000000000025,
-0.03412113700000000277,
-0.01738072200000000123,
-0.00862922399999999958,
0.03407843399999999773,
-0.00862163500000000076,
-0.08433097600000000194,
-0.17790129999999998445,
-0.00964258400000000092,
0.02594304799999999980,
-0.05088439200000000051,
-0.03183207700000000029,
-0.08080057999999999685,
-0.05275509500000000185,
-0.07479397000000000129,
-0.07705968600000000224,
-0.04865892599999999818,
-0.06336372999999999311,
0.02323443299999999878,
0.05406904599999999561,
-0.06239581000000000294,
-0.00441590139999999999,
-0.02428628700000000015,
0.06085147299999999621,
-0.12136863000000000512,
-0.06330165000000000097,
-0.06441352999999999662,
-0.00326002039999999989,
0.01397963999999999977,
-0.09350503000000000287,
-0.13425836999999998800,
-0.08280500999999999834,
-0.17892437999999999398,
0.01684758600000000120,
0.00544256400000000043,
-0.05038749000000000006,
-0.02722448299999999724,
0.00202339470000000021,
0.09324443000000000314,
-0.02876359399999999997,
-0.02727624200000000262,
-0.11098138000000000447,
0.00764839199999999952,
0.00978200100000000024,
-0.13599378000000000855,
-0.08690481999999999374,
0.08772747000000000184,
0.01469591299999999968,
-0.03584694000000000075,
-0.15130950000000001343,
0.05933262799999999837,
-0.05692057999999999840,
-0.05393230499999999983,
-0.08058149000000000561,
0.09664288000000000045,
0.05194413999999999976,
-0.01024216499999999926,
-0.05746752799999999689,
0.01701038300000000045,
-0.05563451299999999655,
0.03316266999999999826,
0.03495659999999999740,
-0.09263126000000000693,
0.13329073999999999089,
-0.09094803999999999389,
-0.02721107200000000281,
0.04032454299999999742,
-0.00950365699999999869,
0.06581491000000000424,
0.03277444000000000190,
-0.04070665999999999868,
0.06562059400000000431,
0.02193945500000000007,
0.07703747599999999363,
0.02439990499999999951,
0.00541100329999999984,
0.03227814299999999526,
-0.08945458000000000576,
-0.01332292700000000003,
0.00762178380000000030,
0.00090169615999999991,
0.05973540599999999784,
0.11149931999999999899,
0.06741083000000000491,
-0.06533645000000000425,
0.00326794759999999998,
-0.02246677099999999996,
-0.04111182700000000356,
0.08343654999999999822,
-0.03907256600000000302,
-0.23004137999999998976,
0.01295286600000000038,
0.08561889000000000305,
-0.00627142300000000080,
0.00647374300000000055,
0.01614677299999999968,
-0.07019991000000000425,
-0.12192377000000000076,
0.00252311159999999996,
-0.03738348999999999839,
-0.02905251600000000045,
0.13428730999999999307,
-0.03017118200000000125,
-0.02629387399999999833,
0.07579323999999999784,
-0.00908290900000000012,
0.09820910500000000487,
-0.05517360200000000214,
-0.00478451299999999979,
0.07483093999999999857,
0.13075081999999998983,
-0.02826658299999999790,
-0.01956070000000000031,
-0.01664063000000000001,
-0.00181313780000000009,
0.04392967999999999873,
0.01790256600000000170,
0.00005101749800000000,
0.14610470000000000401,
0.07194155000000000688,
0.04611517999999999867,
-0.09605953000000000408,
0.00756680199999999921,
-0.03612454200000000254,
-0.03063419299999999706,
-0.01594664200000000046,
0.04856281700000000118,
0.04832902000000000031,
0.01177635699999999945,
-0.08944529999999999148,
-0.01835909499999999889,
-0.05822321999999999914,
-0.01873336000000000098,
0.09767744999999999900,
0.02582202700000000087,
0.15776097999999999510,
-0.05416945700000000419,
0.04933607000000000270,
0.13416837000000000901,
0.08253908000000000078,
0.02114750399999999753,
-0.10212543599999999999,
-0.01791522800000000179,
0.10775181999999999816,
0.02763329600000000164,
0.13365424000000000748,
0.12390394000000000407,
-0.03547437500000000243,
-0.02871715299999999874,
0.02231595000000000106,
-0.10112353400000000103,
0.07419476999999999323,
0.01438613600000000076,
0.01544512299999999984,
-0.14363264000000000586,
0.03664019300000000146,
-0.02304637000000000005,
-0.03850794200000000334,
-0.10193575000000000552,
-0.02623037599999999969,
-0.06583775000000000044,
-0.07091976999999999309,
-0.23880482999999999572,
-0.03127941000000000055,
0.01063247500000000061,
0.02659092500000000137,
-0.06898561999999999750,
-0.02282070400000000068,
-0.03704805700000000229,
-0.05071814400000000667,
0.05393020999999999926,
-0.06030569200000000102,
-0.06227442599999999384,
0.09463376599999999417,
0.18000360000000001359,
-0.06416974999999999763,
-0.05089404000000000150,
0.07361120999999999637,
-0.00356180340000000024,
0.03828617000000000131,
0.03925276999999999933,
0.02185529799999999870,
0.07773628999999999956,
0.02872062100000000173,
-0.07426175000000000137,
0.08199695499999999637,
-0.10317144500000000051,
0.04668827999999999867,
-0.11924724000000000435,
0.11070994000000000668,
0.06918536999999999604,
0.03512039000000000133,
0.06366847000000000478,
-0.00140808280000000001,
0.06525019999999999432,
-0.00045800601999999998,
-0.08073078999999999672,
0.08711861999999999384,
0.03886436299999999899,
0.01829316100000000223,
0.00973560900000000097,
0.04151655399999999718,
-0.03192902999999999714,
-0.02625446999999999850,
-0.05709839200000000475,
0.13874639999999999196,
0.02768890000000000240,
0.00598119939999999968,
-0.01850500299999999904,
-0.01803781299999999976,
0.02581937799999999700,
0.03263309999999999822,
0.08217032000000000502,
0.00943603900000000023,
-0.09465648000000000117,
0.05378913500000000181,
-0.03311738700000000507,
0.09365481000000000500,
0.00778266899999999987,
-0.00717174079999999964,
-0.04054108000000000017,
-0.00391559540000000015,
-0.01672814599999999929,
-0.03588136299999999945,
0.01922892799999999930,
0.15445239999999998970,
-0.22898089999999998723,
-0.01667777399999999938,
0.05956717000000000262,
0.04634897999999999796,
0.00997436500000000066,
-0.02701470299999999755,
0.11315298000000000023,
0.02329017200000000135,
-0.10909200500000000578,
-0.03472522599999999793,
0.07492115000000000580,
0.00550084499999999987,
-0.03056368799999999858,
-0.01471295000000000068,
0.05215022700000000039,
0.10464384000000000186,
0.05722878499999999730,
-0.09365747000000000655,
0.00741241399999999998,
-0.03401390499999999706,
0.03888227400000000139,
0.04413587199999999960,
-0.02922860899999999915,
0.05334805299999999945,
-0.03554458499999999660,
0.02581551700000000310,
-0.04881577000000000138,
-0.00182145870000000000,
0.08029210600000000198,
0.03125383999999999801,
0.03692237300000000139,
0.07958677399999999902,
0.02498335200000000034,
0.03668010000000000020,
-0.16422148000000000301,
0.01731488999999999945,
-0.04319147999999999737,
0.02917016100000000001,
0.05579801000000000205,
0.05293859999999999538,
0.09080360000000001208,
-0.05694561000000000067,
-0.12391507000000000216,
0.04545499400000000551,
-0.00310657239999999986,
0.01828067400000000023,
0.01741891500000000009,
-0.01229745699999999949,
0.08737427999999999861,
0.00298571400000000042,
-0.09622469000000000161,
0.05755188299999999813,
-0.01699581699999999987,
-0.08177882000000000207,
0.00195467150000000001,
0.05985218700000000114,
0.03302146000000000248,
0.01660649499999999890,
-0.03242837299999999645,
-0.06549241000000000090,
-0.12056762999999999508,
-0.05993961999999999901,
0.01911123699999999967,
0.15449171000000000431,
-0.14764505999999999464,
-0.03632347699999999985,
0.02619250000000000050,
-0.02259235999999999883,
-0.05011137000000000230,
-0.09675324000000000424,
0.05373235400000000300,
0.10869038000000000310,
-0.16858938000000001090,
0.00896677400000000027,
-0.03354045399999999733,
0.05568654499999999702,
0.00154338450000000003,
-0.06448901999999999413,
-0.04710802799999999624,
0.01409695700000000024,
-0.08582330000000000514,
0.00640889900000000002,
0.01092631649999999989,
-0.05957964799999999894,
-0.02487395899999999757,
-0.06734505000000000352,
-0.13641079999999999872,
0.00448236240000000029,
-0.00710531139999999971,
-0.01027838000000000016,
0.00582201449999999922,
0.01538224899999999888,
-0.02539927999999999977,
-0.00916000550000000031,
-0.02074990000000000168,
0.06125714000000000159,
0.11882985999999999549,
-0.01829280700000000121,
-0.00195894269999999978,
0.04310158000000000045,
-0.03120833599999999972,
-0.00796007800000000064,
0.05185878599999999700,
0.11403330999999999884,
0.10912655999999999745,
-0.02029691800000000060,
-0.06406483999999999790,
-0.10083337000000000550,
-0.10380860399999999877,
0.00346236400000000033,
0.12139667599999999503,
-0.01430148899999999883,
0.02062434299999999984,
0.01717420000000000058,
-0.14950274999999998982,
-0.01565122000000000041,
-0.02245641700000000282,
-0.00977572600000000021,
0.06026051000000000324,
0.03055957499999999855,
0.06447023999999999810,
0.01504467800000000056,
-0.07322794000000000525,
-0.00860806599999999929,
-0.07401378000000000124,
0.01568879700000000085,
0.04355540000000000106,
0.04423327999999999982,
0.01959945800000000016,
-0.05827963700000000219,
-0.00561188800000000064,
-0.03345455199999999851,
-0.01993527299999999988,
-0.01304151600000000126,
0.01596926199999999796,
-0.02077714699999999928,
-0.14319833000000001255,
-0.05648344000000000281,
-0.03501476700000000220,
0.10051103000000000121,
0.05439999999999999697,
-0.02661507399999999898,
-0.05754643699999999890,
0.00419446270000000017,
-0.15726148000000000904,
0.00796250100000000030,
-0.10215212399999999693,
0.06992803999999999687,
0.10249022400000000477,
-0.03420107000000000008,
-0.02190881200000000320,
-0.01427069199999999975,
-0.03752694700000000494,
-0.02828045200000000106,
0.09193426000000000375,
0.07555149499999999629,
-0.08019157999999999842,
-0.03344761599999999946,
0.06222789700000000424,
-0.05681615699999999908,
0.03874137299999999562,
0.08294954999999999690,
0.11928113999999999384,
0.12635292000000000745,
-0.09301362000000000518,
0.12484220000000000039,
0.03366377599999999942,
0.02927055200000000176,
0.11838414499999999618,
-0.05345684299999999695,
0.11106702000000000241,
0.05396415000000000239,
0.02551141999999999993,
-0.08383765999999999441,
-0.09999996999999999359,
-0.02166413700000000345,
0.05777401499999999801,
0.00375828380000000012,
0.09547319999999999418,
0.08120898999999999479,
0.03132054599999999772,
-0.09894094600000000184,
0.06919799000000000089,
0.00036391165000000002,
-0.01026992800000000108,
0.03253481500000000165,
0.08748574600000000312,
0.00471933600000000019,
0.05891886999999999819,
0.01224013600000000042,
0.03344191999999999998,
0.00181301810000000004,
-0.01645337200000000083,
0.04019965200000000238,
-0.02746271900000000002,
-0.07033227000000000229,
-0.00151084010000000009,
0.02880344200000000202,
0.02542549600000000229,
-0.16231820999999999056,
-0.00397372939999999977,
0.08216157000000000321,
-0.04060528000000000054,
-0.09249846000000000457,
-0.07662130999999999803,
0.11791210000000000580,
0.04803058500000000064,
-0.10834817599999999049,
0.07142582999999999571,
-0.02473043999999999937,
-0.12822585000000000233,
-0.03995542200000000432,
-0.07541884000000000088,
-0.03852030000000000037,
-0.05049125000000000141,
-0.08094278000000000584,
0.04757201299999999633,
0.01573429999999999968,
-0.08141536000000000606,
-0.00772126439999999952,
-0.05929817999999999895,
0.04185363300000000120,
-0.17361429999999997142,
-0.12163123500000000421,
-0.10033332000000000361,
0.01776609399999999964,
-0.06639365999999999324,
-0.08587544400000000910,
-0.04608820400000000067,
0.05605553499999999661,
-0.14832729000000000052,
-0.04419632999999999895,
-0.18394189999999999152,
-0.00621015699999999914,
-0.04201781400000000055,
-0.04451092000000000243,
0.00667126099999999951,
-0.01946842899999999890,
-0.02024845399999999906,
0.02386664200000000041,
-0.01761762799999999976,
-0.04212727000000000138,
0.02645922499999999941,
-0.01362640100000000153,
0.06451060000000000128,
0.03933471399999999979,
-0.07534969999999999168,
0.06871030499999999930,
-0.04442254999999999815,
0.03716008999999999979,
0.02985153200000000354,
-0.01065401499999999932,
0.05693432299999999502,
-0.00594994430000000008,
-0.06105023999999999867,
-0.05335583499999999729,
0.04132960700000000431,
-0.06647907999999999595,
-0.02526008000000000073,
-0.04901034799999999525,
0.07908771000000000551,
0.05410563599999999862,
0.03828624600000000294,
-0.01216561000000000031,
0.04876640000000000141,
-0.04532920599999999689,
-0.03568907000000000329,
0.02836210100000000067,
0.00022048023999999997,
0.11043545999999999918,
-0.03451091399999999670,
-0.08553272500000000389,
0.03320833000000000118,
-0.03687263299999999494,
-0.21285002999999999562,
0.00156752109999999992,
-0.05537538000000000182,
0.01986637899999999998,
0.00876127399999999945,
-0.13822300000000001252,
0.00990575999999999957,
-0.04247945499999999930,
-0.12404112500000000208,
-0.01610207399999999747,
-0.04477260599999999952,
-0.17869832999999998857,
0.11219980999999999705,
-0.08311316000000000537,
-0.13068298000000000414,
-0.05802589999999999831,
-0.03733535500000000062,
-0.04919628799999999774,
-0.04460191700000000481,
-0.03555777000000000243,
0.03323259600000000313,
-0.09487400000000000000,
-0.13451668999999999432,
0.06539617500000000083,
0.02363212399999999741,
-0.11256252999999999398,
-0.17546535999999998690,
0.09022297999999999429,
-0.17323637000000000064,
-0.05929774799999999735,
-0.02015125599999999934,
-0.02885177700000000206,
-0.05442497500000000044,
-0.11727144000000000457,
-0.10786545000000000161,
0.08139897999999999578,
-0.20915538000000000185,
-0.03882594400000000112,
0.01535958500000000025,
-0.04849868000000000234,
0.04436261200000000265,
-0.13985673000000001243,
0.03583743799999999924,
0.00163930559999999996,
-0.16648614000000000468,
-0.03766196599999999811,
-0.07761258000000000046,
0.04409079599999999460,
0.08894531399999999755,
-0.06147587999999999664,
0.04756315800000000121,
-0.04898401000000000144,
-0.07046138999999999875,
-0.07790138000000000618,
0.01493760199999999948,
-0.06803341000000000249,
0.04698698599999999448,
-0.10989754999999999663,
0.01726222200000000068,
-0.01727804499999999882,
-0.01310144799999999991,
-0.06049949999999999772,
-0.05556414999999999965,
-0.02841240999999999906,
0.07143049999999999400,
-0.02490648299999999662,
-0.04476383299999999593,
0.08096085499999999824,
-0.00170513959999999982,
-0.14467224000000000750,
-0.02944404000000000118,
0.01846881200000000112,
-0.14403494000000000019,
0.12005468499999999432,
0.12392682599999998994,
-0.03971282999999999758,
0.13538116000000000039,
-0.01720527600000000198,
-0.06253155000000000519,
-0.02646239100000000177,
-0.06287932000000000243,
-0.05108092999999999662,
-0.07830433500000000269,
-0.15750799999999998136,
0.09529516999999999849,
-0.05219903000000000043,
-0.15277040000000000064,
-0.00470973999999999959,
0.03671239999999999920,
0.02605035899999999863,
-0.00208268619999999989,
-0.07011410000000001252,
0.11084104000000000179,
-0.05290195699999999945,
-0.12219985999999999349,
-0.04801725599999999428,
0.02318094999999999878,
-0.06113616400000000672,
-0.14627713000000000521,
0.01999829200000000085,
-0.05552013000000000087,
-0.02566734999999999850,
0.06390266999999999475,
-0.02914648700000000217,
-0.03809257200000000509,
-0.10457866000000000384,
0.01168562699999999878,
0.07891425500000000259,
-0.09938555999999999779,
-0.02900149900000000003,
-0.04502904799999999513,
0.02620120899999999961,
-0.12660921999999999454,
-0.12171115000000000406,
0.14551394000000000828,
0.02427450999999999914,
-0.13400529999999999387,
-0.08041827999999999477,
0.03225842500000000029,
0.06878593599999999197,
-0.04291422000000000292,
-0.08238307400000000058,
0.06460795599999999417,
0.05405574700000000121,
-0.09670534999999999548,
-0.08256971000000000449,
-0.00662231859999999964,
-0.05027377999999999708,
0.04934024799999999628,
-0.07146584000000000270,
0.02861303499999999847,
0.02329320000000000002,
0.01320704350000000138,
-0.14497045999999999544,
0.00658770839999999955,
-0.01997495999999999994,
0.08560380000000000766,
-0.08911230400000000329,
-0.07629895999999999900,
0.17886344000000001242,
-0.01317262500000000031,
-0.06865037999999999696,
0.02132788299999999887,
-0.04555250699999999903,
0.06154141599999999462,
0.02748345399999999744,
0.01770746499999999862,
0.13417476000000000402,
0.03126441700000000268,
-0.04708393300000000142,
-0.02534273600000000112,
0.00644385599999999954,
0.01727690399999999918,
-0.06130409999999999332,
-0.00192959929999999983,
-0.06024833400000000061,
-0.04372551000000000215,
0.02134374200000000235,
0.00656196569999999927,
0.01955807399999999821,
0.01163234399999999932,
-0.02329225999999999866,
-0.03644017499999999826,
-0.02271081499999999878,
0.01788440499999999905,
-0.10431701999999999642,
-0.00922412499999999969,
-0.04044744000000000117,
-0.00521165919999999963,
0.03034326200000000279,
-0.08802263400000000237,
-0.07358293999999999946,
0.01772244599999999934,
-0.10050923999999999969,
0.04458357799999999871,
-0.06119278400000000701,
0.00643617750000000013,
-0.02639472899999999872,
0.00261193510000000016,
0.04384157799999999910,
-0.08681425500000000683,
-0.01309489699999999944,
0.01717437600000000161,
-0.03981512799999999824,
-0.08074346999999999774,
0.09038372999999999546,
0.14293291999999999109,
0.00744708199999999983,
-0.02354838100000000017,
0.00060792115999999999,
0.03115267700000000015,
0.03427459999999999535,
-0.11150941000000000325,
0.04696501000000000148,
0.14991038000000000974,
0.07556680600000000025,
-0.03563399200000000322,
-0.06530359400000000647,
0.03092865499999999934,
0.00111787780000000003,
0.03215252999999999861,
0.08547227000000000297,
0.00890109199999999934,
-0.04394660000000000233,
0.03374098999999999848,
-0.18868746999999999603,
-0.06231653700000000518,
0.05912657500000000066,
-0.04073209700000000183,
0.06041128200000000364,
-0.01121027299999999977,
0.18120955999999999175,
-0.10984182000000000667,
0.06458482000000000112,
0.13359475000000001210,
0.07888631000000000115,
0.02936396700000000123,
0.03384946299999999630,
0.02709766499999999995,
0.12102422000000000180,
0.05252395199999999875,
0.15145791999999999589,
0.07506269000000000136,
0.08897926999999999920,
0.05348489000000000021,
-0.03685653600000000224,
-0.08537300000000000444,
0.07826729000000000325,
-0.00832423499999999927,
-0.09046392000000000322,
-0.11046681999999999335,
0.03422163000000000288,
0.00726764600000000000,
0.03271494399999999581,
-0.10045624000000000220,
-0.00834821099999999948,
-0.00812438099999999996,
-0.16244105999999999823,
-0.12434725500000000376,
-0.00913441400000000042,
0.09338180999999999565,
0.10166770999999999447,
-0.00705021529999999997,
-0.02755338700000000210,
-0.03546802000000000288,
-0.08503879599999999983,
-0.01974862299999999987,
0.01439563800000000053,
-0.07140729599999999511,
0.10105410000000000781,
0.08373861000000000498,
0.03201915699999999948,
-0.00028819875999999998,
0.07336992999999999987,
0.03402768999999999933,
0.00876259699999999871,
0.02330693799999999927,
0.09333550000000000180,
0.13378330999999998863,
0.07170211999999999419,
0.01950286700000000012,
0.07866420999999999830,
-0.04611170700000000178,
-0.06689864400000000710,
-0.02062167800000000092,
0.15301945999999999604,
0.13388236000000000581,
0.05062505200000000372,
-0.02106237200000000281,
0.02898478900000000039,
-0.04475889699999999888,
-0.05564873700000000367,
-0.13048081000000000262,
0.07942314400000000107,
0.01292697699999999922,
0.10028212999999999711,
0.01675365100000000135,
-0.06359681500000000098,
-0.01354215699999999911,
-0.00749338329999999983,
-0.10020097999999999505,
0.10518956999999999613,
-0.08462002999999999886,
0.10070621999999999907,
0.02006492199999999893,
0.03907854000000000189,
0.04837484699999999860,
-0.06078976800000000097,
0.04442527999999999755,
-0.01546349800000000087,
-0.08195703999999999489,
-0.02151986399999999966,
0.04036929499999999948,
0.17184821000000000124,
-0.05968919999999999088,
-0.06924028000000000127,
0.00935289899999999959,
-0.00887876599999999974,
-0.02695954999999999879,
-0.00821185800000000070,
0.04317015400000000225,
0.03252957000000000071,
-0.31779829999999997803,
-0.04326627999999999724,
-0.00094850925999999988,
0.01799651600000000060,
-0.12484030000000000127,
-0.14264836999999999656,
0.11129616999999999982,
-0.06350420400000000853,
-0.15994330000000001046,
-0.07010723000000000649,
-0.00868117900000000067,
0.03341891000000000306,
0.13895716999999999097,
-0.12855287000000001352,
-0.03408442799999999995,
0.05214999199999999918,
0.00518297799999999954,
0.00320097250000000002,
-0.02817001600000000258,
0.03586507600000000268,
0.12462281999999999527,
0.00563511349999999949,
-0.11085933000000000592,
0.01324872949999999876,
-0.01821123600000000217,
0.04928950599999999682,
-0.14001159999999998607,
0.03440403599999999895,
0.05312591400000000325,
0.09302283999999999553,
-0.04452024999999999733,
0.01971134000000000080,
0.06198584000000000038,
0.01521067000000000079,
-0.17169790000000001440,
0.10424407599999999108,
-0.03887428700000000042,
-0.04573866000000000043,
-0.01350966800000000072,
0.01785751000000000005,
0.05890799000000000035,
-0.05733598000000000167,
-0.12254570400000000530,
0.14832063000000000885,
-0.02780316000000000037,
0.03264125400000000149,
0.08529685400000000528,
-0.05384917599999999860,
-0.00567044599999999999,
-0.02541489899999999774,
-0.12424788000000000499,
0.07904737000000000569,
0.03242513000000000339,
-0.05376294999999999685,
-0.00938545399999999967,
0.08910356499999999569,
0.05989613400000000365,
0.00767597400000000034,
-0.01197872600000000030,
-0.08984132000000000229,
-0.00001489206800000000,
-0.09192972000000000643,
-0.05390012999999999749,
0.13138526999999999845,
-0.19583763000000001253,
0.00256102369999999975,
-0.01856703300000000015,
0.09421915599999999835,
-0.03906244999999999856,
-0.06756312999999999902,
-0.00528891150000000004,
0.07365078999999999376,
-0.15826839000000000879,
-0.04403571400000000358,
0.04165534299999999746,
0.05121446799999999910,
-0.09007350999999999552,
-0.12188238999999999324,
-0.05712584400000000201,
0.00806457300000000023,
0.04757850999999999747,
-0.00909724500000000033,
0.08800014999999999921,
-0.00274318150000000009,
-0.05186480300000000099,
-0.05495578799999999847,
-0.10502668499999999463,
0.00197033819999999993,
-0.00759800430000000075,
-0.05747321200000000269,
0.00600016349999999993,
-0.00085810065999999995,
0.01159137000000000015,
0.02426997399999999971,
-0.06440036000000000371,
0.10747623000000000593,
0.09893512000000000139,
-0.00063518934999999999,
-0.14181857999999999964,
0.00869803699999999874,
-0.05940365000000000228,
0.03813860599999999851,
-0.01629272000000000012,
0.04478025000000000061,
0.18417748999999999926,
0.04090465000000000073,
-0.25267390000000000683,
-0.12097102400000001032,
-0.03312505999999999784,
-0.03964828000000000102,
-0.00614966639999999995,
-0.09153960999999999348,
0.09240447999999999718,
-0.01299297100000000073,
-0.22298445000000000071,
0.03751190000000000080,
-0.06179931799999999892,
-0.02028043399999999996,
0.00839676299999999980,
-0.04347261999999999654,
0.08457554999999999934,
0.04010703000000000185,
-0.11438062999999999703,
-0.01246439899999999927,
-0.05687119799999999781,
-0.06628030499999999769,
-0.03908445299999999817,
0.07572356599999999216,
-0.06377423999999999593,
0.02501806600000000200,
0.04295161400000000601,
0.03667359399999999686,
-0.07349449400000000743,
-0.12337178000000000033,
-0.00346022840000000022,
0.02050807899999999850,
-0.18603050000000001529,
0.02787068100000000131,
0.00772472300000000018,
0.08473877999999999966,
-0.06777548999999999380,
-0.08506882999999999806,
-0.03191307200000000066,
0.03238159399999999966,
-0.00911771500000000019,
-0.04428888999999999743,
0.06452308599999999339,
0.16512895999999999130,
0.02498622799999999922,
0.00967992749999999937,
0.03253149999999999792,
0.00762547459999999948,
0.04367465499999999973,
0.03134554600000000191,
0.12951509999999999412,
0.04961084599999999317,
-0.04822080000000000116,
0.05118464999999999820,
0.02983462400000000056,
-0.10356530499999999639,
-0.02642268299999999889,
0.00874724699999999966,
0.21628659999999999553,
-0.02376717999999999886,
0.03438151299999999549,
0.03427533399999999758,
0.06777947400000000622,
0.09342681599999999587,
0.09770653999999999451,
-0.02058756999999999948,
0.09145865000000000244,
-0.02677023799999999829,
-0.03952780399999999972,
-0.02550935999999999829,
0.03475706299999999777,
0.03815306000000000253,
0.09380592000000000097,
0.02944118700000000061,
-0.01947485300000000030,
-0.04200386299999999545,
-0.02377843700000000296,
0.05670853700000000330,
0.05181016000000000093,
0.00746412159999999998,
0.01859157699999999802,
0.06960676000000000363,
-0.06401539600000000219,
0.04475061999999999790,
-0.02832367600000000249,
0.03045194200000000267,
0.03077903400000000025,
-0.04759034499999999918,
-0.01167495100000000112,
0.00748734699999999923,
0.04370294499999999999,
0.03292501999999999929,
0.02370866399999999735,
-0.07154111600000000182,
-0.04559501599999999516,
-0.05977925700000000231,
-0.08357175000000000020,
0.04962549400000000610,
-0.00965857900000000047,
-0.00606580999999999960,
0.06434660000000000379,
-0.05272795999999999733,
-0.04412774400000000347,
-0.09393436500000000577,
-0.19485696999999999046,
0.05213559799999999828,
-0.02028848600000000141,
0.03657950499999999827,
0.12675837000000000909,
-0.01770723800000000014,
-0.10112372999999999501,
0.03988703700000000019,
-0.03656785600000000275,
0.03847567999999999822,
-0.13383610000000001339,
0.02607541999999999846,
0.01804333699999999957,
-0.03377966999999999775,
0.02108058000000000154,
0.02602230999999999989,
0.07758538400000000723,
-0.04684288000000000340,
-0.12511030000000000761,
0.03381864400000000187,
-0.04791268700000000241,
0.02821609799999999849,
0.02247649200000000069,
-0.07598255599999999277,
0.02064394599999999982,
-0.01057761200000000013,
0.10291612999999999456,
-0.01540549199999999980,
-0.02091589399999999738,
0.06264952000000000021,
-0.06308932600000000113,
-0.07941525000000000667,
0.05886767799999999967,
-0.00808386000000000000,
0.20525831999999999411,
0.04056367699999999937,
-0.00157236969999999992,
-0.05214506400000000486,
0.03271763400000000238,
0.04624859599999999599,
-0.03535743999999999693,
-0.01390434999999999935,
0.18258115999999999235,
0.07172430000000000472,
-0.06512104000000000503,
0.07345010999999999901,
0.09539635000000000475,
-0.02947700399999999762,
-0.02664890700000000293,
0.07073814999999999964,
0.13121942000000000328,
-0.07326351999999999864,
-0.03065309000000000089,
0.06826870999999999634,
0.06378717000000000414,
0.04038904000000000105,
-0.08626367999999999536,
0.06662024599999999408,
0.08518952999999999942,
0.01016895899999999998,
-0.02541814200000000121,
0.01525434899999999865,
-0.03089551999999999923,
0.09375569000000000264,
0.01629407000000000078,
0.04455118000000000272,
0.02180313500000000126,
-0.02457265999999999964,
-0.00939525400000000045,
0.03546445399999999942,
0.03290792000000000023,
0.10301924499999999540,
0.03249836700000000023,
-0.03537954399999999888,
-0.05342883200000000249,
0.06626316000000000150,
0.04025358999999999882,
0.02329693000000000042,
-0.00013147161999999999,
0.02621380599999999922,
-0.06473402999999999796,
-0.03414038200000000384,
-0.04112034299999999670,
-0.08951035000000000241,
-0.01622474800000000064,
0.07506691000000000058,
-0.03984727299999999556,
-0.03679518999999999845,
0.00600277699999999994,
0.01089231499999999964,
-0.03161153200000000468,
-0.11755168000000000561,
-0.04782692700000000519,
0.01550992950000000016,
0.03220540999999999682,
-0.10695235399999999948,
-0.10563171999999999839,
0.01842615800000000151,
-0.05998112599999999572,
-0.02655561799999999958,
-0.06504442500000000293,
-0.02824510400000000004,
0.10547024000000000676,
-0.09311197000000000223,
0.05852543000000000328,
0.08197695000000000676,
0.11778634999999999800,
0.05969545999999999880,
-0.00187776060000000001,
0.07369199999999999362,
0.10716881000000000324,
-0.04285680000000000739,
-0.03765671999999999769,
0.01695940500000000031,
-0.02401959700000000017,
0.13657479999999996845,
-0.06488502000000000158,
-0.06594808000000000614,
0.07919253400000000886,
-0.11828916999999999904,
-0.03082384000000000165,
-0.04807203000000000170,
0.04256152700000000177,
0.03301441299999999940,
-0.10805897000000000419,
-0.04208108400000000471,
0.03289489400000000091,
-0.01013687800000000021,
0.02463441299999999737,
-0.06997330999999999690,
-0.01376371600000000049,
0.01580199600000000218,
0.03333993299999999521,
0.05243615400000000565,
-0.03059019899999999847,
0.03550704999999999834,
0.04686652000000000179,
-0.04077658399999999767,
-0.03655107999999999968,
-0.05836033000000000193,
-0.01049940399999999864,
0.10898713000000000151,
0.07194459999999999744,
0.09299984599999999713,
0.00610431839999999934,
0.01178279500000000042,
-0.17465117999999998921,
0.10539462400000000619,
0.02864789600000000255,
-0.00516920770000000012,
0.09493191500000000560,
-0.01048915899999999964,
-0.10970497999999999361,
-0.05153413500000000175,
-0.01398179499999999999,
0.00827519099999999945,
-0.07103086999999999596,
0.02214359000000000119,
0.06578897000000000217,
-0.12184654000000000318,
-0.03597313500000000330,
0.01444566000000000079,
-0.05878979700000000475,
-0.07152669999999999861,
-0.14831863000000000685,
-0.02203495799999999685,
0.12350801000000000140,
-0.10015775000000000372,
-0.03096952799999999964,
-0.02054897099999999921,
0.01871284999999999962,
-0.06736210000000000808,
-0.01309225149999999893,
-0.06520977599999999708,
-0.04039869999999999572,
-0.12654154000000000790,
-0.01655626300000000162,
0.02948739400000000010,
0.12125610000000001942,
0.02040447100000000041,
-0.04883446000000000314,
0.14566705999999998711,
-0.00598020699999999954,
-0.19739107999999999654,
0.00831254199999999915,
-0.04689509999999999512,
-0.05742404999999999732,
0.16679546000000000650,
-0.06361622000000000110,
0.05412549500000000263,
0.04002773800000000021,
0.00556706300000000057,
0.03425286999999999776,
0.05963753000000000110,
0.02083870800000000093,
0.04751289300000000049,
-0.14459009999999999918,
-0.02303883799999999898,
0.00961271600000000032,
-0.08442375000000000573,
-0.05734100999999999781,
0.01570225000000000093,
-0.06582475000000000132,
-0.03684419799999999467,
-0.01517830199999999942,
0.03229300300000000068,
-0.11009172999999999876,
0.01456902300000000039,
0.02399097000000000035,
0.01404562800000000097,
-0.02486286899999999925,
-0.01317305199999999933,
0.06220390599999999631,
0.05880401299999999526,
-0.06934890999999999972,
-0.11860776000000000652,
-0.07541251000000000204,
-0.04829703999999999942,
-0.08710872999999999533,
0.07219694599999999796,
0.04371734299999999879,
0.05910855500000000012,
-0.08144701000000000024,
0.02792191899999999991,
0.08046079000000000425,
-0.02123966600000000080,
-0.12836789000000001226,
-0.12224258500000000083,
-0.17096727999999999925,
0.02096571399999999988,
0.10735593999999999693,
-0.31538249999999995454,
0.01182193699999999938,
0.03357810499999999698,
-0.01611930300000000149,
0.02151928700000000153,
0.03353795400000000176,
-0.03792485000000000300,
-0.00490973500000000014,
-0.12773482999999999365,
0.02985207399999999928,
0.00893969399999999977,
-0.02490447600000000178,
-0.13143255000000000909,
0.00914812400000000053,
-0.08341885999999999746,
-0.03973467299999999813,
0.03961714999999999681,
-0.07857844999999999414,
-0.00394266799999999987,
