/*static float Kernels[278]=
{0.08767949999999999355,
-0.15643291000000000834,
0.09559763000000000288,
0.12221736499999999448,
-0.39795311999999999353,
-0.15763146000000000102,
0.13440599000000000296,
-0.11545576999999999923,
0.08113425000000000498,
-0.36724899999999999212,
-0.18043444999999999623,
-0.47707694999999999963,
-0.49172812999999998551,
0.62888056000000003287,
0.82240056999999999743,
0.18888815999999999939,
0.30534315000000000762,
0.06235302999999999679,
-0.14726077000000001305,
-0.15603920000000001678,
0.46156487000000001597,
1.38990680000000010885,
1.26249520000000003961,
-0.02896594400000000041,
0.40743402000000000784,
0.22346926000000000290,
0.34127649999999998265,
0.09278301999999999383,
0.71017074999999996177,
1.34336689999999991940,
0.89330689999999990381,
-0.06221440999999999777,
-0.00055462134000000009,
0.05691459000000000101,
0.32991387999999999270,
-0.16104446000000000039,
0.11240345000000000197,
0.58744030000000002634,
0.29449480000000000102,
-0.10516148000000000162,
-0.18331397999999998749,
-0.26082169999999998966,
-0.19951727999999999130,
-0.54295769999999987654,
-0.58134189999999996701,
-0.06276194999999999691,
0.07393091999999999719,
0.23974455999999999545,
-0.07779216999999999382,
-0.26894857999999999265,
-0.17538272999999998669,
-0.35479850000000001664,
-0.45012816999999999412,
-0.08033416399999999957,
0.12800173000000000800,
0.37784538000000000846,
0.11887018000000000584,
0.04628033200000000041,
0.17281141999999999337,
0.29052444999999998965,
-0.10805272999999999961,
-0.07479531999999999847,
-0.01964723699999999795,
0.10730944600000000277,
0.20429196999999998940,
0.07942072999999999494,
0.08471889000000000502,
0.22046446999999999572,
0.25923496000000001427,
0.07480639000000000038,
0.07819787999999999739,
-0.06406328000000000022,
0.06077494499999999689,
-0.00959199399999999952,
-0.01876254399999999906,
-0.00282526039999999971,
-0.05565923500000000135,
-0.17248969000000000107,
-0.03383813399999999888,
-0.00159116719999999995,
0.11749049000000000298,
0.00267169299999999972,
-0.18118149000000000060,
-0.34268963000000002284,
-0.52185862999999999001,
-0.30827150000000003160,
-0.10121977000000000058,
-0.00613180999999999969,
0.06950664500000000579,
0.01639374199999999934,
-0.14680022000000000904,
-0.29129767000000000854,
-0.45847693000000000474,
-0.46157091999999999565,
-0.07981884000000000201,
0.10762288000000000410,
0.19330585999999999602,
0.09833480999999999472,
-0.08936417000000000666,
-0.38321464999999999002,
-0.37648055000000002490,
0.09933943000000000634,
0.29997553999999998497,
0.24449583999999999206,
0.13127409000000000994,
0.08714180400000000326,
-0.10443117000000000372,
0.03084158000000000038,
0.17562217999999998885,
0.36600270000000001414,
0.30917837999999997489,
-0.06751321000000000405,
0.00828702750000000037,
0.15268819000000000141,
0.13232147999999999133,
0.20103529000000000537,
0.39091599999999998571,
0.43044457000000002633,
0.21534323999999999133,
-0.22879399999999999737,
0.00656272050000000079,
-0.02420976200000000272,
0.26065215000000002687,
0.48313249999999996476,
0.48095766000000000906,
0.45148434999999997874,
0.07534607999999999584,
-0.28302726000000000273,
0.18088979999999998949,
0.22288360000000001504,
0.41404902999999998459,
-0.19934410999999999103,
-0.31513103999999997340,
0.23102728999999999626,
0.42484015000000002749,
0.21667602999999999169,
-0.56786764000000000685,
-0.72047603000000004503,
0.57337369999999987513,
0.70973414000000001334,
-0.10205527000000000348,
-0.86321859999999994706,
-0.80108504999999996521,
0.68916345000000001075,
0.61709690000000005927,
0.19278639999999999666,
-0.67209273999999996629,
-0.26122929999999994211,
0.62197930000000001272,
0.73576869999999994221,
0.25525132000000000376,
-0.29715310000000000334,
-0.03857058700000000340,
-0.09837642000000000608,
-0.21743225999999998832,
-0.41716099999999994852,
-0.37705254999999998633,
-0.22014663000000000981,
0.00672307699999999918,
-0.09326682000000000028,
-0.21159812999999999539,
-0.39174570000000003001,
-0.26478313999999997241,
0.24488424000000000302,
-0.01259543600000000152,
-0.20550873999999999531,
-0.30594215000000002380,
-0.12754524000000000417,
0.14697172999999999488,
-0.03115160399999999941,
-0.37662715000000002163,
-0.36172363000000001820,
-0.11407185999999999715,
0.01728227699999999867,
-0.31767665999999999960,
-0.29219722999999997448,
-0.26317807999999998092,
0.08296824999999999339,
-0.25619859999999999856,
-0.14908530999999999866,
-0.10188627000000000100,
-0.07613770999999999733,
0.12948295000000001331,
-0.27014687999999997814,
0.16051214999999999233,
0.58616800000000002235,
0.51104090000000002014,
0.20136850000000000582,
0.15493713000000000624,
0.73683745000000000491,
0.96231705000000000716,
0.33525835999999997750,
0.25225704999999998268,
0.32936636000000002467,
0.49057135000000001712,
0.24118511000000000810,
-0.01720213300000000139,
-0.16142674000000001300,
-0.24645645999999998832,
-0.23267985999999998836,
-0.54180109999999992443,
-0.52436817000000002231,
-0.14440702999999999179,
0.15829550000000000565,
0.16578077999999998871,
-0.19089565000000000006,
-0.34063240000000000185,
-0.04122641700000000131,
0.03277860600000000180,
-0.04599740700000000404,
-0.21128018000000001186,
-0.21513837999999999018,
-0.12014972399999999941,
-0.23949666000000000010,
-0.25955929999999999280,
-0.16950699999999999101,
-0.19795345999999999775,
-0.08060910000000000297,
-0.07409556999999999949,
-0.32421665999999998986,
-0.30056283000000000305,
-0.09998042000000000040,
0.00190644269999999997,
-0.10454449000000000380,
-0.07837845400000000018,
-0.21851048000000000693,
-0.05628207699999999980,
0.05820727299999999688,
0.05042414700000000249,
-0.24563978999999999675,
-0.13483807000000000431,
-0.33491062999999998695,
-0.27037813999999998904,
0.23813964000000001353,
-0.11109128599999999742,
-0.05078626799999999553,
-0.10128908000000000356,
-0.21136347999999999248,
-0.01131467799999999989,
0.22137993999999999728,
0.58983105000000002338,
0.44784816999999998988,
0.19676236999999999200,
0.01762965899999999891,
0.19092322999999999933,
0.70667980000000008012,
0.57622230000000007610,
0.36460206000000000559,
-0.01991648399999999819,
0.08229719000000000617,
0.32133829999999996563,
0.52609640000000001958,
0.22406836999999998894,
-0.11381252000000000035,
0.08779884999999999773,
0.14217878999999999934,
0.02333796600000000165,
-0.15347484999999999600,
-0.01920508800000000210,
-0.01311471999999999985,
-0.12207656999999999536,
-0.21298893999999998772,
0.10219899600000000028,
-0.15484944999999999959,
-0.26474816000000001015,
-0.20644501000000001212,
-0.23302712999999999899,
0.00247441600000000012,
-0.30768003999999998799,
-0.33494203999999999644,
-0.26204166000000000958,
-0.28129260000000000375,
-0.27712779999999997971,
-0.25213351999999999986,
-0.04556633999999999685,
-0.17809862000000001303,
-0.11708443600000000007,
-0.38523699999999999610
};*/

static float Kernels[278]=
		{-0.09825317000000000078,
		-0.03714779399999999787,
		0.03708628200000000513,
		-0.02265083000000000027,
		0.00456906499999999976,
		-0.01673228499999999952,
		0.01197322500000000053,
		-0.17063549999999999551,
		-0.18474844000000001376,
		0.09166794999999999805,
		0.19904227999999998810,
		0.01787040800000000082,
		-0.01123048549999999986,
		0.11778206400000000575,
		-0.04904243400000000280,
		-0.02566904399999999850,
		0.17527564000000001032,
		0.21501577999999998969,
		0.09366249999999999576,
		-0.19593426999999999372,
		-0.33803212999999998623,
		-0.20085685000000000344,
		0.03198351700000000297,
		0.04971575000000000299,
		-0.04201691200000000348,
		-0.29888957999999998805,
		-0.47429280000000001438,
		-0.28204095000000001248,
		-0.05158462700000000095,
		-0.06456745400000001023,
		-0.31016927999999999166,
		-0.27413421999999998402,
		-0.27038459999999997496,
		-0.46265887999999999458,
		-0.09882653499999999314,
		0.88424057000000000350,
		1.15842819999999990799,
		0.73184709999999997265,
		-0.21309111999999999498,
		-0.36293005999999999878,
		-0.04395305700000000371,
		-0.13491501000000000188,
		0.75744820000000001592,
		1.50864660000000005979,
		1.55627870000000001482,
		0.98550820000000005638,
		-0.06871976000000000473,
		-0.26547896999999998080,
		0.19452949999999999409,
		0.05772035200000000255,
		0.17985079999999997735,
		0.77082866000000005435,
		0.81605494000000000643,
		0.41671497000000001787,
		-0.15339948000000000472,
		-0.13589007999999999643,
		0.06049928400000000039,
		-0.23425514000000000059,
		-0.34903935000000002598,
		-0.41714135000000002185,
		-0.22158522999999999414,
		0.04194671700000000142,
		0.20356613000000001179,
		0.41358262000000001191,
		0.03963563600000000187,
		0.01028785500000000026,
		-0.02585656999999999886,
		0.06643005500000000174,
		0.03826653199999999894,
		-0.08433031000000000554,
		-0.08435763000000000289,
		0.01620276600000000039,
		-0.03214519500000000141,
		-0.22270407000000000397,
		-0.24396450000000000080,
		-0.06811211000000000348,
		-0.09046134000000000119,
		-0.22345990000000001685,
		-0.03789563499999999696,
		-0.00842204000000000043,
		0.05628719000000000083,
		-0.05265033200000000108,
		-0.03886577499999999824,
		0.01259718500000000033,
		-0.05544208400000000259,
		-0.15120246000000001074,
		0.00702772699999999924,
		-0.10776510999999999729,
		0.04101615399999999911,
		0.10420230000000001158,
		0.23610210000000000918,
		0.39836307999999998053,
		0.36990190000000000570,
		0.40506002000000002061,
		0.23161218000000000083,
		0.00191077010000000004,
		0.08463974000000000497,
		0.24983654999999999058,
		0.35802834999999999521,
		0.44510293000000000774,
		0.58964890000000003134,
		0.28455954999999999444,
		0.26062948000000002446,
		0.18710651999999999839,
		-0.02673217799999999880,
		-0.10247952000000000450,
		0.06455906999999999618,
		-0.00716788739999999966,
		-0.08042341000000000073,
		0.05726165299999999569,
		-0.10709984999999999644,
		-0.01114646000000000040,
		-0.22889939000000000813,
		-0.34883140000000001368,
		-0.58380269999999989672,
		-0.44928659999999998043,
		-0.31525698000000001997,
		-0.28849299999999999944,
		-0.25221339999999997650,
		-0.13527539999999999010,
		-0.04552533000000000274,
		-0.24167836000000000873,
		-0.36107620000000001381,
		-0.50748813000000003726,
		-0.35587879999999999514,
		-0.29541349999999999554,
		0.04189298999999999801,
		0.09111811000000000216,
		0.23888539999999996999,
		0.18430056999999999690,
		0.34252749999999998476,
		0.70460414999999998464,
		0.63133453999999999962,
		0.05771732300000000093,
		0.28287190000000000945,
		0.64481429999999995140,
		0.87533080000000007548,
		0.59359735000000002358,
		0.03832697999999999661,
		0.23388333999999999513,
		-0.01162602499999999990,
		0.10003774999999999473,
		-0.03768607200000000101,
		-0.44793620000000000658,
		-0.50961626000000004311,
		-0.98381202999999994852,
		-0.74545764999999997169,
		-0.23398881999999998627,
		-0.41222950000000002646,
		-0.84830930000000004387,
		-0.88841336999999998003,
		-0.66562410000000005184,
		-0.21319509000000000376,
		0.01613473899999999864,
		-0.01355802300000000064,
		0.23906965999999998940,
		0.08570853600000000183,
		0.06989148000000000582,
		0.31656845999999999597,
		0.51152619999999993095,
		0.56657003999999999699,
		0.48464956999999997400,
		0.44810706000000000149,
		0.27278333999999998527,
		0.17652789999999998760,
		0.42161473999999998785,
		0.30704445000000002430,
		0.37978815999999998576,
		0.02691517200000000110,
		0.30150599999999999623,
		0.18051954000000000611,
		0.09002273500000000650,
		0.21381290000000000018,
		-0.06449557999999999680,
		-0.03229734700000000402,
		-0.09641955000000000664,
		0.00766286699999999942,
		-0.09687564999999999371,
		-0.01416443600000000073,
		0.08132759000000000515,
		-0.12897143999999999275,
		-0.26561567000000002592,
		-0.09224971400000001043,
		0.02174832499999999891,
		0.08657415999999999723,
		-0.04469499999999999862,
		-0.15263467999999999480,
		-0.19927903999999999063,
		0.01244257199999999897,
		0.29466104999999997993,
		0.03234748500000000221,
		0.05913327000000000166,
		-0.18218492999999999493,
		-0.07582737000000000505,
		0.15280513000000001123,
		0.23237170000000001435,
		0.05903329300000000057,
		-0.14453857000000000510,
		-0.12375118000000000229,
		0.16488295999999999508,
		0.11292515999999999665,
		-0.07768553000000000264,
		-0.06750835500000000600,
		0.09793266999999999944,
		0.20263412999999999564,
		0.12765597000000000749,
		0.14980972000000000732,
		-0.03379127999999999993,
		0.00203800739999999980,
		0.13897920000000002494,
		0.17633124000000000020,
		0.03435303600000000346,
		0.14457533999999999663,
		-0.09155022999999999633,
		-0.09452344499999999761,
		-0.00636257319999999991,
		-0.12444299000000000333,
		0.05991061400000000092,
		0.00456982429999999978,
		0.02994895399999999985,
		-0.07298697499999999561,
		-0.10567278400000000571,
		-0.13741802000000000183,
		0.04748757599999999662,
		-0.07221270999999999940,
		0.07109206999999999332,
		-0.08586573599999999806,
		-0.00177615070000000002,
		-0.11737812999999999719,
		-0.35301413999999997628,
		-0.47961640000000005379,
		-0.54388490000000000446,
		-0.12203097999999999723,
		-0.05311613999999999919,
		0.13796574000000000337,
		0.20988227000000000966,
		0.16153692999999999524,
		0.18068254000000000259,
		0.25497243000000002766,
		0.81560767000000000682,
		1.09549260000000003856,
		0.25998756000000000643,
		-0.07177701999999999694,
		0.15170418999999998877,
		1.09738960000000007611,
		0.99482464999999997701,
		0.08660199000000000369,
		-0.09457685000000000397,
		-0.02416238600000000097,
		0.47606257000000001822,
		0.44416970000000000063,
		-0.14697872000000000714,
		-0.19278829999999996803,
		-0.25159374000000001015,
		-0.12768333000000001154,
		0.01937249899999999789,
		0.08822979000000000238,
		-0.13666737000000001023,
		-0.14822841999999999962,
		0.07657651999999999515,
		0.07097237000000000684,
		0.19648946999999999941,
		-0.04193007199999999879,
		0.08796740000000000115,
		0.00715839860000000005,
		0.08654425999999999786,
		-0.05357483799999999963,
		-0.10711230000000000750,
		-0.26228141999999998735,
		-0.20944609000000000143,
		-0.27950266000000001387,
		-0.21211387000000000991,
		-0.02737770600000000165,
		-0.44092256000000001892,
		-0.43777820000000000622,
		-0.17607628000000000168,
		-0.17271644999999999359,
		-0.19146832999999999214
};
