static float weights[18040]=
{0.0314833600,
0.0420185330,
-0.0277370230,
-0.0282334850,
-0.0317724700,
-0.0169198810,
-0.0176511150,
0.0169656390,
0.0318231250,
-0.0456884060,
0.0345513220,
-0.0019743796,
-0.0312560460,
0.0251379700,
-0.0249045340,
0.0017951726,
0.0268746070,
-0.0437318120,
-0.0115662560,
0.0139992560,
0.0482829060,
0.0309477150,
-0.0251015400,
0.0414778070,
0.0013784859,
0.0100215700,
0.0162587390,
0.0854001700,
-0.0127632660,
-0.0553458970,
-0.1023055600,
0.0670912640,
-0.0581428100,
0.0097567090,
0.0878801000,
0.0804731900,
0.0221760780,
-0.0719173100,
-0.0501497700,
-0.0013909634,
-0.0083427760,
0.0288126130,
0.0475312200,
0.0341676000,
0.1194512300,
-0.0493325630,
-0.1357980000,
-0.0426929780,
0.0032780622,
0.0269892090,
-0.0533148760,
-0.0871850800,
0.0818503500,
-0.0097826680,
-0.1906211500,
-0.0639573900,
0.0754107000,
0.0330193500,
-0.1508295400,
-0.1263859300,
0.1296777700,
-0.0499368460,
-0.1872478000,
0.0448774600,
0.2743778200,
-0.0107311890,
-0.1503793000,
0.0099698035,
0.1951340400,
-0.1107441800,
-0.2533750500,
0.1436724500,
0.1399080800,
0.0580773600,
-0.1310569300,
0.0865936900,
0.1265609300,
-0.1166131400,
-0.1755127800,
0.0781425900,
0.0635036000,
0.1181029900,
-0.1436098400,
0.1213192500,
0.0607852600,
-0.2291842600,
-0.1194039660,
-0.0302810390,
0.0952659200,
0.0268459100,
-0.1034262200,
0.1194640300,
0.2067978800,
-0.1787426900,
-0.1281659000,
-0.0185260920,
0.0988151700,
0.0396452920,
0.0390544460,
-0.0532596860,
0.3329478000,
-0.2442628000,
-0.1286861200,
0.0191564130,
0.0729371300,
0.0739584000,
-0.0805692300,
-0.1797290900,
0.1099388000,
-0.3243272300,
-0.1092860000,
-0.0064209930,
0.0657458100,
0.0252193180,
-0.1504951100,
-0.3334804500,
0.0651386300,
-0.1935965300,
-0.0689983500,
-0.0048968205,
-0.0017812516,
0.0628852800,
-0.1799390600,
-0.2788069200,
-0.0360643980,
-0.1628455000,
-0.1282543700,
0.0840204300,
0.1074948160,
0.1018858000,
-0.0708037200,
-0.1510482100,
0.0464625430,
-0.1252624800,
-0.1234813560,
-0.0267853440,
0.0185248370,
0.0529916250,
0.0589365360,
-0.1269210400,
0.0531051900,
-0.1707256400,
-0.0027000103,
0.0192823670,
0.0684639200,
0.0455752280,
0.0697036160,
-0.0610858350,
0.0187125970,
-0.1430163700,
-0.0191691630,
0.0963514900,
0.0591174770,
-0.0291849060,
0.0707538800,
-0.0277049650,
-0.1609449200,
-0.0612242300,
-0.0169513040,
0.0491762760,
0.1094240400,
-0.0189700260,
0.0640015450,
-0.0514646730,
-0.1376781000,
0.0673996300,
-0.0857808600,
0.0187438020,
-0.0450423200,
-0.0434515250,
-0.0220182280,
-0.0499168260,
-0.0216733120,
0.0173786710,
-0.0407293300,
0.0350676370,
-0.0293577870,
0.0152846305,
0.0545810270,
0.0104501580,
-0.0228080320,
-0.0103963185,
0.0427410940,
-0.0567211620,
-0.0352327750,
0.0270158850,
0.0085348540,
-0.0148113690,
-0.0185558270,
-0.0353934240,
0.0081693970,
-0.0305627620,
-0.0730143900,
0.0068781900,
0.0838397300,
0.0716478150,
-0.0397847500,
-0.0438616200,
-0.1325017400,
0.0197283530,
-0.0771484400,
0.0042118924,
0.1329389400,
0.0977950700,
0.0964075850,
-0.1002133700,
-0.1621191200,
0.0107531460,
-0.2256491200,
-0.0708650000,
0.0925079660,
0.1142213900,
0.0823178740,
-0.0429897000,
-0.1742725500,
0.0072582410,
-0.1445033300,
-0.0274438340,
-0.0184885900,
-0.0176931900,
0.0006430809,
-0.0227659870,
-0.2448241700,
-0.0634313500,
0.0076171250,
-0.0085736230,
-0.1205375700,
-0.0500043220,
-0.0864579400,
-0.0764925800,
-0.2835867000,
0.0499788600,
0.0647740500,
-0.0448059300,
-0.0394878570,
0.0468598700,
0.0081928510,
-0.1608638200,
-0.2918094700,
0.1311833300,
0.1443101000,
-0.0475737800,
-0.0998806950,
0.1749630700,
-0.0585519340,
-0.1632151000,
-0.2884038700,
0.1402339200,
0.0099815850,
0.0170731360,
-0.1930871900,
0.0081566010,
-0.0089950400,
0.0140106010,
-0.2877362400,
0.0206627120,
0.0284026000,
0.0433119830,
-0.1205368100,
-0.0385784130,
-0.1170691800,
0.1243971360,
-0.2631271500,
0.0355586370,
0.0373302850,
0.0452937370,
-0.0234556030,
-0.0298954040,
-0.0771870400,
-0.0164641850,
-0.3266410800,
0.0317509660,
-0.0152081260,
0.0239092430,
-0.0543548240,
-0.2162137200,
-0.1666840200,
-0.1759807800,
-0.2633268000,
0.0110735690,
-0.0416676000,
0.0232425220,
-0.1485679100,
-0.1725765300,
-0.0572660900,
-0.1450875400,
-0.3031435300,
0.1141283200,
-0.1094514650,
0.0228632690,
-0.1727650600,
-0.1774035100,
0.0317626860,
-0.0259238390,
-0.2356739600,
0.1141079200,
-0.1024729200,
0.0736483200,
-0.1445263300,
-0.1071761300,
0.1226312300,
-0.0554062870,
-0.1793078000,
0.0416478900,
-0.0769328800,
0.0057996437,
0.0042572175,
-0.1442275500,
0.1165074400,
-0.0566703200,
-0.1017079650,
-0.0383493300,
0.1104493900,
0.0069428170,
0.1275857100,
-0.1607624000,
0.0928633300,
0.0721517650,
-0.0519596560,
-0.0411391300,
0.2880070000,
-0.0497065900,
0.1342057000,
-0.0570662840,
0.0062019587,
0.0918669900,
-0.1411604900,
-0.0164941810,
0.1886446800,
0.0067177503,
0.1315645300,
-0.0858887600,
-0.0028226003,
0.0590352860,
-0.2337149400,
0.0282018020,
-0.0281326470,
-0.0201819280,
-0.0317811630,
-0.0211415680,
0.0034581586,
0.0146802730,
0.0100286740,
-0.0676842600,
-0.1083348540,
-0.0053042220,
-0.0252116100,
-0.0734309260,
0.0151538540,
0.0203563850,
0.0400084000,
-0.0642929600,
-0.1811460100,
0.0078953450,
-0.0366435350,
-0.0172291600,
-0.0455602780,
0.0547972170,
0.0032214152,
-0.0502374430,
-0.0701913300,
0.0058885217,
-0.0570737050,
-0.0182846930,
0.0335941300,
-0.0274257860,
-0.2004827600,
-0.0272281020,
-0.0712874300,
-0.0545484050,
0.0039825200,
0.0187898950,
-0.0443022330,
-0.0710714700,
-0.2498595100,
-0.0594377670,
0.0444352440,
-0.0492941000,
0.0809988400,
0.0524392500,
0.0617305340,
-0.0611635740,
-0.2396507100,
-0.0991729800,
0.0733988200,
0.0120817190,
0.0359123300,
0.0250349640,
0.1607965100,
-0.0846062150,
-0.3037643400,
-0.0986145400,
0.0127161900,
0.0010151956,
-0.0664752350,
-0.1250446600,
-0.0033983383,
-0.1766354400,
-0.2304898800,
0.0962824100,
0.1504780200,
-0.0484693650,
-0.1368885000,
-0.1008938500,
-0.1550100400,
-0.2000195800,
-0.3111395000,
0.0334531930,
0.1269514300,
0.0101831810,
-0.2516324200,
0.0228351800,
-0.0574522730,
-0.0815038200,
-0.4015642400,
-0.0271219850,
-0.0294488540,
-0.0339595900,
-0.1554239000,
-0.1186601600,
0.0073668594,
0.1089236800,
-0.3565509600,
0.0910210400,
-0.1610340900,
-0.0051605846,
0.0228700600,
-0.0874727440,
-0.0253990700,
0.1234507300,
-0.3105967600,
0.0372871720,
-0.0917343050,
0.0021012660,
0.1678312000,
0.0403509960,
0.1350655900,
-0.0048631174,
-0.2522106800,
-0.0088410930,
-0.0648363900,
-0.0293896870,
0.1992965500,
-0.0228382140,
0.1134133900,
-0.0604719970,
-0.4976012700,
0.1055532800,
-0.0054044933,
0.0162124950,
0.1370596000,
-0.0666801200,
0.1188967450,
0.0489435200,
-0.3248839000,
0.1268951900,
-0.1153039400,
0.0032465844,
0.1335214700,
-0.0757846900,
0.1481628700,
-0.0205150530,
-0.2360012100,
-0.0332301400,
-0.0564597960,
0.0680369660,
-0.0901296100,
-0.2532442200,
0.1932031700,
-0.0409990060,
-0.2856305800,
-0.1740972800,
0.0159130340,
0.0233993980,
-0.0996906400,
-0.3817988000,
0.2062474300,
0.0471189360,
-0.1941312800,
0.0911142400,
0.0718348250,
0.0243861880,
-0.0267846340,
-0.2407934400,
0.0833249300,
0.1679695200,
-0.1961658100,
-0.0228725860,
0.0352846900,
0.0037249397,
0.0786562500,
-0.2090056200,
0.0341308150,
0.1879184400,
-0.2141232200,
-0.0456022360,
0.0475528650,
-0.0113797960,
0.0588507240,
-0.1883417200,
0.1225872560,
0.2229379900,
-0.2378601600,
-0.0276560950,
-0.0559264500,
-0.0285007170,
0.0489539540,
0.0036292572,
0.0190259000,
0.0320376700,
0.0193584700,
-0.0415842700,
-0.0761980000,
-0.0295951460,
-0.0157511870,
-0.0193459780,
-0.0789500500,
-0.0044076680,
0.0522313200,
0.0381405430,
0.0506610570,
-0.0018845372,
0.0632079700,
-0.0514434350,
-0.0287219660,
-0.0391157500,
-0.0196533130,
-0.0117374740,
0.0295386310,
0.0249783120,
-0.0433788930,
-0.0715619400,
-0.1017810300,
-0.0017793189,
-0.2147369800,
-0.0249574430,
0.0367449860,
0.0213662390,
-0.0637623200,
-0.1094212000,
-0.0738532250,
-0.0295307340,
-0.1569065600,
-0.0119859190,
0.1570824400,
-0.0117856160,
0.0629993200,
0.0457042830,
0.0198134110,
-0.0470036680,
-0.0993597500,
-0.0555245730,
0.0261255430,
0.0351715300,
-0.0557447300,
-0.0624002180,
0.0653371900,
-0.1614999800,
-0.2009635100,
-0.0211647540,
-0.0440418870,
-0.0373771380,
-0.2129741900,
-0.1327772700,
-0.0314323120,
-0.2148290100,
-0.0329329600,
0.0462579540,
-0.0354135450,
-0.0412754750,
-0.1675884400,
0.0078847500,
-0.0355954360,
-0.1410134100,
-0.1172960550,
-0.1846383000,
0.2365586600,
-0.1111695400,
-0.2140320200,
0.0454335500,
-0.0055692256,
-0.0405075140,
-0.0351319760,
-0.0042898940,
0.0303061050,
-0.0447143430,
-0.0566640100,
0.1366026600,
0.0474849800,
0.0776798700,
0.0085312710,
-0.0253518630,
-0.1860941800,
-0.0767943200,
0.0504667200,
0.1507635300,
0.0059981104,
0.1120000100,
-0.0564673100,
0.1614241500,
-0.1127000150,
0.0174554380,
0.2421760400,
0.1035829100,
0.0128108560,
0.0849385500,
-0.1129002600,
0.0150129740,
0.1009247300,
-0.0177287300,
0.2386858500,
-0.1712814700,
0.1064082000,
0.0411257150,
-0.1786608000,
0.1020486800,
0.0884959250,
0.0442770120,
-0.0245441600,
-0.1570753200,
0.1334294100,
0.1305673900,
-0.0860341600,
0.2113059000,
0.0476015140,
0.0606046020,
0.0246409180,
-0.2243633400,
0.0082838940,
0.0446816830,
-0.1233199200,
0.0329817160,
0.1284136900,
0.0897442250,
-0.0713308300,
-0.2711403400,
-0.0019681920,
0.0022108940,
-0.2216448000,
-0.0300055300,
0.1102079700,
0.0088818570,
-0.1129995140,
-0.3122185500,
0.0934111800,
-0.0916249900,
-0.1286073800,
0.1109266900,
0.0604869240,
-0.0137557480,
-0.0498292520,
-0.2237008700,
0.0237096400,
0.0012274858,
-0.0677459760,
0.1405785200,
0.0626987500,
-0.0083132430,
-0.0131875220,
-0.2507857400,
-0.0136970550,
0.2269181600,
-0.1101558000,
0.0028273412,
-0.0625590000,
0.0939094950,
0.0989032400,
-0.1296657200,
-0.0524170440,
0.3322432600,
-0.1572298300,
-0.0171364840,
-0.0033577378,
0.0444136150,
0.0080549540,
0.0276296550,
-0.0026510276,
-0.0103932110,
-0.0202741060,
0.0516845300,
0.0099576110,
-0.0210488350,
0.1150835700,
0.0791894600,
-0.0754675100,
0.0001347977,
0.0439825580,
0.1576942400,
0.0483784560,
0.0113610870,
0.0760181550,
-0.0590239950,
-0.0323305060,
-0.0147459230,
0.0449520460,
0.0592583680,
-0.0300544310,
0.0498960170,
0.0249949150,
-0.0603410680,
-0.1312150800,
-0.0213607870,
-0.0195857340,
0.0424534600,
-0.0996318460,
0.0068954714,
-0.0176672710,
-0.1960669600,
-0.0441160540,
-0.0819730300,
0.0262789900,
0.0095612180,
-0.1164995300,
-0.0277916320,
0.0332883300,
-0.0504850900,
-0.0851679600,
-0.0875660500,
0.0903612600,
0.0211124460,
-0.1444246000,
-0.0482977850,
-0.0616083630,
0.0480703670,
-0.0310767300,
-0.1024457900,
0.0637932700,
0.1390902000,
-0.1901128400,
-0.0447716970,
-0.0893642700,
0.1118981200,
0.0747700300,
-0.2601769000,
0.0425656400,
0.1401295500,
-0.0482262520,
-0.0469680170,
-0.1065802900,
0.1410241900,
0.2067095300,
-0.1825369400,
0.0888907200,
-0.1656015400,
0.0303110240,
-0.0615772680,
-0.2509459600,
0.1105480050,
0.0682434600,
-0.0847156350,
0.2396780700,
-0.1507988300,
0.1008158400,
0.0228735280,
-0.1536117800,
0.2337969100,
-0.0960632340,
0.0061451830,
0.1488717000,
-0.1765009600,
0.1198086960,
-0.0056359894,
-0.0004854593,
0.3202313800,
0.0506352800,
0.0451708440,
-0.0280464420,
-0.0635599700,
0.0580165400,
0.0093092560,
0.2265766100,
-0.0055337010,
-0.0160631460,
0.0393334960,
0.0459762200,
0.0684512800,
-0.0421244430,
0.0491341950,
0.3339760600,
-0.4136109400,
-0.0412255200,
0.1099846140,
0.0705602700,
0.2115064700,
0.0380017420,
-0.0204333030,
0.0344312080,
-0.2631138600,
-0.0492583250,
0.1004264950,
0.1653782900,
-0.0136976690,
-0.0147273990,
0.0413883440,
-0.0720288460,
-0.0933176600,
-0.0384699900,
-0.0040769884,
0.1385876700,
-0.0771114600,
0.1501590000,
0.0587608480,
-0.0744992900,
-0.1619730300,
0.0776268540,
0.0098312800,
0.0864685900,
-0.0737453550,
0.0291650570,
0.0014010996,
-0.1203762100,
-0.2589703200,
0.0355279970,
0.1236100600,
0.0368119740,
-0.0059205317,
-0.0588979940,
0.0095484040,
-0.0887775300,
-0.2871855000,
0.1712265600,
0.1519718900,
0.0189110600,
-0.0130299410,
0.0940986650,
0.0089337320,
0.0700709300,
-0.1515130800,
0.0941312600,
0.0759784400,
0.0447630060,
-0.1493421000,
0.1704143700,
0.0376640370,
0.0705453800,
-0.0218215600,
0.0331859070,
0.3323856000,
0.0288126730,
-0.0250147700,
0.0611821700,
-0.0228508500,
0.0477831850,
0.0895843360,
-0.0453321040,
-0.0073113753,
0.0293799790,
0.1175150800,
0.0152345870,
0.0494098030,
0.0578940660,
0.0697789500,
-0.0330284900,
-0.0338304080,
-0.0139021580,
0.0294025240,
-0.0531451850,
0.0161986180,
0.0854449300,
0.0574308220,
0.0519927630,
-0.0239621750,
0.0173738200,
-0.1664445400,
-0.0895447900,
0.0177881050,
0.0886400100,
0.0337336440,
0.0996349700,
-0.0595133980,
0.0816907200,
-0.0481993220,
-0.0920299600,
-0.0522850040,
0.0717050800,
-0.1272492400,
0.0347633620,
-0.0203293860,
0.1861011400,
0.0897849900,
-0.1069697600,
-0.0663964400,
0.0066604395,
-0.0164049040,
-0.0208963290,
-0.0400972740,
0.0624295470,
0.1760611700,
-0.1003416700,
-0.0106161960,
0.0829445300,
-0.0004568505,
-0.0710072140,
-0.0893959000,
0.0668626800,
0.2159094400,
0.1023371000,
-0.0421065400,
0.0532849020,
0.1520208000,
0.0744967500,
-0.1694477300,
0.0701726800,
0.0468639100,
0.1032485800,
-0.0203289780,
-0.2243772400,
0.0821990740,
0.1743097900,
-0.1071873100,
0.2441680100,
0.0028083632,
0.0563097040,
0.0052682366,
-0.3211318900,
0.2055111700,
0.0373238730,
-0.1097691600,
0.2815779100,
-0.0660756100,
0.1574169000,
-0.0230065570,
-0.3334890000,
0.2947731300,
-0.0000686336,
-0.0475244630,
0.1125756400,
-0.1385184200,
0.0341414900,
-0.0398837180,
-0.0767274500,
0.0870316550,
-0.0502188280,
0.0656580800,
0.1356392500,
-0.1740315900,
-0.1172172200,
0.0495333750,
0.1506683200,
-0.1943531500,
0.0856320600,
0.0996695900,
0.1440124800,
-0.1100497600,
-0.1077341700,
-0.0502834880,
0.2480734900,
-0.1977122600,
-0.0810044400,
0.1840753300,
0.0635578260,
-0.0325583150,
-0.0070048550,
-0.0610004960,
-0.0421216150,
-0.0570900800,
-0.0505502200,
0.2516772200,
0.1421871800,
-0.1570037900,
0.0615078060,
0.0592813900,
-0.1513609900,
-0.1210770100,
0.1471432000,
0.1401500400,
-0.0046590324,
-0.1431317200,
0.1887949300,
0.0851862100,
-0.1079968200,
-0.2103621500,
0.0404646320,
0.2294055000,
0.0971005400,
-0.0358634070,
0.1097005300,
0.0875653900,
-0.0182026940,
-0.1806485500,
0.0062727043,
0.1087890340,
0.0625532000,
-0.0899033900,
-0.0097552230,
0.0537095500,
-0.0342385660,
-0.2704671000,
0.0874795300,
0.0565949450,
0.0173031800,
-0.0911202500,
0.0325505200,
-0.0184048280,
0.0539121600,
-0.1634295400,
0.0960134340,
-0.0335411350,
0.0580904900,
-0.1782872500,
0.1368921100,
-0.0499701700,
0.0413408730,
-0.1194193660,
0.0265482810,
0.2331994200,
0.3283112000,
-0.1340210400,
0.0145300250,
0.0323191250,
0.0173448660,
0.0712869540,
-0.0731382700,
0.0227901380,
-0.0186735000,
0.0627663060,
-0.0757081000,
0.0266767240,
0.0106560000,
0.0649958100,
0.0254895970,
0.0115733760,
0.0344397500,
-0.1001425760,
-0.0621357800,
0.0277188740,
0.0338449660,
0.1228217700,
-0.0256105180,
-0.0199131280,
0.1102348700,
-0.3205001400,
-0.0091522880,
0.0168637150,
-0.0320222300,
0.0513984640,
-0.0130936410,
0.0053948304,
0.1766058700,
-0.1918393500,
0.0032643331,
-0.0580531730,
0.0297551020,
-0.0540271400,
-0.0669851300,
0.0853036340,
0.0578291000,
0.0018746414,
-0.1159306240,
-0.0234989540,
-0.0035737506,
-0.0249629580,
-0.1413006200,
0.0806723700,
0.0904059260,
0.1689488600,
-0.1354090700,
-0.0311533660,
0.0420217250,
0.0171049400,
-0.0193579460,
-0.0421997700,
0.0701478500,
0.1224723600,
0.0366775020,
-0.0246778450,
0.0423434100,
0.1467936300,
0.0354867880,
-0.0539747200,
0.1000940900,
-0.0110745420,
-0.0871454100,
0.0309351070,
-0.0774295850,
0.0927897300,
0.0597032700,
0.0454062040,
0.1335755700,
-0.0530440250,
-0.0434575570,
0.0325728060,
-0.0994220700,
0.1675634800,
0.1550818800,
0.0408092180,
0.2440416500,
-0.0020773623,
0.0254671100,
-0.0061538685,
-0.0425206800,
0.4382566000,
0.1864128100,
0.0193800220,
0.2361380800,
-0.0580000400,
0.0476700850,
0.0473528600,
-0.0236225300,
-0.0800675750,
0.2567925000,
0.0920549900,
0.2686962200,
-0.1497107400,
-0.0050824040,
0.0985643300,
0.0439760200,
-0.2665860000,
0.1530342100,
0.0663722300,
0.3264332000,
-0.0152095985,
-0.0011824708,
0.0657163600,
0.0102780110,
-0.1041741100,
0.2089746300,
0.0058216750,
0.2073391100,
0.0494561500,
0.0460581220,
0.0651055350,
-0.2367994200,
-0.0770773200,
0.2111343000,
-0.0053825720,
0.1410475200,
-0.0637902100,
0.0516503380,
0.0536422880,
-0.2823448000,
-0.1903202800,
0.1813082400,
-0.0401678700,
0.0427228800,
-0.0790742200,
0.1855000900,
0.0655329500,
-0.1513006800,
-0.2108770300,
0.0128279800,
-0.0715153440,
0.1144437040,
0.0869136150,
0.0560695570,
0.0352869440,
-0.1397239300,
-0.1942244800,
-0.0996179100,
0.0491415450,
0.1689182400,
0.0693892700,
0.0411549360,
-0.0289965800,
-0.1844425200,
-0.1369116800,
0.0424293730,
-0.1512716300,
0.1090921300,
-0.0136748925,
0.0788342800,
0.0067560620,
0.0149370620,
-0.1377485700,
-0.0092251210,
-0.0111807520,
0.2251232600,
-0.1759524800,
0.0503725740,
-0.0576417040,
0.0294265650,
-0.1470788600,
-0.0915449860,
0.2873135800,
0.3527085000,
-0.0901591850,
-0.0207323380,
0.0235214070,
0.0117625190,
0.0941192300,
-0.0294066740,
0.0337953700,
0.0863417240,
-0.0255891680,
0.0083058280,
0.0543974970,
0.0602717920,
0.0343773770,
-0.0257142610,
-0.0396917700,
0.0549543280,
-0.2772132200,
0.0675619600,
0.0615615140,
0.0494963500,
0.1275225900,
0.0213880650,
-0.0419597800,
0.0771507800,
-0.2591893400,
0.0403447970,
-0.0710587650,
-0.0283298400,
0.0290240890,
-0.0557633500,
-0.0460014530,
0.1404131500,
-0.1879975500,
0.0804575160,
-0.0417563880,
0.0854388300,
-0.1146952100,
-0.0714872600,
0.0608496260,
0.1027772800,
-0.0731080900,
0.1197954400,
-0.0898557100,
-0.0826128800,
-0.0895677700,
-0.1436691600,
0.0472623100,
0.1258327400,
0.1306715300,
-0.0895706700,
-0.0489223040,
-0.0041451124,
0.0299345420,
0.0531487700,
-0.1412797700,
0.1401749300,
0.1596898000,
0.0873699400,
-0.0200122200,
0.0618404930,
0.0990603500,
-0.0274859260,
-0.1730516400,
0.1568295000,
0.0867657500,
-0.0040901810,
-0.0673448150,
0.0902394900,
0.0100647660,
-0.1266977300,
-0.0999281560,
0.0323371700,
-0.0570943280,
-0.1772821400,
-0.0692010800,
0.0294993430,
0.0691174800,
0.0344868670,
0.1468176100,
0.1648768600,
0.0797542900,
-0.0268870310,
-0.1095636600,
-0.1099209600,
0.1848425400,
0.1654439300,
0.0790680200,
-0.0022656599,
0.0509901050,
-0.1463905600,
-0.0364955100,
-0.1438482700,
-0.0096731465,
0.1285172100,
0.1311308700,
0.0604217200,
0.0001588325,
-0.1697934900,
0.0743684600,
-0.0939215940,
-0.1298333400,
-0.0199217800,
0.1727998000,
0.4336523700,
0.1446228900,
-0.2228331600,
0.1585122200,
-0.0243550320,
-0.1002360400,
0.1051730900,
-0.1130615900,
0.2727252000,
0.1760338400,
-0.2513550800,
0.1052610700,
-0.1144882600,
0.0673196900,
-0.0131580930,
-0.2815641200,
0.1681806900,
0.1390848200,
-0.0630161000,
0.0142383510,
-0.0312001630,
-0.0800785200,
0.0922431050,
-0.1875971100,
-0.0050408370,
0.0494315960,
0.0626816800,
-0.0818826800,
0.0143302620,
0.1065110860,
-0.0602387150,
-0.3217586000,
0.1430915300,
0.0823033400,
0.0275510850,
0.0233252960,
-0.0350817100,
0.1255396500,
0.0339400430,
-0.3310892600,
0.0705700800,
0.1643969000,
0.0835534300,
0.0148292710,
-0.0221809110,
0.0095798670,
0.0539493340,
-0.2593335800,
-0.0249236110,
0.0246298400,
0.0521795560,
-0.0077626530,
-0.0841929100,
-0.1794961100,
-0.0302613790,
-0.0915160500,
0.1262876500,
-0.1196241000,
-0.0438168160,
-0.0487229680,
-0.0968476400,
-0.2556265000,
-0.2347551600,
0.0784739260,
0.1869699000,
-0.0382214150,
-0.0143347450,
0.0424985620,
-0.0079967010,
0.0862022800,
-0.0562758040,
-0.0032218378,
0.1184189200,
-0.1699787200,
0.0217780400,
-0.0068143470,
0.0254035850,
0.1571854400,
-0.0246114080,
0.0169987960,
0.0831036340,
-0.2076864800,
0.0425487830,
0.0460103380,
0.0576651800,
0.1121053700,
-0.0728214100,
-0.0160267700,
0.1839478200,
-0.2379960100,
0.0774633000,
0.0130288850,
0.0403391300,
-0.0742232200,
-0.0635811800,
-0.0378067230,
0.0197783840,
-0.0101436540,
0.0036683735,
0.0119254920,
0.1446320000,
-0.0386224050,
-0.0444609800,
-0.0311087090,
0.1091847200,
-0.1229670050,
0.0756641400,
0.0231385360,
-0.0257855580,
0.0189383630,
-0.0052389856,
0.0196147620,
0.0104805560,
0.0766970600,
0.0512702870,
0.0297027440,
-0.0118598700,
0.3027124000,
0.0524004700,
-0.0135627280,
0.0877696100,
0.0099468410,
0.0899111300,
-0.0547739270,
0.1369859700,
0.1011873100,
0.0487227000,
-0.1021858200,
0.0208326690,
0.0994200560,
-0.0234495720,
-0.0993187400,
-0.0551326870,
0.0548725200,
-0.0325723600,
-0.0100184760,
0.0288542730,
0.0687118700,
-0.2025039600,
-0.1597310000,
-0.1772475100,
-0.0943906750,
0.0174915920,
0.1541818700,
0.0010884401,
0.2144008700,
-0.2598172700,
-0.0935695000,
-0.3120308500,
-0.1297383300,
0.0958046540,
0.1983230000,
0.0424005240,
0.1961769600,
-0.2934936300,
0.0390053540,
-0.1840772600,
0.0718198300,
0.1501766700,
0.1782609200,
0.0480015350,
0.1688458000,
-0.4353914300,
0.0506148200,
0.0250183980,
0.1067180260,
0.0979811300,
0.1156464200,
0.2449406800,
0.0296240990,
-0.4037998000,
0.0276865830,
0.1343650500,
0.0337408400,
0.0887181800,
-0.0768786700,
0.0749109200,
0.0386482740,
-0.4294935000,
-0.0205572920,
-0.0041877010,
0.0865298200,
-0.0645335200,
-0.1414775300,
-0.0465801100,
0.1653820900,
-0.2358964400,
-0.0862083060,
-0.0089367170,
-0.1028953300,
-0.0194558650,
-0.2145716200,
-0.0205717780,
-0.0269922020,
-0.0091321880,
0.0106297020,
0.0628784150,
0.1331986600,
-0.0341681700,
-0.1495379000,
0.0444554300,
-0.0162184800,
-0.0170957350,
0.0006549243,
0.1374019500,
0.2623143000,
-0.1376857300,
-0.1254605500,
-0.1618583000,
0.1444542700,
0.0450407680,
-0.0338394270,
-0.0143657270,
-0.0210110470,
-0.0145540390,
-0.1881499900,
-0.0190587080,
-0.0035678404,
-0.0064923675,
-0.0244131420,
-0.0581759770,
-0.0632801800,
-0.1435219600,
-0.0888139900,
0.1402308200,
-0.0684591400,
-0.1341911900,
-0.0124975530,
-0.0612675060,
-0.0895610000,
-0.2109240000,
0.0414287520,
-0.0000782348,
0.0204684420,
-0.0120561550,
0.0252029800,
0.0516815630,
0.0526707900,
0.0134195180,
0.0142799580,
0.0026412462,
-0.0264093540,
-0.0112623040,
0.0384047030,
0.0882757100,
0.1659007200,
-0.1353751600,
-0.0339504800,
0.0538734870,
-0.1884787100,
-0.0449047900,
-0.0289598130,
0.0121671300,
0.0662577750,
-0.0768764840,
-0.0032806923,
0.1350111700,
-0.1336974400,
-0.0544088220,
-0.0253639950,
0.1980111000,
-0.0886603500,
-0.1324707000,
-0.0949662600,
-0.0579476430,
-0.1758267100,
-0.1134441200,
-0.0049749430,
0.2447833700,
-0.0574117040,
-0.2351313500,
-0.0502670930,
-0.0227350900,
-0.0531157780,
-0.2552782000,
0.0175489700,
-0.1142631100,
0.0279854600,
-0.2400289300,
0.1514640500,
-0.0904919500,
-0.0666455000,
-0.1386936300,
0.0371343400,
-0.0838818300,
0.2202179600,
-0.1770937100,
0.0958143250,
0.1419878800,
0.0599065570,
-0.1177378700,
0.0324169960,
-0.1173510000,
0.0145273340,
-0.1803903900,
0.1596334000,
0.0103979190,
0.1555409700,
-0.2886532800,
-0.0834064900,
0.0177204800,
0.0201722250,
-0.1000336800,
0.0906140700,
0.1304323400,
0.1043430340,
-0.2873497600,
-0.0214030370,
-0.0971744060,
-0.0532021560,
0.1295890800,
0.0121573850,
0.1348585300,
0.2589401300,
-0.0838116400,
0.0040461924,
-0.2576886700,
-0.2184847400,
-0.0778599100,
0.1658287000,
0.1740885800,
0.1023146660,
-0.0500122530,
0.0832999000,
-0.2207939300,
-0.0688272640,
0.1129322000,
0.0979979300,
0.1230866900,
0.2966749000,
-0.2070409000,
-0.0166205990,
-0.0745026000,
0.0119955320,
0.1239474600,
-0.0093811120,
-0.0572434070,
-0.0226740860,
-0.2008892000,
-0.0694306100,
0.1251212700,
0.0573323930,
-0.0376707400,
-0.0108807770,
-0.1591943800,
0.1248871160,
-0.3122450700,
-0.0619498750,
0.0079543570,
0.0053837537,
-0.0714792460,
-0.1226639400,
-0.0389897750,
0.0787820100,
-0.0841071100,
-0.0419419740,
-0.0601984860,
0.1292171200,
0.0346639570,
-0.1598647400,
0.0363780100,
-0.1005394000,
0.0012495592,
0.0850102100,
0.0209678170,
0.0993478600,
-0.0175885520,
-0.0348622580,
-0.1281776300,
-0.1800878200,
0.0377469920,
0.0921026900,
0.1362979900,
0.0405280900,
0.0168628790,
-0.1692057300,
-0.1314559000,
0.0700275700,
0.0227890260,
0.0283023450,
0.0359243500,
-0.1194302960,
0.0321240650,
-0.2510802000,
-0.0234218870,
-0.0555949170,
-0.0008309362,
-0.0210081920,
-0.0211472980,
-0.0367711520,
-0.0498369040,
-0.1990702900,
0.1125040200,
-0.1322090900,
-0.0350437460,
-0.0165271570,
-0.1157096400,
0.0178628500,
-0.1448664700,
-0.0789685250,
0.0457112900,
-0.0945077400,
-0.0156740700,
0.0353258600,
0.0193653830,
0.0028999625,
-0.0079702970,
-0.0497850200,
-0.0039183814,
-0.0973307100,
-0.0551322250,
-0.0124695840,
0.0664926200,
0.0923608540,
-0.1235957400,
0.0008221204,
-0.0568039530,
-0.1011637200,
-0.1084850900,
-0.0387431830,
0.0889598900,
-0.0001059095,
-0.1911265900,
-0.0008232004,
-0.0491988250,
-0.0490473470,
-0.1748379200,
0.0060211200,
0.0832732100,
-0.1765579300,
-0.1933084600,
0.0853565200,
-0.0457322970,
-0.1035311000,
-0.3052950000,
0.1009088800,
0.0015961501,
-0.2018671200,
-0.2857115600,
0.0873196400,
0.0063052573,
-0.1723821800,
-0.4796306500,
0.0920514800,
-0.0768015100,
-0.1453385200,
-0.4018865500,
0.0960280300,
-0.0906459000,
-0.1319318900,
-0.2867472800,
0.0233954100,
0.0409182460,
-0.0614604700,
-0.4200525300,
-0.1164363500,
-0.1299398100,
0.0655407200,
-0.1976299000,
0.0288509340,
0.1054144700,
-0.1436252600,
-0.4212946600,
-0.0084233830,
-0.1003401700,
0.1488331100,
-0.2215287700,
-0.0327562470,
-0.0640531600,
-0.1252190900,
-0.1647907000,
-0.0000430190,
0.0687074400,
0.0322677380,
-0.1959793300,
-0.0547801670,
-0.1667378700,
-0.0435634300,
-0.0066135237,
0.0484501350,
0.0545844360,
0.0078623650,
0.0421044530,
-0.1011431000,
-0.2643860000,
-0.0398771540,
0.1608710600,
-0.0016711584,
0.0601877350,
0.1067253100,
0.0158476000,
-0.0520422900,
0.0393032600,
0.0917944240,
0.1317434800,
-0.0264955520,
-0.1575736000,
0.0324432740,
0.0074671730,
-0.0439941100,
-0.0456517930,
0.0805580700,
0.0272870530,
-0.0946283500,
-0.0824035850,
0.0804387800,
-0.1535976700,
-0.0169842540,
0.0318457630,
0.1089087200,
-0.1323068100,
-0.1935509100,
0.1049709540,
0.0853200400,
-0.1760845200,
0.0570902200,
0.0504566500,
-0.0394377500,
-0.0753188950,
-0.2274601900,
0.0863044900,
0.0237996370,
-0.0973567200,
0.0897538400,
-0.0243006100,
0.1092817500,
0.0229957740,
-0.2487860500,
0.1227099000,
-0.0961517900,
0.0450531130,
0.0209355800,
-0.0834809300,
0.1154545550,
0.0113271280,
-0.1031116300,
-0.0658946400,
-0.0413054040,
-0.0894549900,
0.0526316800,
0.0176945480,
0.0522613260,
0.0570599900,
-0.0755940750,
0.0749098300,
-0.1380444900,
-0.0398338060,
-0.0537756980,
-0.0702224800,
-0.0530693230,
0.0981909400,
-0.0238153260,
0.0588357370,
-0.0446239260,
0.0704772550,
-0.0364205800,
-0.1093618700,
-0.0914333100,
0.1083061200,
-0.1339121900,
-0.1062342200,
-0.0745003740,
0.0218694340,
0.0443023000,
-0.0982253300,
0.0038626029,
0.0210986940,
-0.0558283550,
-0.0327797830,
-0.1132325700,
0.0030782833,
0.0303593740,
-0.0292781200,
0.0257321220,
-0.0717533750,
-0.0219791980,
0.0107036040,
0.0301002360,
0.0230822600,
0.0211436300,
0.0179046800,
-0.0229515920,
-0.0466460550,
0.0109115560,
-0.0277063720,
-0.0102037430,
-0.0795031200,
0.0410201030,
0.0157253610,
-0.0956011400,
-0.1278585800,
0.0937704900,
0.0082004210,
-0.0797810100,
-0.1496854300,
0.0858084600,
0.0384882100,
-0.1568401900,
-0.1600572800,
0.1100775200,
0.0453865230,
-0.2319642900,
-0.1926323300,
0.0779586000,
-0.0876394100,
-0.1250073800,
-0.1846212400,
0.1039785440,
-0.0796579000,
-0.3710985800,
-0.2213869100,
0.0022896882,
0.0417106450,
-0.0204696700,
-0.2622959600,
0.0079658170,
0.1467875800,
-0.1919537000,
-0.0670430300,
0.0658564600,
0.0506068300,
-0.0479201040,
-0.4841364000,
-0.1218569100,
0.0054789917,
-0.0103222520,
0.0204924800,
0.0148593300,
0.0422829300,
0.0189296880,
-0.4884627800,
-0.0277456730,
0.0715965600,
0.0322432440,
-0.1521540900,
-0.0481814740,
-0.2152874000,
-0.0433619130,
-0.4243803600,
0.1284294600,
-0.0106903250,
-0.0525481400,
-0.1073354900,
-0.0389624280,
-0.4141048800,
0.0417525540,
-0.1755854200,
0.1644070100,
-0.0536001360,
0.1622985200,
0.2040269800,
-0.1384912100,
-0.1650689100,
0.0164659270,
-0.0247119650,
0.1344900600,
-0.0580416880,
0.1021171900,
0.0822330000,
-0.1424826500,
0.0518912230,
0.1153731350,
-0.0816144300,
-0.1404441400,
0.0834223300,
-0.0259142700,
0.0035411972,
-0.0991706300,
0.0389408900,
0.0949746300,
-0.1052543900,
-0.2113431100,
0.0693625960,
-0.0544372420,
-0.0828177100,
0.0090307990,
0.0644479540,
-0.0003555338,
0.0214563590,
-0.1226885100,
0.0240433480,
-0.1328400700,
-0.1668328300,
0.0005439445,
0.1243529300,
-0.0244107530,
0.1070749500,
0.0358796100,
-0.1020160200,
0.0082340900,
-0.0464122100,
0.0211089090,
0.0052044145,
-0.0080751795,
0.0737763600,
-0.1520351800,
-0.0853984000,
-0.0445401520,
0.0032495717,
0.0663452500,
-0.0297539230,
0.1214721950,
-0.0176494210,
-0.1373496500,
0.1832820900,
0.0371377000,
-0.1039311100,
-0.0018731698,
0.0792520900,
0.1683976800,
0.0375490750,
0.0281794720,
0.1141880150,
-0.0571890250,
-0.0843332200,
0.0529868230,
-0.0629549250,
0.0156595900,
0.1203362200,
-0.0070913900,
-0.0033378855,
0.0100990290,
0.0488030600,
0.0278451390,
-0.0029958994,
0.0520473200,
0.1264194500,
-0.1050698200,
-0.2016929000,
0.0675847500,
0.0523286300,
0.0081864605,
-0.0662423600,
0.0940861200,
0.1021289700,
-0.0524881220,
-0.1194726700,
-0.0826373300,
0.0289296230,
-0.0013483980,
0.0761625400,
-0.0054225405,
0.0145985940,
-0.0341452500,
-0.0936339350,
0.0104124280,
0.0129667400,
-0.0016396287,
0.0671743400,
-0.0159143840,
0.1233670600,
0.0469178100,
-0.0439458150,
-0.0200673840,
-0.0021675890,
0.0510482530,
0.0241958980,
-0.0270739600,
0.0573261100,
0.1155706700,
-0.0343714060,
-0.0808728300,
0.0150850100,
-0.0121663090,
0.0342114530,
-0.0922741500,
-0.0427467150,
0.1303297000,
-0.1151921800,
-0.3153254000,
-0.0647874200,
-0.0390546100,
0.0817150700,
-0.1347594300,
-0.1292201100,
0.0731061900,
-0.1820063000,
-0.3864056200,
0.0905011000,
-0.0177175440,
0.0856703900,
-0.0349686370,
-0.2811145200,
0.0076503796,
-0.0576913130,
-0.3163146700,
-0.0644378960,
0.0676836900,
0.0750616800,
0.0518064460,
-0.2510480300,
-0.0539556780,
0.0425258350,
-0.3528152400,
-0.1628608600,
0.1303443600,
-0.2125306100,
0.2491920600,
-0.3946798000,
0.0549627580,
0.0812566800,
-0.1443970500,
-0.1213310800,
0.0151581410,
-0.3954806300,
0.1360590600,
-0.5603444000,
0.0519295860,
-0.0831327660,
0.1511832000,
0.0426339700,
-0.0501885900,
-0.3765995200,
0.0132720290,
-0.5733769000,
-0.0721737200,
0.0320235230,
0.1895644400,
0.1460781700,
-0.1154251000,
0.0019477616,
-0.0053245900,
-0.3565897600,
-0.1792031700,
0.0386237170,
0.0912321800,
0.0794296500,
-0.0731947500,
0.1696746000,
0.0796376500,
-0.2068630300,
-0.3002182800,
0.1020354700,
-0.0099500010,
-0.0543660820,
-0.0073226510,
0.0899634700,
0.0886681100,
-0.1440896000,
-0.1887384400,
-0.0101687720,
0.1059803700,
0.0197379570,
0.0921702100,
0.2594807000,
-0.0378468330,
-0.0528570380,
0.1639439800,
-0.0437777530,
-0.2140462500,
0.0303010290,
0.0690100700,
0.1925418700,
-0.0832508000,
0.0630660000,
0.0771215400,
-0.1695333600,
0.0036490473,
0.0356253760,
-0.0035297016,
-0.0219331600,
-0.0142622080,
0.1094396600,
-0.1608149900,
0.0288947880,
-0.0463702100,
0.0352694280,
0.0952288000,
0.0519706400,
0.0718709100,
0.0973189250,
-0.0661867200,
0.0999871940,
0.0519488980,
-0.1045719700,
0.0910130400,
0.1432690900,
0.0939464940,
0.1527877900,
0.0153976530,
0.0738256100,
-0.1815693800,
-0.1783944500,
0.0594083780,
0.2083380000,
-0.0999632100,
-0.0145392570,
-0.0806416600,
-0.0545954400,
-0.0714616400,
-0.0549534300,
-0.0224249770,
0.1493630700,
0.0005666895,
-0.0056383032,
-0.1501179300,
-0.0735951800,
-0.0937181800,
-0.0738481660,
-0.0096110460,
0.0366377350,
0.0730613100,
-0.0283834650,
-0.0929806750,
0.1002293000,
-0.1491273200,
0.0151330010,
-0.0111764120,
0.0203304460,
-0.0305054410,
0.0677959600,
0.0149783900,
-0.0396703030,
-0.0199576490,
0.0207650180,
0.0023623840,
0.0216069580,
-0.0664909200,
0.1689599900,
0.0649147600,
-0.0124900390,
-0.0485551430,
-0.0056973333,
0.0257921240,
0.0402222000,
-0.0260300750,
0.0698332600,
0.1655549900,
0.0047161150,
-0.1886977300,
0.0147163620,
-0.0429662170,
-0.0654292000,
0.0014337739,
0.0396679860,
0.2649238000,
-0.0200188590,
-0.3712152800,
-0.0355328060,
-0.0518431960,
0.0162401300,
0.0643598660,
-0.0533364150,
0.1401542900,
-0.0126751250,
-0.4286227500,
0.0606144070,
-0.0231898050,
-0.0118054200,
-0.1177389100,
-0.0746157400,
0.1293485600,
0.0876811500,
-0.3351072000,
-0.0568904800,
0.0221011100,
-0.0757650660,
-0.0537908800,
-0.0096688030,
0.0493642350,
0.0649996600,
-0.4859108600,
-0.0667716340,
0.0976766000,
-0.2248244600,
0.1467581400,
0.0162971520,
0.0813855000,
0.0185519030,
-0.3757391300,
0.0223543140,
0.1123909650,
-0.2892537000,
0.1783601000,
-0.1744305200,
0.0184903950,
0.0449087100,
0.0119228800,
0.1479093100,
0.0662540600,
-0.2176083200,
0.0921667000,
-0.4408268300,
-0.1352806800,
0.0453494150,
-0.1327538300,
0.2537748000,
-0.0343208870,
0.0685603100,
0.0158571700,
-0.2261195300,
-0.1712208400,
0.0619832000,
-0.0612229150,
-0.0576118830,
-0.0906200500,
0.0515978200,
0.0120596380,
-0.2904992700,
-0.1428569100,
0.0732287900,
-0.0575503100,
-0.1273600500,
-0.0227836560,
0.1138979900,
-0.0985120000,
-0.1273173800,
0.0502386760,
0.0742530200,
0.0322917700,
-0.0035266003,
0.0819647240,
0.2123134100,
-0.0663329400,
-0.0668804940,
0.1848487600,
-0.0490787960,
-0.0552907060,
-0.0612551600,
0.0692226960,
0.0386786200,
0.0048077720,
-0.1168115400,
0.0378967600,
-0.0777072200,
0.0513474160,
-0.0134789720,
-0.0208188200,
0.0038219416,
-0.0361861000,
0.0512574500,
-0.0808057340,
0.0803657600,
-0.0368637550,
-0.0870089600,
-0.0021116787,
0.0568985530,
0.0288489850,
0.1253927800,
0.0873899300,
-0.0012315444,
-0.0568203140,
-0.0932004750,
0.0116672560,
0.1436485500,
-0.1017912550,
0.0813530700,
0.1118891000,
-0.0412833800,
-0.1550501400,
-0.2163913500,
0.0401129460,
0.2898017800,
-0.0987160700,
-0.0854764000,
-0.1130252260,
-0.1100517400,
-0.1522354300,
-0.0987553400,
-0.0328657330,
0.1379798700,
-0.0519195700,
-0.0858674000,
-0.2014721500,
-0.0481422060,
-0.1176331200,
-0.0930851100,
-0.0318050700,
0.0636839350,
0.0220617860,
-0.1496024600,
-0.1444433800,
0.0363842440,
-0.1567984400,
0.0177542960,
-0.0116026470,
-0.0439717320,
-0.0146741660,
0.1318204000,
-0.0664965000,
0.0227632840,
0.0341534170,
0.1273134400,
-0.0276197460,
-0.0026003872,
-0.0607151870,
0.2659698400,
0.0544898400,
-0.0083785160,
0.0858003940,
0.1414095500,
0.0109421910,
-0.0629418940,
-0.0119867280,
0.1696707200,
0.0737880800,
0.0493809200,
-0.1306910000,
-0.0167862720,
0.0004526497,
-0.1012423860,
-0.0891127500,
0.0663865660,
0.1297642300,
0.0626538700,
-0.2689787100,
0.0711816300,
-0.0144889260,
-0.1042308400,
0.0078871790,
0.1201599300,
0.0577970070,
0.1055394260,
-0.3259638000,
0.1041427500,
-0.0044510660,
-0.1387612100,
0.0439205020,
0.1542134100,
0.1112217000,
0.0762917400,
-0.2806940000,
0.1199957800,
0.0238265280,
-0.1661198700,
0.0507571140,
0.1398458200,
0.1417364800,
0.1179881000,
-0.4367287200,
-0.1731483000,
0.1157569400,
-0.3062943000,
0.0664250800,
0.0398683800,
0.1744497900,
0.0845788800,
-0.4150413000,
-0.1937690100,
0.0564960280,
-0.3218058300,
0.0374434200,
0.0925296700,
0.0045418977,
0.0983267050,
-0.3413054600,
0.0765368100,
0.0430107820,
-0.2622794800,
0.1463934300,
-0.0949541000,
-0.0121413610,
0.0642851140,
-0.3581414000,
0.0944220000,
-0.1049199900,
0.0570523500,
0.0233694450,
-0.2493538600,
-0.1774136100,
0.0999754740,
-0.3302196300,
-0.1408756100,
-0.0314874720,
0.0527918970,
-0.0177751900,
-0.1277032600,
-0.0478800650,
0.1082653300,
-0.2648914000,
-0.1350734800,
0.0471573960,
0.0845682550,
-0.0476753970,
-0.0016006506,
0.1032485500,
0.0651558860,
-0.0699716500,
-0.0038168312,
0.0155516010,
0.0842991200,
-0.0249095150,
-0.1509699400,
0.1496025500,
-0.0846394100,
-0.0137256930,
-0.0795395750,
0.0294571910,
-0.0544822630,
-0.0267519750,
-0.0718847700,
-0.0082653150,
-0.1173900960,
0.0811909360,
-0.1530234800,
-0.0248977150,
-0.0092688210,
0.0607139600,
-0.0755127900,
0.0970517400,
-0.1067681760,
-0.0311620120,
0.0008260333,
-0.0703563100,
0.0107206150,
-0.0069591730,
0.0489613500,
0.2499206000,
-0.0914718100,
0.1600819400,
0.0493277830,
-0.0497969540,
0.0618850440,
-0.0443366730,
-0.0332728920,
0.1266708800,
-0.0486389550,
-0.0140251790,
0.0346289900,
-0.0108360145,
0.0930664000,
-0.0702498500,
-0.0437030570,
-0.2123541200,
-0.1023580360,
-0.0498280930,
0.0815968500,
0.0011401833,
0.0227388370,
-0.0560406040,
-0.0613256250,
-0.2337608000,
-0.0643816400,
-0.0852286740,
0.0262314880,
-0.0601680870,
0.0095274765,
-0.0819491200,
-0.1583220000,
-0.2578438800,
-0.0771371700,
-0.0125815270,
0.0759853650,
-0.0145770210,
0.0026510960,
-0.0398291800,
0.0211089480,
-0.0171067680,
0.0135449010,
0.0650760900,
0.1438164700,
0.0372293000,
-0.0109062990,
-0.0221477280,
0.1152027600,
-0.1309790900,
-0.1129898700,
0.0393086820,
0.1774430300,
0.0517290600,
-0.0706992400,
0.0184573740,
0.1795461000,
-0.1006991900,
0.0341940000,
-0.0208299660,
0.1865862900,
-0.0178163670,
-0.0868973700,
0.0738614300,
0.2597856800,
0.0622780100,
0.0046980325,
-0.1402037100,
0.2525204400,
-0.0664934500,
-0.0782422900,
0.1049877500,
0.3370962000,
0.1011929500,
-0.0522186270,
-0.1775760400,
0.2015733100,
0.0121078600,
-0.1267120500,
0.0893577500,
0.3115669500,
0.0395612100,
0.0177341180,
-0.2082202600,
0.0928125300,
0.0558464380,
-0.1612628100,
-0.0258441870,
0.1080239000,
0.0055810427,
-0.0404837840,
-0.3859089000,
-0.1765738700,
0.0405842600,
-0.2466040300,
0.0061471816,
0.1346233300,
0.0432616730,
0.0857475300,
-0.3945372400,
-0.2212502700,
0.0024955522,
-0.3502662800,
-0.0623985340,
0.2612101400,
0.0131498220,
0.0539123940,
-0.3329770000,
0.1199027300,
-0.1058032300,
-0.2963134600,
-0.0431164300,
0.2286216900,
-0.0174973960,
0.0658041460,
-0.3882633000,
0.2174296400,
-0.1320546600,
0.0521977600,
-0.0494071880,
0.0321181160,
-0.1038181300,
-0.1503176800,
-0.2597922000,
0.1579573200,
-0.0081053700,
0.0554799440,
0.0189353840,
0.0576183240,
-0.0296004080,
-0.0634649250,
-0.2770019500,
-0.0363701400,
0.0360003000,
0.0942869000,
0.1235077100,
0.0743449000,
0.0216416460,
0.0024628527,
-0.1352682900,
0.1664537600,
0.0081562480,
0.1149489950,
0.1154231000,
-0.1833830600,
0.0004948844,
-0.1124915400,
0.0324528300,
0.1120606140,
-0.0039842427,
0.0746033300,
0.0465898400,
-0.1209137400,
0.0031588865,
-0.0499041270,
0.0174993970,
-0.0326020530,
-0.0894396600,
0.2277265300,
-0.0554279400,
-0.0982259800,
0.1260417700,
0.0441589280,
0.0278192500,
-0.0627970250,
-0.0682311950,
0.1808536400,
0.0578726640,
-0.0520534660,
0.0341260170,
-0.0452846140,
0.1643407800,
-0.0310144540,
0.0125454000,
0.0177835800,
-0.0479856600,
-0.0568840600,
-0.1782618300,
-0.0880747100,
-0.0218756010,
-0.0276290680,
0.0754632100,
0.0081112210,
-0.1659200200,
0.0771460760,
-0.2522325500,
-0.0523225330,
-0.0737816300,
0.0728961300,
-0.0395707150,
0.0187531640,
0.0096471890,
-0.1014146000,
-0.2571999700,
-0.0304116070,
-0.0091434060,
-0.0741773900,
0.0069212336,
-0.0426074830,
-0.0766805000,
-0.1498812900,
-0.1981560400,
-0.0405182880,
0.0358523880,
0.0621993470,
0.0180985830,
-0.0366339530,
0.0246948280,
-0.1245935300,
-0.0575162840,
-0.0204128900,
0.0021554525,
0.1808863900,
-0.0244947630,
-0.0804696160,
-0.0017400478,
-0.0760753000,
-0.1022451740,
-0.0134763500,
0.1079762600,
0.2214703100,
0.0428432450,
-0.0829564850,
0.0215674200,
0.1050577100,
-0.0599712700,
-0.0506772960,
0.0989448900,
0.1709124300,
-0.0167520460,
-0.0559213980,
0.0833497300,
0.2150880500,
-0.0421963220,
-0.0727947300,
0.0699675160,
0.1590582300,
-0.0072979130,
-0.1381250800,
0.1248198700,
0.2061638100,
0.0425893850,
-0.0674470000,
-0.0215991680,
0.0727612800,
0.0044181210,
-0.1874167200,
0.0553851400,
0.2013512300,
0.0562923070,
-0.0904371700,
-0.0668090000,
0.0560392800,
-0.0037498195,
-0.2465154200,
-0.1216467800,
0.1886252200,
0.0339031200,
-0.0362728500,
-0.0000908251,
0.0888190500,
-0.0544389040,
-0.1183882400,
-0.0724807400,
0.2698898300,
0.1108350800,
0.0248332320,
-0.1316251200,
-0.0674534500,
-0.0755855960,
-0.1111030300,
-0.0627025800,
0.2638560800,
0.0242653750,
-0.0574399230,
-0.1161200000,
-0.1237685400,
-0.0416890050,
0.0146843230,
-0.0958022300,
0.1747045200,
0.0838120600,
-0.0510864970,
-0.2241639600,
0.0220166170,
-0.0277361460,
0.2416473900,
-0.0524299260,
0.0851468300,
0.1381131000,
-0.1880246000,
-0.1946922100,
0.0290951370,
0.0532346670,
0.1930620700,
-0.1840817500,
-0.0626841700,
0.1107335800,
-0.1865483800,
-0.2551674200,
0.1015769700,
-0.0147576390,
0.0741508600,
0.0597139340,
-0.0655685960,
-0.1469728600,
-0.1703877400,
-0.0969883100,
0.2783329800,
-0.0237265040,
0.0303020570,
0.1580355500,
-0.0553421040,
-0.1843630000,
-0.2003009000,
0.1086915100,
0.2312540400,
-0.1019892300,
0.1953038000,
-0.0402822100,
0.1877195000,
-0.0334099270,
-0.1164275850,
0.1604517300,
0.2485921500,
-0.0275607350,
0.3521498000,
0.0003773226,
-0.1095182750,
-0.0312359200,
-0.0532412530,
0.1051890600,
0.1659617300,
-0.0448112750,
0.2909597200,
-0.0012748848,
-0.0902986900,
-0.0612793830,
-0.1157548800,
0.1141444100,
0.0507670340,
0.0428231300,
0.0433390070,
-0.0598865450,
0.0825691900,
-0.2317267400,
-0.1614599000,
0.0715291400,
-0.1087892600,
-0.0020266925,
0.0171008690,
-0.0710826700,
-0.0121786940,
-0.2358830600,
-0.0679110440,
-0.0862205700,
-0.0355263870,
-0.0467568450,
0.0035776682,
0.0989404800,
-0.0076535833,
-0.1523084200,
0.0195576530,
0.0290347300,
-0.0111750660,
-0.0562171450,
-0.0021421167,
-0.0732058200,
-0.0878129300,
-0.1663860400,
0.0816625100,
0.0515546720,
0.0755579800,
0.0348605700,
0.0410002250,
-0.0085650160,
-0.1433568700,
-0.0322109300,
-0.0148625690,
-0.0252604820,
0.1221074760,
0.0260608960,
-0.0453948560,
0.0107065680,
-0.2050698400,
-0.0773567900,
0.0303229350,
0.0717560100,
0.0972366100,
-0.0386661300,
0.0329238740,
-0.0089833100,
-0.0525119100,
-0.0266152120,
-0.0691871500,
0.1356948900,
0.0378967200,
-0.0237329170,
0.0198549140,
-0.0363011600,
-0.0099434330,
-0.0100993270,
-0.0522175100,
0.2914964600,
-0.0807731750,
0.0115425730,
-0.0011024750,
-0.0442043900,
-0.0039660660,
0.0179820120,
-0.2168451800,
0.2382074600,
-0.0107820500,
0.0639383050,
-0.1196537240,
-0.1301839500,
0.0368061480,
0.0674203800,
-0.2094119300,
0.3060563000,
0.1431197200,
0.0333910800,
-0.1681089400,
-0.1058996900,
0.0500284470,
0.0057409904,
-0.1650941500,
0.2726867500,
0.0888950450,
0.0060336203,
-0.1582514500,
-0.1644821300,
0.0063076910,
0.1042537300,
-0.0819109500,
0.0332255360,
-0.0762422760,
-0.0676804800,
-0.0147204670,
-0.0641252900,
0.0761339000,
-0.0434894230,
-0.1786564300,
-0.0351902880,
-0.1387222400,
-0.0748788100,
-0.0772984800,
-0.1367702800,
0.1982694000,
0.0050656360,
-0.1113236400,
0.0156319630,
-0.0423456430,
0.0088285350,
0.0579770430,
-0.0247254900,
0.1659581200,
0.0667812600,
-0.2409267000,
-0.0822580160,
0.0766172800,
0.0597016300,
0.1307678000,
-0.0597170300,
-0.0657631200,
0.0976174100,
-0.0998906300,
-0.0930957600,
0.2600865400,
0.0380637240,
0.0976755250,
0.0699273300,
-0.0123867610,
-0.0556373970,
-0.1302809700,
-0.0892127000,
0.2527696800,
-0.0355125850,
0.0384704140,
0.0735964800,
-0.0036457484,
-0.0478387000,
-0.0979678000,
-0.0310865420,
0.3270789000,
-0.0817133200,
0.1897256200,
-0.0464481340,
0.0523541570,
-0.0564336600,
0.0024545663,
0.0367211550,
0.3330763600,
-0.0296252870,
0.2210680700,
0.0191107990,
-0.0682602200,
-0.1263349000,
0.0834891200,
0.0311777260,
0.1686485300,
-0.0653228760,
0.2130143000,
0.0349075800,
0.0516684400,
-0.2241439500,
0.0213849450,
0.0290965720,
0.0302821060,
-0.0184135980,
0.0260791890,
-0.0578826850,
0.0306128860,
-0.2362844000,
-0.0706426000,
-0.0949683300,
-0.0099649380,
0.0060660876,
-0.1070430060,
-0.0057846694,
-0.0097907370,
-0.1800243100,
-0.0603644660,
-0.0839399800,
0.0315347000,
-0.0186149050,
0.0286546330,
-0.0368309770,
-0.0099234410,
-0.0637903300,
0.0021480220,
0.0040044240,
0.0957775700,
-0.0284835830,
-0.0426307470,
-0.0936635600,
-0.1342232700,
-0.0807846300,
0.0122982460,
-0.0375925040,
0.0216627720,
-0.0014900066,
-0.0080786925,
0.0333685000,
0.0556440430,
0.0266134890,
0.0028727318,
0.0151607030,
0.0655550900,
-0.0132880130,
0.0541410000,
-0.0053005656,
-0.0159926790,
-0.0706385100,
0.0539023500,
0.1091775700,
-0.0174351560,
0.0189762430,
0.0681040360,
-0.0567744450,
-0.0724059500,
-0.1060638500,
-0.0357045400,
0.1930535900,
-0.0537297650,
0.0172880070,
-0.0030296250,
-0.1384624700,
-0.2279422100,
-0.0396912950,
-0.1171492300,
0.2085208100,
-0.1495491700,
0.0408837800,
0.0778581800,
-0.0757290050,
-0.3181829200,
0.0176427850,
-0.2761834000,
0.1552365100,
-0.1134590700,
0.0722234900,
0.0113480510,
-0.0962549200,
-0.1711190600,
0.0613135320,
-0.2879787000,
0.2366885400,
0.0644302140,
0.0872848000,
-0.1345784200,
-0.1848979300,
0.0103316605,
0.1635990900,
-0.2145304400,
0.2609161000,
0.1635046000,
0.0621539130,
-0.1754083600,
-0.1589831700,
-0.0338931900,
0.0486909100,
-0.3147949600,
0.1859147000,
0.0034621798,
0.0272585940,
-0.0399431060,
-0.1904710500,
-0.1706433000,
0.0213147530,
-0.2345116000,
0.1330629300,
0.1694855800,
-0.0603411160,
-0.0428542160,
-0.1166926200,
-0.0757847650,
0.0402738230,
-0.1363171800,
0.1775511800,
0.1488281800,
0.0386616660,
0.0703616400,
-0.1566687000,
-0.0802045800,
0.1268909400,
-0.1072888200,
0.1376352600,
-0.0422506930,
0.0409346600,
0.0620502600,
-0.0304535800,
-0.0176693130,
0.0503805900,
0.0378590750,
-0.0112444000,
0.0409076550,
-0.0883843450,
0.1339980800,
0.1330574300,
0.0089103080,
-0.0918432550,
-0.0679761900,
-0.0769220100,
0.0731462760,
-0.1529929000,
0.0202188750,
0.1044093150,
0.0530558400,
-0.0862969000,
-0.0044807530,
0.0329321180,
0.1528900700,
-0.0968266900,
0.0297654360,
-0.1168538700,
0.0438723640,
-0.1433721800,
0.0774798800,
0.1208092000,
0.1047741250,
-0.0941475200,
0.0795800500,
0.0620547570,
0.0638664440,
-0.0865676800,
0.0145130260,
0.0433370020,
0.1039387400,
-0.0093606460,
0.0264258480,
0.0800310500,
0.0754385400,
-0.2303710400,
-0.1355489300,
-0.0902421300,
0.0748759060,
0.0310134660,
-0.0213779210,
-0.0572027820,
0.0141094980,
-0.2110896400,
-0.0941042300,
-0.0926032500,
0.0811915600,
0.0032843205,
-0.0363145900,
-0.0270243200,
-0.0846609550,
-0.1263630500,
-0.1615714000,
-0.0423552700,
0.2467317400,
0.0101761530,
0.0236256660,
-0.0302800050,
-0.0939539500,
-0.0174050160,
-0.0984385700,
-0.0468505800,
0.2669744800,
0.0018397853,
0.0200419910,
-0.0967210160,
-0.1127118540,
-0.0637929600,
0.0043836823,
-0.0962863600,
0.0097197555,
-0.0322057340,
0.0062606410,
-0.0032046083,
0.0688588400,
0.0062656784,
-0.0204425380,
0.0385555660,
-0.1098879200,
-0.0227755160,
0.0010693230,
0.0298241320,
0.0586550600,
-0.0829090900,
0.0476394500,
0.0998508700,
-0.0315999400,
-0.0324138180,
0.0563220400,
-0.0478106500,
0.0592264000,
-0.0845573600,
0.0099779210,
0.2073420100,
-0.0289455060,
-0.0582955370,
0.0016212523,
-0.0017996934,
-0.0984957140,
0.0414629100,
-0.1085340750,
0.1711467200,
-0.1908509100,
-0.0621062900,
0.0502595940,
-0.0327125080,
-0.1518857300,
0.0095208390,
-0.1496784400,
0.2101686900,
0.0492887050,
-0.0531406920,
0.0848932600,
-0.0064200144,
-0.2331484900,
0.0414719300,
-0.1275990600,
0.2656503600,
0.0060756034,
-0.0433059040,
-0.0068427890,
0.0460251720,
-0.2204830000,
0.1179766500,
-0.2374431600,
0.1860472900,
-0.1132369340,
-0.0428374400,
-0.0983597040,
0.0683144400,
-0.1759914000,
0.0891196360,
-0.3325561000,
0.0820579400,
-0.0009838039,
0.0372340270,
-0.0046511890,
-0.0001385420,
-0.1183501200,
0.0367204620,
-0.1905594600,
0.0911980200,
0.1765908000,
0.0075079620,
0.0173124950,
-0.0533875080,
0.0148126680,
-0.0697240460,
-0.1486968700,
0.0174820520,
0.1395174900,
0.0205880030,
0.0510143100,
-0.0352704520,
-0.0580398140,
-0.0067015990,
-0.0955216140,
0.0118676670,
-0.0413032500,
0.0205698810,
-0.0526436160,
0.0107413680,
-0.0653991850,
-0.0179818940,
-0.0277423430,
-0.1140988600,
0.1247177050,
-0.1627140200,
0.1121014400,
0.1464430100,
-0.0627468150,
-0.0903492640,
-0.2035868900,
-0.0074921950,
0.0314489980,
-0.0788200000,
0.0458588500,
0.0682106540,
0.0360586300,
-0.1553403000,
-0.0818806800,
0.0438812400,
0.2039853200,
-0.0924883700,
-0.0573380920,
0.0658560400,
-0.0086626380,
-0.1081126850,
0.0159804880,
0.0942736400,
0.2927960200,
0.0044782810,
0.0894965700,
0.0338166540,
0.1249267600,
-0.1088543900,
-0.1580298500,
0.0461482500,
0.1581805500,
0.0230506830,
0.0870989100,
0.0028995103,
0.0078323810,
-0.1262815300,
-0.2278647400,
-0.0862689500,
0.2311178700,
0.0241809710,
0.0173213440,
0.0460898760,
-0.2227080500,
-0.1104790400,
-0.1294740400,
-0.1025277600,
0.2287631800,
0.0494907540,
-0.0756645400,
0.0661686400,
-0.2371425600,
-0.0308226590,
-0.1414033000,
-0.1334363200,
0.1934762300,
-0.0313803630,
0.0440509900,
0.0261456040,
-0.1087304100,
-0.0153559530,
-0.0731915800,
-0.1019749200,
0.1973764700,
-0.0207982770,
-0.0235779660,
-0.0735152440,
-0.0821576940,
-0.0721902300,
-0.0445769170,
-0.0221251400,
0.0111919800,
-0.0193631050,
0.0398126200,
-0.0178683620,
0.0779772700,
-0.0329925530,
0.0197584480,
0.0244453270,
-0.0250716470,
-0.0015446348,
-0.0314047900,
-0.0054154987,
0.0045964685,
-0.0637940600,
-0.0199269950,
0.0154649750,
-0.0553333240,
-0.0207720030,
0.0406286270,
-0.0177841260,
0.0463502520,
-0.0455961340,
0.0605774500,
0.1195832700,
-0.0024334113,
-0.0345481040,
0.0126221010,
-0.0333210700,
0.1073944300,
-0.0161430760,
-0.0694988150,
0.1105350500,
0.0825016300,
-0.0553447340,
0.0681447900,
-0.0111018410,
0.1141358000,
-0.0684475400,
-0.1025619800,
0.1248761600,
0.1061226950,
-0.0412991050,
0.0753084200,
0.0348555100,
0.1109370000,
-0.0261122160,
-0.1328459000,
0.0824202200,
-0.0176106620,
-0.0434773700,
0.0309492160,
-0.0161085970,
-0.0368533950,
0.0010682200,
-0.1760801100,
-0.0090934620,
0.0816258640,
0.0008765305,
-0.0534678440,
0.0677677100,
-0.0990285900,
0.0509107300,
-0.1200662200,
0.0558402900,
0.2143120000,
0.0516254050,
-0.0886098800,
0.0466937870,
-0.0134181800,
-0.0881472500,
0.0481161770,
0.0763942100,
0.1763061700,
0.0184018310,
-0.0717581200,
-0.0306540400,
0.0763178100,
-0.0148594715,
0.0156832990,
0.0581047530,
0.1703732000,
0.0260096060,
-0.1835757500,
-0.1259690500,
-0.0908103960,
-0.0448910630,
-0.0350738500,
0.3104622000,
0.1387057300,
-0.0534073750,
-0.1287381500,
-0.1464187200,
-0.1974019400,
-0.1091913900,
-0.1043982500,
0.2161439000,
0.1055764400,
-0.0732864200,
0.0130781820,
-0.0207740100,
-0.1040745200,
-0.2709873300,
-0.1118789100,
0.0543523100,
0.0475810240,
-0.0646750600,
-0.1172180400,
0.0196940080,
0.0062367413,
-0.1821214100,
0.0173346500,
-0.0213926640,
0.0427106840,
0.0659488400,
-0.1765005400,
0.0690770100,
-0.0223995820,
0.0019172826,
0.1204966750,
-0.0037546405,
0.1818887400,
-0.0187076220,
-0.0040112804,
0.1445335900,
-0.1270708300,
-0.0196528140,
-0.1223464200,
0.0137392020,
0.1438122400,
-0.0386051460,
-0.0156132060,
0.0092981190,
-0.3073520000,
0.0122453430,
-0.0382505100,
-0.1139499400,
0.2157862600,
-0.0008715134,
-0.0786496200,
0.1290989000,
-0.2135848600,
-0.0035074651,
0.1229737500,
-0.1723479200,
0.1842492800,
-0.0277294300,
-0.1161261300,
0.0534077320,
-0.1410288200,
-0.0664776400,
0.0331351460,
-0.0728289700,
0.1244313300,
0.0393900800,
-0.1106698140,
0.0422688050,
-0.0932696240,
-0.0178880640,
-0.0196073900,
0.0144297340,
0.0852360950,
-0.0091376640,
-0.0881396900,
-0.0259622400,
-0.0016025875,
0.0045808363,
-0.0373358650,
-0.0303267900,
-0.0180947170,
-0.0375883470,
0.0652391400,
0.0049917414,
0.0145880390,
0.0463558170,
-0.0138420990,
0.0399538730,
-0.0515162200,
0.0211329140,
0.0195037330,
-0.0154805025,
-0.0399100780,
-0.0003919420,
-0.0456070100,
0.0230963730,
0.0231764190,
-0.0325385700,
0.0023557045,
0.0008073163,
-0.0242910310,
-0.0259660480,
-0.0314143970,
0.0025482655,
0.0253542480,
0.0087506200,
0.0597190370,
-0.0623446370,
-0.0758764450,
-0.0375731000,
-0.0613780900,
0.0099621140,
-0.0802113700,
-0.1013459800,
0.1680270000,
-0.0216799040,
0.0098838010,
0.0166474560,
-0.0638733300,
0.0095812585,
0.0342371460,
-0.0212411820,
0.1478772500,
-0.0427015540,
0.0542898800,
-0.0055197235,
-0.0353032300,
0.0000545684,
-0.0012833917,
0.0020059387,
0.0767691800,
-0.1351313000,
0.0271879120,
-0.1603458400,
0.0996979900,
0.0209804180,
-0.0409871600,
-0.0231259540,
0.2203895700,
-0.0893184600,
0.0147652880,
-0.1509354000,
0.0134432770,
-0.0121400120,
0.0477135850,
-0.0831167900,
0.3265324000,
-0.1433994500,
0.0047505274,
-0.0701295000,
-0.0105344790,
-0.0284114930,
0.0684045550,
-0.0179159420,
0.3510796400,
0.1068262600,
-0.0601320400,
-0.1950258500,
0.0037284433,
-0.0430710700,
0.0544469470,
0.0343587180,
-0.0095028390,
0.2108933200,
0.0843006500,
-0.1370339000,
-0.0669334500,
0.0028216767,
0.1034943760,
0.1027025060,
-0.0409366500,
0.1830454000,
-0.0033515769,
-0.2098059200,
-0.1222863050,
0.0308316350,
0.0821900300,
-0.0287842470,
0.0876547400,
-0.0113317850,
0.0601666400,
-0.3087516400,
-0.0872066200,
0.0217952640,
-0.0655376800,
-0.0207281100,
-0.0491081900,
0.0408548970,
0.1060079900,
-0.1626070600,
0.0546787230,
0.0373914580,
-0.0677888400,
-0.0099696500,
-0.1693781000,
0.0893043950,
0.1090994850,
-0.1403424900,
0.0431426350,
0.0420683250,
-0.0184591640,
0.0445766400,
-0.3610272400,
0.0716356100,
-0.0547782780,
-0.1179313140,
0.1083377800,
0.0474719220,
-0.0952066300,
0.0305970420,
-0.2852462200,
0.0868572000,
-0.0038262636,
0.0708115200,
-0.0108449200,
0.0142317290,
0.0275086970,
0.1267290300,
-0.1478622400,
0.0435883960,
-0.0062868430,
0.1366699000,
0.1494266200,
-0.0287116100,
0.0791336000,
0.0506414400,
-0.1022338800,
-0.0071282694,
-0.0946124700,
0.0895876000,
0.1236471700,
-0.0313354770,
0.1182434860,
-0.0096787940,
-0.0827216100,
-0.0049167494,
-0.1345664300,
0.0227046530,
0.1817204800,
-0.0097752760,
0.0626661200,
0.0006879208,
-0.0920376700,
0.0074138160,
-0.1997741800,
-0.0040401127,
0.0836110340,
-0.0163294190,
-0.0230195730,
-0.0187229220,
0.0616983320,
0.0238401720,
-0.0373659430,
-0.0273265000,
-0.0464103970,
0.0086587220,
-0.0655097300,
0.0154774230,
0.0151984050,
-0.0037830172,
0.0242874790,
0.0142313030,
0.0013278772,
0.0022311092,
-0.1033305700,
-0.0051354040,
0.0997999300,
0.0249690150,
0.0268465500,
0.0544210400,
-0.0863968900,
0.0209221500,
-0.0732956160,
-0.1005766000,
0.0770494940,
0.0379185900,
-0.0637024500,
-0.0048347586,
-0.1246794100,
-0.0420916380,
-0.0054638833,
-0.2576177400,
0.1166878940,
0.0481270740,
-0.0791404200,
0.1008918000,
-0.0111312720,
-0.0200779680,
-0.0641066800,
-0.1626657500,
0.1296383700,
0.0032046302,
-0.0566484740,
0.0196695570,
0.1068086000,
-0.0193843790,
-0.1319926100,
-0.0738876100,
0.0350786670,
-0.0153603370,
-0.0389015530,
0.0109162800,
0.1361415100,
0.0398949900,
-0.0686556300,
0.0099869260,
0.0366982000,
0.0241336540,
0.0066488874,
-0.0168276990,
0.0653227050,
-0.0392561440,
-0.0121793650,
0.0599559300,
0.2552110600,
0.2276037000,
-0.0614927560,
0.0475249400,
-0.0122141420,
0.0444184880,
0.0639727340,
0.0302371230,
0.2699548300,
0.3229381000,
-0.1149707140,
-0.0235197020,
-0.0312345720,
-0.0248204020,
0.0357708370,
-0.0305599380,
0.0461728460,
0.3543234500,
0.1762881000,
-0.0185941870,
-0.0867854700,
-0.0411221900,
0.0315575380,
-0.0259457270,
0.1768228400,
0.3124548500,
0.0341618770,
0.0120609375,
0.0232665500,
0.0075760150,
-0.0009283884,
-0.0111527550,
0.1330901500,
0.1225580650,
-0.1430315100,
0.1004717600,
-0.1257643400,
-0.0058985150,
0.1740879700,
-0.0071042427,
-0.0411742440,
0.0622806060,
0.0108617180,
0.1067468300,
-0.1128465900,
0.0297604460,
0.2050627000,
-0.0255567560,
-0.1456492700,
-0.0090717080,
0.0779200940,
0.0824993900,
-0.0909564300,
-0.0338322300,
0.0883985760,
0.0734487500,
-0.2477966400,
0.0344462300,
-0.0478816480,
0.0093079550,
0.0694261500,
-0.0359881220,
-0.0603743420,
0.2259354600,
-0.1800452900,
0.1435552700,
0.0375381400,
0.0112078000,
0.1814140400,
-0.0208504200,
0.1023111300,
0.1503287400,
-0.0782659900,
0.0152166450,
0.0585802500,
-0.0021700035,
0.2834924500,
0.0069823410,
0.2030578000,
0.1401445300,
-0.1139817760,
0.0139029580,
-0.0499094870,
-0.0591615360,
0.2444861100,
0.0171350760,
0.0187821350,
0.1280100500,
-0.1695270500,
-0.0495155570,
-0.0156817120,
-0.0012481308,
0.0619101260,
0.0208611380,
0.0069432054,
0.0811638300,
-0.1679493600,
-0.1010799700,
-0.1032800400,
0.0151977210,
-0.0423428040,
-0.0229476340,
-0.0343673450,
0.0092073470,
0.0442956700,
0.0122144260,
-0.0238280260,
0.0452190600,
-0.0324412800,
-0.0343406720,
-0.1100637300,
-0.0068720244,
0.1557985700,
-0.0302486330,
0.0234818460,
-0.0426213150,
-0.0336318000,
0.0441487470,
-0.1566267800,
-0.0241411600,
0.2063914700,
-0.0121430860,
-0.0275567470,
0.0876533500,
-0.0696357860,
0.0292458140,
-0.1151658300,
-0.1369096300,
0.1102448400,
0.0747766100,
-0.1792475000,
0.0494273120,
-0.1263923300,
-0.0423100140,
-0.0433645840,
-0.2959070500,
-0.0122543740,
-0.0425253700,
-0.2131679800,
-0.0115962640,
-0.0473425130,
-0.0113192590,
-0.1358674800,
-0.1652937400,
0.0669051600,
-0.0321776760,
-0.1673374200,
0.0247360560,
-0.0470561940,
-0.0437086600,
-0.1361917400,
-0.0751559000,
0.0394474400,
0.0029127651,
0.0436804300,
0.1105733440,
-0.0166215750,
0.0429254900,
-0.1024328100,
-0.0529680200,
0.0316425450,
0.2630137500,
0.0548262260,
0.1552047000,
-0.0765352250,
-0.0068025530,
0.0525217020,
0.0069820480,
0.1387834000,
0.2226504700,
0.0161634700,
0.0765245850,
-0.1334458000,
0.0195313100,
0.0116628980,
-0.0191680900,
0.0980985100,
0.3119636200,
-0.0558883620,
-0.1111287500,
0.0092387000,
-0.0457222950,
-0.1819364900,
-0.0532734400,
0.2145560800,
0.1501844200,
0.1638072400,
-0.0929746300,
0.0470832440,
0.0305256450,
-0.1103230800,
0.1394190600,
0.2242101400,
0.2780750700,
0.0872914800,
-0.2542330600,
0.0078817280,
-0.0390019230,
-0.0858609150,
0.0505976640,
0.3107540300,
0.2274698900,
-0.0658554700,
-0.1224206240,
-0.1141501500,
-0.0572656730,
0.2311951500,
0.0343313000,
0.1513729500,
0.2614481200,
-0.0869207200,
0.0193047540,
-0.0849325600,
0.0087040060,
0.1177117900,
0.0256178140,
0.0414716530,
0.3578534000,
-0.0434814600,
0.0553280800,
-0.1359893700,
0.0214572000,
-0.1347305900,
0.1928820200,
-0.0887254000,
0.2936189000,
-0.0643076300,
0.0868956500,
-0.0460783300,
-0.0200586990,
-0.1233073100,
0.3171486600,
-0.0656974400,
0.2018682000,
0.0691763500,
-0.0812756100,
0.0254601500,
-0.0204961190,
0.1018290700,
0.1358667800,
-0.1732154500,
0.0452082940,
0.0627624900,
0.0487819840,
0.1184142100,
0.0183227580,
-0.0420934300,
0.0513329950,
-0.1522061000,
0.1591225400,
0.0205313170,
0.1425429100,
0.1560645600,
-0.0178123750,
-0.0623682800,
0.0384468730,
-0.1886566100,
0.0379883400,
0.0114377250,
0.1370027200,
0.1089896100,
0.0146054630,
0.0786026100,
0.1054816200,
-0.1642602400,
0.0079239620,
-0.0192228930,
0.0306121460,
0.1409243000,
-0.0330686000,
-0.0915575000,
-0.0465178270,
0.0575510260,
-0.0102709080,
-0.0300273130,
0.0340298600,
0.0284975040,
-0.0376467070,
-0.0403913500,
-0.0132783620,
0.1867380900,
0.0157023430,
0.0120953310,
0.0378843800,
-0.0696023000,
-0.0154131480,
-0.1373721000,
-0.0853639000,
0.3007719000,
0.0233142500,
-0.0486882000,
-0.0067607340,
-0.0508409200,
0.0120292980,
-0.1622080200,
-0.0852007900,
0.2206981200,
-0.0305158250,
-0.2355557200,
-0.0138162390,
-0.0117393740,
0.0066181803,
-0.0267698930,
-0.1143725440,
-0.0198089400,
-0.0445034700,
-0.1982742400,
-0.1002402160,
-0.0161570200,
0.0014291779,
-0.0511748100,
-0.0448804420,
0.0799331740,
-0.0044684187,
-0.2199549800,
-0.0158746480,
-0.0460252900,
0.0430141870,
-0.1211723300,
0.0572854060,
0.1133718900,
-0.0227177550,
-0.0249870210,
0.0835920000,
0.0033312150,
-0.0247594550,
-0.0669484600,
-0.0470349500,
0.0523285160,
0.0480175650,
0.0106499060,
0.1140858750,
-0.0002494942,
-0.0386691700,
0.0197803560,
0.0153183560,
-0.0193322920,
0.2193316400,
-0.1050467340,
0.0872930140,
0.0370466260,
-0.0382851100,
0.0730422100,
-0.0796999900,
-0.0110284170,
0.1940636000,
-0.0630846550,
0.1595551000,
-0.0025283662,
0.0312621330,
-0.0931933900,
-0.0108877960,
0.1163539600,
0.2142876500,
0.0196146160,
0.0684845000,
0.0460557900,
-0.0061667543,
0.0124368750,
0.1564139600,
-0.0283433440,
0.3334010800,
0.1000499000,
-0.0493682900,
0.0464390200,
0.0043922663,
0.1200170400,
0.1718493600,
0.0159661560,
0.1964590100,
0.0583956170,
-0.0647481800,
0.0056024217,
-0.0346807500,
0.0506035100,
0.1780294900,
0.1497485200,
0.1925705200,
0.2070284300,
0.0203117600,
-0.0567948450,
0.0208799470,
0.0402380600,
0.0790130650,
0.1094018400,
0.2866211000,
0.1205972950,
0.0491043850,
-0.0337081780,
-0.0205555870,
-0.1491964600,
0.1724314400,
-0.0047582500,
0.4114525300,
0.1238778600,
-0.0271317380,
-0.0195031670,
0.0289943760,
0.0048813764,
0.2777912600,
-0.1854184600,
0.2041160300,
0.1630744600,
-0.0035473073,
-0.0081376850,
-0.0130500840,
0.1485335100,
0.1868488200,
-0.1690903500,
0.2693682600,
-0.0595579150,
0.1178786800,
0.0310324370,
0.0248822140,
0.0263845380,
0.3120804400,
-0.1173923600,
0.2347683600,
-0.0949573740,
0.1998507700,
0.1103696500,
-0.0132359830,
-0.0127252300,
0.3185356300,
-0.1827228400,
0.0692488100,
0.1193738200,
0.1533822000,
0.2362828600,
0.0097080665,
0.1233206600,
0.1755248300,
-0.1465565300,
-0.1075477000,
-0.0803100900,
-0.0165206200,
0.1177337540,
0.0431787820,
-0.0140136090,
-0.0514916550,
-0.0001660959,
-0.0236332700,
0.0235319290,
0.0067756790,
0.0496236100,
-0.0377343780,
0.0028174934,
-0.0298198720,
0.1687431500,
-0.0448910440,
-0.0281682850,
0.0295896460,
0.0150699570,
-0.0401927800,
-0.0809961700,
-0.0726618500,
0.1434810900,
-0.0718665300,
-0.0878265500,
0.1292515000,
0.0656586200,
-0.0066192346,
-0.1396116000,
-0.0577892900,
0.0928899000,
-0.0527800700,
-0.1077318900,
-0.0421189600,
0.1405298700,
0.0455286240,
-0.2597488500,
0.0169376500,
-0.0082256130,
0.0492677470,
-0.1331340100,
-0.0396766960,
0.0745677900,
-0.0372043330,
-0.1649591200,
-0.0173476540,
0.0699437260,
0.0703595650,
-0.0321949700,
-0.0372205640,
-0.0133088280,
0.0105434125,
-0.1394524000,
-0.2401171600,
0.1567199200,
0.1093413800,
0.1639157800,
0.0173324010,
0.0016763313,
-0.0163520200,
-0.0875030800,
-0.1121034550,
-0.0752404600,
-0.0161861550,
0.1123304400,
0.0275482980,
-0.0370880900,
0.0110408560,
-0.0242805370,
0.0623669850,
-0.2144618600,
0.0211192200,
0.0134604180,
-0.0078398540,
-0.0082211580,
0.0135563930,
-0.0498302020,
0.0617085920,
-0.0887857900,
0.0760565850,
-0.0784117200,
0.1205965000,
0.1177224300,
0.0305590610,
-0.1053082500,
0.0369561840,
0.0572956000,
0.1147465100,
-0.0243573730,
-0.0067175380,
0.0910994800,
-0.0139590180,
-0.0465224270,
0.0192101800,
-0.0758668260,
0.0868409650,
-0.1345259700,
0.0776048200,
0.0319445020,
0.0249247770,
-0.0295192970,
0.1508977000,
0.1441198400,
0.1371633100,
-0.1473891600,
0.0151595360,
0.0074556540,
-0.0331462900,
-0.1352677600,
-0.0023794526,
0.1458511200,
0.0971268700,
0.2112129600,
0.1365892100,
0.0187928080,
-0.0443735600,
0.0703979700,
0.1151032150,
0.0365915930,
0.2135685500,
0.1979838900,
-0.0749336800,
0.0466468040,
-0.0249738660,
-0.0041738160,
0.1854554300,
0.1146480140,
0.3389435700,
0.1210186100,
0.0584607830,
0.0161357970,
0.0172702350,
-0.0765209650,
0.1693089300,
-0.1476214800,
0.1493769100,
0.0737197500,
0.0467844900,
-0.0789386600,
-0.0328351200,
0.0627557100,
0.2214649300,
-0.2717827000,
0.1220109800,
0.0685601160,
-0.1269333500,
-0.0767286200,
0.0188247400,
0.0032953355,
0.2030879100,
-0.2423841200,
0.0755057900,
-0.0518474880,
-0.1350013000,
0.1073997600,
-0.0015577034,
0.0008329111,
0.1527790300,
-0.2633383300,
0.0802180500,
0.1049084300,
0.0897372800,
0.1500804600,
0.0421086100,
-0.0725387400,
0.1739410200,
-0.1507380600,
-0.1859182300,
-0.0818641300,
0.0764342550,
-0.1136126500,
-0.0119106420,
-0.0376689620,
-0.0622860230,
0.0660964250,
0.0071432344,
-0.0361034900,
0.0929597100,
-0.0187826340,
0.0372919500,
-0.0427877830,
-0.0619115000,
0.0586872850,
-0.0837364900,
-0.0243010040,
0.0862377000,
0.0233350320,
-0.0013767749,
-0.0960590700,
-0.0477779620,
0.0193543230,
-0.1265944100,
-0.0548476300,
0.1790050100,
0.0422654700,
0.0324542000,
-0.1344540000,
-0.0988401400,
0.0943711250,
-0.0686471100,
0.0195508880,
0.0913123600,
0.1588652300,
-0.0131716250,
-0.1559399000,
0.0648607200,
0.0043695880,
-0.0019443211,
0.0027304788,
0.1007595360,
0.0805115850,
-0.0047385655,
-0.0495806370,
-0.0199314910,
0.0099880670,
0.0552030000,
0.0737041300,
0.1179185300,
0.0183376500,
0.0102689760,
0.0288456830,
-0.2578076400,
-0.1068600040,
-0.0773709500,
0.2050013800,
0.1237698050,
-0.0611854830,
-0.0082726930,
0.0932746400,
-0.0137153330,
-0.3587595500,
-0.1096040900,
0.1742324700,
0.0274922570,
-0.0565841650,
-0.0264757000,
0.0817872060,
0.0332620140,
-0.2035676400,
-0.1770572200,
-0.0053350613,
0.0047035630,
-0.0438965750,
-0.0249856400,
-0.0795081400,
-0.1195030200,
-0.0058318420,
-0.0282303150,
0.0074455210,
0.2119652800,
-0.0650439560,
0.0108215980,
-0.0682196600,
-0.2759733800,
-0.0163133460,
-0.2343783500,
0.0375386800,
0.1213148160,
0.0360261050,
0.0044998922,
-0.1779481300,
-0.1411395500,
0.0454742000,
-0.2752463800,
-0.2014821200,
0.0570859830,
-0.0068194900,
-0.0285558160,
-0.1218948700,
-0.1378944200,
0.3324894600,
0.0002520907,
-0.3448058000,
0.0656135500,
0.0322072060,
-0.0440242370,
0.0048614570,
-0.1650794000,
0.2021284600,
0.2378691400,
0.1605757000,
0.0133104590,
0.0245820000,
0.0248564000,
-0.0051863836,
-0.3781426000,
0.0923598600,
0.1868269400,
0.1025662700,
0.0318472530,
0.0047313073,
0.0122606070,
0.1331031900,
-0.2465218000,
-0.0557857640,
-0.1422197000,
0.0071243164,
-0.0368478000,
-0.0020980183,
-0.0084352370,
-0.0693712760,
-0.1050240700,
-0.4044941700,
-0.0059582125,
0.0601227500,
-0.0976013600,
-0.0501524770,
-0.0144788120,
-0.0382822000,
-0.0138789840,
-0.4540613000,
-0.0613888130,
0.0943729300,
-0.2535044000,
-0.0876873060,
0.0060723564,
-0.0520790030,
-0.1398777000,
-0.2211634000,
0.0601829070,
0.0817524700,
-0.1637223800,
0.0669207350,
0.0230120680,
-0.0294811460,
-0.2195953000,
-0.1632733200,
0.1567298500,
0.1077835200,
0.0672023740,
0.0072777937,
0.0344585930,
-0.1092111500,
-0.1420216700,
-0.0450466280,
-0.0310299860,
-0.0000202574,
0.0578419600,
-0.0286234170,
-0.0307737090,
0.0606953800,
-0.0041746770,
0.0501067530,
0.0224014910,
-0.0232765860,
-0.0181673910,
0.0001773134,
-0.0299891120,
0.0566686650,
0.0284648200,
-0.0312540530,
-0.0874228550,
-0.0943197500,
0.0369410800,
0.0061849854,
0.0111209940,
0.0466800400,
-0.0270237070,
-0.0205291320,
-0.0987793800,
-0.0308442400,
0.0818027100,
0.0565869500,
-0.0449082400,
0.0528189200,
-0.1215421400,
0.0545917560,
0.0016856898,
-0.0057800603,
0.1567376400,
0.2300759100,
-0.0284337570,
-0.0519172740,
0.1495651500,
0.0776412300,
-0.0181232620,
0.0027434274,
0.2098940900,
0.1364450900,
-0.0162989350,
-0.0799388140,
0.0225834980,
-0.0602061230,
0.0152923560,
0.0601414960,
0.2444841300,
0.1026682560,
0.0065883985,
0.0222228800,
-0.1055910140,
-0.1804638800,
-0.0350789130,
0.0992980300,
0.2104390900,
0.0830444600,
-0.0301524200,
-0.0156442040,
0.1677489900,
-0.1162024300,
0.0226631480,
-0.0364222600,
0.1356469800,
0.0636241400,
-0.0458614300,
0.0276544760,
-0.0149688680,
0.0467384120,
-0.1488983600,
-0.0787126350,
0.0428693970,
0.1223218500,
-0.0483851200,
-0.0659025200,
-0.0138495170,
0.0858486440,
-0.2462396000,
0.0319734500,
0.0042555965,
0.0541771460,
0.0335054000,
-0.2332303100,
-0.1604970800,
0.0470069050,
-0.3670646300,
-0.0675894250,
-0.1919720600,
-0.0963806000,
0.0219669400,
-0.0749227200,
-0.4390461400,
0.2925176000,
-0.2007385600,
-0.1425576000,
-0.2222211800,
0.0152015510,
-0.0092677480,
-0.0536493920,
-0.4933746200,
0.3621741000,
-0.2006297000,
-0.1939662800,
-0.1111833600,
0.0598402900,
0.0059304940,
0.0249736330,
-0.5767905000,
0.1944387100,
-0.1568585000,
0.1058991300,
0.0158652140,
-0.0173630170,
-0.0144666440,
0.0424564970,
-0.7105570000,
-0.0684100500,
-0.3527887800,
0.0547599000,
0.0805914700,
-0.1076554800,
-0.0055451120,
0.2214539000,
-0.7211644600,
-0.1063244340,
0.0840481700,
0.0580371500,
-0.0048391526,
-0.0454385060,
0.0089768160,
0.0287857020,
-0.5927294500,
-0.2879444700,
0.1590806400,
0.1951849000,
0.1495464900,
-0.1338891800,
-0.0302846860,
0.0424615500,
-0.4305900600,
-0.3722049000,
0.0396253760,
0.0942386700,
-0.0720125900,
-0.0452530640,
0.0113078900,
-0.0220506020,
-0.3657194700,
-0.2313997100,
0.1185626600,
0.0794880600,
-0.1108343600,
-0.0982940800,
-0.0208449980,
-0.1052656100,
-0.3201350600,
-0.1216250600,
0.0789124100,
0.0011694104,
0.0517748860,
-0.0861651450,
-0.0465823370,
-0.1618530500,
-0.3802211300,
-0.0389706340,
0.1065309300,
-0.0189474080,
-0.0554771870,
0.0360065900,
0.0405202840,
0.0233639650,
-0.0958604200,
0.0169357340,
0.0346461830,
-0.0416471200,
0.0011007062,
0.0170947430,
0.0438774560,
0.0610115200,
-0.0828087900,
-0.0461292560,
-0.0032849105,
-0.0027668688,
0.0113905510,
-0.0175611380,
-0.0310749320,
0.0626470600,
-0.1224046950,
-0.0170365700,
-0.0855170400,
0.0217384640,
0.1099284100,
0.1234200800,
-0.0161421280,
0.0921532700,
-0.1148466240,
-0.0326371450,
-0.0662933660,
0.0328757600,
0.1178925000,
0.1745036700,
-0.0066940114,
-0.0862925500,
0.0582531500,
-0.0637667400,
-0.0021890183,
-0.0398331060,
0.0057094684,
0.2763834300,
-0.0337405580,
-0.0541505300,
0.0360445750,
-0.1081617100,
-0.0180884660,
0.0687727560,
0.0438360940,
0.2294050600,
0.0210566800,
-0.0030989745,
-0.0637502200,
-0.0551010260,
-0.0941233260,
0.1241851400,
0.0947693300,
0.2018663600,
-0.0384731140,
-0.0195279720,
-0.0258672630,
0.0795293750,
-0.0292089360,
0.0468789860,
-0.0788464600,
0.1842515800,
-0.0176537260,
-0.0591486100,
0.0761929100,
0.1184519100,
-0.0503272230,
0.1322135500,
-0.3898056000,
0.1636435800,
-0.0043122154,
-0.1613057000,
0.3632645300,
0.1918790000,
-0.1289195400,
0.0739683660,
-0.5518985000,
0.0467045460,
0.0214839500,
-0.0414907820,
0.0779180100,
0.2030400600,
-0.1100593500,
0.1519946000,
-0.4852383700,
0.0963844660,
0.0366694370,
0.2346849700,
-0.2179209100,
0.2120831900,
-0.1782602400,
-0.1810048000,
-0.1748334300,
0.1935899700,
-0.0167198480,
0.1414628600,
-0.1129943400,
0.0410335960,
-0.3231465200,
-0.0667625440,
0.0299714520,
-0.0373240750,
0.0029408224,
0.0522906220,
-0.1510008900,
-0.1070583800,
-0.2720397000,
0.1543643600,
-0.1522434800,
-0.2099890900,
-0.0088383770,
-0.0259208570,
-0.3928181200,
-0.1361383500,
-0.0930021800,
0.1050790550,
-0.0957990200,
-0.2613918800,
-0.0202872210,
0.0917428060,
-0.6491181000,
-0.1161190050,
-0.0137282710,
-0.0069535193,
0.0511893900,
-0.1785309600,
0.0248961130,
0.0004241675,
-0.6417949000,
-0.2464870700,
0.2513083000,
-0.1387015300,
0.1381619700,
-0.0711029100,
0.0421885070,
0.0973468000,
-0.4736718800,
-0.1548921300,
0.1370306900,
-0.1783256500,
-0.0816377000,
-0.0759714900,
0.0387275440,
0.1407295900,
-0.3586374000,
-0.1138262300,
-0.0389842240,
-0.1009557250,
0.0670562200,
-0.0624742550,
-0.0391804130,
0.0261830990,
-0.3207354500,
-0.0602352840,
0.1011659300,
-0.0748517500,
0.0351572100,
-0.2113015400,
0.0002612192,
0.0220032630,
-0.3739573000,
-0.0720145300,
0.0240043350,
0.0525566700,
-0.1183478900,
0.0302528200,
0.0043400177,
-0.0581304130,
-0.0347142370,
0.0416024400,
0.0403709670,
-0.0322862080,
-0.0474087860,
0.0343800670,
0.0304192200,
0.0206548600,
-0.0289255120,
-0.0766302900,
-0.0665208900,
0.0000395265,
-0.0819067300,
-0.0174888990,
0.0419447270,
0.0973472740,
-0.1143679600,
-0.0196402840,
-0.1576022000,
0.0874171600,
-0.0869959900,
0.0013184734,
-0.0434080960,
0.0942341700,
-0.0220047850,
-0.1046785000,
-0.1964007900,
0.0152886440,
-0.1867166300,
0.0262374800,
0.0260305890,
-0.0150539500,
-0.0331001100,
-0.0974962400,
-0.0312077010,
0.0485093500,
-0.2159877000,
0.0948358200,
-0.0293613780,
-0.0988755500,
0.0042761997,
-0.0987627700,
-0.0249729200,
0.0965755060,
-0.2836758200,
0.1092561300,
-0.0254732610,
-0.0394763350,
0.0531966100,
-0.0308266950,
-0.0862600700,
0.2490003400,
-0.3921868800,
0.1878620100,
0.0592603460,
-0.0830379050,
0.0813762550,
0.0535819160,
-0.2552492600,
0.2057795400,
-0.4488078400,
0.0350023140,
-0.0056353165,
0.0396929980,
-0.0272038620,
0.0597439260,
-0.0650175200,
-0.0113348510,
-0.6092242600,
-0.0111442750,
0.0517457800,
0.0552421800,
0.0349124820,
0.1101987800,
-0.0007804984,
-0.1514380000,
-0.4587835700,
-0.0367206040,
-0.0112362120,
0.1590877200,
-0.0605031620,
0.0796043300,
0.0042842114,
-0.2456638400,
-0.2308207000,
-0.0845127400,
-0.0341389200,
0.1966672700,
-0.0635892100,
0.1405029900,
-0.1907343000,
-0.0320170000,
0.0796708540,
-0.0409542900,
-0.0229367780,
0.2459509200,
0.1071061940,
0.1346646100,
-0.0533108040,
-0.2258458600,
0.2384989700,
0.0293681680,
0.0399626420,
0.0267691460,
0.0427850220,
-0.0858487560,
0.0213025470,
0.0862392400,
-0.0050776945,
-0.0314209420,
-0.0458483800,
-0.1746951200,
-0.0049192677,
-0.1761928500,
-0.0291585400,
0.1533061100,
-0.0191738590,
-0.1003375200,
-0.0171952940,
-0.1085623100,
-0.1183893400,
-0.0911570040,
-0.0869243800,
-0.0125875440,
0.1026618200,
-0.0172470120,
0.0473717040,
-0.0318396950,
-0.3298390800,
-0.0609437450,
0.0458965300,
-0.2601760600,
-0.1180298900,
-0.0411461600,
-0.0057561737,
0.1852122100,
-0.2292667800,
-0.1161550900,
0.0306919100,
-0.1501039300,
-0.2238841500,
0.0051092347,
-0.0221889240,
0.1086227700,
-0.2203314300,
-0.0620043000,
0.0125006030,
-0.0974060100,
-0.0226652100,
-0.0891328600,
-0.0321271640,
0.0551362820,
-0.2345861600,
-0.0103814790,
-0.1017339500,
-0.0784069750,
-0.0440791620,
-0.1541704000,
0.0079385350,
0.1157055300,
-0.2533436400,
0.0207022730,
-0.1841807000,
-0.0263528320,
-0.1429342000,
0.0333709600,
0.0169483550,
0.0326314530,
-0.0280697140,
0.0368211750,
-0.0288923920,
-0.0192852430,
-0.1596555300,
-0.0356620360,
0.0407738870,
0.0427564570,
0.0201679060,
-0.0734674600,
-0.0401883300,
0.0061124433,
-0.1855592600,
0.0146184330,
-0.0326745440,
0.0560232550,
-0.0151558770,
-0.1039236200,
-0.0842061340,
0.0841727000,
-0.2430590700,
0.0393033030,
-0.0450583550,
0.0291644740,
0.0578659030,
-0.0625029800,
-0.2626298000,
0.0334700000,
-0.2668298200,
0.0360951760,
-0.0186745860,
-0.0131315500,
0.0719631760,
-0.0463440980,
0.0462765500,
0.0372262860,
-0.4082858300,
-0.0054056956,
0.0344177750,
0.0853325650,
-0.0025465982,
0.0187069530,
0.0625162100,
-0.0063340445,
-0.5397087000,
-0.0501006250,
0.0123399800,
0.0853535500,
0.0147895375,
0.0814302000,
0.0271895320,
-0.0916553700,
-0.5715133500,
-0.0705417540,
0.0005492147,
0.0596532970,
0.0297443100,
0.0554063000,
-0.0404714900,
-0.1203626500,
-0.4896305000,
-0.1256781500,
-0.0254726020,
0.0628841100,
0.0375255570,
0.0232106340,
0.0091769250,
-0.3296765000,
-0.1869068700,
-0.1740733200,
-0.0122345620,
0.0903998900,
0.0616601900,
-0.0365230740,
0.1296358700,
-0.5002179000,
0.0718722600,
-0.2154730900,
0.0066680065,
-0.0564970630,
0.0697850300,
0.0392643500,
-0.0631060100,
-0.1946007900,
0.0310877020,
0.0839563460,
-0.0197456980,
0.0648987500,
0.1194590800,
0.1152912800,
-0.0850948540,
-0.1939404200,
0.1608700800,
0.1515625100,
-0.0493401480,
0.1178827200,
0.1232429300,
-0.0964862500,
-0.1580745100,
-0.1794502100,
0.1813884500,
0.1145715200,
-0.0218767560,
0.1905589700,
-0.0024650232,
-0.1453935700,
0.1576921300,
-0.1296955600,
-0.0939365900,
-0.0452910600,
-0.0495308750,
0.1453212500,
-0.0506203700,
-0.1063032600,
-0.0057512955,
0.1394102400,
0.0823882000,
0.1021963400,
-0.0398284640,
0.0999025200,
0.0489366540,
0.0045384970,
-0.1137361700,
-0.0181763700,
0.1780267700,
0.0983232100,
0.0269193200,
0.2124557800,
-0.0725607650,
-0.0752765760,
-0.0147775690,
-0.2913406200,
-0.1299084300,
0.0708129200,
0.0055061300,
0.0672642900,
-0.0080000210,
-0.0821930100,
0.0539254020,
-0.0755617200,
-0.1154035550,
-0.0217618270,
0.0285279700,
0.1151983800,
0.0226709120,
-0.0813709400,
0.0297556180,
-0.1120552940,
0.0006331157,
0.0125634450,
-0.0492582360,
0.0480381730,
-0.1278802900,
0.0095830900,
-0.1994606300,
-0.0547689160,
0.0502541360,
0.0629504100,
-0.0391740300,
-0.1716336600,
-0.1828871700,
0.0320971160,
-0.2190649700,
-0.0055099432,
-0.0213439070,
0.1715907600,
0.0041187215,
0.0161525660,
-0.0333615000,
0.0467023740,
-0.0284027770,
-0.0286988100,
-0.0713206500,
-0.0315139140,
-0.0234799070,
0.0837668400,
-0.0178979780,
0.0252147450,
-0.0282302000,
-0.0081270430,
-0.1428731100,
0.0111614300,
-0.0133441750,
0.0345887650,
-0.0133580250,
-0.0445591840,
-0.1288502200,
-0.0254125320,
-0.2398237900,
-0.0615798230,
-0.0453692450,
-0.0364767160,
0.0360065360,
-0.0360050720,
-0.1144896750,
-0.0035278130,
-0.2771021700,
0.1070256600,
0.0237677100,
0.1442077500,
0.2297539300,
-0.0701911300,
-0.0762658200,
-0.0520967320,
-0.3933206000,
-0.0375991240,
-0.0204052460,
0.0950261300,
0.1135008700,
0.0697915800,
0.1159649100,
-0.1628958600,
-0.4792857200,
-0.1765976700,
0.0013038992,
-0.0565732420,
0.1461149800,
0.0091261435,
-0.0105025650,
-0.2299768200,
-0.3381200700,
-0.2760421000,
-0.0404192360,
0.0417938800,
-0.0260131060,
0.0075752353,
0.0150601030,
-0.2444350000,
-0.0079456990,
-0.2144781800,
-0.0022990194,
0.1025892100,
0.1475793700,
-0.0357310300,
-0.0314463040,
-0.2706846600,
0.1753359700,
-0.2839712000,
0.0003232233,
0.1819851100,
0.1544211200,
0.0590857680,
0.0590936000,
-0.2895591600,
0.1633390200,
0.0090052750,
-0.0322294300,
0.1432700900,
0.0031807811,
0.1584037100,
-0.1535185600,
-0.1263553800,
0.0573357050,
0.1614662300,
0.0104187670,
0.0335319400,
-0.0246067640,
0.0506977770,
-0.1347968100,
-0.0873144900,
0.1821086600,
0.2151629500,
-0.0427962200,
-0.0200414770,
-0.0243432950,
-0.1510889800,
0.1220167300,
-0.2023197100,
-0.0312220380,
0.0917972900,
-0.0148973600,
0.0525290740,
0.1005566200,
-0.1639127700,
0.0162651900,
-0.1270290600,
-0.0089405860,
-0.1670325000,
-0.0093037080,
0.1205657300,
-0.0184650640,
-0.1314581200,
0.0085001890,
0.1087481900,
0.1167408700,
0.0154350300,
0.0256129470,
0.1527069400,
-0.0473547100,
-0.0870310800,
-0.0458380650,
-0.1316335600,
0.2117473500,
0.0067330520,
-0.0113634900,
0.0526345800,
-0.0001114160,
-0.1329599500,
0.0091166140,
-0.1848455000,
0.0322069600,
-0.1219808760,
-0.0222443750,
-0.0059803600,
0.0338804720,
-0.0279541780,
0.0270127000,
-0.1065030840,
0.0472605800,
-0.1312144000,
-0.0246533860,
-0.0250448000,
0.0553032570,
0.0267080720,
-0.0331897850,
-0.2038885500,
0.0656638600,
-0.0913419100,
0.0251338030,
-0.0467718770,
-0.1734304100,
0.1694577300,
-0.1688678000,
-0.1502086000,
0.1167692700,
-0.0120318010,
-0.0077305070,
-0.2509310500,
-0.1545705500,
0.1707576700,
-0.0667637100,
-0.2197854000,
0.0802623800,
0.0454219770,
-0.0140766190,
0.0011794240,
-0.0137539790,
0.0308177170,
0.0064862280,
0.0302567130,
-0.0423675630,
-0.0235079450,
-0.0302085410,
0.0403603240,
-0.0898724800,
-0.0860329400,
-0.0354977900,
-0.0460764020,
-0.1232606400,
-0.0817336100,
-0.0035902446,
-0.0507569000,
-0.0754218250,
-0.0971192100,
-0.0131941890,
-0.0761848760,
-0.1925760000,
-0.0366362260,
0.0125154720,
-0.1356107300,
-0.0385334380,
-0.0609590040,
-0.0337081600,
-0.0784323300,
-0.1636159100,
0.0200225080,
0.0440754400,
0.1982854500,
0.0220450630,
0.0087904520,
-0.0089507300,
-0.2165468600,
-0.1344008400,
-0.0698947700,
-0.0112049190,
0.1360933200,
0.0836378500,
-0.0113363740,
0.0562815900,
-0.3794622400,
-0.1327697600,
-0.2496458300,
-0.0075354760,
-0.0303506530,
0.1311266100,
-0.0541488380,
-0.0717320300,
-0.3095694200,
-0.0578087420,
-0.3826930200,
-0.0533903950,
0.0205376650,
0.0927086300,
-0.0673309600,
-0.0165185970,
-0.1280238000,
0.0254453770,
-0.2029994700,
-0.0044840030,
-0.0308343020,
0.1667165200,
0.0888605640,
-0.1177716000,
-0.1747459300,
0.2054943900,
0.0142037290,
0.0054789716,
-0.0166350620,
0.2276503900,
-0.0373236130,
-0.0214220290,
-0.2509339700,
0.1322493400,
0.2489112900,
-0.0263177080,
0.2192798100,
-0.0406449770,
-0.0451023060,
-0.1264878400,
-0.2590469000,
0.1093025200,
0.2320565700,
0.0136141150,
0.1136100440,
-0.0292439950,
-0.1568462000,
0.1224144000,
-0.2637199500,
0.1395901100,
0.2040210000,
0.0163779720,
0.1985434700,
-0.0369167660,
-0.2101842600,
0.2308369100,
-0.1812893200,
0.0621509180,
0.0790229140,
-0.0256100100,
0.2885835500,
-0.0416456420,
0.1025283700,
0.0503966730,
-0.0253461130,
-0.0100244250,
0.0767760100,
-0.0080642440,
0.0421962600,
0.0246006060,
0.0923823340,
0.0839300750,
-0.0228872320,
0.2493914000,
0.0284073070,
-0.0077328330,
0.0255211610,
-0.0592885280,
-0.1765515700,
-0.0737455860,
-0.1978486200,
0.0959847900,
-0.0428401160,
-0.0358881350,
0.0346867960,
-0.0491646980,
-0.1822150200,
-0.0845949700,
-0.3267725400,
0.0194668000,
0.0029660135,
0.0179385430,
-0.1861693700,
-0.0117994540,
0.0844830000,
-0.0500769470,
-0.1526623000,
0.0691532400,
-0.1554388600,
-0.0196930710,
-0.0710959360,
0.0781193200,
0.0883080400,
-0.0871352000,
-0.2112936500,
0.0134975350,
-0.1960630600,
-0.0192549320,
-0.1481725000,
-0.0748158800,
0.1763730500,
-0.0611785280,
-0.3436536500,
0.1146285800,
-0.0366787350,
-0.0004497628,
-0.2566386200,
0.0236323890,
0.3366042700,
0.0590769460,
-0.3314069200,
0.1099470400,
-0.0913963400,
-0.0361334120,
0.0189698770,
-0.0435943040,
0.0396651770,
-0.0304526220,
-0.0381962550,
-0.0149544170,
-0.0708782400,
0.0069562416,
-0.0405070000,
-0.1191116400,
-0.0994322700,
0.0071186290,
-0.0276786540,
-0.0812917350,
-0.0139860510,
0.0466510170,
-0.0226738750,
-0.1221043700,
-0.1050916500,
-0.0499197300,
-0.0718815500,
-0.1332635700,
-0.0437052300,
-0.0378034820,
-0.0547700930,
-0.0775410600,
-0.1285624700,
0.0194808600,
-0.1740541000,
-0.0260494700,
-0.1467725800,
-0.0368505200,
0.2196104800,
-0.1352885000,
0.0919788700,
0.0716403700,
-0.1940831000,
0.0036306010,
-0.1614289300,
-0.0380694120,
0.1365023000,
0.0157362240,
-0.0205704010,
-0.1122151400,
-0.1459504200,
0.0704735300,
-0.4016482000,
0.0318734120,
0.1958171900,
0.0444276440,
0.0338339950,
-0.0812650300,
-0.2177830600,
-0.0132104910,
-0.1854368400,
-0.0283467880,
0.1578345000,
-0.0093953800,
-0.0492597700,
0.0379805230,
-0.0878737940,
-0.0064158340,
0.1112459450,
-0.0170779580,
0.1842315600,
0.1821679300,
-0.1474316300,
-0.1340661200,
0.0551556760,
0.2128634600,
0.4187287000,
0.0146529360,
0.0897830050,
0.2324859000,
-0.1634061300,
0.0602613130,
-0.0596281330,
0.1722549000,
0.2936670800,
0.0242589500,
0.1137484200,
-0.0290570650,
-0.1730745400,
0.2604598000,
-0.1467800700,
0.2082466800,
0.2349776200,
-0.0488646330,
0.1817310900,
0.0850238200,
-0.3135851600,
0.0994225300,
-0.1372298200,
0.0080396770,
0.1045267900,
0.0225709500,
0.2530065500,
0.0874410640,
-0.2056355500,
0.0456165000,
-0.0633605800,
0.0115147075,
-0.0819388300,
-0.0198929220,
0.1251978000,
-0.0361630700,
0.1024993060,
0.0378011130,
-0.0417269020,
0.0136900360,
-0.0594048870,
0.0421231000,
0.0297385040,
0.1273245800,
0.0138732440,
0.0294404010,
-0.0643423700,
0.0739707100,
-0.2179224800,
-0.0443136060,
-0.0785848650,
0.0484232230,
0.0613216720,
-0.0358186100,
-0.3149581000,
-0.0097902210,
0.0594977300,
0.0312508900,
-0.0678273300,
-0.2108789800,
0.0832580700,
-0.2487732800,
-0.3835412000,
-0.1284517800,
0.1076383100,
-0.0454955200,
-0.3177244000,
-0.0956360500,
0.1393665800,
-0.1274177700,
-0.2462721200,
-0.0388314800,
0.0066277133,
0.0373620430,
-0.2729796000,
0.0480569680,
0.1303802600,
-0.1203704200,
-0.1987987900,
-0.0730753700,
-0.1040465760,
0.0311017480,
-0.2017490900,
0.0095602850,
0.1275910300,
-0.0237594200,
-0.2120580800,
0.0482610500,
-0.0835767500,
-0.0369356540,
-0.2501392700,
0.2086229500,
0.3132209000,
0.1465714700,
-0.2071359800,
0.0977556850,
-0.0394263860,
0.0216732060,
0.0105589460,
0.0199078400,
-0.0130125850,
-0.0361613200,
-0.0183928300,
-0.0471781860,
-0.0010657883,
0.0159281100,
-0.0123844420,
-0.0859056700,
-0.0139885350,
-0.0297701860,
-0.0504256300,
-0.0058804640,
-0.0440485700,
-0.0419556350,
0.0729380000,
-0.1604133200,
-0.0264064700,
-0.0149975480,
-0.0475782300,
-0.1524623300,
0.0237350500,
-0.0459552400,
0.0583626850,
-0.0645180100,
-0.0287300660,
-0.0913179800,
-0.1408225000,
-0.0903211000,
-0.0563347560,
0.0066854595,
0.0368154240,
0.0200870400,
-0.0612241070,
-0.1224525650,
0.0698321200,
-0.1382770100,
-0.1226280500,
0.0047019916,
0.0588819940,
0.1118026400,
-0.0460361580,
-0.0635542700,
0.0601125020,
-0.0577797370,
-0.1642019300,
-0.0307355260,
0.2056506900,
0.1043931800,
0.1454175600,
0.0606247930,
0.0209575310,
-0.0611589740,
0.0915559300,
-0.0435594300,
0.1348870100,
0.0757217200,
0.0233343950,
0.0306252930,
0.0061950800,
-0.0306423460,
0.0965572600,
0.0056428453,
-0.0399126560,
0.1203319060,
-0.1349034500,
-0.0162849870,
0.0787840260,
0.1175285060,
0.2866389500,
0.0246877060,
0.1544188900,
0.0165379200,
-0.2749710000,
0.0408752640,
0.0408366660,
0.2070489400,
0.3371128000,
-0.0231715810,
0.1751741300,
-0.2357769000,
-0.2721338000,
0.0314186200,
-0.0465671120,
0.0494869720,
0.1625096600,
-0.0379901940,
0.0557054240,
-0.1174160600,
-0.2722866200,
-0.0932232800,
-0.0394945740,
-0.0103697000,
0.0057977014,
-0.0223292650,
0.0049232715,
-0.0994120760,
-0.1429249500,
-0.0938447600,
-0.0589024300,
0.2073351300,
-0.0675959000,
-0.0321555730,
0.0517650200,
-0.2940708400,
-0.1003063700,
-0.0627966900,
-0.0729524640,
0.1490784400,
-0.1308153700,
0.0404510350,
0.1171071600,
-0.0865064700,
-0.1181942400,
0.1979414200,
-0.1548176000,
0.0658494900,
-0.0311948800,
0.0287820060,
-0.1556856500,
-0.0784772600,
-0.0594522540,
-0.1498271500,
-0.2301057600,
0.0711270650,
0.0268933850,
-0.0409738530,
-0.1095306700,
-0.0573959000,
-0.0294610080,
-0.3008084600,
-0.2421735000,
-0.0930789000,
-0.0454546400,
-0.0337482060,
-0.0948299800,
0.0125832660,
-0.0958159400,
-0.1204774100,
-0.2292337000,
-0.1711998100,
0.0434813760,
0.0064628003,
-0.1688155700,
0.1040054560,
0.0253662260,
-0.1726817200,
-0.2116425000,
-0.0677620550,
0.0048920615,
0.0186523530,
-0.0951480100,
0.1274353600,
0.0623265170,
-0.0282995780,
-0.1714024800,
0.1184813100,
-0.0902469300,
0.0068610760,
-0.1518067300,
0.3333765000,
0.0860102800,
-0.0452329550,
-0.0166535750,
0.0640280500,
-0.0131128660,
-0.0082361760,
-0.0676815000,
0.0345261300,
-0.0588745620,
-0.0612581630,
0.0003759119,
0.0333265440,
-0.0451547700,
0.0137358755,
0.0271468130,
0.0324991640,
-0.0129083850,
-0.0757586660,
-0.0847946260,
-0.0066307876,
-0.0570939030,
-0.0238587400,
0.0941564400,
-0.0130491090,
-0.0630268800,
-0.0321184000,
-0.1478719600,
-0.0889270500,
-0.0383694770,
0.0101875600,
0.0908031760,
0.0006109631,
-0.1103206800,
-0.1549151800,
-0.0002023716,
-0.1579023700,
-0.0735514000,
0.0217709150,
0.1412759100,
-0.0223574920,
-0.0424898500,
-0.1210065000,
0.2247065200,
-0.2477256800,
-0.1364026400,
-0.0449315300,
0.2347029700,
0.0166157130,
-0.0374002000,
0.0717580000,
0.1877838700,
-0.1562463200,
-0.0236433670,
0.0051789237,
0.1711622900,
0.1011714200,
0.0811741000,
0.0765727100,
0.1822294900,
-0.1131832700,
-0.0222202760,
0.0381102150,
0.0197558330,
-0.0573853740,
-0.0669700300,
-0.0605207760,
0.2090244300,
-0.0667404600,
0.0590476020,
-0.0446933020,
0.0009090632,
-0.0789765940,
-0.0993060540,
0.0611513030,
0.2442554000,
0.0571490040,
0.1727718600,
-0.0074127847,
0.1194124300,
-0.1843896700,
-0.0779358900,
-0.1246172300,
0.0587511140,
0.0963892700,
0.3287445600,
0.0046405290,
0.1585101600,
-0.3179306700,
-0.0394650250,
-0.0225510620,
-0.0676432100,
0.1776923400,
0.2710995700,
-0.0231209320,
0.2371860000,
-0.1659101700,
-0.0428186470,
0.0088064570,
-0.2862837000,
0.0065292986,
0.0767930150,
-0.0219606780,
0.0762575600,
-0.1674672800,
0.0168743060,
0.0374094400,
-0.1374085700,
-0.0163440050,
-0.0771159460,
0.0372355840,
-0.0660767300,
-0.1601887200,
-0.0538278740,
0.0017805747,
-0.1665506400,
0.0359983740,
-0.0535520300,
-0.0566316300,
-0.0918269100,
0.0246699100,
-0.1038792300,
0.0642473550,
-0.1963483000,
0.0597235260,
-0.0551113800,
-0.0332872100,
-0.0972282000,
0.0900859900,
-0.1152399550,
-0.0482725350,
-0.2455844000,
0.0141674240,
-0.0568086000,
-0.0376409400,
-0.1412124800,
0.1240772400,
-0.0563641380,
-0.2256002100,
-0.1793622700,
-0.0573498640,
-0.1705504700,
0.0137090910,
-0.1449155500,
0.1920899000,
-0.0335160830,
-0.0508577500,
0.0104760760,
-0.0544415820,
-0.0345787740,
0.0271299240,
-0.0786864400,
0.1204069900,
0.0978113340,
-0.0672516500,
-0.0601668320,
-0.0457707000,
-0.0499402620,
0.0175989420,
-0.0295576710,
0.0730176940,
0.0351473350,
-0.0734146300,
0.0149271250,
0.1183574300,
-0.1555119500,
0.0222916920,
0.0277345160,
0.0715889560,
0.0586901160,
-0.1135951200,
0.0619642100,
-0.0489561600,
-0.0845955760,
0.0035438077,
-0.0074784710,
0.0356265160,
-0.0691780750,
-0.0842321600,
-0.0267843750,
0.0308363340,
-0.0700583600,
0.0396137000,
0.0213410280,
0.0398826520,
-0.0077082193,
-0.0896369500,
-0.0612991230,
0.0649673300,
-0.0257894420,
0.0466726160,
0.1923061200,
-0.0020066276,
-0.0421661180,
-0.0290387460,
-0.1773586100,
0.0245093390,
-0.1049985100,
0.0463401450,
0.1015818340,
0.0811064300,
-0.0209100940,
-0.1283845800,
-0.0089093350,
-0.0893557800,
-0.1066883950,
-0.0140257610,
-0.0949059100,
-0.0392952750,
0.0633939900,
-0.0378484060,
0.1202011900,
-0.0667294900,
-0.1550306400,
-0.0318814900,
0.0350736800,
-0.0878624250,
-0.0053669754,
0.2312841000,
0.0032122056,
-0.0520971380,
0.0230550500,
0.0208074950,
0.0546579170,
-0.1449895500,
-0.1128235460,
0.1676842400,
0.1300634600,
0.0509930480,
0.1588729300,
0.0315634200,
0.0336275960,
-0.0803196000,
-0.0499601740,
0.0778379740,
0.1949339700,
0.0073910160,
0.0720169250,
-0.0373505500,
0.0137382030,
0.0775452200,
0.0240173130,
0.0512894300,
0.3139441300,
-0.0609302150,
0.2284348800,
0.0160074380,
-0.2205648000,
0.0197198350,
0.0958276700,
-0.1171395260,
0.2239023300,
-0.0184357740,
0.2811185000,
0.0050567137,
0.0252580400,
-0.1423062500,
0.1042438300,
0.0249892450,
0.0534481600,
0.0798029200,
0.1691797100,
-0.0378641400,
-0.1193732700,
-0.0487349780,
0.1490186600,
0.0659689500,
0.0629919600,
-0.0091661500,
-0.1098495350,
0.0045072148,
0.0753303240,
-0.0236023630,
-0.0151423520,
-0.0870179900,
0.1582222700,
0.0414046200,
-0.1324686900,
0.0133390620,
-0.1280768400,
0.0286513140,
0.0539661500,
-0.0763314960,
0.0059107943,
0.0180305190,
-0.1154781700,
-0.0307788770,
-0.0448839740,
-0.0459573900,
-0.0124320015,
-0.1754289700,
-0.1229385100,
-0.0789921200,
-0.0170491650,
-0.0266578290,
0.0755876800,
0.0412390600,
0.0551520060,
-0.1080362400,
-0.0190826560,
-0.1046953700,
0.0214487020,
-0.0365336840,
0.1327023800,
0.0862715100,
0.0292210150,
-0.0246351750,
0.0722779300,
-0.0125807350,
-0.1110929800,
-0.0089347640,
0.0214492920,
0.1362939500,
0.0429957300,
0.2248535000,
0.0818999100,
0.0071951854,
-0.0711117500,
-0.0463130180,
0.0432853620,
0.1441344300,
0.0409223740,
0.0625388600,
0.0594507380,
-0.1415812000,
-0.1250403200,
0.0287554660,
0.0145525780,
-0.0500108040,
0.0695982600,
-0.0557752140,
0.1280018000,
-0.0268748200,
-0.1752767600,
-0.0103799970,
0.1374682500,
0.0168212930,
0.0357790700,
-0.0630145300,
-0.0198374150,
-0.1789992500,
-0.0993546500,
0.0281889120,
0.0217492380,
-0.0348885660,
-0.0142143310,
0.0144542070,
0.1380851700,
0.0201686160,
-0.0318105200,
-0.0098861300,
0.0335643100,
0.0452938080,
-0.0611950200,
-0.0055317055,
0.0735510100,
0.0980414750,
-0.0461313170,
0.0422094400,
0.1488266600,
0.1458401400,
-0.0590941830,
-0.0062494130,
-0.0403265430,
0.0452876300,
-0.0368715640,
0.0248656780,
0.1122701900,
-0.0253379640,
-0.0664098700,
-0.0252675700,
0.0934795440,
-0.0075617624,
-0.0017639932,
-0.0192685540,
-0.0910979100,
-0.1033092300,
-0.0246929450,
0.0679362500,
0.1945487700,
-0.0032730250,
0.0370258470,
0.0316454730,
-0.1805051000,
-0.1465251900,
0.0748764800,
0.0250693950,
0.1280278900,
-0.0789092700,
0.1156055000,
-0.0174930170,
-0.0378465900,
-0.0718961500,
-0.0432874970,
-0.0747275200,
0.2208832500,
-0.1318062500,
0.1385481700,
0.0219106540,
-0.0477225070,
-0.0508121300,
0.0581268220,
-0.0360180330,
0.2199256700,
-0.1366838400,
0.2511581000,
-0.0107845130,
-0.0496891400,
0.0484687900,
-0.0044682138,
-0.0673859600,
0.3984400600,
-0.1288918700,
0.2659424200,
0.0081613840,
0.0048597767,
-0.0046837580,
-0.1039229200,
-0.2276989400,
0.4090296300,
-0.3031582000,
0.3475414800,
0.0015696710,
-0.1485418700,
-0.0235960930,
-0.0383512000,
-0.1700953400,
0.3252710000,
0.0616363030,
-0.0099753810,
0.0128081510,
-0.1663071400,
-0.1013242100,
0.0444148740,
-0.0261751430,
0.2021092500,
0.0278362580,
-0.2545335300,
-0.0302134550,
0.1400381000,
-0.0229044370,
-0.0751332700,
-0.0024228664,
0.1319570500,
0.0305367170,
-0.2797876600,
-0.0253944790,
0.0243138260,
-0.0520168130,
-0.1202923300,
0.0103504530,
-0.1014616500,
-0.1902060800,
-0.1354309600,
0.0316359700,
0.0449609050,
0.0040954610,
-0.1188978250,
-0.1665984000,
0.0018258014,
-0.0902602000,
-0.1481019100,
-0.0513974760,
0.0961211550,
0.0605286550,
-0.0192201500,
-0.1320357800,
0.0890225200,
-0.0792071740,
-0.0676961300,
0.0147853660,
0.1497890400,
0.1234938100,
-0.0844776700,
-0.0722975800,
0.2401102600,
0.0116557265,
-0.0749050600,
0.0257315200,
0.0663259300,
0.2610087000,
-0.1603140400,
0.1092802060,
0.1831114400,
0.0056390353,
-0.1294296800,
-0.0228395890,
-0.0259327780,
0.0299455500,
-0.1122361400,
0.0292268060,
0.0994810000,
-0.1862282200,
-0.1823816600,
-0.0279909280,
-0.0341380050,
0.0161910490,
0.0439669530,
-0.1153594550,
0.1197700350,
-0.0119159260,
-0.1456914400,
0.0389996540,
0.0434433860,
0.1078255700,
0.0274005940,
-0.0650512800,
0.1652892700,
-0.1798257100,
0.0135236660,
-0.0350552240,
-0.0066812810,
-0.0177597010,
0.0300401340,
-0.0553903300,
0.0801380800,
0.0453143270,
-0.0547586640,
-0.0357094520,
0.0020650786,
0.0844215400,
0.0268525690,
-0.0354789100,
0.1038670600,
0.0635776200,
-0.0143868360,
-0.0367424530,
0.0179335100,
0.1492644100,
-0.0128067240,
-0.0610542400,
0.2245178000,
0.1265977900,
-0.0464539040,
0.0332532900,
0.0313603060,
-0.1100147400,
-0.0422734020,
0.0511439850,
0.2132745500,
0.1358396700,
0.0302884130,
0.0034999040,
0.1030390700,
-0.2168440700,
-0.0845589900,
-0.0431121850,
0.1127418400,
-0.0123137480,
-0.0342874640,
-0.0475896700,
-0.0542740230,
-0.0337210100,
-0.0341236200,
-0.0232644530,
0.0811104300,
0.0312514300,
0.0206776410,
0.0407800600,
0.0777710450,
-0.0235873180,
-0.0234627090,
-0.1566824600,
-0.0161160600,
-0.1020650600,
0.0845535200,
0.0234006960,
-0.1014568600,
0.0319998930,
-0.0481403170,
0.0874119600,
0.0828429700,
0.0397180900,
0.1220672800,
0.0003343383,
-0.0774721400,
-0.0340953360,
-0.0605452170,
-0.0473713600,
0.1312183600,
-0.0691887300,
0.0422836200,
-0.0198449860,
-0.1199513450,
-0.1552127300,
0.0437009070,
0.0223945680,
0.0334823500,
-0.1291599700,
0.1407814200,
0.0037368317,
-0.0636855140,
0.1114224400,
0.0707034900,
-0.0604409050,
-0.0040528600,
-0.0375426670,
0.1111376400,
-0.0178000980,
-0.0265571740,
0.0560522800,
0.1496522400,
-0.1222485500,
0.1906687900,
0.0179191640,
-0.0530443340,
0.0071639204,
-0.0376297350,
-0.0276358930,
0.0919307700,
-0.1593797500,
0.1027899800,
0.1246399500,
-0.1197718600,
-0.0340242350,
0.0735855800,
0.0084975030,
0.0215642230,
0.0248255620,
0.0926475300,
0.0740465200,
-0.1683482500,
-0.0168768190,
0.1108703500,
-0.0304829760,
-0.0173404480,
-0.0274692720,
0.1422842900,
0.0103439390,
0.0503624640,
0.0103053230,
0.1143143300,
-0.0850816740,
0.0257507410,
0.1251091000,
0.0755673400,
0.0204128920,
-0.0512045200,
-0.0430055600,
0.1120922700,
0.0095541210,
0.0127933210,
-0.0095831850,
0.1818378600,
0.0073328884,
-0.0368703680,
-0.0175935030,
0.0739489400,
0.0586953160,
-0.1540968100,
-0.1129690500,
0.1606747700,
-0.0408142130,
-0.0385364500,
-0.0094873970,
0.0357759970,
-0.0028621640,
-0.0489120520,
-0.1995048700,
0.1759904200,
-0.0489965160,
-0.1464507100,
-0.0178437290,
0.1323925400,
0.0112644660,
-0.0242640190,
-0.1148141550,
0.2130584700,
0.0431183200,
0.0008945769,
0.0098027205,
-0.0056002770,
0.0929408700,
0.0052145994,
-0.0749805050,
0.3014658400,
-0.0804972050,
-0.0017941294,
0.0449495200,
0.0207708070,
0.0374255780,
0.0089443980,
0.0180037650,
0.0214085650,
0.0522532100,
-0.0761497800,
0.0061926460,
-0.0245684010,
0.0344722160,
0.0371759050,
-0.0732204800,
-0.0108045740,
0.0733622600,
-0.0679454000,
0.0295094050,
-0.0020561310,
0.0255248600,
0.0793179400,
-0.0151905570,
0.1645829200,
0.1033860400,
-0.0163451320,
0.0008831034,
0.0278064870,
-0.1145215600,
0.0719262140,
0.0374204850,
0.1695429000,
0.0871236300,
0.1047835300,
0.0196609180,
-0.0044169450,
-0.1289139800,
0.1022115350,
0.1059209560,
0.2486931100,
0.0317434700,
0.0664039000,
-0.0207376670,
-0.1210159960,
-0.0156435820,
0.1200871240,
0.0179415660,
0.1761331300,
-0.0151930620,
-0.0347364200,
-0.0119932590,
0.0133678780,
0.0300626530,
0.0404091250,
-0.0780260500,
0.0680574800,
-0.1304911800,
0.0839323900,
-0.0230009850,
0.0822662200,
-0.0646363200,
-0.0202504280,
0.0548917240,
0.1561587900,
0.0759943900,
0.0991083460,
-0.0436927860,
-0.0034710653,
-0.0224292820,
-0.0147659180,
-0.0791958050,
0.0855800200,
0.0546612800,
-0.0053236703,
0.0448554800,
-0.0052185570,
0.0430031270,
0.1024848800,
-0.0672329740,
-0.0294872650,
-0.0359541480,
0.0285980120,
0.0344241700,
0.1208521300,
0.1644187000,
0.0502225050,
-0.1524233400,
-0.0480505940,
0.0829323300,
0.0337121260,
0.0303369480,
0.1703861000,
0.1234532740,
0.1787799600,
-0.0273419320,
-0.0104923940,
0.0741804800,
0.0133201710,
0.0127875100,
-0.0577565000,
0.1487588700,
0.1181212800,
-0.2805721000,
0.1382130800,
0.0684756560,
-0.0308034550,
-0.0336082840,
-0.0395465420,
0.1282775400,
0.0294815710,
-0.0759068600,
0.0228777420,
0.1516564600,
-0.1398966600,
-0.0095908640,
0.2087498500,
0.1545356800,
-0.1034460300,
0.0344102830,
-0.0991708100,
0.0614144200,
-0.0672956700,
0.0235948800,
0.1309197400,
-0.0025871315,
-0.0625240900,
0.0363098800,
-0.0226198860,
-0.0090097150,
-0.0321754200,
0.0361791440,
0.1149813700,
-0.0837774950,
-0.0409510770,
-0.0969733600,
0.0290310180,
0.0176529250,
0.0451900360,
-0.0202750270,
0.1204293740,
0.0719288200,
-0.0472435760,
-0.2186732700,
0.1195104300,
0.0413950570,
-0.0176390240,
0.0417749020,
0.2936754000,
-0.0587320770,
0.0289440360,
-0.1285144100,
0.1206537300,
0.0484273600,
-0.0161692950,
0.0015587345,
0.2397142200,
-0.0972948150,
-0.0071963924,
-0.0901851500,
0.1079681100,
0.0083763340,
0.0415661700,
-0.0363065940,
0.0381091700,
0.0462474930,
-0.0170072910,
0.0221355200,
0.2261762600,
-0.1186113500,
0.0493330200,
-0.0082673690,
-0.0059345390,
0.0840603500,
-0.0410587750,
-0.0528953800,
-0.0462965740,
0.0794657500,
-0.0614180100,
-0.0152265740,
0.0058785360,
0.0542246000,
-0.0028243002,
0.0277116040,
-0.0340307760,
0.1041611100,
-0.0689163700,
-0.0063034887,
-0.0343594960,
0.0664904640,
0.0288011360,
0.0546713900,
-0.0395598520,
0.1903955500,
0.0020999333,
-0.0455037100,
-0.2006444600,
0.0485545880,
0.0560408940,
0.0988789000,
-0.0291883670,
0.1711140000,
0.0276576700,
-0.0266213720,
-0.2579541000,
0.0234993250,
0.1099356900,
0.1171009500,
0.0197468440,
0.1157455100,
0.0125296660,
0.0399822480,
-0.1371285500,
0.0143268480,
0.2022665400,
-0.1490702800,
0.0045320320,
-0.0150638120,
-0.0518862750,
0.0174342280,
0.0711309900,
-0.0435081600,
0.1101991100,
-0.1003292800,
0.0584695300,
-0.0739498400,
0.0108305060,
0.0342198460,
0.0669578100,
0.0072397985,
0.0634516800,
-0.0979854800,
0.1752761200,
0.0334881880,
0.0582458150,
-0.0518802500,
-0.1044730800,
0.0084605990,
0.1295353500,
-0.0990079700,
0.1204091000,
-0.0037817135,
-0.0053016560,
0.0111451220,
-0.1367102700,
-0.0101356430,
0.1016721900,
-0.0526362500,
-0.0008805887,
-0.1456851800,
0.0433588850,
0.0325238900,
-0.1059435100,
0.0673809650,
-0.0162042660,
-0.0892154050,
0.0081809540,
0.0237017180,
0.1221912800,
0.0392688920,
-0.0432569100,
0.1506137000,
0.0520182550,
0.0265893640,
-0.0028239368,
-0.0200993880,
0.1022408500,
-0.0185889490,
-0.1962702100,
0.0816440800,
-0.0797553300,
-0.2798794800,
-0.0284304280,
0.0372382800,
-0.0037880293,
-0.0011169675,
0.0420364770,
0.0896689740,
-0.2493255100,
-0.0022571676,
0.0144711930,
0.0062690060,
0.0191552830,
-0.0167206860,
0.1809159400,
0.0768851600,
-0.2350777000,
-0.1232467400,
0.1439520000,
-0.0291386750,
-0.1464874400,
-0.0328727070,
0.1366734000,
-0.0629899950,
-0.1574079100,
-0.0535729750,
0.0268232060,
0.1051177500,
-0.0169065540,
0.0398695000,
0.2151812600,
-0.0416609000,
0.0364784040,
-0.0820254700,
0.1024474950,
0.0830033300,
0.0894595800,
-0.0170784050,
0.2099695500,
-0.0029379092,
0.0702482760,
0.0158423600,
0.0962313400,
-0.0285888500,
0.0457915400,
-0.0034027623,
0.3028602600,
-0.0144980250,
-0.0350930430,
0.0389998930,
0.0250177870,
-0.0119067150,
-0.0543976650,
0.0439563900,
0.2274199700,
-0.0792517200,
0.0130635130,
-0.0159624260,
0.0644646300,
-0.0715110150,
-0.0682882600,
-0.0277393330,
0.1705183400,
-0.0878294200,
0.0324754530,
0.0466162600,
