static float weights[54912] =
{		0.0092694760,
		-0.0049047694,
		0.0047214740,
		-0.0047011600,
		0.0057360306,
		0.0042242370,
		0.0196449500,
		-0.0296204280,
		0.0047141872,
		0.0028833450,
		-0.0227982700,
		-0.0276210300,
		-0.0178278570,
		-0.0145090150,
		0.0089020880,
		0.0137564020,
		-0.0122271700,
		0.0057065150,
		0.0111993400,
		-0.0028751865,
		-0.0104820860,
		-0.0262035400,
		-0.0347036570,
		0.0165551940,
		-0.0226231270,
		0.0148593220,
		-0.0188822800,
		0.0341103800,
		-0.0065708924,
		0.0022133067,
		0.0295917200,
		0.0002755523,
		0.0178205150,
		-0.0050033964,
		-0.0103564490,
		-0.0184031950,
		0.0053297020,
		-0.0323744340,
		0.0218282080,
		0.0333508300,
		0.0206640590,
		-0.0106848350,
		0.0024148710,
		-0.0213279480,
		-0.0269160720,
		-0.0024447330,
		-0.0147721340,
		0.0212571290,
		0.0223446450,
		-0.0327536430,
		0.0026175566,
		0.0245428640,
		0.0002079606,
		0.0136708280,
		-0.0141848380,
		0.0167552680,
		0.0346378200,
		-0.0299871150,
		-0.0126925760,
		-0.0243410950,
		0.0342194700,
		0.0234938520,
		-0.0119392410,
		0.0170548520,
		0.0122312310,
		0.0147055910,
		-0.0346557420,
		0.0065681934,
		-0.0335993100,
		0.0342598520,
		0.0043424180,
		-0.0131278170,
		0.0192531240,
		-0.0096331410,
		-0.0306845800,
		-0.0256074970,
		0.0181563380,
		-0.0154547650,
		-0.0331048850,
		0.0256680140,
		0.0005306713,
		0.0074411520,
		-0.0356888440,
		-0.0317745730,
		-0.0113352890,
		-0.0076124296,
		0.0031745732,
		-0.0067826807,
		0.0174802400,
		-0.0338609140,
		-0.0319663000,
		0.0122458300,
		-0.0220050440,
		0.0179270950,
		-0.0259118080,
		0.0103870370,
		0.0175462370,
		0.0104716600,
		-0.0070520710,
		0.0020790452,
		-0.0091970200,
		0.0149833765,
		-0.0222692680,
		0.0050478796,
		0.0126380710,
		-0.0106573060,
		0.0135877990,
		-0.0220326600,
		0.0232687180,
		0.0252080190,
		0.0070029210,
		0.0184888600,
		0.0269012900,
		0.0147104090,
		0.0120501270,
		0.0101539140,
		-0.0067456393,
		0.0044661960,
		0.0235889760,
		0.0042585754,
		0.0184380320,
		-0.0305707120,
		-0.0031481232,
		-0.0097952490,
		0.0176136510,
		-0.0202843500,
		0.0219618290,
		-0.0060617244,
		-0.0106780160,
		-0.0016662106,
		-0.0188230240,
		0.0101969240,
		0.0291217380,
		-0.0215477570,
		0.0072472915,
		-0.0147734340,
		-0.0234088700,
		0.0291373540,
		-0.0153187310,
		0.0141282715,
		-0.0006778277,
		-0.0061936975,
		0.0133421720,
		-0.0072923170,
		0.0342296700,
		0.0341475420,
		0.0180761370,
		0.0228729250,
		0.0158981080,
		0.0104881900,
		-0.0053363180,
		-0.0109577640,
		-0.0160390570,
		-0.0269778170,
		-0.0255824850,
		-0.0137448740,
		-0.0064620300,
		0.0145099800,
		0.0132112880,
		0.0337553140,
		-0.0042356923,
		0.0040584020,
		-0.0337606150,
		-0.0062713120,
		-0.0051289536,
		0.0051381400,
		-0.0289505180,
		0.0164304040,
		0.0188858470,
		-0.0047501456,
		-0.0315360400,
		-0.0294420980,
		0.0199932900,
		0.0040474273,
		-0.0106245370,
		-0.0167756000,
		-0.0182146020,
		-0.0350907100,
		-0.0300819800,
		-0.0000494011,
		-0.0118031760,
		0.0137726440,
		0.0028578640,
		0.0097164060,
		-0.0124860240,
		-0.0337353570,
		0.0196404080,
		0.0340564360,
		-0.0041020550,
		-0.0108232070,
		-0.0270440430,
		0.0080661440,
		0.0173846330,
		-0.0014818981,
		-0.0011593215,
		-0.0034460910,
		-0.0070575476,
		0.0326652940,
		0.0289657530,
		0.0246912650,
		0.0317345820,
		0.0350036900,
		0.0248153840,
		0.0240158850,
		-0.0070360173,
		0.0021891482,
		0.0039770864,
		-0.0270350430,
		-0.0004000962,
		-0.0078977350,
		-0.0350771770,
		-0.0191269400,
		-0.0245766140,
		0.0225217450,
		-0.0323389140,
		0.0044854470,
		-0.0152219925,
		-0.0155109520,
		0.0141726140,
		-0.0047113393,
		-0.0108859460,
		0.0185143170,
		0.0228412490,
		0.0202116400,
		0.0237293130,
		0.0218906810,
		0.0047838464,
		-0.0227018050,
		0.0216263830,
		-0.0055443010,
		0.0113164075,
		0.0238959940,
		0.0217465500,
		0.0268110220,
		0.0181193870,
		0.0164449510,
		-0.0117205010,
		0.0095775200,
		-0.0076064263,
		-0.0265472380,
		-0.0103788670,
		-0.0023211837,
		0.0237284120,
		-0.0151422450,
		0.0260048840,
		-0.0266083870,
		-0.0220334500,
		-0.0316195750,
		-0.0000568554,
		0.0126438180,
		-0.0174288410,
		-0.0244096100,
		0.0169264230,
		0.0079159660,
		-0.0259577430,
		0.0099791140,
		0.0084220510,
		-0.0327164830,
		0.0064139264,
		0.0229378440,
		-0.0327250920,
		0.0304049480,
		0.0208975900,
		-0.0296493450,
		0.0294676670,
		0.0252266750,
		0.0246445850,
		-0.0241473240,
		-0.0127623620,
		-0.0187997540,
		-0.0302197410,
		0.0336512630,
		-0.0162030400,
		-0.0213705120,
		-0.0094415020,
		0.0024904676,
		-0.0512719680,
		0.0123311720,
		-0.0093630820,
		-0.0190356970,
		0.0165328980,
		-0.0098887915,
		0.0323730370,
		0.0192129240,
		-0.0491028700,
		0.0249128000,
		-0.0373745000,
		-0.0138059370,
		-0.0307878700,
		0.0306909570,
		0.0099440450,
		-0.0332494900,
		-0.0954011800,
		-0.0244148450,
		-0.0018457156,
		-0.0753726300,
		0.0270927420,
		0.0096435360,
		-0.0147056920,
		-0.0214956660,
		-0.0260634570,
		-0.0128027580,
		-0.0318269000,
		-0.0460845160,
		0.0271189270,
		0.0036079152,
		0.0151282550,
		-0.0026822146,
		-0.0254112520,
		0.0325297340,
		-0.0457731700,
		-0.0134883490,
		0.0353154170,
		-0.0068081436,
		-0.0100301050,
		-0.0460433660,
		-0.0873767100,
		-0.0134949690,
		-0.0095507140,
		-0.0532722300,
		-0.0281486680,
		-0.0212598600,
		0.0228601430,
		-0.0309878870,
		-0.0183262250,
		0.0093318720,
		-0.0688226150,
		-0.0608125660,
		0.0277045850,
		0.0234071670,
		-0.0504595600,
		0.0370400730,
		-0.0068095790,
		-0.0194935540,
		-0.0865093900,
		-0.0130454520,
		0.0305409260,
		0.0081626150,
		-0.0199185090,
		-0.0160104130,
		0.0218557270,
		-0.0278954340,
		0.0200775820,
		-0.0326068360,
		-0.0157610600,
		-0.0401754900,
		0.0227338280,
		0.0118401220,
		-0.0522676700,
		-0.0208932220,
		-0.0009093605,
		-0.0039067500,
		-0.0030516505,
		0.0228951280,
		-0.0114899930,
		0.0011525891,
		-0.0674356000,
		0.0328715780,
		0.0135359120,
		-0.0636255740,
		0.0182477460,
		-0.0091575220,
		0.0374084260,
		0.0195147580,
		-0.0374846000,
		-0.0237529350,
		0.0298469070,
		-0.0477453660,
		-0.0357042360,
		-0.0025449290,
		-0.0112977730,
		-0.0264484510,
		-0.0058450990,
		-0.0407171620,
		-0.0171529170,
		0.0012551175,
		-0.0070657720,
		-0.0345276400,
		-0.0044238335,
		-0.0012994492,
		-0.0036970004,
		-0.0195214490,
		-0.0295295720,
		0.0001513132,
		-0.0122273580,
		0.0168406300,
		0.0208130120,
		0.0340721800,
		0.0203249620,
		0.0043586437,
		0.0316363400,
		0.0094304440,
		0.0240374820,
		0.0050390030,
		-0.0163978560,
		0.0645715300,
		-0.0002715196,
		-0.0166048610,
		0.0059898514,
		-0.0199636100,
		-0.0254956330,
		-0.0251985120,
		-0.0153458520,
		0.0465204000,
		0.0092292960,
		-0.0245063160,
		-0.0034521330,
		-0.0634356600,
		0.0319971480,
		0.0138910785,
		0.0237469950,
		-0.0237350310,
		-0.0218329300,
		0.0326680500,
		0.0340669500,
		0.0159267760,
		-0.0255970620,
		0.0081912430,
		0.0327515040,
		0.0198261250,
		-0.0278592040,
		-0.0258983370,
		-0.0156234760,
		-0.0161201020,
		-0.0217100530,
		-0.0275144760,
		0.0295105910,
		-0.0091166250,
		-0.0301018280,
		0.0006888173,
		-0.0141114425,
		-0.0062247254,
		-0.0007619224,
		-0.0199236400,
		-0.0279943600,
		0.0122744480,
		0.0061904340,
		-0.0192681440,
		-0.0028905757,
		-0.0318637700,
		-0.0095859600,
		0.0219476070,
		0.0137135275,
		-0.0028579757,
		-0.0183962170,
		-0.0124521390,
		-0.0343870220,
		0.0204755630,
		0.0049541330,
		-0.0246169920,
		-0.0269974820,
		-0.0097872450,
		0.0136884640,
		0.0094052110,
		0.0351939160,
		0.0279700200,
		-0.0253926220,
		-0.0139356945,
		-0.0173002970,
		0.0233968160,
		0.0241392590,
		-0.0188849230,
		-0.0067458022,
		-0.0204846910,
		-0.0219599340,
		-0.0323486480,
		-0.0230870640,
		-0.0024531372,
		-0.0153860660,
		-0.0046718684,
		0.0303816900,
		0.0136854870,
		0.0112543540,
		-0.0029527508,
		-0.0225062070,
		0.0144867690,
		-0.0299156850,
		0.0061379503,
		-0.0082893110,
		0.0056468444,
		-0.0180108210,
		0.0247969700,
		0.0244969040,
		-0.0098153710,
		0.0298628500,
		-0.0200706160,
		-0.0153458100,
		-0.0139893200,
		0.0095324930,
		0.0062524170,
		0.0273427980,
		-0.0272778590,
		-0.0252295360,
		0.0063340357,
		0.0355835630,
		-0.0207167980,
		0.0272756400,
		0.0350488760,
		0.0345341380,
		-0.0421464850,
		-0.0759588260,
		-0.0241909770,
		-0.0233369380,
		-0.0999693650,
		-0.0261827580,
		0.0273341370,
		0.0480110460,
		0.0338627000,
		-0.0654253800,
		0.0245896990,
		-0.0444641370,
		-0.1186031000,
		-0.0424469040,
		0.0463737470,
		0.1136778000,
		-0.0428654100,
		-0.1681043700,
		-0.0232291990,
		-0.0177090260,
		-0.1744014000,
		0.0168841100,
		0.1221384700,
		0.1206033450,
		-0.0201653100,
		-0.1457012700,
		0.0110614990,
		-0.0232593100,
		-0.2400130300,
		0.0163277460,
		0.1821877500,
		0.0085498520,
		-0.0491058380,
		-0.1536131000,
		0.0091044710,
		-0.0530711820,
		-0.2032727300,
		-0.0030480612,
		0.2361658700,
		0.0142647160,
		-0.0289907750,
		-0.1961874700,
		-0.0199736800,
		-0.0259788040,
		-0.1147523450,
		0.0087838040,
		0.3932259700,
		-0.1728612800,
		-0.0249810460,
		0.1581666300,
		-0.0671645100,
		0.1806073600,
		-0.1388005500,
		-0.0424998180,
		0.3795997800,
		-0.0687325800,
		0.0082855280,
		0.3616460000,
		-0.0283277850,
		0.2545362700,
		-0.0730995760,
		-0.0202271620,
		0.4464437000,
		0.1191924400,
		-0.0511543860,
		-0.1043125900,
		-0.0218544640,
		0.2990908300,
		0.0377033430,
		-0.0102372940,
		0.2885038300,
		0.1047907900,
		-0.0227841640,
		-0.1404725900,
		-0.0287619200,
		0.2957863000,
		0.1210376100,
		-0.0103123570,
		0.1551856000,
		0.0856976660,
		-0.0678243500,
		-0.1729945100,
		-0.0124428960,
		0.2156610800,
		0.2044866400,
		0.0093635820,
		0.0381679050,
		0.1429896400,
		-0.0741625060,
		-0.1167306450,
		-0.0593593680,
		0.0046911800,
		0.0441911260,
		-0.0256945360,
		-0.1989025200,
		0.0423796250,
		-0.0369097740,
		-0.0995916300,
		-0.0599446370,
		-0.1862586600,
		-0.0751007650,
		-0.0302476230,
		-0.3202277400,
		-0.1515298800,
		-0.0209725820,
		-0.0235084600,
		-0.1006287040,
		-0.2661401300,
		-0.0602148850,
		-0.0478086660,
		-0.1648266000,
		0.0592276200,
		0.0489629060,
		-0.0822663750,
		0.0031499870,
		-0.0726646260,
		-0.0124106390,
		-0.0079465970,
		-0.0464791540,
		0.0063750204,
		0.0367104820,
		-0.0341881400,
		-0.0158297740,
		-0.0560748840,
		-0.0126353220,
		-0.0220980760,
		-0.0094073890,
		-0.0275826300,
		0.0444413760,
		-0.0118444060,
		-0.0478103000,
		0.0101798980,
		-0.0886778000,
		0.0332286100,
		-0.0376757120,
		-0.0071996890,
		0.0655317100,
		0.0111558230,
		-0.0266004130,
		-0.0222176850,
		-0.0474969260,
		0.0355102300,
		-0.0329509450,
		-0.0045252773,
		-0.0008269709,
		0.0212470180,
		0.0015246817,
		0.0347049530,
		-0.0098531000,
		-0.0033237115,
		0.0006053830,
		0.0052895662,
		-0.0251691620,
		-0.0153359380,
		-0.0118432800,
		-0.0272532680,
		0.0184615460,
		0.0312649050,
		0.0211576220,
		-0.0240944380,
		-0.0085882940,
		-0.0235668350,
		-0.0331895950,
		0.0180101280,
		-0.0170821600,
		0.0325303040,
		0.0319680460,
		-0.0279472820,
		-0.0141566820,
		0.0254123730,
		-0.0101080160,
		0.0104360880,
		-0.0028636270,
		0.0018147752,
		0.0251098800,
		-0.0216596220,
		-0.0292915300,
		-0.0183556600,
		-0.0242236740,
		0.0133238920,
		-0.0038142540,
		0.0010721684,
		0.0050741470,
		-0.0004900619,
		0.0047106780,
		-0.0037693381,
		-0.0315228030,
		-0.0335780000,
		0.0057842396,
		-0.0217663460,
		-0.0241658700,
		0.0303519720,
		0.0191878940,
		-0.0330146700,
		-0.0277612820,
		-0.0044796780,
		0.0239659290,
		0.0171789320,
		-0.0189651270,
		0.0060695093,
		0.0047368915,
		-0.0171953870,
		-0.0138315210,
		0.0218579340,
		-0.0041550480,
		-0.0224272520,
		-0.0077061574,
		-0.0328581150,
		0.0007163552,
		-0.0254848380,
		0.0163407750,
		0.0420691200,
		-0.0782132740,
		0.0048346510,
		-0.0318237580,
		0.0192435370,
		0.0002322947,
		0.0086482440,
		-0.0335118800,
		-0.0084427280,
		-0.0313251170,
		-0.0304777230,
		0.0283928980,
		0.0683715700,
		-0.0149931950,
		-0.2270517300,
		0.0034095158,
		-0.0458566470,
		-0.2024677400,
		-0.0419160760,
		0.0171728120,
		0.0397674370,
		0.0129105660,
		-0.1898886100,
		-0.1021543150,
		-0.0069579757,
		-0.2341709600,
		-0.0269601400,
		0.2069193900,
		0.1020723800,
		-0.0623538500,
		-0.3520036600,
		-0.1108128800,
		0.0294382130,
		-0.4761068200,
		-0.0533713180,
		0.3776092800,
		0.1914254900,
		-0.0640483100,
		-0.4518903800,
		0.0650614650,
		0.0239625400,
		-0.4550532000,
		-0.0065610190,
		0.5981188000,
		-0.0114583150,
		-0.1559830000,
		-0.4577001300,
		-0.0414309350,
		-0.1358564500,
		-0.2697659700,
		-0.0934452700,
		0.2505785500,
		0.1000533200,
		-0.3046075000,
		-0.5553776600,
		-0.0783430400,
		-0.0313720600,
		-0.1447639900,
		-0.1143979600,
		0.9178425000,
		0.1966660800,
		-0.2866628500,
		-0.1595121200,
		0.2434879700,
		0.4081953200,
		-0.2393511400,
		-0.0783814000,
		0.9149781500,
		0.0968638500,
		-0.0119286020,
		-0.3161166600,
		0.2794747000,
		0.4460019200,
		-0.2721147800,
		-0.1014631100,
		0.7029665000,
		-0.2210444800,
		0.0069898055,
		-0.1654749000,
		0.0480454270,
		0.1753453000,
		0.0741079900,
		-0.1187086000,
		0.2768847600,
		-0.3056273500,
		-0.2761432000,
		-0.2153019800,
		-0.3696108200,
		0.3068327300,
		0.4111058400,
		-0.1327706100,
		0.4884437300,
		-0.0390726770,
		0.1767349100,
		0.0606305380,
		-0.2667760300,
		0.8546402000,
		0.4328505000,
		-0.1793186800,
		0.1970106200,
		-0.1418336800,
		0.2266036400,
		-0.0115150070,
		-0.1985961800,
		0.8974938000,
		0.8214077400,
		-0.0895419800,
		-0.4079189600,
		-0.3935277800,
		0.0081680510,
		-0.1140815100,
		-0.2146245000,
		0.2466472100,
		0.4362859400,
		0.0361163430,
		-0.3981877300,
		-0.2796103700,
		-0.0093826335,
		0.1044623600,
		-0.0817491040,
		-0.1629825700,
		0.2177428000,
		0.0876808240,
		-0.1731891200,
		-0.3084649000,
		-0.1864471900,
		0.1828201100,
		0.0704953800,
		-0.0465472900,
		0.3798472600,
		-0.0078859630,
		-0.0683886560,
		-0.1830143200,
		-0.1483416400,
		-0.0607292350,
		0.0979437300,
		-0.1200369100,
		-0.2290634400,
		-0.0258006210,
		-0.1782269600,
		-0.1279223300,
		-0.0796867760,
		-0.0924728660,
		-0.0127339170,
		-0.3092739600,
		-0.2765716300,
		-0.0356389020,
		-0.1929151000,
		0.0817846660,
		-0.0058315857,
		-0.0601706800,
		-0.0409956430,
		-0.0756660500,
		-0.1272997100,
		-0.0181678300,
		-0.1197439000,
		0.0892872500,
		-0.0561541650,
		-0.0206740130,
		-0.0952162600,
		0.0346762050,
		-0.0692452300,
		-0.0309137000,
		-0.0385741030,
		0.0143996180,
		-0.0237959290,
		0.0184210900,
		-0.0023825602,
		0.0012276159,
		-0.0009550052,
		0.0224009100,
		0.0025887322,
		0.0250765870,
		-0.0312581360,
		0.0101882370,
		0.0013727240,
		-0.0389327700,
		0.0038058360,
		0.0291226250,
		-0.0042624697,
		-0.0025368333,
		0.0312951470,
		-0.0018480420,
		-0.0155358410,
		-0.0073304400,
		0.0218862740,
		0.0136389580,
		-0.0112797115,
		0.0225175580,
		-0.0084915980,
		-0.0242600930,
		-0.0034851470,
		0.0097952260,
		0.0243353280,
		0.0308203960,
		0.0008661673,
		-0.0166609680,
		0.0208926760,
		-0.0115634000,
		0.0080875230,
		0.0174860800,
		0.0339931800,
		-0.0091629730,
		-0.0157364070,
		-0.0019561148,
		-0.0159467780,
		0.0062678605,
		-0.0183644030,
		0.0084824320,
		0.0306153520,
		0.0087287570,
		0.0203756190,
		0.0228807440,
		-0.0182717390,
		0.0157339330,
		-0.0197997320,
		-0.0003330466,
		0.0162070900,
		0.0318728240,
		0.0547767580,
		0.0596945320,
		-0.0039112570,
		-0.0165631060,
		-0.0434554700,
		-0.0406902700,
		-0.0145878920,
		0.0174477960,
		0.0422962680,
		0.1070220250,
		0.0008727633,
		-0.0670872850,
		-0.0716379700,
		-0.0525906000,
		-0.1178157200,
		-0.0341121220,
		0.1469850400,
		0.1907323200,
		-0.0497561540,
		-0.1851136500,
		-0.1709464000,
		-0.0686459840,
		-0.3449838800,
		0.0070888796,
		0.3091922700,
		0.0976656150,
		-0.0402194520,
		-0.0241152120,
		-0.1942728000,
		-0.0581946970,
		-0.3441127800,
		-0.0063393590,
		0.6024071000,
		0.0357097400,
		-0.1436293300,
		0.0090207620,
		-0.1524355000,
		0.0854982360,
		-0.4892977200,
		0.0222542210,
		0.7686497600,
		0.0610060020,
		-0.1078391200,
		-0.0698388500,
		-0.0290879960,
		0.1130256600,
		-0.2314387100,
		-0.0178640780,
		1.2032210000,
		0.4401612600,
		-0.2126541100,
		-0.3324727400,
		0.1494069100,
		-0.2362387500,
		-0.0240945570,
		-0.0674208550,
		1.1758420000,
		0.1652558000,
		-0.0967674260,
		-0.1419584000,
		0.0739631500,
		0.1276520000,
		0.0896604200,
		-0.1145312300,
		0.9354082300,
		0.3348778000,
		-0.0353153530,
		0.2345187400,
		0.4743141500,
		0.3127417000,
		-0.1001873500,
		-0.0696186200,
		1.1667955000,
		0.4259182200,
		-0.0389116070,
		0.2597537600,
		0.5738612000,
		0.2789979600,
		-0.1236919300,
		-0.1238872900,
		0.5644263000,
		0.2562719600,
		-0.1878643800,
		-0.4327206600,
		0.5958842000,
		-0.2625935700,
		0.0336666140,
		-0.1168049300,
		0.5848265000,
		-0.2005026300,
		0.0641206700,
		-0.2238798100,
		0.0220093500,
		-0.2609374000,
		0.3784589200,
		-0.2565817800,
		0.5401608300,
		-0.3065946700,
		0.1823074800,
		-0.3212488300,
		-0.1049492960,
		0.0676302800,
		0.2315796500,
		-0.2647758400,
		0.3694096200,
		-0.1332530700,
		0.2796215700,
		0.0345213820,
		-0.2004297800,
		0.2615101300,
		0.4215644300,
		-0.1337094000,
		0.3283229200,
		0.3298152000,
		0.1781208800,
		0.0996652250,
		-0.5462156000,
		0.0448098600,
		0.1227071600,
		-0.1382874400,
		-0.2706990000,
		0.0037748634,
		-0.2651215500,
		0.0535048130,
		-0.1804594700,
		0.3965760500,
		0.4675947000,
		0.0530865640,
		-0.1052471200,
		-0.1203249400,
		-0.2688816000,
		0.1453609000,
		-0.0428688380,
		0.0517709800,
		0.5354548700,
		0.0349190570,
		-0.2583675400,
		-0.1560481300,
		-0.5233100700,
		-0.1046680800,
		-0.2298237000,
		-0.2579315600,
		-0.3089643400,
		0.0239639490,
		-0.3410462400,
		-0.0035283614,
		-0.2577290000,
		-0.2362938000,
		-0.0991551200,
		-0.2733277400,
		-0.2951311000,
		0.0677151900,
		-0.3417315000,
		0.1536108700,
		-0.0279560850,
		-0.1679208400,
		-0.4066188600,
		-0.4036367500,
		-0.6823736000,
		0.1388976400,
		-0.0590029770,
		0.0843922900,
		-0.0115748590,
		0.0903636740,
		-0.6830269000,
		0.1000857500,
		-0.2192847600,
		0.0953216900,
		0.0330718120,
		-0.0221566220,
		0.0726605100,
		0.0139907790,
		-0.3164394500,
		0.0993247900,
		-0.0642522400,
		0.0646687100,
		-0.0053050020,
		-0.0207241420,
		0.0177036900,
		-0.0116326770,
		-0.0294846040,
		-0.0101384340,
		-0.0290877450,
		-0.0116185040,
		-0.0034572743,
		-0.0334205440,
		-0.0003160238,
		0.0262333420,
		0.0117955245,
		0.0302113400,
		0.0172374470,
		-0.0181716770,
		-0.0059662927,
		0.0079017470,
		-0.0283850450,
		-0.0061974395,
		-0.0200341050,
		0.0123055020,
		-0.0194869770,
		0.0094295440,
		-0.0326457800,
		0.0172379870,
		0.0270763000,
		-0.0124901235,
		0.0167366300,
		0.0180319880,
		0.0225175470,
		-0.0286207630,
		0.0131719360,
		-0.0075756297,
		-0.0271963500,
		0.0193256550,
		-0.0076533193,
		-0.0017168391,
		0.0067828977,
		0.0385601700,
		0.0052625705,
		-0.0267622340,
		0.0273688580,
		0.0078995460,
		0.0030425598,
		0.0068409434,
		-0.0377345100,
		0.0943754760,
		0.1272623500,
		0.0217696990,
		-0.0852294900,
		0.0016090315,
		-0.1427174500,
		0.0432743200,
		-0.1203125940,
		0.1080050600,
		-0.0288205130,
		0.1042723400,
		-0.1113716800,
		-0.1511592100,
		-0.1344458900,
		-0.0445785700,
		-0.2039941400,
		0.1809099300,
		-0.0473848360,
		0.1868259600,
		-0.1096961050,
		-0.1965884900,
		-0.1748950300,
		0.0101744700,
		-0.4586528200,
		0.2129609900,
		0.0699523200,
		-0.0060961850,
		-0.2365702500,
		-0.0173896900,
		-0.1830715500,
		-0.0797337000,
		-0.4083667700,
		0.2417629500,
		0.6183502700,
		-0.0865150900,
		-0.2603278200,
		0.0796418000,
		-0.3196197000,
		0.0655724600,
		-0.3027936500,
		0.3140859000,
		0.3246499300,
		-0.3223508300,
		-0.1938169700,
		-0.2285436800,
		-0.0658318300,
		0.0275991780,
		-0.1477817900,
		0.2027459300,
		0.6556003000,
		-0.2456047400,
		-0.1946937700,
		-0.0948826700,
		0.1280490500,
		-0.1407542700,
		-0.2560433000,
		-0.0225116690,
		0.3457550000,
		0.1301981700,
		-0.1976645900,
		0.4281935000,
		0.2344555300,
		-0.4140462600,
		-0.6882921000,
		-0.1812598900,
		1.1253554000,
		-0.0482557100,
		-0.2464240000,
		0.6253223000,
		0.4014783800,
		-0.2872074000,
		-0.3722401000,
		-0.2490914200,
		1.1968998000,
		0.0904116260,
		0.1387590000,
		0.4591848300,
		0.2543864300,
		-0.1145030800,
		-0.1689242100,
		-0.2349989400,
		0.5683793400,
		0.2211269900,
		-0.0369590600,
		-0.1871701200,
		0.1210102600,
		-0.5530671000,
		0.0125285690,
		-0.4600843500,
		0.1260537000,
		-0.6281530000,
		0.2721625300,
		-0.1747081700,
		0.3214600400,
		-0.3430831000,
		0.1064063000,
		-0.3351766500,
		-0.0947276300,
		-0.8396904000,
		0.4810574000,
		-0.4499339200,
		0.0281471900,
		-0.2217187600,
		0.1816965000,
		0.0086958210,
		0.0774899100,
		-0.0601048300,
		0.8077150600,
		-0.2412477600,
		-0.1469501900,
		-0.3602898000,
		0.0172945020,
		-0.1338508600,
		0.2497358800,
		0.8517752000,
		0.5779440000,
		-0.1976651100,
		-0.6770235000,
		-0.0265936600,
		0.3611063400,
		-0.2772838200,
		-0.6593713000,
		0.5402888000,
		0.3573163400,
		-0.3564050800,
		0.2666250800,
		-0.0319800340,
		0.6898042600,
		-0.0538766160,
		-0.5943762700,
		0.2812469300,
		-0.0644810800,
		-0.2746214300,
		0.2337463600,
		0.2638818000,
		0.7738853000,
		0.2913058400,
		-0.4660220000,
		0.2514132000,
		-0.5808514000,
		-0.2295620600,
		0.1205091300,
		0.0426877920,
		0.2326562300,
		0.4947363400,
		-0.3536374000,
		-0.0616065500,
		-0.4626560800,
		-0.3235178600,
		-0.3212624000,
		0.4372630000,
		0.1765083200,
		0.3970570600,
		-0.2654970000,
		0.1025525560,
		-0.3872307800,
		-0.1371184400,
		-0.5039339000,
		0.2366158400,
		0.0028759278,
		0.3074869000,
		0.1162174700,
		0.1838540700,
		-0.1715428500,
		-0.0515574800,
		-0.5963027000,
		0.0599823400,
		-0.2841542000,
		0.2576693600,
		0.0979464000,
		0.0123662320,
		0.0469052100,
		0.0127082765,
		-0.1760411900,
		-0.0317917060,
		-0.0216808280,
		-0.0112072965,
		0.0261340460,
		-0.0350263640,
		0.0347289800,
		-0.0270697900,
		0.0201506340,
		-0.0318834740,
		-0.0136985640,
		0.0215847900,
		-0.0291550220,
		0.0335337260,
		-0.0190398660,
		-0.0243331940,
		-0.0345141850,
		0.0278326010,
		-0.0075395740,
		0.0010584518,
		-0.0128064420,
		0.0031527206,
		-0.0094408060,
		0.0022731610,
		-0.0003218092,
		-0.0215340480,
		-0.0113512540,
		0.0053026080,
		0.0203761010,
		-0.0077048970,
		-0.0050435215,
		-0.0339911200,
		0.0116548855,
		-0.0227984150,
		-0.0082899710,
		0.0019418627,
		-0.0015337770,
		-0.0374127400,
		-0.0354328860,
		0.0192684890,
		-0.0218589100,
		0.0277454500,
		0.0430411440,
		0.0231834260,
		0.1130579560,
		0.0167479140,
		-0.0081197340,
		-0.0124492440,
		-0.0042060358,
		0.0513887900,
		0.0143235570,
		0.0291561600,
		0.2946825300,
		0.0736649500,
		-0.1358465900,
		0.0589357700,
		-0.1317502100,
		0.0041667107,
		-0.1107678860,
		0.0129007060,
		0.3523553000,
		0.0860496800,
		-0.1365676500,
		-0.0801141300,
		-0.3212733000,
		-0.0042083743,
		-0.2591271400,
		0.1554406100,
		0.5013018000,
		0.1199451700,
		-0.2738414700,
		-0.1394871500,
		-0.1030851750,
		-0.0136286750,
		-0.4407941700,
		0.3629166800,
		0.4123897000,
		-0.3419560200,
		-0.5840752000,
		0.0831497400,
		-0.2747098500,
		0.2672458300,
		-0.3212053800,
		0.3654864400,
		0.2263543300,
		-0.6618492600,
		-0.3604764300,
		0.0783515000,
		-0.4221426000,
		0.0736129060,
		-0.2241316100,
		-0.0053455243,
		0.6821450600,
		-0.7428199000,
		-0.0817444900,
		0.1678922500,
		-0.2603660500,
		-0.0187349240,
		-0.4357725000,
		0.0703894050,
		0.8692604300,
		-0.1302657900,
		-0.2443938000,
		-0.4634034300,
		0.2891603400,
		-0.1751190300,
		-0.5311267000,
		0.1512621500,
		0.5318060500,
		0.4408126500,
		-0.2263372800,
		-0.3033532000,
		0.4498433800,
		-0.2683774500,
		-0.4546107000,
		0.2827338000,
		0.2073857000,
		-0.0771374000,
		-0.2237468500,
		-0.0880062700,
		0.7280863000,
		-0.4304919500,
		-0.4911663800,
		0.1089317800,
		0.5519033000,
		-0.3707259000,
		-0.0501979100,
		-0.0122348530,
		0.7516312600,
		-0.2038148300,
		-0.4632198000,
		-0.2313841900,
		0.2401871000,
		0.1867777600,
		0.0640545000,
		-0.2776495200,
		0.1242039300,
		0.6213005000,
		-0.1444406200,
		-0.0351782140,
		-0.1540252300,
		-0.1628354300,
		0.0871047400,
		-0.5405790000,
		0.1022333100,
		0.2553425000,
		0.2077837000,
		-0.0547572400,
		-0.2089927500,
		-0.1432066600,
		0.6174030300,
		-0.7048737000,
		0.1190765500,
		-0.3823732400,
		0.3166031000,
		-0.2188250400,
		-0.2026001400,
		0.0545187220,
		0.5240959500,
		-0.4123826600,
		-0.3937761200,
		-0.5017417000,
		0.5782865000,
		-0.3317777200,
		0.1248451300,
		-0.5429441000,
		0.8116351000,
		-0.2164069100,
		-0.2320569600,
		-0.2927777000,
		0.5762137000,
		0.1816003900,
		0.4786780000,
		-0.2579945300,
		0.3137882600,
		-0.6409471000,
		0.5399232000,
		0.1437881600,
		0.3676812400,
		0.3657511800,
		0.1161565260,
		-0.0917815400,
		-0.3456470700,
		-0.2228590700,
		0.1508773900,
		0.1942923800,
		1.1048301000,
		0.4684727000,
		0.1218253150,
		0.4099426600,
		-0.4426801800,
		-0.1731584800,
		0.0727593300,
		0.0705083200,
		0.7612204600,
		0.6362169400,
		-0.0818489400,
		0.0423571730,
		-0.3694161800,
		-0.0650376400,
		-0.1665831800,
		0.2774834000,
		0.3774917700,
		0.4461692000,
		-0.2728228600,
		-0.2501131300,
		-0.2156756700,
		0.1708047500,
		0.1177492500,
		0.0489899260,
		0.2091562300,
		0.2017488800,
		0.1366185700,
		-0.0551082200,
		-0.2375281000,
		-0.0101197550,
		-0.0905351640,
		0.0976891900,
		-0.0871068100,
		0.1367790400,
		0.0365247400,
		0.0676220660,
		-0.0305208320,
		-0.0662778240,
		-0.0002024901,
		-0.0667176400,
		-0.0166072170,
		0.0202818530,
		0.0033516334,
		0.0016345675,
		0.0079859495,
		-0.0202560760,
		0.0733906300,
		0.0092746160,
		-0.0359706170,
		0.0131552890,
		0.0241166200,
		-0.0124084700,
		0.0051196343,
		0.0213434080,
		-0.0096343110,
		0.0324971340,
		-0.0042390230,
		0.0160089170,
		-0.0037231036,
		0.0020069703,
		0.0130627450,
		-0.0099249610,
		-0.0023984090,
		-0.0150370690,
		-0.0197852810,
		0.0170175800,
		0.0161662080,
		0.0348702070,
		0.0139324860,
		-0.0301357790,
		-0.0228420700,
		0.0371827150,
		-0.0008663097,
		0.0128801830,
		0.0625058860,
		0.0221885550,
		-0.0115768330,
		-0.0493486820,
		-0.0318917670,
		0.0486561700,
		0.0391366400,
		-0.0090639910,
		0.1240268050,
		-0.0501484570,
		-0.0629493100,
		0.0701817050,
		0.0061712430,
		0.1287300100,
		0.0745284000,
		-0.0834020100,
		0.5760531400,
		0.0398929340,
		-0.1473643300,
		-0.0351869800,
		-0.2086271000,
		0.0231120060,
		-0.0264730900,
		-0.0403847430,
		0.5470287000,
		-0.3562784200,
		-0.1799889500,
		-0.0511959420,
		-0.0328250340,
		0.0057873550,
		-0.3785047800,
		0.3309528800,
		0.3506208700,
		-0.2588629000,
		-0.3648970400,
		-0.2357511800,
		0.2892618800,
		0.1355998400,
		-0.4330534300,
		0.3588163600,
		0.6666055000,
		-0.2196675000,
		-0.5667525500,
		-0.0199329460,
		-0.0756144300,
		0.5061471000,
		-0.2165219200,
		0.6286035000,
		0.5611809000,
		-0.3076230600,
		-0.4850647400,
		-0.0300643950,
		-0.4772437500,
		-0.0903794800,
		-0.2380989300,
		0.5487463500,
		0.4965897200,
		-0.6404402000,
		-0.2127131200,
		-0.0803903940,
		-0.0385907740,
		-0.1079624800,
		-0.0669685700,
		-0.2386163900,
		0.4169602000,
		0.1712059200,
		-0.1416019800,
		0.0816084150,
		0.3232154800,
		0.5610575700,
		-0.0725363940,
		-0.0376247700,
		0.5497674000,
		0.3087353700,
		-0.2196181600,
		0.1716977000,
		0.0723112400,
		0.3975377000,
		-0.2566642200,
		-0.3171225500,
		-0.6972017000,
		-0.1891838000,
		-0.0160057640,
		0.6612931500,
		0.2135148000,
		0.0983959960,
		-0.1388931400,
		-0.6772678000,
		0.4349621800,
		-0.2852281300,
		-0.0078777430,
		-0.0553672870,
		0.3738845600,
		0.0282932970,
		-0.2265505800,
		-0.5144488000,
		0.6248620000,
		0.4691683400,
		0.1513546400,
		-0.4088326700,
		0.0432837230,
		0.6389476000,
		-0.6384579000,
		0.0530275850,
		0.0856972860,
		0.2246191000,
		0.1569457800,
		-0.1078928900,
		0.1520093500,
		0.6667052000,
		-0.5718204000,
		0.5640979000,
		0.0282914960,
		0.0612287670,
		-0.0712294360,
		-0.4385204600,
		-0.4656104700,
		0.7594780300,
		-0.2506510600,
		0.2858571400,
		0.7793817500,
		-0.1569927000,
		0.5480873600,
		-0.1748313500,
		-0.2577161200,
		0.6532155000,
		-0.2093436700,
		0.7078520000,
		0.3151884000,
		-1.0720936000,
		0.5648036000,
		0.0365010800,
		-0.4099936000,
		0.2451719600,
		0.2112475000,
		0.7974113000,
		0.4670517000,
		-0.9176348000,
		-0.1956703700,
		-0.2559118000,
		0.0380323900,
		0.1359312100,
		0.1944651900,
		0.8340249700,
		-0.2264847300,
		-0.1464420400,
		-0.4060415000,
		-0.1598872100,
		-0.2621257300,
		0.2206068300,
		0.3826545000,
		0.4650618000,
		-0.1920856000,
		-0.2807219600,
		-0.1117428840,
		0.0554500520,
		0.2661998600,
		0.1019179600,
		0.7238616300,
		0.3431302300,
		-0.2768503000,
		-0.1142181160,
		-0.0767929500,
		0.0658726000,
		0.2150888600,
		0.0993678000,
		0.3438064200,
		0.0729425250,
		-0.1494864100,
		-0.6762126700,
		-0.3473585200,
		0.2334395300,
		0.0054490430,
		-0.0355308060,
		0.2336520400,
		0.1194815200,
		0.0169184040,
		-0.2507701200,
		-0.1233204600,
		0.0382859260,
		0.1310641200,
		-0.0552703700,
		-0.1283505600,
		-0.0266362970,
		-0.0177198020,
		0.0051501760,
		-0.1443947900,
		0.0308765970,
		-0.0100471380,
		-0.0238035710,
		-0.1486255500,
		-0.0029853978,
		-0.0285910700,
		0.0719135600,
		-0.0541336700,
		-0.0281066340,
		0.0787110500,
		-0.0089610090,
		-0.1147907800,
		-0.0066542060,
		-0.0137965605,
		-0.0091795600,
		0.0324559700,
		0.0244046060,
		-0.0044476883,
		0.0268752760,
		-0.0265627350,
		0.0139140420,
		0.0088708250,
		0.0071857960,
		0.0289724620,
		-0.0282352420,
		0.0125074815,
		0.0049356706,
		0.0235943830,
		0.0290407070,
		0.0252972340,
		0.0079456630,
		-0.0189093050,
		-0.0058953570,
		-0.0130538680,
		0.0429158880,
		-0.0226617420,
		0.0332347900,
		0.0411264820,
		-0.0290539640,
		-0.0160212480,
		-0.0172544030,
		-0.0135919120,
		0.0308103950,
		0.0575111660,
		0.0928014700,
		0.2064350400,
		-0.0891396200,
		-0.0449438500,
		0.0314454140,
		-0.0568331330,
		0.0736310300,
		0.0836865450,
		-0.0995187100,
		0.5145106000,
		-0.1353085800,
		-0.0891837550,
		-0.1321779600,
		-0.1285725000,
		-0.0726231600,
		-0.1088519500,
		0.0166560110,
		-0.0556132570,
		-0.3581527200,
		-0.1327606900,
		-0.2960103200,
		0.2583962400,
		0.0834881000,
		-0.3197589000,
		0.1643075300,
		-0.2634668000,
		-0.4011605400,
		-0.3544041800,
		-0.3911278200,
		0.1654207900,
		0.1968711300,
		-0.3536924000,
		0.2975429600,
		0.2698665300,
		-0.6458803000,
		-0.5129303000,
		-0.3801608400,
		-0.2028124000,
		0.2449230400,
		0.1666097600,
		0.4392926000,
		-0.4132578000,
		-0.3193050300,
		-0.3114525400,
		-0.2122631000,
		-0.5246810300,
		-0.3313319400,
		0.3314674500,
		0.0565853980,
		-0.0980781000,
		-0.4421292200,
		-0.0945581600,
		0.0173075600,
		0.3363224600,
		0.0195938830,
		0.6317482600,
		-0.0682464200,
		-0.3650528200,
		-0.1119024400,
		0.0474579220,
		-0.5511615000,
		0.2650569700,
		0.7133271700,
		-0.1170877400,
		-0.0058115450,
		-0.8586066000,
		0.0830681700,
		-0.1240367700,
		-0.3476981200,
		0.2372710000,
		0.7286107000,
		-0.2078617800,
		-0.0707710800,
		-0.7251648300,
		-0.3484751000,
		-0.1091160500,
		-0.1665057700,
		0.1976313900,
		0.2828343200,
		0.0396841200,
		-0.2202268700,
		-0.8941761000,
		-0.3482932400,
		0.5212200000,
		-0.1773361400,
		0.4384280400,
		0.0068685333,
		-0.5486720000,
		0.0093252410,
		0.2774980000,
		-0.5238659400,
		0.8223212000,
		0.5241858400,
		0.4626135200,
		-0.3891514500,
		-1.3819630000,
		0.5251677000,
		-0.2147532400,
		-0.4318953200,
		-0.3176577400,
		0.2529905000,
		-0.1713070400,
		0.3598240300,
		-1.4480596000,
		0.5656975000,
		-0.4340098200,
		-0.2464870700,
		-0.2754250500,
		0.1014441200,
		0.0602316670,
		0.3788634000,
		-1.5112296000,
		0.6890268000,
		0.8933529000,
		-0.0236133710,
		0.2484891100,
		-0.0367354860,
		0.6121443500,
		0.5718133000,
		-0.3561206000,
		0.7727878000,
		0.2226203000,
		-0.0269645620,
		0.5268819300,
		0.1395519500,
		-0.1317533600,
		0.2852395200,
		0.6187990300,
		0.8100553000,
		-0.2964076700,
		-0.8353970000,
		0.6920607000,
		-0.1146877560,
		-0.1581172300,
		-0.0261091590,
		0.8239108300,
		0.7038535500,
		-0.4868560000,
		0.0883596600,
		-0.2660600800,
		-0.3949135000,
		-0.1385294000,
		0.2140290300,
		0.4942831700,
		0.1358358000,
		-0.4742723000,
		-0.5322057600,
		-0.4215178000,
		-0.3691523400,
		-0.0966290200,
		-0.0671308300,
		0.6038877000,
		0.0568805900,
		-0.1787711200,
		-0.1285695400,
		-0.1189502200,
		-0.1999400300,
		-0.0615106560,
		0.1512390500,
		0.6425420600,
		0.0708382650,
		-0.3127774600,
		-0.1423489300,
		-0.3255105600,
		-0.1326564600,
		0.1564227200,
		0.0759822200,
		-0.3583722700,
		0.0067645763,
		-0.1912093200,
		-0.1693244300,
		-0.1711702000,
		0.1229044500,
		0.1205165460,
		-0.2359736600,
		-0.5855934600,
		-0.0556530200,
		0.0420821720,
		-0.0031513695,
		-0.2131524100,
		-0.0060307720,
		-0.0093468990,
		-0.1656030400,
		-0.1021801460,
		-0.0073123514,
		-0.0186568780,
		-0.0011809346,
		-0.0213800670,
		-0.0544222930,
		0.0447512800,
		0.0422379500,
		-0.0661824700,
		0.0226338380,
		0.0351657530,
		-0.0113104920,
		0.0269969740,
		-0.0290201620,
		0.0101028880,
		-0.0102648690,
		-0.0125621050,
		-0.0282885000,
		0.0188108940,
		0.0073923357,
		-0.0165345020,
		-0.0135180360,
		0.0251247900,
		0.0108570230,
		0.0355255450,
		0.0178414730,
		0.0007099257,
		-0.0257444770,
		-0.0270167870,
		-0.0028949827,
		0.0262266200,
		0.0372681200,
		0.0263393040,
		0.0475936500,
		0.0399975800,
		-0.0311952530,
		0.0169844850,
		-0.0409273060,
		0.0090129600,
		-0.0452688900,
		-0.0287274590,
		0.1113340260,
		0.1025141200,
		-0.0668286000,
		-0.0817265300,
		-0.0684761600,
		-0.0100610160,
		-0.0476427080,
		-0.0158918350,
		0.0415580940,
		-0.0912058000,
		-0.1514800800,
		-0.1501343100,
		-0.2593832600,
		0.0667780400,
		-0.0190984660,
		-0.0982411500,
		0.2263456600,
		-0.4700618000,
		-0.2587361000,
		-0.1075665400,
		-0.3223851600,
		-0.0479168900,
		0.1379629800,
		-0.1174899800,
		0.1187788600,
		-0.7854803000,
		-0.2914625700,
		-0.1928606000,
		-0.0720307600,
		-0.0878895900,
		-0.1215501400,
		0.0309189610,
		0.5239079600,
		-0.6413274000,
		-0.2215163300,
		0.0287272460,
		-0.3527406500,
		-0.5161228000,
		-0.0755190300,
		0.1815348900,
		0.6754871600,
		-0.9993198500,
		0.0927574200,
		0.0133112080,
		-0.1467346500,
		-0.1630853100,
		-0.0482177900,
		0.5124669000,
		0.0937957600,
		-1.5374275000,
		-0.1709411300,
		0.2310070200,
		-0.0254658650,
		0.2970785800,
		0.3494873300,
		0.5081435000,
		0.0726701600,
		-1.9073871000,
		-0.1726905100,
		0.2162799700,
		-0.3957711200,
		0.3937845200,
		0.1886817800,
		-0.2499301100,
		0.4186567000,
		-2.3880396000,
		-0.2461047000,
		-0.3986418000,
		-0.2647528400,
		-0.0616400300,
		0.0393927100,
		-0.3609825000,
		0.1791571800,
		-1.9425265000,
		0.1225379850,
		-0.2223957300,
		-0.1244876760,
		-0.0264789800,
		0.0165373850,
		-0.1723823800,
		-0.0875869540,
		-1.4472867000,
		-0.1755869100,
		0.9765670300,
		0.1041008760,
		0.1222527400,
		-0.8948622000,
		-0.3409396000,
		-0.0978912860,
		-0.2222674800,
		-0.4574898500,
		0.3987087600,
		0.5292274400,
		0.2584034800,
		-1.3202609000,
		-0.9413133000,
		-0.1603021800,
		-0.3759752500,
		-0.0145611930,
		-0.8943782400,
		0.2362686200,
		-0.2371122400,
		-0.2536278000,
		-1.6774375000,
		-0.3925253000,
		-0.8051789000,
		0.0024004470,
		-0.8558094000,
		0.0323988120,
		-0.0566201000,
		0.4707193700,
		-0.9664167000,
		0.0155572620,
		-0.1269333000,
		0.1037800200,
		-0.1467608800,
		0.3837384000,
		-0.2135557400,
		0.3875496400,
		-0.0772629000,
		0.9978525000,
		-0.4520043700,
		0.1639269600,
		0.0066214460,
		0.0236209800,
		-0.3229450600,
		0.1496774000,
		0.8016565400,
		0.6259203000,
		-0.1959211700,
		-0.8437567000,
		0.8654468000,
		-0.3424491300,
		0.2972100700,
		-0.0702587100,
		1.0291740000,
		0.5412055000,
		0.0350865270,
		0.3347764000,
		0.1357776200,
		-0.0160144810,
		0.0409629530,
		-0.3628944200,
		0.6792028500,
		0.0471219980,
		-0.4587342700,
		-0.1542072600,
		-0.0431898800,
		-0.2435716100,
		0.0083436160,
		-0.4591602700,
		-0.2146297400,
		-0.3534782000,
		-0.1980312000,
		-0.1959966900,
		-0.0288276750,
		-0.2643203000,
		-0.1599785800,
		0.3642902000,
		-0.0279449630,
		-0.2496687900,
		-0.2196069400,
		-0.0623173530,
		-0.0403910950,
		0.0066253310,
		0.2105311900,
		0.3219015000,
		-0.4051675200,
		0.0192344560,
		-0.1687856200,
		-0.0346149470,
		-0.0408216200,
		-0.1004002500,
		-0.0108496000,
		-0.2086997200,
		-0.6853960000,
		0.0399287860,
		0.0231617950,
		-0.1140209600,
		0.0090742640,
		0.0113389860,
		0.0938197100,
		-0.1336475300,
		-0.1648237400,
		0.0023208280,
		-0.0280409500,
		-0.0596467700,
		-0.0078500290,
		-0.0271576870,
		0.1023551450,
		-0.0375035000,
		-0.0542423950,
		-0.0127458700,
		-0.0235926530,
		-0.0026358130,
		-0.0279390720,
		0.0047930805,
		-0.0265375260,
		0.0304369090,
		0.0157918260,
		0.0025419286,
		0.0312551900,
		-0.0041129960,
		0.0032170785,
		0.0330959520,
		-0.0223183950,
		-0.0091795550,
		-0.0027679310,
		0.0125400850,
		0.0258574900,
		0.0287751150,
		-0.0163572580,
		-0.0112477200,
		0.0119889360,
		0.0126211250,
		0.0107574930,
		0.0134618670,
		0.0029164394,
		-0.0108141390,
		-0.0257696450,
		-0.0067393070,
		0.0103584025,
		-0.0110924910,
		-0.0129009790,
		0.0848172800,
		-0.0011034831,
		0.0817422100,
		-0.0525387380,
		-0.0017792378,
		0.2140503000,
		-0.1785327000,
		-0.1045407800,
		0.0667240400,
		-0.3380098300,
		-0.1621730900,
		-0.0302008260,
		-0.0608848000,
		0.0271014700,
		-0.1166729400,
		-0.0889598200,
		0.3590769500,
		-0.8148839000,
		0.5053668600,
		0.0193725100,
		-0.3324838300,
		-0.0493036100,
		-0.2834673200,
		-0.0525853260,
		-0.0636337100,
		-1.0340880000,
		0.6321838000,
		0.3385544400,
		0.1991876700,
		-0.2811732300,
		-0.3892997500,
		0.1609446100,
		0.2949021000,
		-1.3908849000,
		0.0140075850,
		0.3654932000,
		0.1025285650,
		-0.1084819000,
		-0.5360873300,
		0.0986985200,
		0.6711179600,
		-1.9806069000,
		-0.4212541600,
		0.2656046700,
		0.0907223000,
		0.2434734900,
		-0.4420153000,
		0.0818236300,
		0.0380029500,
		-2.3017035000,
		-0.8155779000,
		-0.0561710340,
		-0.3098234500,
		0.3498321500,
		-0.3506961200,
		-0.2849700200,
		0.0459859400,
		-1.7260987000,
		-0.1565478700,
		0.2048088800,
		-0.2264887700,
		0.0705396100,
		-1.1870097000,
		-0.3854290800,
		0.3932238500,
		-0.9581234000,
		-0.5004736000,
		-0.4793424000,
		-0.2323160500,
		-0.2007011900,
		-1.6604929000,
		0.2113459900,
		0.2237401600,
		-0.6022931300,
		-0.4171146200,
		-0.0720609900,
		-0.4223890000,
		0.0277282220,
		-2.2466152000,
		-0.1902600200,
		0.1577949200,
		-0.5031625600,
		-0.8651891000,
		0.1798753400,
		-0.1807966800,
		0.3294129000,
		-2.8405704000,
		-0.3191471000,
		0.0311935120,
		-0.5553095300,
		-0.6545115000,
		-0.3600416200,
		-0.1488986000,
		0.3870729500,
		-1.9663914000,
		-0.2451694300,
		-0.4130992600,
		-0.3179031600,
		-0.1923869400,
		-1.1740259000,
		0.2649065300,
		0.1321774700,
		-0.8118142000,
		-0.7711682300,
		-0.9061773000,
		0.2198846000,
		-0.0669418400,
		-0.8252303600,
		0.3847407000,
		0.2173073400,
		-0.0634801400,
		-0.5792258000,
		-0.5682403400,
		-0.2970515200,
		0.4343063500,
		-0.1344288400,
		0.6130976000,
		0.1081599300,
		-0.0748282500,
		0.1141463900,
		-0.0103863790,
		0.0691999700,
		0.0581569860,
		0.2264559700,
		-0.2117517000,
		-0.1378385300,
		-0.2804800300,
		0.7011077400,
		0.3023652000,
		-0.4896333000,
		-0.3618749000,
		0.3466883300,
		0.0497963650,
		-0.1893709900,
		-0.0207888630,
		1.5371665000,
		0.0541397260,
		0.1353735300,
		-0.3934088000,
		0.7232511600,
		0.0396633970,
		-0.0180591010,
		-0.4426977300,
		0.4801945000,
		-0.2026750000,
		-0.1169519600,
		-0.1494415100,
		0.2535759500,
		0.0983417000,
		0.1477151800,
		-0.2115485000,
		-0.1714399500,
		-0.2989525500,
		-0.1335275000,
		-0.4092879300,
		0.0406732930,
		0.3144143500,
		-0.1725337700,
		0.2705341300,
		-0.4878550800,
		-0.2144957800,
		-0.1457017700,
		-0.0954614100,
		0.0020990442,
		0.1554968400,
		0.4371942600,
		0.0138001070,
		-0.2975489500,
		-0.0310347900,
		-0.1657546000,
		-0.0165809130,
		-0.1722501400,
		0.0522733100,
		-0.2504756000,
		-0.1191922800,
		-0.4791526200,
		0.0542367900,
		0.0078789810,
		0.0240540600,
		-0.1058223300,
		0.0493581400,
		-0.2083305000,
		0.0160323550,
		-0.0995932800,
		0.0430837800,
		-0.0049528303,
		0.0014617844,
		-0.0394917170,
		-0.0379126150,
		0.0295808370,
		0.0011731698,
		-0.0579979750,
		-0.0211120560,
		-0.0051065770,
		-0.0087033170,
		-0.0354684630,
		-0.0014661591,
		-0.0319782000,
		0.0039516560,
		0.0118970890,
		0.0041233080,
		0.0194980240,
		-0.0058197044,
		-0.0072208894,
		0.0101015120,
		0.0300460640,
		-0.0140156910,
		0.0152166490,
		0.0372026380,
		-0.0062291566,
		-0.0009824506,
		0.0174175480,
		-0.0400731600,
		-0.0198083760,
		-0.0318873040,
		-0.0202346440,
		0.0866669340,
		-0.0190798530,
		-0.0267881560,
		-0.0631486550,
		-0.0335653000,
		0.0150968490,
		-0.0427674130,
		-0.0432381500,
		-0.0689158200,
		0.0142600320,
		-0.0290355310,
		-0.1063841100,
		-0.1950070000,
		-0.0340522640,
		-0.1423088300,
		-0.1282740700,
		-0.0086921570,
		-0.1502045100,
		-0.2788658400,
		-0.1785181200,
		-0.0545946020,
		-0.2738737000,
		-0.2537750000,
		-0.1380253700,
		0.2576406000,
		-0.7685739000,
		-0.1220897600,
		0.0984627200,
		-0.2321369000,
		-0.1566622300,
		-0.4297441500,
		-0.1989817800,
		0.1021845300,
		-1.0834867000,
		0.2044769000,
		0.2116663600,
		0.3689800000,
		-0.5053749700,
		-0.6203499000,
		0.0854540840,
		0.1101496700,
		-1.3160905000,
		-0.0171041130,
		0.3611632600,
		0.4239769300,
		0.1246229400,
		-0.8225109600,
		-0.2828063400,
		-0.2808612300,
		-1.3771105000,
		0.3153521700,
		0.2817085700,
		0.2952760500,
		0.1399434200,
		-1.4132289000,
		-0.2631229500,
		-0.2462318400,
		-1.4502723000,
		-0.2919556800,
		0.0224491150,
		0.3033381700,
		0.2556352300,
		-2.0831200000,
		-0.4629066300,
		0.3655895300,
		0.2597754000,
		0.0514063570,
		-0.3343152000,
		-0.0400635230,
		-0.3262197700,
		-2.5696650000,
		-0.1571753500,
		0.8191884000,
		0.0545062500,
		-0.0225624050,
		-0.3957671500,
		-0.1488967400,
		0.1263911100,
		-2.6809410000,
		-0.4212977000,
		0.4734057500,
		0.4304869200,
		-0.4073293800,
		-0.3877663000,
		0.4163503600,
		0.4125713700,
		-2.7227468000,
		-0.6617662000,
		0.3228164300,
		0.6150361000,
		-0.3029503500,
		-0.2225366700,
		-0.2593022000,
		0.5415460000,
		-1.3090320000,
		-0.7298213000,
		0.1104507900,
		0.4026794000,
		0.2766251000,
		-0.3541018000,
		-0.5129669300,
		0.3172705800,
		-0.3044356400,
		-0.3075628000,
		-0.3703303000,
		-0.1471399200,
		-0.6662462000,
		-0.0448035970,
		-0.0433464700,
		0.2189301800,
		0.5627782300,
		-0.3357392000,
		-0.5716553000,
		-0.3135066000,
		-0.2587307000,
		0.2576356800,
		0.3292971300,
		0.1804810300,
		0.5535818000,
		-0.0300261250,
		-0.3013234000,
		-0.0895736500,
		0.1488981700,
		0.5148521700,
		1.0788608000,
		-0.5760370000,
		0.5184347000,
		0.0820608200,
		-0.2013825300,
		0.2011596700,
		-0.1506620600,
		-0.1626211100,
		0.2578683000,
		-0.4082078300,
		-0.5064779000,
		1.0025154000,
		-0.3640049000,
		-0.2296098900,
		-0.3634728000,
		0.3467331500,
		0.0795654900,
		0.0043751110,
		-0.3068840800,
		1.1274307000,
		-0.5082111400,
		-0.0487699000,
		-0.8361890000,
		0.4793711000,
		0.1247614800,
		0.0937701800,
		-0.1151725350,
		0.0613393560,
		-0.2585070000,
		-0.5106554600,
		-0.8616488600,
		-0.2404737500,
		-0.0874888600,
		-0.1927351800,
		0.0979833000,
		-0.3872331400,
		-0.2942146700,
		-0.3911576600,
		-0.4942992000,
		0.0480437000,
		0.1861970400,
		-0.2744574800,
		0.3452299000,
		-0.5648930000,
		-0.2037566000,
		-0.3348080500,
		-0.2950340800,
		-0.0828046200,
		0.0830709800,
		0.4252547000,
		-0.1792619500,
		-0.6591940500,
		-0.1388220600,
		-0.1390893200,
		-0.0738263300,
		0.0607624200,
		0.0297010880,
		0.2272664000,
		-0.0821542600,
		-0.4805268300,
		-0.0021597897,
		-0.0331741160,
		0.0262876880,
		-0.0916906100,
		-0.0229527400,
		-0.0853905900,
		0.1628083600,
		-0.1319194700,
		0.0590963500,
		0.0301023200,
		0.0421569650,
		-0.0609501600,
		0.0037188472,
		-0.0725519000,
		0.0273084400,
		-0.0388146150,
		-0.0130603540,
		-0.0255839150,
		0.0347761000,
		0.0143183140,
		0.0309079030,
		0.0266002450,
		0.0155177400,
		-0.0014029591,
		-0.0130362290,
		-0.0161236580,
		0.0026457831,
		0.0111834450,
		-0.0113844580,
		0.0028416105,
		-0.0127274785,
		-0.0085523980,
		0.0353612080,
		0.0238953720,
		0.0174812250,
		0.0292989330,
		-0.0046837754,
		0.0285220600,
		0.0210531900,
		-0.0258223790,
		0.0402736250,
		-0.0147748980,
		-0.0149713410,
		0.0031406928,
		-0.0685437900,
		-0.0239221210,
		-0.0097712830,
		0.0045180860,
		-0.0953311500,
		0.0129367800,
		-0.1541865900,
		-0.1197631600,
		-0.1912606800,
		-0.0149051860,
		-0.2767723800,
		-0.2256426000,
		-0.2237993200,
		0.0325365900,
		-0.2163853300,
		0.0039576150,
		0.2601652700,
		-0.2153480500,
		-0.3827982800,
		-0.1625928400,
		0.0035071378,
		0.0873510300,
		-0.3030534400,
		0.1198288500,
		0.1663498600,
		-0.2340259700,
		-0.5166902500,
		0.0395623220,
		0.0519384000,
		-0.4281869500,
		-0.1263939400,
		0.1340814800,
		0.5413678000,
		-0.3868619000,
		-1.0912466000,
		-0.1532482000,
		0.4388480000,
		-0.1247802600,
		-0.1171474000,
		0.3156314000,
		-0.3091510000,
		0.1526118800,
		-1.6825501000,
		-0.6054001000,
		0.0057571544,
		0.0648474800,
		0.2602104000,
		-0.1785269500,
		0.4552051400,
		-0.0476170900,
		-2.0644596000,
		-0.0911579800,
		0.1202937140,
		0.6838618000,
		-0.0861667840,
		-0.2612490700,
		0.5374741600,
		-0.1027442100,
		-1.9935331000,
		-0.1585160600,
		0.4652942700,
		0.9434357000,
		0.1954847100,
		-0.3732567000,
		-0.3374668400,
		-0.7228182600,
		-1.0849136000,
		-0.1602714500,
		0.4637727700,
		0.5851028600,
		-0.3477455700,
		-0.5601801000,
		-0.3857720000,
		0.2059038700,
		-0.7988648400,
		-0.1616317600,
		0.0802692200,
		0.3685519400,
		-0.9421594000,
		-0.6889698500,
		-0.1494860400,
		0.5389823000,
		0.1995104800,
		-0.2248787900,
		0.0786434000,
		0.4135698000,
		-0.1903261000,
		-0.0398175120,
		-0.6100800600,
		0.5326225000,
		0.9478812000,
		-0.3170133500,
		0.0771579500,
		0.0116394610,
		-0.2436557900,
		0.6738384400,
		-1.0748670000,
		0.0816795700,
		0.3754525500,
		-0.5510062000,
		-0.3042229000,
		-0.2728407400,
		-0.8364720300,
		0.4986833600,
		-0.6759651300,
		0.0490299000,
		0.8389684600,
		-0.2149170500,
		-0.2397954000,
		-0.3091948300,
		-0.4981663500,
		0.7245124000,
		0.0231101740,
		-0.3057384000,
		0.4888846000,
		-0.3491090200,
		0.1245867760,
		-0.7714157700,
		0.0382529000,
		0.2126262800,
		0.6575116000,
		0.0102842640,
		-0.0989451900,
		0.5371448400,
		0.0693278760,
		-0.3827095300,
		-0.3179844000,
		0.3221296000,
		-0.3626224700,
		-0.0281933060,
		-0.3761169300,
		0.4190276000,
		-0.1809531600,
		-0.1975649400,
		0.0648510460,
		0.4119207600,
		0.6673497000,
		-0.3294256300,
		-0.0655443400,
		0.6124235400,
		-0.4248868000,
		0.2231739500,
		-0.3971528700,
		0.2850793300,
		0.1361994100,
		0.1493409700,
		0.0283440670,
		-0.2307793000,
		-0.4658284000,
		0.0247888250,
		-0.6431232700,
		0.3498798600,
		0.3241417700,
		0.5748379000,
		-0.1830323800,
		-0.4852005000,
		-0.2924962300,
		-0.2129108300,
		-0.3343047000,
		0.2127143900,
		0.1445376100,
		0.2665517300,
		-0.1852970600,
		-0.5450030600,
		-0.2414762400,
		-0.3357952200,
		-0.4325066000,
		0.3298186700,
		0.2242087700,
		0.2809535600,
		-0.2031018100,
		-0.6100331000,
		-0.1278393100,
		-0.1412402700,
		-0.1568454200,
		0.1736702000,
		-0.0835980550,
		0.2781771400,
		-0.1789626000,
		-0.2386403400,
		0.0004282936,
		-0.0269362550,
		0.1292993600,
		-0.1702046700,
		-0.1060790600,
		-0.0246128680,
		0.0653944200,
		-0.0288155380,
		-0.0277662800,
		-0.0156829380,
		0.1034993700,
		-0.0643491100,
		-0.0192914160,
		-0.1114953460,
		-0.0053441348,
		-0.0429933330,
		-0.0309395270,
		-0.0231674740,
		0.0137543820,
		-0.0292914850,
		0.0136913340,
		-0.0058211810,
		-0.0056948960,
		-0.0184867590,
		-0.0222107470,
		0.0087336830,
		0.0195844660,
		-0.0008596847,
		-0.0317098420,
		0.0268026780,
		-0.0201508300,
		-0.0338381120,
		0.0322709800,
		-0.0208511650,
		0.0260818860,
		0.0074308820,
		0.0198077800,
		-0.0333370980,
		-0.0123001390,
		0.0232121650,
		0.0108429420,
		0.0266963130,
		-0.0218326990,
		-0.0195197800,
		-0.0519869770,
		-0.0020369370,
		0.0158979050,
		-0.0090036660,
		-0.0538072140,
		0.0735968100,
		-0.1670024000,
		-0.0617321020,
		-0.0589698900,
		-0.0099514800,
		-0.1761580300,
		-0.1647676400,
		-0.2532981300,
		0.1020316700,
		-0.2705590000,
		0.0312591500,
		0.5032783000,
		-0.1126818600,
		-0.4115474200,
		0.2375113200,
		-0.1822904000,
		0.4510152300,
		-0.1060016800,
		0.1796305500,
		0.4281352200,
		-0.1796285000,
		-0.6105433000,
		0.2279573100,
		-0.1019582900,
		0.3874513000,
		-0.2816969500,
		0.2289113000,
		-0.1732969100,
		-0.2104604100,
		-0.8575471600,
		0.0585697300,
		0.2960879500,
		0.6015935000,
		-0.3859811000,
		0.1837907100,
		-0.2680305200,
		-0.5036656000,
		-0.9755246600,
		-0.4426896600,
		0.3923076700,
		0.7521016000,
		-0.3922469000,
		0.2839413600,
		0.3369949500,
		-0.2054068700,
		-0.6148061000,
		0.1165752860,
		0.3950654600,
		1.0430580000,
		-0.0633557400,
		-0.0481820800,
		0.3871658400,
		-0.3118012200,
		-0.6672863000,
		-0.2578992500,
		0.3982410400,
		0.4260429700,
		-0.0711207540,
		-0.0849564750,
		0.1849154100,
		0.0718153600,
		0.2246360200,
		-0.4950752300,
		0.0285945830,
		0.0880216200,
		-0.3535180700,
		-0.4083102600,
		-0.1746716200,
		0.7034318400,
		0.8279720000,
		-0.2390387500,
		-0.4134778000,
		0.4943680200,
		-0.7037155000,
		-0.1208066200,
		-0.1250955600,
		0.1332155000,
		0.4896786500,
		-0.3946827400,
		-0.6724626000,
		0.4795954500,
		0.1560009600,
		0.2116546800,
		-0.6800210500,
		0.2919173500,
		0.8495653000,
		-0.1110856760,
		-0.6595133000,
		-0.0272398440,
		-0.4879850000,
		0.8214676400,
		-1.0062013000,
		-0.1662484300,
		0.2441379700,
		-0.6143506000,
		-0.6164261700,
		0.0179776440,
		-0.6036092000,
		0.2786024500,
		-0.6510619500,
		0.3173689000,
		0.1632234000,
		-0.7053067000,
		-0.1801139100,
		-0.0735253800,
		-0.7635734700,
		0.3545398000,
		-0.5220195000,
		0.3509275000,
		-0.0581291600,
		-0.3469315800,
		0.1608649200,
		-0.7829268000,
		-0.1718530200,
		0.0552265870,
		0.1872902700,
		0.4816270800,
		-0.3253435800,
		0.1302830700,
		0.3969034000,
		0.0889166200,
		-0.0750446500,
		-0.3827843000,
		-0.1005360800,
		0.3134488200,
		-0.0617266970,
		0.6298792000,
		-0.3658774500,
		0.1082998500,
		0.3646867300,
		0.2173952300,
		0.8802628500,
		-0.0338716000,
		0.2118560400,
		-0.4836443400,
		-0.1778872600,
		-0.1596981700,
		0.0515244980,
		0.0556879600,
		0.7138527600,
		0.0674885400,
		-0.0335652700,
		-0.4149761500,
		-0.1418708000,
		0.3412540000,
		-0.7541250000,
		0.1825518000,
		0.5148544000,
		-0.1071346600,
		-0.1692046500,
		-0.5276503000,
		-0.1553995300,
		0.1944566200,
		-0.4336970200,
		0.5118082000,
		0.2330564100,
		0.0296480620,
		-0.2880858200,
		-0.3165256700,
		-0.1933291400,
		-0.4523823300,
		-0.0240921830,
		0.5420800000,
		0.4072685800,
		0.5499136000,
		-0.1186496100,
		-0.5053548000,
		-0.0596959700,
		-0.3777632400,
		-0.0152889400,
		-0.0163373840,
		0.1220245300,
		0.1756679400,
		-0.0584332000,
		-0.0959058700,
		-0.0257344970,
		-0.0232011970,
		0.1882571900,
		-0.1420895600,
		-0.0756404550,
		0.0843119300,
		0.0732724400,
		-0.0230229270,
		-0.0280272960,
		0.0303813160,
		0.1100657300,
		0.0195887350,
		-0.0322499460,
		0.0110282690,
		-0.0025531277,
		-0.0139801790,
		0.0276033430,
		-0.0203921680,
		0.0345036720,
		0.0188504420,
		-0.0020405400,
		-0.0184394230,
		-0.0123321675,
		-0.0155729875,
		0.0242339900,
		-0.0108065400,
		-0.0013782866,
		-0.0185336140,
		0.0153507480,
		0.0334963900,
		-0.0334701400,
		-0.0040406400,
		0.0135667420,
		0.0253835250,
		0.0256396720,
		-0.0293324440,
		-0.0043917405,
		-0.0124147990,
		-0.0140423440,
		-0.0263987240,
		0.0340826200,
		-0.0081002700,
		0.0109508680,
		-0.0086598420,
		0.0068620340,
		0.0245161190,
		0.0268447920,
		0.0016817765,
		-0.0781324360,
		0.0540756660,
		-0.0016556818,
		-0.0394272900,
		0.1029855160,
		-0.0023655824,
		-0.0127423760,
		-0.1051747100,
		-0.1116442300,
		0.2008634200,
		-0.1008415000,
		0.4688335400,
		0.3209568600,
		-0.0497874320,
		-0.0056517073,
		0.0990610050,
		0.0459946000,
		0.4311376000,
		-0.1246549900,
		0.3405198200,
		0.1774969200,
		-0.0817393900,
		-0.1534542600,
		0.4344343500,
		-0.1131763700,
		0.3886975600,
		0.1442001500,
		0.2362719800,
		-0.3116149300,
		-0.3443502000,
		0.2736453000,
		0.2734314000,
		-0.0311464220,
		0.1522234000,
		0.0491188600,
		0.1318901200,
		-0.1736139800,
		-0.3131824400,
		0.2334765300,
		0.3307628300,
		0.4279402800,
		0.3026629000,
		-0.5052591600,
		-0.0205798150,
		-0.1204831100,
		-0.0816520000,
		0.3337663400,
		-0.0754634140,
		0.7103536000,
		0.4943083800,
		-0.7723710500,
		-0.2606559400,
		0.7165727000,
		-0.0944240300,
		1.0693051000,
		0.2534147000,
		0.9025010500,
		-0.0418957900,
		-0.5512247000,
		-0.2026638100,
		0.1367863700,
		0.6463923000,
		0.8980831500,
		-0.4519143400,
		0.2768823500,
		-0.3657825300,
		-0.5215374000,
		-0.2499251000,
		0.0359877400,
		0.9682128400,
		0.4083189400,
		-0.0855441300,
		-0.6115149000,
		-0.2379675200,
		0.0035489618,
		-0.0892020240,
		-0.1306928700,
		0.1725731500,
		-0.1075012460,
		0.0481624600,
		-0.9878548000,
		0.2208479200,
		0.8457318500,
		0.2857284800,
		-0.5094172000,
		-0.4148488300,
		0.3355835700,
		-0.3918422500,
		-0.9795503600,
		0.0613027000,
		0.1271056200,
		0.1748115300,
		-0.2953489700,
		-0.5165865000,
		0.9363980000,
		-0.2014087000,
		-0.6720592400,
		-0.4575355600,
		-0.3911470500,
		0.2748554000,
		-0.5464509000,
		0.2976406800,
		0.2092201700,
		-0.6807391600,
		-0.3865595200,
		-0.6706286000,
		-0.2838258700,
		-0.3776601900,
		-0.3535938000,
		-0.4629359500,
		0.7633387400,
		0.1977574200,
		-0.1592890500,
		0.3458402500,
		-0.0032098250,
		-0.4153421200,
		-0.0641328500,
		-0.2002633500,
		0.1243655700,
		0.8171027000,
		-0.0590671200,
		-0.4762907300,
		0.0414388200,
		-0.1152698200,
		1.1732323000,
		-0.0887333150,
		0.4528266800,
		0.4462373600,
		-0.3041976700,
		-0.4422789800,
		0.0971741100,
		0.4141178000,
		1.1943604000,
		-0.4998898500,
		0.5352229000,
		0.5631163000,
		-0.4106858000,
		-0.2665471400,
		-0.0524969180,
		0.4272636800,
		0.7437532000,
		-0.3193591000,
		-0.0765633500,
		0.1295958300,
		-0.0127747610,
		0.2708385000,
		-0.8385316000,
		0.0650847700,
		0.1202726400,
		0.0066856435,
		0.0251750830,
		-0.2414998900,
		0.0848146500,
		0.0541239300,
		-0.2331155500,
		0.1981513600,
		-0.1091859040,
		-0.1332081400,
		-0.0975659500,
		-0.2061541000,
		0.1068307900,
		0.0972486600,
		-0.3096649600,
		0.1627329100,
		-0.2740642400,
		0.2051455200,
		0.0777480750,
		-0.3730030700,
		0.0957369300,
		-0.3600148600,
		-0.1028024550,
		0.1518346000,
		0.0761970300,
		0.5365721600,
		0.1570972200,
		-0.0517633070,
		0.0329967480,
		0.0218306500,
		0.1033652200,
		-0.0922051900,
		0.1288804600,
		0.2071265100,
		0.0223039610,
		0.0628088400,
		0.0243657860,
		0.0193309650,
		0.0517412000,
		0.0129343880,
		0.0197838900,
		0.0116080610,
		0.0191440550,
		0.0161189180,
		-0.0163393200,
		0.0147780180,
		0.0090096370,
		0.0079649980,
		-0.0242133200,
		-0.0069184564,
		0.0010404840,
		-0.0155013430,
		-0.0072376000,
		-0.0049276147,
		-0.0171088670,
		-0.0045214035,
		-0.0136436450,
		-0.0340494440,
		0.0180803160,
		-0.0289405600,
		-0.0259876640,
		0.0265796180,
		-0.0222244650,
		-0.0111921600,
		-0.0083437525,
		-0.0270926240,
		-0.0355783600,
		0.0184101570,
		0.0182182270,
		-0.0099137220,
		0.0445275980,
		-0.0225944800,
		0.0172468140,
		0.0116631290,
		0.0741386800,
		0.0347839440,
		-0.0352864300,
		0.1258957400,
		0.1282850200,
		-0.0700529600,
		0.0195843280,
		-0.0374513940,
		0.2058622800,
		0.0319874660,
		-0.1251422600,
		0.1673286100,
		0.1308773000,
		0.3586757500,
		0.2351225800,
		-0.2243844000,
		0.3596013800,
		0.2335290300,
		-0.1030597800,
		0.4525199200,
		-0.1055807300,
		0.6065419000,
		0.1449299300,
		-0.3556254200,
		0.5251694300,
		-0.0418346800,
		-0.3780594000,
		0.3043563700,
		-0.2009066800,
		0.2979734500,
		-0.2964678400,
		-0.5406771000,
		0.5697127600,
		-0.0306904280,
		-0.0326754300,
		-0.4964148000,
		0.1917941700,
		0.4341358800,
		-0.1723626100,
		0.0321455400,
		0.6642136600,
		-0.3935866700,
		0.2894368500,
		-1.2251705000,
		-0.5938378600,
		0.2746730400,
		0.5807427000,
		0.6450501000,
		0.3564750300,
		0.0355194800,
		0.7133288400,
		-0.3049319700,
		-0.7964205000,
		-0.0338943080,
		0.7064355000,
		1.1034548000,
		-0.0580012570,
		0.4719608000,
		0.2565206000,
		-0.1892322600,
		-0.3925893000,
		-0.1742977600,
		0.7323944000,
		1.5166628000,
		-0.2124303600,
		0.4629655000,
		0.2575783000,
		-0.7852913000,
		0.6240396000,
		-0.4943584000,
		0.3383644800,
		1.0354321000,
		-0.2945047600,
		-0.1178674400,
		-0.4502391800,
		-0.2983191600,
		1.1693612000,
		-0.0166204810,
		0.2773255400,
		-0.0639734400,
		-0.3481423600,
		-0.2294255000,
		-0.7107329400,
		-0.0529026950,
		1.4572437000,
		0.3603284000,
		-0.2127527300,
		-0.4761986400,
		-0.2644835400,
		-0.3870304500,
		-0.8098256000,
		0.2829504000,
		0.4220483600,
		0.0929713000,
		-0.3262293300,
		0.1887903700,
		-0.3566726700,
		-0.0532268660,
		-0.9390536500,
		0.4166167400,
		-0.4358422800,
		-0.2483515700,
		-0.4258835600,
		0.1624779600,
		0.0535055200,
		0.3915854700,
		-0.7961574000,
		0.3777099800,
		0.2678485800,
		-0.4382046500,
		-0.2246599600,
		0.0424192200,
		0.0308378900,
		0.1792931700,
		-0.2036543300,
		-0.0462563900,
		0.1397429100,
		-0.6158663000,
		0.0607999900,
		-0.4533933400,
		0.0606250000,
		0.3118271500,
		0.1803596500,
		-0.2245485600,
		0.2718114300,
		-0.0868895700,
		0.8840661600,
		-0.4271148400,
		0.6921719300,
		0.0157544990,
		-0.2634688000,
		-0.1264640000,
		-0.0626716200,
		0.6115808500,
		0.5770223000,
		-0.5351067000,
		0.0082483530,
		0.4186161000,
		-0.0541222360,
		0.0068796640,
		-0.7768783600,
		0.3542767000,
		-0.4006823300,
		-0.3161577600,
		-0.3937271200,
		-0.0957908600,
		0.4711328000,
		0.0782542150,
		-0.3875959800,
		-0.1188299200,
		-0.2613536400,
		-0.1384962400,
		-0.0834616600,
		-0.0387082000,
		0.1406238100,
		0.3081028800,
		-0.3923895400,
		-0.2903614000,
		-0.5629707600,
		0.0986420900,
		-0.2924491500,
		-0.1870330400,
		0.0126966520,
		0.8002450500,
		-0.0940054700,
		0.0517772200,
		-0.7855264000,
		0.0646869240,
		0.2980592800,
		-0.0952008100,
		0.0618461500,
		0.2179444700,
		0.1993826800,
		0.0977753600,
		0.1643937400,
		0.2864381700,
		0.1418346600,
		0.0661690460,
		0.0002215126,
		0.2235762800,
		0.2736698400,
		0.0569364170,
		0.1379039900,
		0.1855810300,
		-0.0083224450,
		0.0161286160,
		-0.0026875897,
		0.1900891000,
		0.1219681700,
		0.0085385350,
		-0.0118740950,
		0.0502820720,
		0.0780060740,
		-0.0117576820,
		-0.0159894660,
		0.0156872960,
		0.0282641610,
		0.0055506425,
		-0.0109017130,
		0.0422726500,
		-0.0061442500,
		0.0179595630,
		-0.0069224200,
		0.0006952323,
		-0.0042869860,
		0.0221243650,
		0.0028877854,
		0.0258741300,
		0.0220367870,
		0.0170866290,
		0.0075950400,
		-0.0139640920,
		0.0181284140,
		-0.0271536540,
		0.0106783670,
		0.0117483550,
		-0.0041417740,
		-0.0335463800,
		0.0042146200,
		-0.0138669390,
		-0.0046639256,
		0.0336228300,
		-0.0261909740,
		-0.0122169150,
		0.1209538650,
		0.0928582250,
		-0.0030408527,
		0.2568071200,
		0.1247265300,
		-0.1424941700,
		-0.1123457500,
		-0.1584439300,
		0.5312514300,
		0.1244129100,
		-0.1519735000,
		0.3846056200,
		0.1304726700,
		0.1784135000,
		0.0538824350,
		-0.2909623700,
		0.7288019700,
		0.4345983000,
		-0.2589976800,
		0.3188728000,
		0.2984564600,
		0.4454896700,
		0.0503901760,
		-0.3863782600,
		0.5387102000,
		0.0016148550,
		-0.1920237000,
		-0.0808506900,
		-0.1103679600,
		0.2883075800,
		-0.0866317450,
		-0.0392818670,
		0.3692855000,
		-0.4172422000,
		0.0289687160,
		-0.7875700000,
		0.4028676700,
		0.3254502400,
		-0.3575932700,
		0.2795311800,
		0.2768854200,
		-0.2824335400,
		0.1296095800,
		-0.8812930000,
		-0.3556562700,
		0.3272589000,
		0.3822482800,
		1.0007646000,
		0.1844619500,
		-0.1443008600,
		0.5719182500,
		-0.7206651600,
		-0.4643511800,
		0.1131078400,
		0.0675425750,
		1.7551337000,
		-0.6264963000,
		0.2152123200,
		-0.1550183300,
		-0.0490980670,
		-0.1757706900,
		-0.3124256700,
		0.2985731000,
		1.5790709000,
		-0.3806740300,
		0.7121176000,
		-0.0974459400,
		-0.5384209000,
		0.5308680000,
		-0.3701184400,
		0.3203362500,
		-0.0056411620,
		0.1827620300,
		0.0980918900,
		-0.1672954700,
		-0.5857897400,
		0.4428497600,
		-0.4363891500,
		0.0418396330,
		-0.6911464000,
		0.6700297600,
		-0.2017942700,
		-0.4752495600,
		-0.1544380600,
		0.1953337200,
		0.1140984400,
		-0.3385869000,
		-0.3391662000,
		0.1656907300,
		-0.2951616600,
		-0.2819016000,
		0.4070640000,
		0.3676973300,
		-0.1592016400,
		-0.5948144000,
		-0.2613344000,
		0.1943713300,
		-0.6428054600,
		-0.3804891000,
		-0.1529311700,
		0.2775523000,
		-0.3320799000,
		-0.6636407400,
		0.3453008800,
		0.3254799000,
		-0.2515866500,
		-0.1728085600,
		0.1141793950,
		0.5366022000,
		-0.2557816200,
		-0.6712895600,
		0.1022280300,
		0.0343602670,
		-0.3223031800,
		-0.0875940400,
		0.0680801300,
		0.4249014600,
		-0.1689629600,
		0.2075126600,
		-0.2126381200,
		0.4627686000,
		-0.1111088000,
		-0.0230251640,
		0.3905218000,
		-0.1935423000,
		0.0774096200,
		1.2255464000,
		-0.5195917500,
		0.2822510600,
		0.3227008600,
		-0.0164799970,
		0.6304193000,
		-0.0780431700,
		0.1996642500,
		-0.1470131300,
		-0.7159614600,
		0.1250137400,
		0.1183154600,
		-0.0972792700,
		0.2403224300,
		-0.1050429800,
		0.2346528800,
		-0.6725626000,
		0.0774756100,
		-0.3999487000,
		0.3291835500,
		0.5329749600,
		-0.0041390616,
		0.2894556800,
		-0.4873885200,
		-0.3043888000,
		-0.3863226200,
		-0.1127893600,
		-0.1194951760,
		0.0296290160,
		0.5883943000,
		0.3780747700,
		-0.3077067700,
		-0.4346444000,
		0.0030558964,
		-0.1690322900,
		-0.0005241592,
		-0.0984829800,
		0.9883565300,
		0.3235963600,
		-0.1382175700,
		-0.5739510000,
		-0.0557468050,
		0.2577156000,
		0.1788538400,
		0.0206585430,
		0.6110601400,
		0.4318841400,
		-0.1587049400,
		-0.2367539400,
		-0.0752353600,
		0.1931352000,
		0.1906736500,
		-0.1037566700,
		0.4179652600,
		0.6444121000,
		-0.0289568440,
		-0.1552818100,
		0.2489963500,
		0.0609558150,
		0.0284614750,
		-0.0613986400,
		0.2778000500,
		0.2602677600,
		-0.0344145970,
		-0.0302732720,
		0.1110441300,
		0.0559672270,
		0.0303345230,
		-0.0335245800,
		0.1676800100,
		0.1683901800,
		0.0003525976,
		0.0157338470,
		0.0483965760,
		0.0045017144,
		0.0284383840,
		-0.0041203685,
		-0.0228942600,
		-0.0231946370,
		-0.0116460160,
		0.0131731180,
		0.0276954800,
		0.0117657180,
		0.0331844430,
		-0.0203597640,
		-0.0153191100,
		0.0074652810,
		0.0032308626,
		-0.0247939920,
		0.0201171060,
		0.0148919980,
		-0.0049048173,
		-0.0248047710,
		0.0567441900,
		0.0264909660,
		0.0019816773,
		-0.0100334460,
		-0.0196630970,
		0.1465641700,
		0.1056915800,
		0.0077884660,
		0.2260073000,
		0.1893281200,
		-0.1272324200,
		-0.2280812000,
		-0.2400439100,
		0.4196158600,
		0.3660462000,
		0.0574230800,
		0.0872880000,
		0.2563395000,
		0.1684608500,
		-0.2487605800,
		-0.0213015020,
		0.3414646400,
		0.5328195000,
		0.0297115850,
		-0.0717478500,
		0.0522478220,
		0.2961331600,
		-0.1547029800,
		0.0827289200,
		0.1113758700,
		0.0696453200,
		-0.0490522500,
		-0.3992868700,
		0.0824701400,
		0.1441581000,
		0.0838791060,
		0.0538398850,
		0.1827233100,
		0.2361683800,
		-0.0934317260,
		-0.1892967700,
		0.4517991800,
		0.2908644000,
		0.2949119800,
		0.1932946900,
		-0.2234161200,
		0.0538546440,
		-0.0766865100,
		0.0623026380,
		0.3695725200,
		0.6481817000,
		0.5945950000,
		0.7053649400,
		-0.7014630400,
		-0.0215776670,
		-0.2182972900,
		-0.0027158717,
		0.2019626500,
		0.7017240000,
		0.2107680400,
		2.1453450000,
		-0.4462964000,
		-0.0671983800,
		-0.6315741500,
		-0.0716893200,
		0.1145953100,
		-0.0587134960,
		0.2426879000,
		1.0864890000,
		-0.0640571900,
		0.0745429000,
		-0.6179629000,
		-0.3850730000,
		1.0916318000,
		-0.7949914300,
		0.2998071300,
		0.2211932500,
		0.0574927180,
		0.3226836300,
		-0.4530687600,
		-0.3337880000,
		0.2289493400,
		-0.7289583000,
		0.2337870400,
		-1.1010242000,
		0.3199587800,
		-0.0116014240,
		-0.1708090300,
		-0.5495618000,
		-0.0377694670,
		-0.1046250500,
		0.1432058800,
		-1.0954740000,
		-0.3682482800,
		-0.1899161800,
		-0.0176214000,
		-0.9475972000,
		0.2376710300,
		-0.4121364000,
		0.0771368600,
		-0.1534573100,
		-0.1064393000,
		-0.5868804500,
		0.0262046120,
		-0.9926998000,
		-0.0959305240,
		-0.2542782000,
		-0.3422631300,
		-0.1562875400,
		0.3730943000,
		-0.2200106200,
		0.0083867070,
		-0.6021335000,
		0.3892702000,
		-0.0945683200,
		-0.2753943000,
		0.1063575740,
		0.0249834620,
		-0.1988904300,
		0.3242679800,
		0.1571283200,
		0.3647283600,
		-0.1175560650,
		0.3291488300,
		-0.8644846000,
		0.3486556700,
		0.3975497800,
		0.3281399000,
		-0.5254422400,
		0.4340647000,
		-0.3861412000,
		0.5510648000,
		-0.3761495000,
		0.2936536000,
		-0.0547488800,
		0.4016088000,
		-0.5664931500,
		0.0713392100,
		-0.3028548700,
		-0.1963669500,
		-0.5686339000,
		0.1641631300,
		-0.3371187400,
		0.5064363000,
		-0.0065790270,
		0.2150278800,
		-0.3343107000,
		-0.5221816300,
		-0.3520354000,
		0.1609975700,
		-0.3544088600,
		0.3982605000,
		0.1907068200,
		0.7408909000,
		-0.1410820000,
		-0.0522873600,
		-0.4895536300,
		0.0505949400,
		-0.3071871000,
		0.2437912800,
		0.3868101200,
		-0.0177899820,
		-0.0058729416,
		-0.3689932800,
		0.1628309300,
		0.0594750900,
		0.1399529300,
		-0.1913434700,
		0.9425236600,
		0.1738948700,
		0.0597314300,
		-0.4997686400,
		-0.0335515140,
		0.1708969300,
		0.3738363400,
		-0.1605303300,
		0.2115383700,
		-0.0665090300,
		-0.0242891460,
		-0.2777783600,
		-0.1435406000,
		-0.0166476160,
		0.1760002700,
		-0.0928891900,
		0.3141466700,
		1.0296104000,
		-0.0417541860,
		-0.1656831200,
		0.2617184500,
		-0.0405290760,
		0.0164873580,
		-0.0085544430,
		0.0593190530,
		0.3013616800,
		0.0087916050,
		-0.0208963700,
		0.1818043900,
		0.0524378000,
		0.0298221780,
		-0.0279633740,
		-0.0008912357,
		0.0689843100,
		-0.0145977110,
		0.0161618960,
		0.0785228240,
		-0.0008007789,
		0.0422621900,
		0.0025398568,
		-0.0194243570,
		-0.0171278640,
		-0.0078513210,
		-0.0058856234,
		0.0033079728,
		-0.0260380660,
		0.0245848280,
		-0.0159992100,
		-0.0196509860,
		-0.0139613785,
		-0.0271171280,
		-0.0430035900,
		-0.0298309870,
		0.0341789460,
		0.0244770700,
		-0.0304145700,
		0.0326698400,
		0.0482107900,
		-0.0038829963,
		-0.0465753400,
		-0.0262434700,
		0.0917654040,
		0.0172865370,
		0.0826134600,
		0.1946427500,
		0.0266938620,
		-0.1679646500,
		-0.1132898800,
		-0.1960823400,
		0.3966910200,
		0.4935419000,
		0.0955467100,
		-0.0563558450,
		0.1394316700,
		0.0580900830,
		-0.1407033200,
		0.1158803400,
		0.0543942800,
		0.2951878000,
		0.1184175900,
		-0.1347945000,
		-0.0122640330,
		0.2643373300,
		-0.2960754000,
		0.4980853200,
		-0.2162962000,
		0.1587177000,
		-0.2280678200,
		-0.1708095200,
		0.0790100500,
		0.2894926400,
		-0.0142555570,
		0.1434766500,
		0.3858290600,
		0.5781014600,
		-0.3009302300,
		0.4530609800,
		0.7879066000,
		0.4329641800,
		0.2069265700,
		0.4247722600,
		0.6522425400,
		0.5959920000,
		-0.3060049400,
		-0.0069847135,
		0.4803944800,
		0.7281158000,
		0.4830600000,
		0.9311949600,
		-0.0760821250,
		0.2777380000,
		-0.4366393400,
		-0.2497197200,
		0.5899511600,
		0.7828494300,
		0.3215364000,
		2.0461411000,
		-0.0257313360,
		0.0791983700,
		-0.5212202700,
		0.0232737000,
		0.4181564700,
		0.0970736400,
		0.1399692600,
		0.5953781600,
		-0.0065075876,
		-0.6402265000,
		-0.6897767000,
		-0.6613648500,
		0.3274454500,
		-0.3847963800,
		0.3349860600,
		-0.3104553800,
		-0.5547522300,
		-0.0296945180,
		-0.5778150600,
		-0.4436916700,
		0.2906944800,
		-0.3941310000,
		-0.0523459580,
		-1.5720793000,
		0.2244515000,
		0.0652786640,
		0.0282458960,
		-0.3629217400,
		-0.1156566440,
		-0.4918291000,
		-0.1188124340,
		-1.0420611000,
		0.6010433400,
		-0.1274511800,
		-0.1939583400,
		-0.1972350900,
		0.2317528000,
		-0.4857114300,
		-0.3066438700,
		-0.4240999000,
		0.2464074500,
		-0.0413054700,
		0.0256579400,
		-0.3557882300,
		0.0663145860,
		-0.5533184400,
		-0.4824409500,
		-0.3691607700,
		0.1890238700,
		0.3746324500,
		-0.1204187700,
		-0.0997775800,
		0.6075973000,
		-0.2415235600,
		-0.6751850000,
		-0.6696222000,
		-0.1290945000,
		0.5577497500,
		0.4106552000,
		0.0728383100,
		0.8236778400,
		-0.1914427900,
		0.1117517400,
		-0.6213585000,
		0.4781285000,
		0.3082283000,
		-0.0707169300,
		-0.1473599500,
		0.8444561400,
		-0.2287480400,
		0.2327925300,
		0.0232279800,
		0.5445000500,
		0.0912622960,
		-0.4788716000,
		-0.4572121800,
		0.7931308000,
		-0.4384381500,
		-0.0770573840,
		-0.1306147700,
		-0.0831502300,
		-0.0796216350,
		0.0273106340,
		0.1126713300,
		0.1342873100,
		-0.2378148700,
		-0.0714614800,
		-0.3199983000,
		-0.0233081620,
		-0.2758043400,
		0.1303388600,
		0.5040064000,
		0.6214023000,
		-0.0630593200,
		-0.1680140600,
		-0.0026303630,
		0.0605866160,
		0.1318674400,
		0.2875770000,
		0.3450774300,
		0.2112404700,
		0.1196163700,
		-0.4794441800,
		0.4649973000,
		-0.0903506600,
		0.3149995800,
		-0.1539508400,
		0.2908035500,
		0.2970438300,
		0.0379871240,
		-0.1674308600,
		0.0501295920,
		-0.1930655700,
		0.4925854000,
		-0.0633993600,
		0.1322452300,
		0.1406903700,
		-0.1381631300,
		-0.0742724700,
		-0.3655987400,
		-0.0861491560,
		-0.0617123320,
		-0.0194422710,
		0.1801158600,
		0.3947320300,
		-0.0280876550,
		-0.1765629800,
		-0.0429111160,
		-0.0264724740,
		-0.0491178860,
		-0.0308200750,
		-0.0887804100,
		0.1060710100,
		-0.0050638528,
		-0.0243540600,
		0.0518945500,
		-0.0144645910,
		-0.0207055400,
		0.0128937510,
		-0.0013459028,
		-0.0126852250,
		0.0278929340,
		0.0284134170,
		-0.0209581850,
		-0.0015896430,
		0.0173810310,
		0.0240318300,
		0.0192742980,
		-0.0142371150,
		-0.0066015422,
		-0.0231093990,
		0.0114201570,
		-0.0276746410,
		-0.0188682040,
		0.0135982290,
		-0.0253497570,
		0.0148109060,
		0.0337140220,
		-0.0377680660,
		0.0239076260,
		0.0438938070,
		0.0118193590,
		-0.0335476500,
		-0.0356205300,
		0.0665203300,
		0.0528646900,
		-0.0562556050,
		-0.0436448380,
		0.0749989000,
		0.0303172360,
		0.1161888200,
		0.0736504700,
		-0.2484624500,
		-0.1917124200,
		0.0281010160,
		-0.0950181900,
		0.3266848600,
		0.1984816300,
		0.2161023000,
		-0.1567926900,
		0.0116576770,
		0.0137934440,
		0.0064678800,
		0.4698063000,
		-0.5094317000,
		0.0810100800,
		0.0935417040,
		-0.2031333100,
		-0.0709150200,
		0.2644154700,
		0.0547561420,
		0.5923211000,
		-0.6141445600,
		-0.0964002400,
		0.1244345800,
		0.3046320700,
		0.0513483900,
		0.2467252900,
		0.3906843000,
		0.2687639300,
		0.2735908300,
		0.3123887200,
		-0.0297803130,
		0.2262411300,
		0.4111413700,
		0.5563612000,
		0.5720063000,
		0.2749453000,
		0.4037926000,
		0.0849673000,
		-0.2058798100,
		-0.1266393500,
		0.9632915000,
		0.6491735000,
		-0.2458337500,
		0.3552944400,
		0.2514994000,
		0.3337968600,
		-0.2327384400,
		0.1614170800,
		0.6380452000,
		0.1830560700,
		-0.2995784600,
		1.0391443000,
		0.3357097000,
		0.2454607200,
		-0.4305593400,
		0.1380491400,
		0.2924722000,
		0.3401125700,
		-0.3422395300,
		0.5050343000,
		-0.0232149380,
		0.0274418960,
		-0.7979883600,
		-0.0312013300,
		0.7307510000,
		-0.2099093500,
		-0.2783560800,
		-0.7514900600,
		0.0208851450,
		0.3348816000,
		-0.6353759000,
		-0.1656025500,
		0.3466960800,
		-0.0412321650,
		0.1527154900,
		-1.4917722000,
		0.0262988800,
		0.4155878000,
		-0.5077072400,
		0.4554565000,
		-0.9014692300,
		0.1319303500,
		-0.3414619600,
		-0.7389754700,
		0.2674252000,
		0.0518002550,
		-0.5032531000,
		0.1649814400,
		-0.3451966000,
		0.2036301500,
		-0.6526395700,
		-0.4854645700,
		-0.0409596930,
		-0.1641623000,
		-0.4381922500,
		0.5081242300,
		0.9168331600,
		-0.1022443550,
		-0.7110366000,
		-0.4989530000,
		0.1684761300,
		0.0583721060,
		-0.1378355500,
		-0.3722328200,
		1.4725180000,
		0.2209309500,
		-0.5755447000,
		-0.2839984600,
		-0.1810937000,
		0.0329208300,
		-0.0983444300,
		0.2638792700,
		1.3624961000,
		-0.2770213800,
		0.4076998000,
		-0.3623815200,
		0.3182903200,
		0.2594469500,
		-0.2960715000,
		0.0224881580,
		1.2308356000,
		-0.2398084600,
		0.5269238000,
		0.0231602360,
		0.1003297400,
		-0.0254271370,
		-0.6654152000,
		-0.2372657400,
		0.5342030500,
		-0.2671220000,
		0.3239746000,
		-0.1701304500,
		-0.0857380200,
		-0.3993330000,
		-0.3289435200,
		0.0858130800,
		-0.4406133000,
		-0.1520318100,
		0.0157765630,
		-0.1328700800,
		0.1275431700,
		-0.0795042700,
		-0.1442270400,
		0.2090271300,
		0.2816268500,
		-0.0384821220,
		-0.1332288000,
		0.4055376000,
		-0.4228865000,
		0.1318294300,
		0.1466196900,
		0.0774400000,
		0.9534747600,
		0.1929541500,
		-0.5534167000,
		0.9489450500,
		-0.2543698300,
		0.4307654800,
		0.0124110180,
		0.2600110500,
		1.2744535000,
		-0.1012375800,
		-0.2437275000,
		0.0822581900,
		0.0284065800,
		0.3094181400,
		-0.0111346090,
		0.1965338000,
		0.7569402500,
		-0.0594146400,
		-0.0400023130,
		-0.2852841000,
		0.1434874100,
		0.0062573460,
		0.0188887210,
		0.0339400360,
		0.2006312500,
		0.0002583458,
		-0.0269670670,
		0.0759665700,
		0.0009232712,
		-0.0058149067,
		0.0168656630,
		-0.0321288030,
		0.0946662600,
		0.0242265800,
		-0.0416930200,
		0.0481222100,
		0.0389310940,
		0.0169483830,
		0.0304181840,
		0.0030314694,
		0.0281593990,
		0.0155338410,
		-0.0292543360,
		-0.0216605000,
		-0.0162288960,
		0.0341664600,
		0.0270685070,
		0.0280587640,
		-0.0215267460,
		-0.0116181730,
		-0.0060326084,
		0.0187645440,
		0.0122512470,
		-0.0278038080,
		0.0320155840,
		-0.0081606260,
		-0.0087743750,
		0.0099905490,
		-0.0292764120,
		-0.0349826630,
		0.0349593460,
		-0.0055898163,
		-0.0333213800,
		-0.0484428480,
		0.0271610540,
		0.0262816030,
		-0.0217836350,
		0.0227905500,
		0.0133005150,
		0.0426945840,
		0.0291477390,
		0.1168356540,
		0.3714473200,
		-0.0221520400,
		0.0421316030,
		-0.0761422740,
		0.2557731300,
		0.2489867700,
		0.1406408000,
		-0.0981878500,
		0.4253367000,
		0.0117590055,
		0.1326877600,
		0.3816448700,
		-0.2887093700,
		0.3756809800,
		0.1360424000,
		0.0894757660,
		0.4212568000,
		0.4405628700,
		0.3032172000,
		0.3867078000,
		-0.4568030000,
		0.0074844426,
		0.2553169000,
		0.0607402250,
		-0.1945378300,
		0.0518719700,
		0.3293027300,
		0.5375223000,
		-0.0313606800,
		-0.2364352800,
		0.3651224700,
		-0.1118231800,
		0.3211115000,
		0.4938607500,
		0.6304492400,
		0.8671480000,
		0.4227641200,
		-0.0373353060,
		0.2383021900,
		0.3361961200,
		0.5524273500,
		0.5773989600,
		0.2502929600,
		0.2115108400,
		0.7335019000,
		0.7907744600,
		0.0734355000,
		0.3546103500,
		0.5509107000,
		0.1579762500,
		-0.4116599300,
		-0.1708283100,
		0.2528388000,
		0.0418122970,
		-0.1261423200,
		-0.0088089155,
		0.5227549700,
		0.5639174600,
		-0.6504629000,
		0.2294011100,
		0.1860455600,
		-0.1322050500,
		-0.0109724420,
		-0.4638227500,
		0.9447450000,
		0.1659487600,
		-1.0120070000,
		-0.7798967400,
		0.2558778200,
		-0.2488090000,
		-0.0500933940,
		0.1211892960,
		0.3175693200,
		0.1476036500,
		-0.6477278500,
		-0.3523565000,
		0.5345725400,
		0.1442871500,
		0.0068967254,
		0.2061827300,
		-0.2765052300,
		0.6280656500,
		-0.7656402600,
		-0.5603710000,
		-0.3257129500,
		-0.1675545900,
		-0.7054710400,
		0.5930217500,
		-0.7398804400,
		0.1337753100,
		-0.9849886300,
		-0.0589036800,
		0.0426163450,
		-0.2934220700,
		-0.5800772000,
		0.4602391000,
		-0.0789805000,
		0.3498148300,
		-0.1397989700,
		-0.3290506600,
		0.0569163000,
		-0.0250131380,
		-0.0333677530,
		-0.1006775950,
		0.2282089400,
		-0.0437596780,
		0.3147981200,
		-0.8596471000,
		-0.6098709000,
		-0.1672187300,
		0.0937251900,
		-0.1092087250,
		0.3003463100,
		-0.2738811400,
		0.7747897500,
		-0.6055072000,
		-0.6208359600,
		-0.4050123400,
		-0.2471132600,
		-0.0786658700,
		1.4368867000,
		-0.2014431700,
		-0.2404930600,
		-0.6506062000,
		-0.0630429500,
		-0.2291099300,
		-0.6442430600,
		-0.0047205193,
		1.2298310000,
		-0.2200791000,
		0.2801718700,
		-0.3019270000,
		0.2349184300,
		-0.2701602600,
		-0.1894088100,
		-0.2657515400,
		0.7170152700,
		-0.3633685700,
		0.0399050000,
		0.0800807100,
		0.1252810700,
		-0.3020048400,
		0.1017836400,
		-0.2274130700,
		0.5590501400,
		-0.1533113900,
		-0.0700724200,
		0.1304466400,
		-0.3046465500,
		0.2352364400,
		0.2008918000,
		0.5999079300,
		0.7031702000,
		0.0398244220,
		-0.2048268000,
		0.1795743600,
		-0.2488409000,
		0.4189184300,
		0.0374456230,
		0.1465611500,
		0.7170124000,
		-0.0399692770,
		-0.0637135600,
		0.1140116200,
		-0.0795856100,
		0.2381025700,
		-0.0925540850,
		-0.0674192300,
		0.6424782000,
		-0.0458882100,
		0.0409726100,
		-0.0466939140,
		0.0643096300,
		-0.0599036030,
		0.0004655641,
		-0.0770936300,
		0.2552386200,
		0.0678212200,
		0.0036763610,
		0.0779311900,
		0.0250667460,
		0.0113133950,
		0.0034533383,
		-0.0337746740,
		0.0171820950,
		0.0253036280,
		-0.0066227240,
		0.0263084040,
		-0.0160791150,
		-0.0053658625,
		-0.0319340800,
		0.0141313860,
		-0.0232459870,
		0.0141645790,
		0.0126329560,
		0.0261190570,
		0.0216171480,
		0.0218131580,
		0.0285359290,
		0.0160894320,
		0.0309602820,
		0.0032951916,
		0.0196647010,
		-0.0218871440,
		0.0000169552,
		0.0350777600,
		-0.0326409200,
		-0.0326445740,
		-0.0207761300,
		0.0260787920,
		0.0207754020,
		0.0003607931,
		-0.0336066300,
		0.0260617080,
		0.0415533860,
		0.0979342500,
		0.0965177200,
		-0.0433131640,
		0.0490724150,
		0.0172995900,
		-0.0351304340,
		0.0174155660,
		-0.0029877615,
		0.3073683700,
		0.3324684200,
		-0.0262919220,
		0.0359532240,
		-0.0546716600,
		0.1090713900,
		0.1415869000,
		0.2511041000,
		0.1324465700,
		0.4480867000,
		0.1298209100,
		0.0949474700,
		0.3140421800,
		-0.0745066200,
		0.5740666000,
		0.3873820000,
		-0.3414317700,
		0.5656047500,
		0.1637088800,
		0.1350535600,
		0.4459900600,
		-0.4773224300,
		0.0955644600,
		0.1905132200,
		0.2664377700,
		-0.2225076400,
		0.0335063150,
		-0.0635263550,
		0.9229638000,
		-0.4648886600,
		0.0275912550,
		0.4659003000,
		0.2618572000,
		0.0681023150,
		0.2320382300,
		0.2398844700,
		0.5948528000,
		0.1512497400,
		0.1986688200,
		0.2697668400,
		0.3526529700,
		-0.1054834800,
		0.1355562200,
		-0.1163365800,
		0.1395183800,
		0.1095653500,
		0.3623181000,
		0.0200931220,
		-0.2036594300,
		0.1124883700,
		0.4977798000,
		-0.5868171000,
		0.0363996700,
		-0.0703479950,
		0.0972872600,
		0.0913214500,
		-0.0792045700,
		0.5276577500,
		-0.0572922830,
		-0.7434402000,
		-0.1634144200,
		0.5883016600,
		-0.4201209200,
		0.1696453000,
		0.0785542500,
		0.3608767700,
		-0.1471990200,
		-1.1532376000,
		0.1231393140,
		-0.1718914700,
		-0.3547313200,
		0.0565747320,
		0.0435801070,
		0.1038632200,
		-0.5238222500,
		-0.9155127400,
		-0.0524487900,
		0.2375358500,
		0.2232197200,
		-0.6504578000,
		0.0737414800,
		-0.5513295500,
		-0.1008641100,
		-0.9016783000,
		-0.5688153500,
		-0.2033554800,
		-0.5497448000,
		-0.6195364600,
		0.2850127500,
		-1.0020704000,
		0.4075751000,
		-0.6188132000,
		-0.0291545130,
		-0.2891803000,
		-0.7640797500,
		-0.4397492000,
		0.0793193900,
		-1.0881025000,
		0.1290334300,
		-0.0696611900,
		-0.6384765500,
		-0.2850448000,
		-0.6176060000,
		0.2428696900,
		-0.0704710560,
		-1.1926676000,
		-0.1359943900,
		-0.1007334900,
		-0.4206170000,
		-0.4919337600,
		-0.0257548350,
		-0.0004669364,
		0.2183095200,
		-0.8531152000,
		-0.2758286000,
		-0.1135585300,
		-0.4538688000,
		-0.3684099300,
		0.2897436600,
		-0.1167479900,
		-0.0850861300,
		0.3461347800,
		-0.2688183800,
		-0.4703121500,
		-0.2480304200,
		-0.0038402397,
		0.1425385300,
		-0.2474217300,
		0.2345150100,
		0.8246350000,
		-0.1512421400,
		0.5632763500,
		-0.3027276000,
		-0.0438202320,
		0.2317924600,
		0.3844496300,
		-0.2141076600,
		0.7225168000,
		-0.4387988400,
		0.8278487300,
		-0.0023456337,
		-0.0617314880,
		0.2070979600,
		0.4756799000,
		0.0979954900,
		0.5787599000,
		-0.1309636500,
		0.2717989700,
		-0.2433257600,
		-0.1549663400,
		0.2993094600,
		0.1441243600,
		0.4086154000,
		0.3502968300,
		0.0407174400,
		0.1851500100,
		-0.2117281000,
		-0.2779120800,
		0.3073194300,
		-0.0818233500,
		0.2395713200,
		0.4350965300,
		-0.2170389700,
		0.3064980000,
		-0.2217085000,
		-0.0844503940,
		0.1579939700,
		-0.0606055700,
		-0.0282248580,
		0.1593680700,
		-0.1081529860,
		0.2092486600,
		-0.0431168970,
		0.0250249170,
		0.0949693200,
		-0.0163427780,
		0.0350482130,
		0.1686433700,
		0.0287080740,
		-0.0632074550,
		-0.0041435356,
		0.0010036536,
		-0.0430314760,
		-0.0166369160,
		0.0058199554,
		0.0670308840,
		0.0219669080,
		-0.0590076220,
		0.0228371970,
		0.0265392270,
		0.0346583540,
		-0.0262220350,
		-0.0257561710,
		-0.0332826340,
		-0.0273743050,
		-0.0047532220,
		-0.0264528040,
		0.0262298400,
		0.0292727870,
		0.0092552380,
		-0.0228302940,
		-0.0155369330,
		0.0047057327,
		0.0047366060,
		-0.0250863150,
		-0.0306081470,
		0.0184772760,
		-0.0253768620,
		0.0350419580,
		0.0093527580,
		0.0343158130,
		-0.0340303560,
		0.0071922224,
		0.0127607845,
		-0.0072672570,
		0.0295194610,
		0.0738725100,
		0.1125887500,
		0.0174753220,
		0.0307761640,
		0.0128209610,
		0.0124109990,
		0.0406368520,
		0.0054131990,
		0.1565478600,
		0.1728495400,
		0.0923046840,
		-0.0612985900,
		-0.0188283060,
		-0.0212973360,
		0.0648735500,
		0.4438941000,
		0.1695044500,
		0.0228730140,
		0.0278466800,
		0.0061077480,
		0.0818107100,
		0.2508184000,
		-0.0395093700,
		0.2156875300,
		-0.0278112760,
		0.2972712500,
		-0.0546553600,
		0.0859777900,
		0.2329165600,
		0.4370068600,
		0.1455128500,
		0.0765123900,
		-0.1292549500,
		-0.0366510340,
		-0.1090525200,
		-0.0640109300,
		0.7205643000,
		-0.3258391000,
		0.3745729000,
		0.4382391600,
		-0.0582997460,
		-0.2564328600,
		-0.0393437780,
		0.0678885800,
		0.9182166500,
		-0.4621001000,
		0.1976186200,
		0.3648452800,
		0.4055515500,
		-0.4193124000,
		-0.1360767500,
		-0.3015487000,
		-0.2740406000,
		-0.0544633000,
		0.1715522100,
		0.0896681550,
		0.1404208200,
		0.1347546000,
		0.1188827300,
		-0.7449585000,
		0.4000773400,
		-0.4095024200,
		0.1826533400,
		-0.2615456600,
		0.5349673600,
		0.1246778000,
		0.2887923000,
		-0.6275914000,
		0.4431347300,
		-0.2129857500,
		0.0517572870,
		-0.5082104000,
		0.5186057000,
		-0.1000361000,
		0.0079806820,
		-0.4917256000,
		0.2960278400,
		-0.0076305730,
		-0.0868254900,
		-0.5832659000,
		0.0398097500,
		-0.5580684000,
		-0.7000603000,
		-0.0988484100,
		-0.1622316800,
		-0.2630851300,
		-0.4411956000,
		-0.7473243500,
		0.4201006300,
		-0.5153953000,
		-0.1611774000,
		-0.1454984200,
		-0.4213073800,
		-0.0042108220,
		-0.6640624000,
		-0.1767007600,
		0.6485676000,
		-1.3734092000,
		-0.3296320700,
		0.2087750300,
		-0.4916930000,
		0.5261608000,
		-0.0578964870,
		-0.2451213300,
		0.3370653400,
		-1.4385039000,
		-0.3169269300,
		0.4581976000,
		-0.4057340600,
		-0.0755450060,
		0.1183552000,
		-0.0842063100,
		0.1739590200,
		-1.2337853000,
		-0.1706916400,
		0.5048253000,
		-0.5612390000,
		0.3944794200,
		0.2778746000,
		-0.0245644580,
		-0.0074136650,
		-0.9776024000,
		0.1060641400,
		0.1340429800,
		-0.5159533600,
		0.4333650000,
		0.1470451800,
		0.0097726090,
		0.0999351300,
		-0.0574044620,
		-0.0951090160,
		-0.1943688700,
		-0.6013256000,
		-0.1610327700,
		0.3165384000,
		0.0840384200,
		0.3417381000,
		0.6214795000,
		-0.2791368000,
		-0.1551916000,
		-0.1806451400,
		0.0784322250,
		0.6737685000,
		0.1428560800,
		0.5349930500,
		0.2035491600,
		-0.3123737600,
		0.3788682200,
		-0.2218655800,
		-0.1145249750,
		0.2220855800,
		0.1855376200,
		-0.0427536030,
		0.0312685040,
		-0.1460458800,
		0.5711088000,
		-0.1992106700,
		-0.2961826000,
		0.1158069000,
		-0.0207920470,
		-0.0207509500,
		-0.0780890700,
		0.0310831010,
		0.5665903700,
		-0.2568018700,
		-0.2908009600,
		0.2545491000,
		0.0716334950,
		0.0145214490,
		0.0650458000,
		-0.0731874200,
		0.3032508000,
		-0.0093370670,
		-0.1048327400,
		0.1378419300,
		-0.0291356840,
		0.1826981500,
		0.0886086400,
		-0.1458503600,
		0.2662285000,
		-0.0062763820,
		0.0266117040,
		0.0518916300,
		-0.0199093450,
		0.0570131130,
		0.0043331390,
		0.0541957360,
		0.0673651100,
		0.0274781290,
		-0.0303051700,
		0.0070633623,
		0.0254746410,
		0.0164398200,
		-0.0146877550,
		0.0025279452,
		0.0011312378,
		-0.0247807910,
		0.0135546680,
		0.0338454950,
		-0.0052719750,
		-0.0062694550,
		0.0023419560,
		0.0330061430,
		0.0126419160,
		-0.0144129970,
		0.0115709010,
		-0.0138227640,
		-0.0020192750,
		-0.0024381876,
		-0.0199457400,
		-0.0244423710,
		0.0211286730,
		0.0289330220,
		-0.0092774200,
		0.0271755720,
		0.0027175732,
		-0.0137851200,
		-0.0011505671,
		-0.0249148460,
		-0.0260417720,
		0.0114001590,
		-0.0017438047,
		-0.0068898370,
		-0.0012307329,
		-0.0315406100,
		-0.0287567770,
		0.0218060670,
		0.0069023080,
		0.0208478900,
		-0.0042381790,
		0.0336641670,
		0.0853337200,
		0.0342583400,
		-0.1885271800,
		0.0747022500,
		0.0210491060,
		-0.0782215150,
		-0.0484163300,
		0.0082235630,
		0.2721597300,
		-0.0648248000,
		-0.2503360500,
		0.0842925600,
		-0.0304030000,
		0.0926594200,
		0.4547938400,
		-0.2475091400,
		0.3292540000,
		0.0121424820,
		0.0692682600,
		-0.0801326300,
		-0.0318983000,
		-0.1278254400,
		1.0912971000,
		-0.3357180700,
		0.2404112700,
		-0.4990729400,
		-0.2438226500,
		-0.2845932800,
		0.0313183480,
		-0.2391665900,
		0.7683663000,
		-0.4878224700,
		0.2713213000,
		-0.4504495600,
		-0.3618587000,
		-0.2273585200,
		-0.1758034100,
		0.3565729600,
		0.2997442000,
		-0.2911473200,
		0.2732124600,
		-0.1264333100,
		-0.4363735000,
		0.0126187950,
		-0.3030136000,
		0.5295772000,
		-0.0014770441,
		-0.2215916800,
		0.0288163440,
		0.1971787000,
		-0.2769184700,
		-0.1466906400,
		-0.4357665000,
		0.0544829400,
		0.3622757200,
		0.1332165200,
		-0.1438699700,
		0.8036405400,
		0.0816327800,
		0.3928449700,
		-0.4022367600,
		-0.1827012700,
		-0.5751620000,
		0.2402528000,
		-0.7830967000,
		0.8626495600,
		-0.1541070300,
		0.2164911600,
		0.1008688700,
		-0.0947388860,
		-0.0240805190,
		0.3940241300,
		-0.4523394400,
		-0.3382393000,
		-0.0327155140,
		-0.2470496700,
		0.1800536200,
		-0.3970367600,
		-0.3969606200,
		-0.0100132540,
		0.2044445400,
		-0.0105210830,
		-0.5597791700,
		-0.1243730200,
		0.2192081700,
		-0.4973307000,
		0.5841880400,
		-0.1643803600,
		0.6941522000,
		0.5376660000,
		-1.0279711000,
		-0.3429866000,
		0.8026009000,
		-0.7033794000,
		0.2299570400,
		0.0450687300,
		0.3138086500,
		0.3668325800,
		-0.9575112000,
		-0.1513264900,
		0.8249515000,
		-0.1467517600,
		-0.3774606300,
		0.1814671300,
		0.1008444900,
		-0.1424299200,
		-0.8112020500,
		-0.2103003400,
		0.5225078000,
		-0.0424983100,
		-0.1892108300,
		0.3782807000,
		-0.4084312600,
		-0.4174437000,
		-0.9540852300,
		0.1606585400,
		0.1990753400,
		-0.2475332500,
		-0.0626401000,
		0.4170992400,
		-0.3657683000,
		-0.1540501900,
		-0.7464946000,
		-0.1166351440,
		0.2573501200,
		-0.2276968700,
		-0.2302569700,
		0.6331358600,
		0.1164043600,
		0.3623667400,
		-0.3035738200,
		-0.2524500000,
		0.1546477500,
		-0.2217467300,
		-0.3151592300,
		0.0076169130,
		-0.1075790750,
		0.0146941120,
		-0.1864473100,
		-0.1285634500,
		0.3311175700,
		0.0008902991,
		-0.2383045900,
		0.0199700650,
		-0.0507589800,
		-0.0955958200,
		-0.2050668300,
		-0.0104849490,
		0.5030869000,
		-0.1085754900,
		-0.1378048700,
		0.2208711200,
		-0.0373272600,
		-0.0040224376,
		-0.1793559000,
		0.0378114730,
		0.3348972800,
		-0.2846730600,
		-0.0819106600,
		0.1344513900,
		-0.1297854200,
		0.0638576150,
		-0.0367722300,
		-0.0492075160,
		0.1999696800,
		-0.0281160850,
		-0.2122881300,
		0.0932372660,
		-0.0213202280,
		0.1494290700,
		0.0633198900,
		-0.0359616000,
		0.0975384340,
		0.0180958300,
		-0.0032406389,
		-0.0341309720,
		-0.0578098200,
		0.0696889900,
		0.0922801100,
		-0.0214606520,
		0.0003990291,
		0.0689423900,
		-0.0052996976,
		-0.0055182814,
		0.0153252720,
		-0.0100921360,
		-0.0031905186,
		-0.0441092740,
		0.0149703340,
		-0.0338364650,
		-0.0139617680,
		0.0313089080,
		-0.0317479220,
		-0.0195074980,
		-0.0053539110,
		-0.0207424310,
		-0.0339530930,
		-0.0262359680,
		-0.0267200660,
		-0.0209226400,
		-0.0255785040,
		0.0035774708,
		-0.0341062250,
		0.0097673200,
		0.0353012420,
		0.0192785710,
		-0.0253998400,
		0.0200704370,
		-0.0158861500,
		-0.0020668171,
		0.0145888250,
		-0.0086659450,
		-0.0220467410,
		-0.0147345720,
		0.0290517770,
		-0.0074677467,
		0.0431082400,
		-0.0295727070,
		-0.0349568870,
		-0.0132878760,
		0.0098375995,
		-0.0303313530,
		-0.0344798450,
		-0.0090110570,
		0.1203807440,
		-0.0292617830,
		-0.2693081800,
		0.0091928495,
		-0.0036500855,
		-0.0521881430,
		-0.0100183970,
		-0.0688501450,
		0.1205597450,
		-0.0280856210,
		-0.2537367600,
		-0.0160429180,
		-0.0470997470,
		0.0281705370,
		0.3694513400,
		-0.1303756400,
		0.1179688950,
		-0.1844811000,
		-0.0634501700,
		-0.0180046600,
		-0.0822452300,
		0.1418787500,
		0.5725600000,
		-0.2618761400,
		-0.0202118530,
		-0.1677101100,
		-0.1587228600,
		-0.1339237800,
		-0.0141371220,
		-0.2245588900,
		0.5575207500,
		-0.5043319500,
		-0.0831281100,
		-0.0733443300,
		-0.3613655300,
		-0.0590739730,
		-0.0772308800,
		-0.1152834150,
		0.3509780000,
		-0.4366994000,
		0.0077993190,
		0.1163237900,
		-0.7145578000,
		-0.0565186000,
		-0.1608668700,
		0.4040373600,
		0.2234940700,
		-0.2788413000,
		-0.0731034300,
		0.0087605160,
		-0.8877977000,
		0.0625718400,
		-0.1417230700,
		0.5989625000,
		0.2642373400,
		0.1562539600,
		-0.0904031100,
		0.1361622000,
		-0.6162695000,
		0.3769705600,
		0.1773226300,
		0.2942126700,
		0.0325206440,
		0.2487071600,
		-0.1627725700,
		0.2198059600,
		-0.1337614700,
		0.1132358460,
		0.0949047100,
		0.2217535500,
		0.2104367000,
		-0.0203820770,
		-0.0642513500,
		0.0861969200,
		-0.2031614200,
		0.2029105300,
		-0.2076373000,
		0.0871764640,
		-0.1113859200,
		-0.1227476600,
		0.4240600000,
		0.5781731600,
		-0.8107857000,
		-0.0796965600,
		-0.2751062800,
		-0.2150580100,
		0.2743738600,
		0.1461740600,
		0.6265948000,
		0.7024516500,
		-0.7416079600,
		-0.5702789000,
		0.1392815400,
		-0.5426305500,
		0.1642692700,
		0.5605086700,
		0.0390650800,
		0.3783560000,
		-0.2972545600,
		-0.5189900000,
		0.2512753600,
		-0.5418620000,
		0.0579030900,
		0.5183314700,
		-0.4224659500,
		-0.3470549000,
		-0.5119408000,
		-0.5162145500,
		0.5655999000,
		-0.8145489700,
		-0.1191390000,
		0.4105182300,
		-0.5444175600,
		0.0102004120,
		-0.7054527400,
		-0.1419421300,
		-0.0268973220,
		-0.9151754400,
		-0.4480603300,
		0.0195212600,
		-0.0867746200,
		0.2074781000,
		-0.6955610000,
		0.0394973980,
		-0.1792426900,
		-0.6635852000,
		-0.6691361700,
		-0.4337210400,
		0.1315146100,
		-0.1681751000,
		-0.5730516300,
		-0.0750341300,
		0.2089212700,
		-0.2073161900,
		-0.5343668000,
		-0.4437413500,
		-0.1039544400,
		-0.1491381200,
		-0.4977866400,
		-0.0230814500,
		0.4637173700,
		-0.2810170400,
		-0.2733420000,
		-0.1146547200,
		0.0570204500,
		0.0945125900,
		-0.0111438880,
		-0.0266727800,
		0.2794545600,
		-0.2745921600,
		-0.2089715900,
		-0.1149809900,
		-0.1807622500,
		0.1098403860,
		-0.2674426700,
		-0.0124037240,
		0.2502699500,
		-0.3337715600,
		-0.1462051000,
		0.0085808250,
		-0.1657863700,
		0.0802629100,
		-0.2332645700,
		-0.0483569730,
		0.2079832300,
		-0.1838293200,
		-0.0940531050,
		0.0295023100,
		0.0259463060,
		0.0243747120,
		0.0596331840,
		0.0194786120,
		-0.0285345900,
		0.0107796030,
		0.0212717750,
		-0.0407531700,
		-0.0202618400,
		0.0155240920,
		0.0467406800,
		-0.0017055381,
		0.0093403630,
		0.0451668900,
		-0.0160389950,
		0.0156076420,
		0.0037949420,
		0.0063033120,
		0.0271153040,
		0.0005423579,
		-0.0067800530,
		0.0094856800,
		0.0132662095,
		-0.0099328720,
		0.0304357370,
		-0.0030823238,
		0.0070130117,
		-0.0305989180,
		0.0329958700,
		-0.0171735290,
		0.0142136480,
		0.0255364330,
		-0.0097275805,
		0.0122793950,
		-0.0355864000,
		-0.0286145860,
		0.0279997850,
		0.0176028090,
		-0.0229969770,
		-0.0127612740,
		0.0144451000,
		0.0115235670,
		0.0144206510,
		-0.0073773490,
		-0.0064347126,
		0.0347079820,
		0.0230567460,
		0.0295707020,
		-0.0023199490,
		0.0266140500,
		0.0035783686,
		0.0330993240,
		0.0115981170,
		0.0161724820,
		-0.0256391260,
		0.0131147660,
		-0.0146885250,
		0.0274708350,
		0.0098334980,
		0.0114502640,
		0.0172246750,
		0.0040377895,
		-0.0194350720,
		0.0264885480,
		-0.0111309390,
		0.0705487500,
		0.0224805000,
		-0.0080046400,
		0.0090073510,
		-0.0156811400,
		0.1140130100,
		0.0168556050,
		0.0139532940,
		0.0609218780,
		-0.0210862440,
		-0.0127585320,
		0.0053989860,
		-0.1160313000,
		0.2015254000,
		0.0158394050,
		-0.0065682284,
		0.0813396800,
		-0.0812107500,
		-0.0506498960,
		0.0305099710,
		-0.2586401400,
		0.1784033800,
		0.0518453340,
		0.0126308140,
		0.2036736200,
		-0.1549525100,
		-0.0706541200,
		-0.1402960100,
		-0.2402297900,
		0.0832659450,
		0.1276873500,
		0.0822807900,
		0.1798770400,
		-0.2212620100,
		-0.0885504900,
		-0.2486408400,
		0.0662747600,
		-0.0907032000,
		0.0984528600,
		0.0481288770,
		0.1211808300,
		-0.3712173400,
		0.0872988600,
		-0.2542687000,
		0.2248125200,
		-0.1339723000,
		-0.0693201940,
		-0.0531275200,
		0.3389434800,
		-0.2969463800,
		0.0885350000,
		-0.2071196400,
		0.1597903000,
		0.0766095900,
		-0.1164220100,
		0.3582176300,
		0.0905102340,
		-0.2202450000,
		-0.1291526300,
		0.0003761828,
		0.0187759620,
		0.3693107000,
		0.0068091904,
		0.7817934000,
		-0.0210091020,
		-0.1770240700,
		-0.2490105800,
		-0.2880881000,
		-0.2322118000,
		-0.1665117000,
		-0.1251131600,
		0.6926108000,
		-0.3281137000,
		-0.2205221500,
		-0.2606736400,
		-0.0721111740,
		-0.1288626500,
		-0.1233837900,
		-0.0851493200,
		0.5986165400,
		-0.1542197900,
		-0.1841573600,
		-0.4400361500,
		-0.1291578700,
		0.0464057700,
		-0.3665247600,
		-0.1681085500,
		0.0311236570,
		0.0321267700,
		-0.1503511000,
		-0.4679306100,
		0.1377361900,
		-0.0571691170,
		-0.3500401400,
		-0.0116554310,
		-0.0641884650,
		0.0218172110,
		-0.2282909600,
		-0.5697386000,
		0.2764409500,
		-0.1016129800,
		-0.1641745900,
		0.0346273520,
		0.1504323200,
		0.0759239350,
		-0.3013171300,
		-0.3075724000,
		0.0651229550,
		-0.2087832700,
		-0.4802919300,
		-0.0529395530,
		0.3033307800,
		0.0676153750,
		-0.2546575000,
		-0.0952054900,
		0.3547025000,
		-0.1900368300,
		-0.5404166000,
		-0.0195254960,
		0.0486542470,
		0.0442086760,
		-0.4085235000,
		0.0539527500,
		0.3775920300,
		-0.1355008600,
		-0.2976800000,
		-0.1522402300,
		0.1460179200,
		0.0071272086,
		-0.2871609600,
		0.0512892380,
		0.3464352000,
		-0.1636059900,
		-0.1884638500,
		-0.0645609500,
		0.1126754100,
		0.0189049370,
		-0.0990345000,
		0.0434978870,
		0.2974146300,
		-0.1332836700,
		-0.1177309900,
		-0.0320884400,
		0.0386789780,
		-0.0005562706,
		-0.1281858100,
		-0.0520529560,
		0.0999171700,
		-0.0799304540,
		-0.0561468000,
		-0.0387705450,
		-0.0097352730,
		-0.0293357480,
		-0.0646160100,
		-0.0265486600,
		0.0771410840,
		-0.0765152100,
		-0.0013271760,
		0.1098351200,
		0.0171352900,
		0.0199849080,
		-0.0207343050,
		0.0110452570,
		-0.0461349100,
		-0.0199862740,
		-0.0189683180,
		-0.0124676440,
		-0.0234238020,
		0.0092761135,
		0.0472425930,
		-0.0283076130,
		-0.0169961120,
		-0.0168135480,
		-0.0314426300,
		0.0335511680,
		0.0168091500,
		0.0284218230,
		0.0491386280,
		0.0320092070,
		0.0234320780,
		0.0265202500,
		-0.0028573598,
		-0.0105953740,
		-0.0075326785,
		-0.0310690550,
		0.0336954560,
		0.0263083990,
		0.0061318353,
		0.0156995620,
		-0.0292434110,
		0.0246761930,
		0.0293544050,
		0.0172020160,
		-0.0158900200,
		-0.0088134500,
		0.0100046620,
		0.0208797790,
		-0.0119031500,
		0.0245069860,
		-0.0327287400,
		0.0271270680,
		-0.0261530580,
		-0.0229367580,
		0.0317263570,
		-0.0129834080,
		-0.0168851540,
		0.0237942750,
		0.0074079410,
		0.0131077360,
		0.0356148000,
		-0.0353087700,
		0.0191185700,
		0.0030177422,
		-0.0019174777,
		0.0245411140,
		0.0256296960,
		-0.0138799510,
		0.0216668170,
		-0.0169641340,
		-0.0023992658,
		-0.0329074820,
		0.0074339844,
		0.0251907150,
		-0.0021458830,
		0.0181196930,
		-0.0003163290,
		0.0249700940,
		-0.0096363760,
		-0.0444556700,
		-0.0642322750,
		0.0053412940,
		0.0229370900,
		-0.0026415663,
		-0.0766741700,
		0.0905525100,
		0.1206296460,
		-0.0300369580,
		-0.2832539400,
		-0.0528444130,
		-0.0546685800,
		0.0148411660,
		-0.0307891160,
		0.0420286540,
		0.1205043940,
		-0.0480498450,
		-0.3378360600,
		-0.0712304600,
		-0.1007390840,
		-0.0418143760,
		-0.0453072900,
		-0.0244688880,
		0.0564976400,
		-0.0983510540,
		-0.0525658200,
		-0.0386828740,
		-0.1203719500,
		-0.0399255400,
		-0.0506122000,
		0.0545206140,
		0.0233412180,
		-0.0628051200,
		-0.1487210500,
		0.0059972624,
		-0.1840824800,
		-0.0274161270,
		-0.0155742680,
		0.1658566900,
		0.1604377800,
		-0.0233282580,
		0.2143274500,
		0.0435134700,
		-0.0937611300,
		-0.0357416760,
		0.0300665850,
		0.0380140320,
		-0.0881527900,
		-0.0257189330,
		0.2804578500,
		0.0240741540,
		0.0271161760,
		0.0173524900,
		0.0306368130,
		-0.1080592500,
		-0.0857791750,
		-0.0108872880,
		0.1820072800,
		-0.0668551700,
		0.2427442400,
		0.0473784400,
		-0.0113505000,
		-0.1333994600,
		0.0783598000,
		0.0185168930,
		0.1036502300,
		-0.0947491800,
		-0.0335904700,
		0.0607336600,
		-0.0481777860,
		-0.0690967800,
		0.1089963700,
		0.0204413220,
		-0.1420573000,
		-0.0174783700,
		-0.0835679100,
		-0.0508332400,
		-0.0069921520,
		0.0578955370,
		0.0810058600,
		0.0053012623,
		-0.1843416100,
		0.1063588200,
		-0.0274531100,
		-0.0038094210,
		-0.0368990200,
		-0.0508098640,
		0.0780035100,
		-0.0205491480,
		-0.1014218800,
		0.0510692600,
		-0.0077549773,
		-0.0091440830,
		-0.0347138940,
		-0.0371846800,
		0.0217240710,
		-0.0285751240,
		-0.0604211580,
		-0.0970558300,
		-0.1399160200,
		-0.0063472087,
		-0.1033310700,
		-0.0065669980,
		-0.0701855900,
		-0.0942044700,
		-0.1727738500,
		-0.1230109000,
		-0.0861766000,
		-0.0356688830,
		-0.0510755440,
		0.0894532300,
		-0.0629842500,
		-0.1055259900,
		-0.1457795200,
		-0.1035458800,
		0.1017751250,
		-0.0115924700,
		-0.0499625280,
		0.0625602160,
		0.0586791040,
		-0.0858430800,
		-0.1248577300,
		-0.0461307060,
		0.0967381600,
		0.0003491718,
		-0.0386890000,
		0.0282491000,
		0.1566782400,
		-0.0614593500,
		-0.0317601970,
		-0.0525100800,
		0.0464661830,
		-0.0327787660,
		0.0035296420,
		-0.0082373945,
		0.1656579000,
		-0.0553898360,
		0.0252452680,
		-0.0284790790,
		0.0150276370,
		-0.0031750533,
		0.0239702030,
		-0.0884983400,
		0.0287399310,
		-0.0498313270,
		-0.0349784420,
		-0.0169373500,
		-0.0024177546,
		0.0154497500,
		-0.0248442240,
		0.0145327860,
		-0.0015602518,
		0.0241916370,
		-0.0241174810,
		-0.0263637470,
		0.0241835620,
		-0.0086183045,
		-0.0060332813,
		0.0121914210,
		-0.0272716660,
		0.0231382440,
		-0.0328917500,
		0.0290843380,
		-0.0053820770,
		0.0272049640,
		0.0146663930,
		-0.0012505915,
		0.0266927070,
		0.0119516670,
		-0.0145491790,
		-0.0076434016,
		-0.0126058720,
		-0.0073272680,
		0.0336960800,
		0.0326911250,
		-0.0117639005,
		0.0340792870,
		-0.0185380170,
		-0.0198523460,
		0.0048701390,
		-0.0284194500,
		-0.0207490880,
		-0.0239632730,
		0.0101707840,
		-0.0212671640,
		0.0190146200,
