static float Kernels[1107]=
{0.56010909999999991538,
-0.13157451000000000563,
-0.47657627000000002404,
1.17119719999999993831,
0.79363319999999992760,
-0.65744040000000003587,
0.64773864000000003216,
0.28405093999999997401,
-0.60877745999999999249,
-0.17360382999999998677,
0.44494837999999997669,
0.39410602999999999607,
0.93420464000000003058,
1.05071319999999990280,
0.34172534999999998329,
0.37732363000000002096,
0.51819265000000003241,
-0.51845039999999997793,
0.04313532299999999625,
0.05393706599999999879,
-0.01353699899999999921,
0.14798626000000000835,
0.68478536999999994883,
0.59236599999999994814,
0.04239320400000000377,
-0.01996520000000000239,
0.12018768000000000506,
-0.27434169999999996614,
-0.28995641999999999250,
0.17108344000000000329,
0.15858058999999999350,
0.34163016000000001604,
0.09754972000000000643,
-0.47266882999999998427,
-0.20839300999999998965,
0.11767819499999999933,
0.14709700000000000553,
0.16439082999999998780,
-0.15928855999999999571,
-0.36346005999999997371,
-0.02864381299999999714,
0.30446529999999999427,
0.26753633999999998361,
0.03684535299999999736,
-0.30236941999999999986,
-0.19029893999999999976,
0.24548081999999998848,
0.21046101999999999865,
0.24913096000000001240,
-0.10540388500000000271,
-0.13007384999999999087,
-0.07312175999999999398,
0.19365335000000000187,
0.08168084999999999929,
0.06243010200000000121,
-0.04272414700000000398,
-0.20410444999999999283,
0.10339389000000000218,
0.06850700999999999319,
-0.03190996000000000110,
0.06903742000000000212,
-0.00027869949999999999,
-0.22632151999999999825,
-0.33611813000000001495,
-0.13233268000000000808,
0.07284549599999999570,
0.28219828000000002355,
0.07136782999999999322,
-0.19288837999999999817,
-0.23852520999999998752,
0.01260086899999999892,
0.25286079999999999668,
0.33224758999999998155,
0.02257356200000000188,
-0.32074234000000001465,
-0.18817029999999998480,
0.26971929999999999517,
0.37853932000000001246,
0.14265538999999999303,
-0.20798222999999999017,
-0.27473912000000000333,
0.19073439000000000365,
0.27735090000000001131,
0.30663517000000001245,
-0.11041082000000000674,
-0.38528043000000000706,
-0.33925703000000001497,
0.20261974999999998737,
0.19879370000000001761,
0.06616273000000000293,
-0.23909768000000000687,
-0.34852572999999997805,
-0.29618940000000004709,
0.03393080999999999875,
0.15828671999999999187,
0.09834671000000000385,
-0.14577532000000001378,
-0.31587207000000000479,
-0.18970122999999999847,
-0.09838641400000000536,
-0.03312797499999999701,
0.03818130000000000135,
0.16729974999999999707,
-0.04185135000000000244,
-0.13226547999999999083,
-0.08463283000000000611,
0.13178344000000000169,
0.07267326999999999815,
0.12805607999999998881,
-0.12837446999999999053,
-0.09480283400000000249,
-0.08213623600000000136,
0.16643774999999999542,
0.15856919999999999349,
-0.02191533899999999896,
-0.09039168999999999676,
-0.00927616099999999978,
0.00304551330000000023,
0.11827722000000000235,
0.02381760399999999916,
0.01248878999999999961,
-0.04513128000000000278,
-0.08163900999999999797,
-0.01978436299999999926,
0.03504200299999999518,
0.00600236560000000016,
-0.09180549500000000085,
-0.22280816999999999983,
-0.07903023000000000686,
0.06165920200000000323,
-0.02713754799999999745,
0.00214885519999999993,
-0.02553734400000000002,
-0.09161856999999999640,
-0.11187301599999999180,
0.03049150899999999997,
0.06736211500000000019,
0.05703317000000000109,
-0.02703111000000000055,
0.02547921200000000108,
-0.08324383999999999950,
-0.04940877500000000200,
-0.06846146000000000176,
-0.04182966400000000251,
0.00592777699999999953,
0.09602897999999999989,
0.10251055000000000583,
0.06476162400000000374,
-0.05151740999999999959,
-0.08579462999999999673,
0.07021452499999999985,
-0.06296387000000000511,
-0.05453981000000000107,
0.02426882799999999923,
-0.05117415599999999842,
-0.04696692000000000228,
0.04710912999999999906,
-0.03766091500000000314,
0.01275405800000000041,
0.06228733400000000670,
-0.09993867599999999018,
-0.07223973000000000200,
-0.02519315999999999917,
-0.00350131719999999952,
0.04057156700000000282,
-0.10740096000000000365,
-0.04701759999999999967,
0.06426749400000000834,
-0.05954260799999999687,
-0.09689821999999999325,
-0.09657977500000000659,
-0.04497919999999999696,
0.03332580999999999738,
-0.08156668000000000252,
0.05664866799999999925,
-0.06856871000000000493,
0.02071579000000000129,
-0.09969474000000000391,
0.01815294699999999914,
-0.08382391000000000147,
-0.06107024999999999954,
0.00335715340000000044,
-0.04111358500000000110,
-0.00467165000000000028,
0.02921462000000000017,
-0.01332154600000000008,
0.03220325699999999902,
-0.02213748999999999925,
0.06068446999999999730,
-0.03705176699999999934,
0.03800592200000000448,
0.00673334699999999977,
-0.07142445999999999517,
-0.05911375199999999858,
0.11745530999999999333,
0.05555700000000000222,
0.03374218999999999830,
-0.01386337999999999980,
0.07535095999999999461,
0.10198292000000000468,
0.07132754500000000608,
0.01747165800000000102,
0.05673808000000000323,
-0.10546387999999999596,
0.01116163799999999977,
-0.04985682999999999782,
-0.07777670999999999890,
-0.09656330999999999942,
0.05883376700000000209,
0.06960425500000000376,
-0.06795515000000000583,
-0.04581392599999999787,
0.02971183100000000105,
-0.00480388599999999940,
-0.08943860000000000698,
-0.07218499500000000180,
-0.04968338499999999658,
0.04047757800000000017,
-0.00213710220000000017,
-0.00983526900000000065,
-0.08574988999999999528,
-0.00875605800000000059,
0.04533124300000000023,
0.01084583499999999985,
0.00261365529999999999,
-0.02369440899999999961,
-0.05794295700000000326,
-0.05416122500000000034,
0.06469466999999999579,
0.00165366260000000018,
-0.05085369999999999474,
-0.04591357299999999919,
0.04653964000000000018,
-0.00057351489999999999,
-0.09228877000000000608,
0.00886606300000000042,
0.08048294000000000281,
-0.01517401399999999956,
0.07856560999999999406,
-0.03564340000000000563,
0.00813823749999999929,
-0.00017102873000000000,
0.08885444000000000675,
0.16326396000000001352,
0.02205354200000000237,
-0.05987888599999999922,
0.01165177700000000031,
-0.22025378000000001011,
-0.22080637999999999654,
-0.21579767999999999173,
-0.07210605000000000486,
0.04554721700000000095,
0.37229842000000001878,
0.16741923999999999695,
0.03785922399999999688,
-0.11401780000000001636,
0.04752072000000000240,
0.23673475999999998853,
0.45616352999999998374,
0.28370064000000000393,
0.03088911000000000087,
0.08731881499999999408,
0.03450581800000000060,
0.04287114000000000202,
0.29958846999999999561,
0.42262845999999998359,
0.10199489000000000472,
-0.07263379000000000363,
-0.02500633000000000022,
-0.11413241999999999832,
0.15151194000000001161,
0.08521402599999999827,
0.17032613999999998700,
-0.05344921999999999868,
0.00326973739999999969,
-0.08892601999999999451,
-0.10616641500000000009,
0.02253355500000000025,
0.00943376999999999931,
0.25856718000000000757,
-0.27519479999999996167,
-0.28264916000000001040,
-0.26327570000000000139,
-0.07224347999999999881,
-0.02889922600000000008,
-0.31585306000000001880,
-0.05982184400000000596,
0.32176608000000000986,
0.47438120000000000287,
0.25435552000000000161,
-0.08330916599999999006,
0.07530902000000000429,
0.21840023999999999549,
0.58644890000000005070,
0.63786434999999996887,
0.32961481999999997505,
-0.26092707999999997792,
0.23944081000000000392,
0.24898259999999999836,
0.37881288000000001848,
0.43098100000000005849,
0.24926233000000000417,
-0.16206792999999999894,
-0.04100818999999999992,
-0.09620940000000000047,
-0.14485461999999998950,
0.10108643999999999963,
0.09115183000000000313,
0.03266430600000000406,
-0.02943656600000000081,
-0.10832756000000000329,
-0.15340529999999999444,
-0.10348124000000000211,
-0.02601563000000000139,
0.02410915100000000227,
0.03842508000000000035,
-0.16073118000000000127,
-0.10879800500000000318,
-0.13149588000000000942,
-0.11052678999999999976,
-0.12229721999999999815,
0.05409160599999999347,
0.14637452000000000796,
0.21322440000000000837,
0.20036920999999999204,
-0.02894299499999999914,
-0.16785684000000000715,
0.09214427000000000034,
0.12043059000000000403,
0.31005630000000000690,
0.24546745000000000370,
0.05544265000000000304,
-0.23640110999999999764,
0.03935733400000000076,
0.07513267999999999336,
0.32598037000000001928,
0.23641545999999999395,
0.07166580000000000172,
-0.09091222999999999665,
-0.08172031500000000170,
-0.05078782999999999909,
0.00829681800000000094,
0.09640163999999999678,
0.13068568999999999325,
0.01670733500000000024,
-0.06136044999999999694,
-0.20721929000000000043,
-0.05403880400000000278,
-0.08445245999999999309,
-0.09999516999999999434,
-0.02795838999999999963,
0.09289589999999998959,
-0.04320643999999999874,
-0.17121085999999999250,
-0.24150287000000000837,
-0.09436996999999999747,
0.13889186000000000587,
-0.06910986500000000643,
-0.09825064999999999493,
-0.20303641000000000050,
-0.24495773000000001240,
0.04977608499999999769,
0.12643945000000000878,
-0.10814672999999999647,
-0.26581290000000001861,
-0.13360097000000001333,
-0.17265020000000003142,
0.19761676999999999715,
0.12595169000000000503,
0.00059950200000000002,
-0.07523921999999999555,
-0.07929110999999999798,
0.01800011799999999898,
0.08426922000000000579,
-0.07807190999999999437,
-0.01698965399999999987,
-0.12236912499999999526,
-0.17002717999999999998,
-0.00048739019999999999,
0.05186928999999999845,
0.15264676999999998719,
-0.06051272500000000332,
-0.14533125999999998990,
-0.18896822999999998705,
0.06151467199999999941,
0.16167245999999999007,
0.09136258999999999353,
0.13796206999999999221,
-0.13161539999999999351,
-0.23418592999999998661,
-0.14489087000000000494,
0.06093143300000000012,
0.25164634000000002390,
-0.09193481000000000569,
-0.26818364999999999565,
-0.21968288999999999178,
-0.16481997000000001008,
0.12966189999999999660,
0.27055874000000001978,
-0.11625093000000000232,
-0.14119877999999999596,
-0.25122944000000002607,
0.01592373500000000136,
0.31613220000000002985,
0.32537623999999998325,
-0.02831345799999999968,
-0.15151960999999999902,
-0.06127150400000000441,
0.14453456000000000636,
0.05957860499999999976,
0.16469686999999999522,
-0.13078577999999999038,
-0.11917371999999999688,
-0.09774111000000000604,
0.13676763000000000114,
0.11842974000000000556,
0.25981396000000001045,
-0.18296123000000000247,
-0.15801238000000000783,
-0.10614169400000000865,
0.23780557999999998864,
0.30108270000000003641,
0.18385059000000000817,
0.02021871700000000063,
-0.09446237000000000383,
-0.19222364999999999591,
-0.05738411999999999680,
0.06047352000000000283,
-0.00154693369999999992,
-0.07978049999999999031,
-0.21055973000000000050,
-0.11409613500000000130,
0.01314120649999999876,
0.14657133999999999441,
0.13998305999999999250,
-0.06795683499999999322,
-0.12222442000000000029,
0.02093906499999999976,
0.12269715000000000482,
0.10250987999999999767,
0.11330279999999999518,
-0.01578790899999999928,
-0.12020571500000000464,
-0.07011522000000000587,
0.09965818999999999372,
0.12103107600000000132,
0.14436398000000000286,
-0.05323341999999999657,
-0.05926828499999999694,
-0.00125749100000000012,
0.01668003600000000225,
0.05760257299999999719,
0.14177160999999999236,
-0.09200825999999999449,
-0.00469144060000000005,
0.08478555999999999593,
0.00233791119999999988,
0.14849548000000001302,
0.10897357000000000571,
0.17296285999999999605,
0.13897820999999999092,
-0.14581350000000001255,
-0.10438804000000000138,
-0.15428086999999998663,
0.02900248000000000062,
0.05890009999999999690,
0.06473897000000000679,
-0.01878192000000000056,
-0.01232429699999999968,
0.08904277500000000456,
0.16083861999999998771,
-0.14318059999999999121,
0.15251449000000000256,
0.01015771099999999982,
0.19582421999999999329,
0.16262229999999999741,
0.12625845999999998903,
-0.02514797799999999792,
0.04617434400000000605,
0.03058496000000000131,
0.08328304400000000052,
0.12748994999999999078,
0.17184516999999999154,
0.07435700000000000642,
-0.05549382799999999505,
0.00105501860000000000,
0.10524087999999999499,
0.20836068999999998730,
0.09811631599999999509,
0.02957286700000000268,
-0.16779253999999999003,
0.05416951700000000036,
0.19103849000000000524,
0.02488950799999999769,
0.08557669999999999166,
0.27948057999999997847,
0.01504144699999999946,
-0.25169416999999999485,
-0.17642791999999998809,
-0.04963720200000000526,
0.10335190599999999339,
-0.15750474000000000419,
-0.09909526000000000445,
-0.16059557999999998779,
-0.08385853499999999794,
-0.03028836700000000354,
-0.05600108000000000169,
-0.03409031800000000140,
0.06352241000000000137,
0.12555768000000000484,
0.19417376999999999554,
0.11987451000000000356,
0.03145197400000000060,
-0.01037828300000000030,
0.05497881000000000296,
0.18286593000000000986,
0.10509984999999999467,
0.18807023999999999964,
-0.12018927000000000083,
-0.16827938000000000618,
-0.22944211999999999940,
0.00121243070000000004,
0.21729593999999999299,
0.04982396599999999731,
-0.11308310000000001971,
-0.26709586000000001826,
-0.16948320999999999525,
0.02408380400000000032,
0.10775484999999999924,
0.10433080000000000132,
0.00500552700000000007,
0.02903657600000000144,
0.02036247199999999952,
-0.09020986999999999756,
-0.10097241400000001033,
0.04977954599999999397,
0.02133408200000000074,
0.05682416299999999698,
-0.10452369000000000243,
0.03819950700000000060,
-0.02679095600000000119,
0.01927562600000000056,
0.04014829000000000314,
-0.05805265999999999899,
0.03495988200000000462,
0.17143683000000001226,
0.12851367999999999125,
0.09465028999999999804,
-0.04110750999999999988,
-0.00775610800000000027,
0.01675485999999999989,
0.05098788400000000415,
0.09557525000000000048,
0.08820005999999999680,
-0.18314788000000001289,
0.01798983300000000021,
0.00721954969999999939,
0.13809788000000000618,
0.12700754000000000210,
0.09222929000000000543,
0.05694440799999999497,
-0.18978252000000001010,
-0.00195429219999999990,
-0.03075430999999999998,
0.00607702369999999978,
0.07024214400000000635,
0.03783347499999999836,
0.08517840499999999870,
0.15204427000000000914,
-0.10327356999999999509,
0.04433721999999999663,
0.03215251000000000220,
-0.02586659799999999759,
0.00530531100000000005,
-0.01179052700000000030,
-0.00672816160000000007,
0.06543272999999999451,
-0.03339190999999999687,
0.01993674800000000066,
0.04999339200000000455,
0.18737632000000001287,
0.19462325999999999238,
0.18426117000000000190,
-0.00244069679999999985,
-0.07407080000000000608,
0.00859578899999999951,
0.21000977000000001227,
0.12035524999999999696,
0.22031370999999999594,
0.09781626599999999894,
-0.19858395000000000907,
-0.03653970399999999924,
0.05784076500000000232,
0.14601291999999999049,
0.27454218000000002453,
0.04648131500000000221,
-0.02053156000000000078,
-0.03042478100000000144,
0.08567816000000000320,
-0.01283973000000000059,
0.12094663999999999415,
-0.09811150000000000426,
-0.15917136000000001173,
0.02921231600000000206,
-0.04865879000000000038,
0.02801190100000000224,
0.10262150999999999912,
0.18585967000000000460,
0.07360632999999999759,
0.02990485000000000018,
-0.03573838000000000015,
0.01761083700000000071,
0.03101618200000000325,
0.08900769000000000042,
-0.02361384799999999978,
-0.07237056000000000044,
0.18352096000000001075,
0.06692238999999999827,
0.13945356000000000418,
-0.04533555999999999697,
-0.20574832000000001231,
0.13123839000000001032,
0.20455930999999999420,
0.03886572600000000322,
0.00215356589999999995,
-0.22538785999999999543,
-0.25894036999999997528,
-0.15033571000000001128,
0.01983626999999999960,
0.11781922999999999702,
-0.01124931000000000021,
-0.15820417000000000507,
-0.08960994999999999377,
-0.09615782999999999969,
-0.09232664999999999622,
0.04844667999999999891,
0.06245925299999999930,
-0.02431858899999999810,
0.00776124369999999994,
0.04150768999999999986,
-0.07191187000000000273,
-0.08618755999999999640,
0.05816862999999999895,
0.07759696000000000649,
-0.01248048000000000039,
0.10107951599999999426,
0.10453571999999999864,
-0.09203047999999999784,
-0.04312587999999999838,
-0.00925748700000000001,
-0.04790432000000000023,
0.09229801599999999662,
0.15979782000000000708,
0.05785700299999999713,
-0.10211992999999999765,
-0.01270178999999999926,
-0.09996621999999999453,
0.04909994000000000164,
0.15164142999999999373,
0.13315495999999998888,
-0.04744473999999999914,
0.00003627180600000000,
-0.10226267599999999680,
-0.02604752799999999688,
0.05303304599999999341,
0.01927187099999999945,
-0.03012365499999999918,
-0.00321086379999999984,
-0.02058704800000000015,
0.01630492100000000000,
-0.11262499500000000552,
-0.07628050999999999582,
-0.01581637399999999763,
0.05982165999999999872,
-0.03655080000000000134,
-0.01020727599999999950,
0.11636913599999999802,
0.03438080500000000039,
0.00431898140000000052,
-0.18984059999999999824,
-0.15362774000000001262,
-0.09421253000000000266,
0.14356229999999997604,
0.25163703999999997851,
0.15904708000000000734,
0.00561148949999999962,
0.02016192899999999857,
-0.01373290600000000132,
0.17851362000000001173,
0.21710593000000000252,
0.31037407999999999664,
-0.02421262899999999940,
-0.01860829599999999986,
-0.02055772800000000081,
0.11680356999999999545,
0.08971332999999999391,
0.23591934000000000515,
-0.03375394599999999995,
0.05521613999999999689,
-0.02473923000000000094,
-0.02670370399999999825,
-0.08779298000000000657,
0.19587730000000000419,
0.01772744199999999951,
0.03788868700000000422,
-0.08040049000000000501,
-0.07717907000000000239,
-0.02130614600000000150,
0.02095994399999999772,
0.00994742300000000038,
0.00631763500000000026,
-0.08161509000000000125,
-0.00487237000000000000,
0.11087534599999999962,
0.00730103099999999949,
-0.05939546200000000303,
0.04543199400000000332,
-0.17416056999999998678,
0.05987259999999999804,
0.27109703000000001660,
0.11376877999999999991,
0.11816840599999998973,
0.10903147600000000217,
-0.05483992799999999612,
0.23616644999999999999,
0.19818388000000000670,
0.15083113000000000770,
0.05450056500000000081,
-0.04262195500000000303,
0.07093913999999999775,
0.10596651999999999461,
0.24269418000000000935,
0.14233067999999998721,
0.08947480500000000447,
-0.03782725700000000302,
-0.16663773000000001168,
-0.03100253999999999857,
0.02673244799999999893,
0.01398122600000000111,
0.03796148700000000209,
0.04095619500000000079,
-0.15685715000000000074,
-0.20794074000000001279,
-0.04919762500000000177,
-0.01114140000000000096,
-0.03972124299999999636,
0.04107549799999999501,
-0.02596717000000000122,
-0.10082196999999999687,
-0.03197694599999999915,
-0.10220367499999999383,
-0.02150236799999999740,
0.08138265499999999819,
0.05500773299999999616,
0.12799621999999999389,
0.05778823799999999872,
0.04612301700000000226,
-0.00311383599999999960,
0.00108329860000000010,
0.05038547499999999901,
0.16088996999999999327,
0.21107303999999998956,
0.09396208000000000338,
-0.05044822999999999669,
0.01937929199999999935,
-0.06140976799999999652,
0.08542462400000000455,
0.19051715999999999096,
0.01638201800000000166,
0.01611011000000000040,
-0.05165957000000000188,
-0.15077292999999999945,
0.05923096499999999653,
-0.03509810000000000013,
0.06888342999999999550,
-0.03457345399999999652,
0.09701187999999999478,
-0.19202904000000001195,
-0.05840165499999999676,
-0.07572352000000000249,
-0.03377211000000000102,
0.09907599999999999740,
-0.02666152799999999684,
0.10728103999999999418,
-0.01964422700000000022,
0.03174670999999999743,
0.12165958000000000327,
0.14841886000000001355,
0.05160017000000000076,
0.07106089599999999840,
0.04055398699999999967,
-0.02107120700000000152,
0.03414495000000000030,
0.11881705400000000528,
0.12139555000000000484,
0.15881952999999998655,
0.13011311999999999878,
0.13704533999999998772,
-0.12567634999999999224,
0.08965625000000000677,
0.10098804000000000114,
0.18553448000000000162,
-0.04797172999999999715,
-0.15812055999999999334,
-0.33171454000000000217,
-0.16825657999999998893,
0.02258874100000000246,
0.14817974999999999897,
-0.01800396300000000130,
-0.23336541999999999009,
-0.28210530000000000328,
-0.16291781999999999098,
0.01286585350000000148,
0.07204810500000000117,
-0.14263930999999999139,
-0.14857670000000000599,
-0.00023818917999999999,
0.01944830000000000170,
0.04655070199999999936,
0.02562672799999999793,
-0.01699896700000000024,
0.14072483999999998994,
0.25993934000000001872,
0.13810715000000001185,
-0.02126109600000000016,
0.20645325000000000482,
0.27439877000000001406,
0.22339158000000000626,
0.20581578999999999846,
0.18499166999999999694,
0.22950133999999999812,
0.19641995000000000982,
0.13117320000000001756,
0.11009402000000000077,
-0.01174680199999999890,
0.02949021200000000176,
0.11817922399999999938,
0.08601375999999999467,
-0.13870550000000000934,
-0.27943255999999999650,
-0.18458944999999998826,
-0.10212957000000000285,
0.07903939499999999840,
0.00494535399999999990,
-0.35561270000000000380,
-0.36647626999999999287,
-0.25376847000000002375,
-0.13636744000000000643,
0.10138482599999999734,
-0.19848113000000000561,
-0.18140851999999998978,
-0.00351313299999999988,
-0.04274552300000000055,
0.07682772999999999686,
0.08607365000000000155,
-0.06857584399999999691,
0.10972845000000000515,
0.16155075999999998770,
0.04068876400000000226,
-0.00785931699999999935,
0.02319354399999999997,
0.13544123999999999053,
0.11336973999999999663,
0.19789476999999999762,
0.12755179999999999296,
0.01986283600000000177,
-0.01421507600000000010,
0.08352569499999999703,
-0.04719282999999999811,
-0.02141041100000000072,
0.02982575999999999977,
0.10267026999999999404,
0.08983697000000000210,
-0.02642495599999999945,
-0.08086720000000000019,
-0.19525256999999998642,
-0.16698094999999998911,
-0.08367568000000000228,
0.02440603600000000248,
-0.09900021600000000199,
-0.14438679999999998183,
-0.08286923000000000206,
-0.16803679999999998618,
-0.02362618000000000010,
0.04512247999999999953,
-0.00718691670000000046,
-0.07746538999999999509,
-0.03165496500000000019,
-0.03485417999999999850,
0.00436437130000000024,
-0.00067419759999999996,
-0.40138923999999998049,
-0.37143373000000001749,
-0.30844080000000001496,
-0.12379919999999999813,
-0.08529267000000000098,
-0.18004086999999999175,
-0.19674491999999998981,
-0.21362201999999999580,
0.56337654999999997596,
-0.02441745999999999847,
0.03537308399999999908,
-0.09295713999999999366,
0.07252448000000000228,
-0.10908726600000000218,
-0.08778199600000000102,
-0.02361966100000000013,
-0.03766607500000000025,
0.07078814499999999676,
0.03947487999999999692,
-0.50298893000000000075,
-0.69400830000000002240,
0.28807505999999999391,
0.66683030000000009796,
0.29542827999999998756,
-0.22741067000000000919,
0.56862360000000000682,
0.53998359999999989700,
-0.06785547999999999580,
-0.10501543000000000683,
-0.42501612999999999198,
-0.18025770000000002069,
-0.11263669999999999238,
-0.20291634000000000060,
0.40019371999999997502,
0.38122080000000002631,
0.39339681999999998041,
0.02292961399999999747,
-0.04189842200000000461,
-0.23621099000000000956,
-0.21540363000000001259,
0.35480486999999999442,
-0.03963855299999999998,
-0.04418352999999999864,
0.19150375000000000036,
0.13447570999999999830,
-0.07705169000000000601,
-0.04359634999999999899,
-0.23270783999999999914,
-0.28632906000000002411,
0.04387958000000000136,
-0.01732508300000000154,
-0.11815666400000000846,
-0.01301611100000000035,
0.38917913999999997898,
-0.00452182900000000065,
-0.03451575299999999624,
-0.17687521999999999966,
0.08568354000000000248,
0.23405455000000000010,
-0.01913780199999999890,
0.05318314200000000269,
0.20997841999999999896,
0.23229711000000000110,
-0.16012300000000001532,
-0.28475949999999999873,
0.06599926000000000403,
0.06400675999999999588,
-0.21727121999999998714,
-0.27186700000000002531,
0.06216044999999999904,
-0.17059572000000000624,
-0.61529929999999999346,
-0.03163027000000000200,
0.16277518999999998628,
-0.29250251999999998809,
-0.04381567599999999785,
-0.63438680000000002845,
-0.76288699999999998180,
-0.18304569000000001089,
-0.41584872999999999976,
0.26802187999999999013,
0.06778815400000000324,
0.13526165000000001104,
0.03701879000000000280,
-0.02899485599999999941,
0.11533049500000000509,
-0.01279250300000000021,
-0.08757165999999999562,
-0.01178344300000000108,
0.01567272999999999930,
-0.04096037500000000026,
0.29805463999999998181,
0.45487865999999999023,
0.62310650000000000759,
0.49485788000000002773,
-0.07239719499999999752,
-0.91456170000000003295,
-0.30576991999999997285,
0.00277199880000000018,
0.35227670000000005368,
0.00944034399999999982,
0.03533378200000000108,
0.56946885999999996564,
-0.15778876999999999486,
-0.63211219999999990193,
0.07592643000000000308,
-0.32679296000000002120,
-0.04821903000000000300,
-0.09989326400000000938,
0.30141445999999999517,
0.41822857000000002170,
0.13168453999999998882,
-0.21724709999999999854,
0.03433470400000000061,
-0.42356433999999998363,
-0.34181136000000000852,
0.29261550000000002836,
0.15778315000000001089,
0.42893249999999999433,
0.20504091999999998763,
0.10917269000000000279,
0.11347514000000000212,
-0.06770795000000000285,
-0.25302073000000002700,
-0.23636483999999999273,
0.15589963000000001125,
0.01202620499999999988,
0.39333287000000000111,
0.33424442999999998127,
-0.00596250099999999939,
0.38225471999999999229,
0.07348887599999999465,
-0.59909429999999996852,
-0.22123197999999999475,
-0.14897846000000000699,
-0.17764446000000000403,
-0.67732309999999995576,
0.13764836999999999212,
0.39927286000000000721,
0.24515702999999999800,
0.32323646999999999796,
-0.07972050999999999443,
-0.03841677300000000128,
0.35210738000000002534,
0.00108417360000000011,
-0.24973565000000000347,
-0.21083336999999999217,
-0.19498504999999999310,
0.02383148299999999706,
-0.40975344000000002431,
0.75700085999999999764,
0.05503324799999999989,
-0.28554168000000001992,
0.09588741000000000625,
0.01835076500000000152,
-0.03448042600000000152,
-0.02440800299999999756,
-0.10128118999999999317,
-0.09828902999999999945,
0.07570981999999999712,
0.01924100999999999936,
0.00305098299999999973,
-0.33292080000000001672,
-1.03146899999999996922,
-0.42821616000000001234,
0.51926470000000002347,
-0.58646030000000004545,
-0.68899639999999995332,
0.81804615000000002745,
-0.37367230000000001278,
-0.48340603999999998130,
-0.18774761000000000921,
-0.16112215999999998650,
0.41720680000000004428,
0.24922723999999998878,
-0.21852543999999998747,
0.35661066000000002374,
0.26553607000000001293,
-0.08006584999999999397,
0.46427970000000007289,
0.21843514999999999460,
-0.24939918999999999283,
-0.12359828000000000481,
0.37316852999999999829,
-0.17877630999999999384,
-0.00065104412999999995,
0.18606617999999999769,
0.00947139800000000066,
0.16326872000000000607,
0.06143980000000000274,
-0.04529059700000000188,
-0.32266238000000002639,
0.11377574999999999494,
0.20524706000000000894,
-0.26123576999999997827,
0.28148817999999997674,
0.19351340999999999681,
-0.28245853999999998019,
0.01419977700000000023,
-0.52486144999999995164,
-0.21637423000000000073,
0.40408620000000000649,
-0.08915252999999999373,
-0.29458556000000002406,
0.28534606000000001247,
0.19552637999999999963,
-0.46403924000000001948,
-0.09403155000000000541,
-0.06031578400000000423,
0.00780339300000000048,
-0.18942440999999998752,
-0.14959696000000000105,
-0.03023812000000000028,
0.14844162999999999109,
0.39600166999999997230,
0.05219026300000000063
};
