static float Kernels[91]=
		{-0.79501474000000005304,
		0.04257964300000000035,
		1.74964889999999972936,
		1.78027890000000010851,
		0.52523629999999998930,
		-0.64605230000000002377,
		-0.43969527000000002692,
		0.00723931900000000014,
		-0.08209304500000000338,
		0.66464465999999999823,
		1.71802000000000010260,
		1.58978660000000027175,
		0.44699885999999999786,
		-0.08226731400000000805,
		-0.24777989999999999737,
		-0.00410530699999999988,
		0.20346028999999998810,
		0.40207229999999999359,
		0.53759169999999989464,
		0.33434233000000002090,
		0.14207911000000000845,
		0.33856100000000000083,
		-0.03022767200000000057,
		-0.22278053999999999912,
		-0.21351181999999999106,
		-0.31869944999999999524,
		-0.22598808000000000784,
		-0.36290254999999999042,
		-0.05126131999999999911,
		0.23377354000000000189,
		0.09058523000000000269,
		-0.22702894000000001240,
		-0.35036418000000002504,
		-0.43728199999999994851,
		-0.28744593000000001615,
		-0.07349928499999999754,
		0.11490406999999999704,
		0.32680946999999999081,
		0.15795618000000000158,
		0.04667936300000000149,
		-0.38325793000000002442,
		-0.24368110000000001159,
		-0.07473978000000000566,
		-0.11774568000000000534,
		-0.03113957100000000131,
		0.12581196000000000046,
		0.13642129999999999534,
		-0.01297891600000000180,
		-0.00523248180000000004,
		-0.02766661000000000120,
		-0.10756076000000000525,
		-0.10508676000000000128,
		-0.22602184000000000164,
		0.01410893899999999916,
		-0.02868330700000000164,
		0.09902447999999999806,
		0.17039967000000000308,
		-0.06705121999999999471,
		0.04728853999999999697,
		-0.02129921899999999771,
		-0.10932058999999999527,
		-0.07197070999999999330,
		-0.00960638400000000080,
		-0.09380267000000000466,
		-0.61892219999999997793,
		0.01109984299999999986,
		-0.42435454999999999703,
		0.43318313000000002733,
		1.68559700000000001197,
		1.10014599999999984625,
		0.52209119999999997752,
		1.08452879999999995952,
		0.16165394999999999071,
		0.72253030000000006972,
		0.19692655000000000576,
		0.04369897999999999838,
		0.86517613999999998242,
		0.52366053999999995217,
		-0.14503768000000000216,
		-0.29887700000000000378,
		-0.94388837000000003208,
		-0.46179312000000000138,
		-0.17703904000000000862,
		0.22921157999999999810,
		1.25852870000000005568,
		-0.54438496000000002883,
		0.37109744999999999537,
		0.82182880000000002596,
		-1.04443280000000005003,
		-0.90052430000000005528,
		-0.37569678000000000795
};
