static float weights[16192] =
{-0.01609586199999999898,
-0.03799870200000000225,
-0.11169830000000000036,
-0.00515297600000000008,
0.00370834120000000005,
0.03585917500000000008,
-0.05708429200000000175,
-0.00826473900000000011,
-0.10012174999999999547,
0.03338791799999999560,
-0.11888374999999999637,
-0.00045555495000000005,
0.03345493599999999762,
0.12664691999999999616,
-0.02765576700000000124,
-0.03917567000000000271,
-0.04341614200000000479,
0.09633015999999999801,
-0.23052085999999999411,
-0.08735334999999999628,
0.02442093000000000041,
0.11973735000000000628,
-0.06114895599999999737,
-0.10025108000000000630,
-0.01756773899999999888,
0.18415677999999999215,
-0.23064956000000000347,
-0.14396860999999999686,
-0.13826062000000000074,
-0.23417570000000001440,
-0.06949893399999999832,
-0.10069241400000000786,
0.02071610800000000044,
0.01525694600000000040,
0.00948077500000000031,
-0.09612998999999999850,
-0.15181236000000000730,
-0.20730091999999999963,
-0.21669114000000000431,
0.00818073699999999869,
-0.04495784599999999576,
0.06062293800000000121,
-0.02090973200000000032,
-0.06133575400000000621,
-0.10139494999999999758,
-0.14375164000000001385,
0.05924833200000000077,
0.05383233400000000252,
-0.11011350000000000304,
-0.02320302700000000107,
-0.00926538600000000045,
0.05935374300000000047,
-0.10531002000000000418,
-0.27564967000000001329,
0.08613563999999999943,
-0.11709211999999999398,
-0.11971339599999999970,
-0.00721922900000000062,
-0.15058701999999998811,
-0.03003311900000000048,
-0.12664917000000000535,
-0.27065739999999999243,
0.23201374999999999083,
-0.01090369499999999971,
-0.13007488999999999857,
0.11944172499999999859,
-0.14254068000000000294,
-0.15787938000000001360,
0.08171130999999999533,
-0.13880624999999999214,
0.22895155999999999841,
0.01744113499999999997,
-0.12572127999999999082,
-0.05464743999999999852,
-0.12952669999999999462,
-0.11485072000000000336,
0.13091811999999999894,
-0.11024414000000000435,
-0.01617513199999999832,
-0.04558057700000000406,
-0.24600129999999997832,
-0.17593907999999999769,
-0.19669358000000000675,
-0.10425848000000000060,
0.05868231000000000142,
-0.06873160600000000064,
-0.13767057999999998685,
-0.02096306200000000106,
-0.14574382999999999089,
-0.00333774969999999990,
0.03511901600000000290,
0.06756325999999999998,
0.09464108999999999716,
-0.05545327799999999474,
-0.02623444399999999913,
0.00210254150000000004,
-0.06396839999999999471,
-0.11087453999999999366,
-0.04664255299999999632,
0.05294016400000000483,
-0.00690980999999999974,
-0.28538498000000001031,
-0.01745306500000000025,
-0.03406004600000000354,
-0.17438038000000000149,
-0.20306677000000000755,
0.01142779100000000138,
0.08555134999999999823,
-0.05076573400000000680,
-0.32219427999999999956,
-0.00630022630000000045,
0.03311321999999999877,
-0.07060709599999999420,
-0.05404363000000000222,
0.12600639999999999064,
0.12916076000000001334,
0.00493146200000000017,
-0.15490676000000000445,
-0.08022173999999999972,
0.05868352200000000185,
-0.14936114999999999808,
-0.00767502500000000025,
0.03245810799999999940,
-0.11049414000000000458,
-0.17495608000000001381,
-0.07334279999999999966,
0.07377443499999999932,
0.04894177599999999934,
-0.12453015000000000612,
-0.10618374499999999605,
-0.16771120000000000472,
-0.04261237400000000147,
-0.04954585400000000028,
-0.03197525400000000156,
0.09595364000000000670,
-0.03270367999999999886,
-0.10234764000000000361,
0.05318880499999999872,
-0.24386879999999999669,
-0.25950420000000001819,
-0.03944190200000000091,
0.02373642100000000060,
0.42718809999999995952,
0.13544026000000000676,
-0.21093096000000000068,
0.02725545299999999893,
-0.05405734999999999707,
-0.09894079000000000068,
0.13164848000000001216,
-0.05184184799999999593,
-0.12143226999999999494,
-0.08172422999999999493,
-0.25385717000000002086,
-0.12052738999999999814,
-0.06245242799999999733,
-0.21067150000000001153,
0.15834910999999998737,
0.13775946000000000025,
-0.00344702719999999971,
0.01500294699999999912,
-0.20712743999999999600,
0.14741264000000001144,
-0.02550819999999999824,
-0.16956547999999999066,
0.07890319999999999279,
0.04741648200000000285,
-0.04516400999999999749,
0.01660711700000000110,
-0.14658970000000001721,
0.05319059000000000287,
0.05954965599999999942,
-0.15827605000000000146,
-0.00142133829999999996,
-0.09667995999999999535,
-0.19715839999999998366,
-0.01078720899999999899,
-0.15738346999999999754,
-0.04318058000000000313,
0.10404435500000000503,
-0.07440876999999999908,
-0.03434255700000000272,
-0.03770772000000000013,
0.09005488500000000118,
0.05270012500000000044,
-0.06909007000000000343,
-0.17654713999999999130,
0.16123292000000000179,
-0.11125667399999999985,
-0.17644085000000001018,
-0.12040081599999999384,
-0.24912814999999999266,
0.10426195000000000601,
-0.00200014700000000030,
-0.00318900450000000023,
-0.01086943100000000058,
-0.07794586600000000254,
0.02462584500000000037,
0.00785337800000000114,
-0.04182570399999999827,
-0.11006655499999999648,
-0.14861703000000001107,
-0.16269839999999999303,
-0.08521262599999999965,
-0.04543805499999999803,
-0.03033295299999999931,
0.16704801999999999151,
-0.02662467799999999885,
-0.10397448400000000590,
-0.24086954999999998783,
-0.15520287999999998751,
0.02049330400000000038,
-0.26328026999999998292,
0.12010395999999999572,
0.15787720000000002307,
0.29186198000000002084,
-0.06999099000000000292,
-0.22357415999999999401,
0.04389317000000000218,
0.11967096500000000414,
-0.03230611200000000488,
-0.01691601800000000141,
-0.10000671999999999340,
-0.01786938100000000015,
0.13028776999999999719,
-0.27184289999999999843,
0.03736218000000000178,
0.08344941599999999848,
-0.14242657999999999707,
0.15070481999999998934,
0.06555825999999999321,
0.02042824199999999923,
-0.02799641500000000019,
-0.10010072600000000098,
0.02135520799999999705,
-0.01806763999999999940,
-0.03659100000000000547,
-0.08204356599999999833,
0.03976336999999999927,
0.00437797199999999994,
0.02582172100000000234,
-0.07953024000000000204,
-0.01679535000000000056,
0.20859103000000001060,
0.04504215999999999775,
-0.20750456999999999930,
0.07952341000000000271,
-0.00281627240000000001,
-0.01658118100000000039,
-0.05287775400000000597,
-0.44084916000000001768,
-0.04947605700000000384,
-0.12607434000000000696,
-0.23999714999999999243,
0.08239945999999999382,
0.07340794999999999959,
0.11147927000000000530,
-0.15312769000000001074,
-0.25381544000000000327,
-0.08464992000000000349,
-0.18098060999999998621,
-0.20157105000000000161,
0.13790004000000000151,
0.19319128999999998775,
0.07717142000000000446,
0.01165085399999999868,
0.02067364999999999828,
-0.09680859999999999466,
-0.02307587900000000053,
0.02271309299999999670,
0.09633384000000000391,
-0.06954338000000000186,
0.04929954599999999965,
0.06731368599999999758,
0.01282731299999999991,
-0.16411944000000000532,
-0.07550136999999999821,
0.11539372999999999991,
0.14125924000000000813,
-0.22470900000000001984,
-0.05611816400000000510,
0.03414539999999999936,
0.07032742999999999634,
-0.04032870999999999678,
0.08938891000000000198,
0.07215613999999999362,
0.09274786999999999615,
-0.23474357000000001250,
-0.02257308600000000262,
-0.12284298999999999913,
-0.03714956299999999656,
0.05054283500000000123,
0.11888382000000000116,
-0.17418433999999999306,
-0.01848848399999999947,
0.09756069000000000546,
0.11362561999999999662,
-0.54623569999999999069,
-0.08919410999999999312,
0.13550320000000001808,
0.10078597000000000250,
0.07284228500000000661,
0.01607775100000000124,
0.07562507000000000257,
-0.06563636999999999944,
-0.36614959999999996398,
-0.02731497799999999671,
0.13712675999999998644,
-0.00076933904000000013,
0.15328358000000000261,
-0.08883696000000000648,
-0.10766900000000000082,
-0.01839204900000000059,
-0.04411328999999999945,
0.12025283000000000500,
0.26543020000000000502,
0.26993414999999998383,
0.16562379999999998770,
0.19611834000000000211,
0.13209154000000000728,
0.02712807999999999886,
0.03372851999999999795,
-0.10751832000000000056,
0.08264655999999999392,
0.08241577399999999720,
0.11532021000000000632,
0.07215585599999999045,
0.14417142999999998931,
0.15135614999999999486,
0.03083748399999999834,
-0.29593690000000000273,
-0.21160489999999998467,
0.16316205000000000291,
-0.12186701599999999468,
0.06654256999999999533,
0.09080641999999999880,
0.16608858000000001343,
-0.12699246000000000145,
-0.06204649000000000275,
-0.21461827999999999461,
0.14327775000000000927,
0.02409494100000000166,
-0.07021998999999999602,
0.01263495499999999980,
0.08785350999999999577,
0.02465227799999999969,
-0.12783857000000001247,
-0.12704619999999999802,
0.01455419899999999857,
-0.06520856999999999348,
-0.00769460000000000022,
-0.28078904999999998449,
0.04174172999999999772,
0.07561469999999999303,
0.01536813399999999857,
-0.02768711999999999909,
0.23122047000000001127,
0.00858514199999999873,
-0.02703454299999999769,
-0.21594167999999999696,
-0.02114863299999999655,
0.13855877999999999250,
-0.06225062499999999693,
-0.01869986400000000007,
0.16202426000000000328,
-0.12694252999999999787,
-0.04105850299999999620,
0.15259703999999998936,
0.06740324000000000315,
-0.02309187500000000129,
0.06579362599999999395,
0.16316985999999999990,
-0.05653122000000000008,
-0.12085037999999999336,
0.19665926999999999714,
0.08659743000000000301,
-0.03755805300000000096,
-0.42676824000000002091,
0.19740915000000000545,
0.19425760000000000249,
0.10720193999999999557,
0.16787889999999999757,
0.11917452500000000337,
0.26648690000000002653,
0.00826222199999999962,
-0.37929252000000002187,
0.29404144999999998200,
0.01559820200000000025,
0.04679854599999999643,
0.40267670000000005404,
0.25571376000000001216,
0.00966595599999999985,
-0.02063194700000000117,
-0.28840264999999998263,
0.03303979700000000269,
0.06154516299999999995,
0.18604787000000000408,
0.18778512999999999455,
0.08005234999999999435,
-0.21826576000000000310,
-0.16845926999999999429,
-0.07093406500000000448,
-0.09121996999999999745,
-0.12822568000000000854,
0.15896932999999999203,
0.03707998600000000228,
-0.02995586200000000324,
-0.06633880999999999806,
0.06390169999999999184,
0.02508162100000000186,
-0.22151248000000001159,
-0.20574553000000000980,
0.10575669999999999515,
-0.16176182000000000061,
0.07452135000000000009,
-0.25366336000000000439,
-0.02781750000000000195,
0.16657957000000001013,
-0.09229113999999999374,
-0.05116082000000000268,
0.06352887999999999591,
-0.12880786999999999098,
-0.07379097499999999477,
-0.17924300000000001343,
-0.16009003999999998902,
0.05678746500000000225,
-0.01165149499999999956,
0.05373463800000000123,
0.13332389999999999519,
0.13383306999999999842,
0.02225868799999999870,
0.06968754000000000615,
-0.12997912999999999828,
0.38621830000000001437,
0.01445045499999999920,
-0.12448507999999999796,
0.00346682099999999970,
-0.04043134699999999943,
-0.07805444000000000271,
0.07018246999999999680,
0.01948596999999999829,
0.33614855999999998515,
-0.01681717699999999913,
0.01114095499999999926,
-0.03545342799999999517,
0.00457172929999999974,
0.02559086899999999873,
0.17963132000000001098,
-0.00856512300000000087,
0.33350762999999999936,
0.09880551999999999391,
0.03916943999999999981,
-0.07152933999999999681,
0.16194866999999998902,
0.04596105999999999803,
0.04698638000000000120,
-0.07354931000000000663,
0.01179815499999999941,
0.13995694000000000190,
0.02012213100000000143,
0.02822839100000000198,
0.08609743999999999731,
0.05019886999999999960,
-0.17835169000000000716,
-0.02441922399999999979,
-0.06110643000000000324,
0.08294804000000000066,
-0.09608767000000000003,
0.03985600999999999727,
0.00482747559999999968,
0.09088959000000000621,
-0.08262961000000000611,
-0.07846904999999999852,
-0.05805089299999999924,
0.00125757220000000005,
-0.16648145000000000304,
0.26329419999999997826,
0.01089349600000000078,
0.00700197400000000022,
-0.15806785000000000974,
-0.09985755999999999799,
0.21361805000000000376,
0.17107205000000000328,
-0.01764920000000000030,
0.04767516299999999957,
-0.08088243000000000515,
0.15237136000000001124,
-0.03440312000000000231,
-0.17636294999999999056,
0.04103665000000000090,
0.06040486299999999614,
-0.02061672299999999999,
0.01721029999999999782,
0.04542392499999999694,
-0.08164938500000000487,
-0.12329592600000000013,
-0.22689675000000000815,
0.19007710999999999357,
0.17152323999999999349,
-0.06590814000000000394,
-0.11873779999999999057,
0.12250764999999999572,
-0.00989382800000000034,
0.00678959160000000041,
-0.09943636999999999615,
-0.00971897700000000017,
0.15035717000000001220,
0.03343557200000000368,
-0.15781333999999999640,
-0.08485886500000000554,
-0.11716237999999999653,
-0.05127352500000000035,
0.13196157000000000026,
0.06078759599999999930,
0.19943041999999999714,
-0.01385514899999999890,
-0.00322133189999999989,
-0.00896069499999999942,
0.03507911400000000152,
0.05536372599999999505,
0.06277853999999999379,
0.08007271000000000527,
0.19557968000000000575,
-0.03608856399999999659,
-0.08237121999999999500,
-0.06653357000000000021,
-0.03765224999999999822,
-0.07491999000000000575,
0.22724855999999998835,
0.29137119999999999687,
0.05878975599999999857,
0.02580357900000000010,
-0.01000746699999999906,
-0.09999945000000000361,
0.06829839000000000049,
0.10468241000000000351,
-0.03072715000000000168,
0.11413179999999999159,
-0.00207600630000000013,
-0.08498171000000000197,
0.07682078999999999991,
0.00456786060000000018,
-0.04575838000000000128,
-0.15328900000000000858,
-0.04791099000000000052,
0.06597680000000000211,
0.02906623700000000171,
-0.09914778000000000480,
0.09882405400000000839,
-0.02430181799999999934,
0.07062965000000000215,
-0.02899109999999999882,
-0.22774300999999999573,
0.14391809999999999325,
0.10124426000000000259,
0.05791733000000000298,
-0.04459086400000000089,
0.01663205400000000028,
-0.00005928671000000000,
0.05739414299999999469,
-0.08126988000000000267,
-0.06098586699999999916,
0.17113311999999999968,
0.05645109999999999711,
-0.13293136999999999315,
0.00098219850000000005,
-0.04328864799999999902,
-0.20713261999999998952,
-0.07883808000000000482,
-0.00154279649999999988,
0.09556908000000000070,
-0.01459881700000000004,
-0.11998930599999999003,
0.13740942999999999907,
-0.01647539799999999874,
-0.07105920999999999765,
-0.10531638999999999584,
-0.01338146899999999827,
-0.06145172000000000134,
-0.12656728999999999896,
-0.04333887200000000051,
-0.02725004200000000210,
-0.14044370999999999938,
-0.04523705299999999929,
-0.04040603699999999882,
0.13954446000000000905,
0.07002930000000000266,
-0.09070754000000000317,
-0.08311936999999999798,
0.07449334000000000511,
-0.13240926999999999558,
0.02510903399999999883,
0.11693148000000000430,
0.11706685999999999481,
0.06655228000000000532,
-0.20495622999999998926,
0.00706457439999999982,
0.10770717000000000485,
-0.00780342430000000031,
0.12703390000000000515,
0.02591600799999999732,
0.12117722000000000215,
0.14248489000000000293,
-0.25246087000000000389,
0.00444970369999999997,
0.01551721199999999898,
0.13874555999999999001,
-0.00231296080000000003,
-0.16043857000000000257,
-0.05000021699999999958,
0.17400296000000001206,
-0.16461956999999999285,
0.04942904400000000531,
-0.11884121000000000268,
0.04262541999999999720,
-0.19293884999999999508,
-0.10965083999999999942,
0.08347327000000000219,
0.19885504000000001068,
-0.04254518400000000672,
-0.04089325700000000230,
-0.09318513999999999964,
0.12603948000000000929,
0.00055401294999999999,
-0.07162283999999999318,
0.14652439999999999909,
0.28851145999999999736,
0.01965895499999999879,
-0.15881558000000001174,
0.04447569299999999670,
-0.21000663999999999443,
0.09584502000000000299,
-0.03771076400000000078,
-0.06618728499999999848,
0.30562526000000000970,
0.05130968000000000334,
-0.16172600000000000864,
0.07637528000000000372,
-0.02788627299999999962,
0.07172821000000000058,
-0.02806514499999999968,
-0.06907239999999999214,
0.09265835999999999517,
-0.03385067399999999727,
-0.17844266999999999768,
0.15587803999999999549,
-0.08842192599999999791,
0.06926277000000000128,
-0.06847991000000000494,
0.00203197730000000002,
-0.07004984999999999684,
-0.00951708499999999978,
0.00149438040000000015,
-0.00288929049999999982,
0.05201859799999999923,
-0.03734739000000000114,
-0.00872175700000000012,
0.03932674200000000481,
-0.15700495000000000423,
-0.03899611499999999786,
-0.04212946400000000535,
-0.06584845500000000018,
-0.00121741490000000009,
-0.02704467299999999824,
-0.05485652799999999468,
-0.01120344550000000085,
-0.25695341999999998794,
0.06300505000000000688,
0.06095821800000000151,
-0.07888626999999999445,
0.00104902279999999999,
-0.15872090999999999283,
-0.05946451400000000304,
-0.02159612799999999916,
-0.12947380000000000000,
-0.02182162700000000316,
0.09921156000000000419,
-0.05855689000000000033,
-0.11298600599999999994,
-0.12852529999999998123,
-0.12517917000000000627,
-0.00962938600000000020,
-0.07251080999999999499,
0.02500699799999999903,
-0.01656827100000000247,
-0.07350054400000000099,
-0.13069056000000001116,
0.05394030699999999984,
-0.03661347599999999897,
0.02287167999999999840,
-0.02452792999999999987,
-0.05073731000000000074,
-0.05334546400000000216,
-0.19431211000000001010,
-0.13000670000000000281,
0.20985144000000000020,
-0.03597739700000000124,
0.00029413299999999997,
0.04553606699999999952,
-0.06107434999999999947,
-0.08144112000000000573,
-0.11124960999999999878,
-0.12429642000000000468,
0.32426578000000000346,
0.05382562800000000036,
-0.07951938999999999536,
0.06927294999999999980,
0.00920047900000000099,
-0.03103724999999999887,
-0.13230379999999997143,
0.09008369599999999089,
0.23257807999999999260,
0.02280966400000000033,
-0.09458225000000000660,
0.10184031000000000333,
0.01974502200000000096,
-0.07397173999999999416,
0.01250822600000000076,
0.14165618999999998739,
0.00824933599999999947,
0.02046140100000000059,
0.09168360999999999872,
-0.20580064000000000690,
-0.06960162000000000293,
0.00029038955000000003,
-0.09727302000000000171,
-0.06989845999999999560,
-0.06630004000000000453,
-0.12199298999999999560,
0.04086627999999999789,
-0.10088947400000000676,
-0.03800441300000000078,
0.02026077000000000086,
-0.17613040999999998726,
-0.10012949000000000155,
-0.27996336999999998918,
-0.15160425999999999069,
0.05780565000000000009,
0.06169010999999999939,
-0.17506900000000000239,
-0.06645586000000000548,
0.10604609500000000688,
-0.05753342000000000178,
-0.26581304999999999517,
-0.05186521300000000029,
-0.03827610199999999935,
0.15763553999999999067,
-0.33554002999999998913,
-0.06445824999999999472,
0.17608128000000000668,
-0.15260926999999999132,
-0.10220463999999999938,
-0.08695555000000000645,
0.03812801999999999858,
0.02876727999999999924,
-0.38212361999999999718,
-0.10310680999999999319,
0.10197362999999999567,
-0.25400289999999997592,
0.01706583399999999848,
-0.06838482999999999368,
0.12486607599999999252,
0.17750416999999998890,
-0.01952449800000000124,
-0.09371181599999998946,
0.07875946000000000335,
-0.37708658000000000454,
0.22904024000000000605,
-0.02651556399999999841,
0.05199812000000000184,
0.07983537000000000272,
-0.16526012000000001034,
0.10519101499999999882,
-0.00371385580000000012,
-0.31280797999999998549,
0.28132944999999998092,
-0.05621462299999999829,
-0.06246160700000000232,
0.11182763400000000908,
-0.00285851369999999983,
0.00743464050000000078,
-0.06544530400000000969,
0.04364776199999999967,
0.12740751999999999633,
-0.00560563199999999928,
-0.02109886100000000000,
0.12089397999999999811,
-0.03688148399999999910,
0.09203321000000000418,
0.10993665499999999424,
-0.05196817199999999998,
-0.08675368999999999442,
0.03742900999999999867,
0.01786059699999999889,
-0.04975640799999999503,
-0.06668869400000000669,
0.02721009200000000169,
-0.26457256000000001217,
-0.10923671000000000075,
-0.13304439000000001236,
0.00100803700000000004,
0.07113608000000000431,
0.00143431950000000004,
-0.04896443000000000323,
0.00366050030000000023,
-0.17681633999999998852,
-0.06297250000000000070,
0.00426868400000000002,
-0.00583678499999999972,
0.06804092999999999947,
0.16059744000000000796,
-0.19088788000000000977,
-0.16212939999999997909,
-0.08320586400000000438,
-0.20280175000000000285,
0.08154691000000000023,
-0.04758453400000000472,
0.13740463999999999456,
-0.04849567599999999451,
-0.40864097999999998700,
-0.08132991999999999999,
-0.17500803000000000886,
-0.33669943000000002176,
0.10601175000000000181,
-0.07358204999999999607,
-0.01824562600000000090,
-0.00731557699999999932,
-0.12189690000000000247,
0.03310890500000000097,
0.00217607759999999999,
-0.37918059999999997878,
-0.02285459799999999680,
-0.11526870999999999645,
0.09053026999999999602,
0.20451789999999997471,
0.05100453299999999773,
-0.02657840200000000097,
0.03219286700000000001,
-0.21893156999999999202,
0.01695633300000000052,
-0.07246945000000000470,
-0.01665831199999999804,
0.01458286399999999920,
-0.07287679599999999369,
-0.10893179000000000056,
0.24629778999999998867,
-0.10110979000000000494,
-0.07224939999999999141,
-0.01063694600000000129,
-0.07845369000000000648,
0.10798354999999999759,
-0.02120731200000000247,
-0.06526556000000000024,
0.21044925999999999910,
-0.09043490999999999336,
-0.12915271999999999863,
-0.10276829499999999562,
0.06001509999999999484,
0.08527785000000000226,
-0.08571758999999999629,
-0.13142655999999999783,
0.18384431000000001077,
-0.00178992470000000005,
-0.14146805000000001185,
0.04481182599999999905,
0.03282005000000000339,
-0.09092347000000000623,
-0.07221827999999999581,
0.15735413000000000872,
-0.05099059300000000072,
-0.12197307500000000025,
-0.11545117000000000573,
-0.00430264460000000064,
-0.08010219999999999840,
0.04767443999999999849,
-0.06245644400000000679,
0.20733550000000000590,
-0.06780191000000000690,
-0.02564813000000000162,
0.01370174600000000076,
-0.04605004599999999726,
-0.08247453999999999896,
-0.01127902300000000087,
-0.03755914999999999948,
0.03177591400000000232,
-0.02187564999999999996,
0.02270590700000000087,
-0.16438973000000001168,
-0.03246711600000000419,
0.04105208399999999563,
0.03146742000000000289,
-0.24669534000000001295,
0.06367011000000000198,
-0.12449200000000000543,
-0.14269609999999999239,
0.03072429299999999974,
-0.02887024499999999924,
0.12658781999999998980,
-0.03783790799999999649,
-0.14102160000000002471,
0.06923295999999999617,
-0.22889570000000003525,
-0.33428647999999999696,
0.13451748999999998957,
-0.04576694200000000490,
0.16651294999999999291,
0.11295742999999999756,
-0.04292367799999999983,
-0.01200899799999999989,
-0.08424537999999999471,
-0.02419351000000000140,
0.03352627500000000121,
-0.01185737550000000133,
-0.15147698000000001106,
0.00613849469999999935,
0.03044602999999999893,
0.02315161700000000281,
0.10891835400000000889,
0.10175578999999999874,
0.02219559399999999905,
0.05583407400000000437,
0.16776229999999997533,
-0.02606274200000000332,
-0.18339025999999999939,
-0.02039313499999999973,
0.07088064400000000653,
0.10855797999999999837,
0.03688669999999999449,
0.11531761999999999568,
-0.00057369069999999999,
0.03623207700000000142,
-0.14574990000000001555,
-0.05246530499999999680,
-0.07683610999999999913,
0.13761187999999999199,
-0.08631821000000000632,
0.19871818999999998900,
0.02017544599999999966,
0.05275384699999999955,
-0.11255184000000000022,
-0.03690523700000000046,
0.17368444999999999023,
-0.20332754999999999579,
-0.03985474299999999803,
-0.10024107999999999630,
0.19745086000000000581,
0.13893019000000000895,
0.04170356700000000388,
-0.26179745999999998185,
0.12070078400000000540,
-0.04008573700000000323,
0.07010608000000000117,
-0.02412514600000000009,
0.33916888000000000591,
0.21629613999999999785,
-0.02917840700000000342,
-0.54179709999999992043,
0.23429776999999998854,
-0.00333503679999999983,
-0.05360919599999999785,
-0.06947248000000000312,
0.33036294999999998856,
0.33162750000000001949,
-0.19807131999999999517,
-0.24995234999999998982,
0.04870507500000000045,
0.07556164999999999410,
0.13638476999999998851,
-0.04525307599999999625,
0.26042902000000001106,
-0.15787134999999999363,
0.08962372999999999867,
0.02423988700000000163,
-0.09597827000000000441,
-0.00973888099999999958,
-0.06703388000000000402,
0.05858254999999999713,
0.08394010000000000360,
-0.11210684499999999664,
0.01724423500000000012,
-0.12611100000000000088,
-0.11121474000000000637,
0.11960737400000000241,
0.01141576100000000170,
0.08412978000000000123,
-0.08718680000000000874,
-0.04831227999999999911,
-0.01883921200000000101,
-0.16118477000000000499,
0.03502324600000000093,
0.18799711999999998979,
0.07309775999999999774,
0.14316165000000000140,
-0.03094062399999999990,
-0.02496301399999999865,
-0.05030809299999999817,
-0.21692452000000000956,
0.08155822000000000072,
0.09636031999999999931,
0.03141110800000000008,
-0.07681419999999999915,
-0.22721917999999999283,
0.04333554599999999563,
0.06288401999999999881,
-0.21447985999999999440,
-0.08757125999999999799,
0.19009417000000000675,
0.05692881699999999962,
-0.09497250599999999821,
-0.13941549999999999776,
0.14834160000000001789,
-0.04422997000000000040,
-0.23989220999999999462,
0.21533077999999999941,
-0.12527553999999999079,
-0.01457372499999999918,
0.06034133599999999542,
-0.10395696999999999577,
0.06242771999999999905,
0.11917221000000000064,
-0.25029388000000002412,
0.16482194000000000011,
-0.06747432000000000429,
0.01665579000000000018,
-0.02775717899999999988,
0.01179095449999999906,
0.03115252399999999741,
0.10418472400000000633,
-0.09965975000000000528,
0.34124450000000000616,
0.13707865999999999107,
0.03403533599999999937,
-0.03572987400000000174,
-0.06650399399999999683,
-0.19956413000000000624,
0.01487279000000000032,
0.10872254500000000377,
0.28857672000000000878,
0.07203352999999999839,
0.06363641000000000436,
-0.06558711999999999875,
0.18788820000000000521,
-0.28906875999999998017,
0.06322832400000000241,
0.15406053000000000108,
0.25879185999999998469,
0.00798712900000000080,
0.19687894000000000228,
0.04665896700000000258,
0.18379625999999998909,
-0.29295145999999999686,
0.12670914999999999262,
0.08850362999999999980,
0.07621100000000000096,
0.22566584000000000643,
-0.03636310999999999710,
0.01872893999999999948,
-0.20401744999999998909,
-0.18020078999999999958,
0.07175450999999999357,
0.01394677600000000101,
0.15618814999999999782,
0.08142881999999999898,
0.00080829229999999995,
-0.17743511000000000699,
-0.15788875999999998911,
-0.06595644000000000506,
-0.07368302999999999658,
-0.11942097999999999602,
0.03542210999999999971,
0.03736030700000000232,
0.06090188800000000124,
-0.22035030999999999368,
-0.24283025999999999223,
-0.13049564999999999082,
-0.04287715000000000276,
0.02751427899999999913,
0.08360876000000000419,
0.07085012999999999728,
0.01274336100000000166,
-0.17666519999999999446,
-0.20242352999999999041,
-0.01335704600000000089,
0.02270251899999999740,
-0.00654842050000000071,
0.03105089799999999692,
-0.12223959999999998993,
0.08884624400000000477,
0.02896730399999999928,
-0.42285057999999997591,
-0.13666370000000002682,
0.09109192000000000677,
0.22019885000000000153,
-0.03432690700000000372,
0.06600039999999998686,
-0.17819160000000000554,
0.03556477699999999881,
-0.44404313000000000811,
-0.22598462999999999190,
0.13460427999999999282,
0.24088691000000000964,
0.07136249000000000065,
0.16372159000000000018,
0.09581228999999999441,
0.01427746799999999976,
-0.51927847000000004751,
-0.07998889000000000693,
0.18678265999999998925,
0.27607372000000002243,
0.07262794999999999668,
0.14015933999999999338,
0.13928457999999999117,
0.02292574799999999927,
-0.34871024000000000465,
-0.08579924999999999358,
0.23604059999999998931,
0.13761662999999998980,
0.27092769999999999353,
0.01132431600000000094,
0.12190208599999999284,
-0.00551804530000000060,
-0.17015050000000001007,
-0.01897657800000000089,
0.18215723000000000331,
-0.00158066079999999985,
-0.03953770999999999675,
0.15823634000000000310,
0.11404438999999999549,
0.03539716999999999864,
-0.13335717999999999184,
-0.17657191999999999332,
0.02081848999999999852,
0.08191031999999999480,
-0.08097585999999999673,
-0.00999615000000000052,
0.20785493999999998804,
0.10013262000000000551,
0.00581583599999999958,
-0.16364570000000000505,
-0.13665113000000000953,
0.10189424499999999441,
0.05027195400000000064,
0.06583026000000000155,
0.02597408200000000250,
0.04672820999999999919,
0.03906112500000000209,
-0.12962765000000001092,
0.13326484999999999026,
0.11309169999999998946,
0.01408082249999999952,
-0.02525422500000000167,
-0.08131790999999999325,
0.11645331999999999906,
0.12804547999999998931,
-0.26677117000000000191,
-0.02190087500000000020,
0.24634344999999999160,
-0.14452232000000000967,
-0.00808225699999999894,
0.02329770499999999842,
0.15666187000000000862,
0.22017449999999999521,
-0.17861309999999999687,
0.00937226099999999979,
0.08409843000000000179,
0.00415246699999999996,
-0.08156776000000000304,
-0.17455174000000001078,
0.20631917999999999092,
0.34869850000000002233,
-0.02226374899999999935,
-0.02772765799999999878,
0.10163002499999999884,
-0.13446079999999999144,
0.02454078200000000057,
0.07404589999999999783,
0.09980062400000000444,
0.04956648500000000040,
0.02074485499999999955,
0.11069774000000000280,
-0.04243361599999999345,
-0.11180710000000002036,
0.10525178000000000311,
-0.10837805999999999829,
-0.03724418000000000173,
-0.03473551200000000311,
-0.05288355799999999718,
0.04763133499999999687,
-0.11776972599999999125,
-0.00497652120000000031,
0.06342393999999999810,
0.07291978999999999822,
-0.05235567700000000324,
0.10729504400000000608,
-0.03172464299999999682,
-0.04479601599999999406,
-0.09439137999999999695,
-0.12174053999999999431,
-0.07629115000000000202,
0.04264913499999999774,
0.19079467999999999428,
0.08661739000000000244,
-0.19836564000000000974,
-0.12480531000000000263,
-0.00607029160000000043,
-0.12160121000000000124,
0.03274690400000000029,
0.04944632000000000194,
0.14942990000000000439,
-0.07105798000000000669,
-0.24244681000000001259,
0.06912147000000000430,
0.01008878199999999926,
-0.03345234700000000033,
0.02737842299999999895,
0.01426376899999999906,
-0.00721912459999999971,
-0.04307417599999999874,
-0.12938665999999998668,
0.09165798000000000001,
0.19562449999999997896,
0.01361187600000000018,
-0.28675300000000003564,
-0.09229828400000000821,
-0.13290300999999998810,
0.07484151399999999787,
0.00797005699999999914,
0.00247613700000000022,
0.03461675000000000169,
-0.14255567999999999018,
-0.04927870300000000009,
0.08404960000000001596,
0.20947125999999999246,
0.09707198999999999689,
-0.05506984999999999658,
0.00332108099999999960,
-0.02475194399999999795,
0.10992079000000000433,
-0.00163178369999999995,
0.14900745000000001350,
0.07703015000000000556,
0.03540787499999999838,
-0.08033331000000000499,
0.09013216999999999757,
-0.00577115030000000060,
0.01996326799999999929,
0.14322368999999998684,
-0.03390762200000000531,
-0.03383384299999999539,
-0.04590672299999999650,
0.17662548999999999610,
0.01286144800000000102,
-0.00359357289999999961,
-0.09240758000000000305,
0.18220892999999999118,
-0.01344544350000000110,
0.00229244659999999984,
-0.04825779400000000663,
-0.00427384800000000023,
-0.03129715000000000275,
-0.08390777599999998948,
-0.15392010999999999887,
0.16022712999999999539,
0.00787195899999999955,
0.11323843999999999577,
-0.10587868999999999753,
-0.09752225999999999950,
-0.02066132600000000069,
-0.03144776399999999611,
-0.00126394910000000014,
0.23853210999999999165,
0.08364333000000000184,
0.19099526000000000003,
0.08964540000000000008,
0.06804180999999999424,
-0.05744318699999999972,
0.06894875000000000309,
-0.05818431000000000297,
0.01908566800000000008,
0.11731880000000001474,
-0.16435389000000000248,
-0.04253011200000000186,
0.08625143999999999866,
-0.12121799599999999453,
0.04157485400000000136,
-0.07213759399999999933,
0.05137486000000000136,
0.10137910399999999767,
-0.20876074000000000019,
-0.02094411699999999821,
0.14670727000000000073,
-0.08129403999999999797,
-0.13845684999999999243,
0.00198959019999999992,
0.06436121000000000203,
0.06458582000000000212,
-0.13828287999999999691,
-0.00453095039999999987,
0.05513643499999999753,
-0.06247763700000000253,
-0.02592901499999999970,
-0.01385129799999999974,
0.05661477000000000176,
-0.07475125999999999993,
0.06453831499999999888,
-0.00012693749999999999,
-0.01771773999999999918,
0.01388718699999999875,
0.02805033700000000157,
0.03897366700000000350,
0.07707249400000000528,
-0.09484958999999999751,
0.06611775999999999764,
-0.11989742000000000455,
-0.09602085500000000218,
-0.00503118200000000036,
0.06539751600000000276,
0.01447505699999999951,
0.24226977999999999014,
-0.05482261599999999763,
0.04428248500000000337,
-0.00488137830000000012,
0.00034669742999999994,
-0.00379370740000000003,
0.11466584000000000498,
-0.08934973000000000221,
0.22782113000000001057,
-0.17112772000000001094,
0.00212275260000000009,
0.02925890500000000172,
-0.04224814999999999821,
0.04789642000000000205,
0.11149823999999999846,
0.12930363000000000273,
0.05934474199999999894,
-0.15165109999999998314,
-0.02053003999999999940,
0.01049265100000000041,
-0.05212193999999999855,
0.10727683999999999831,
-0.00905893399999999939,
0.11165234000000000270,
0.13625550000000000161,
-0.24019662999999999431,
-0.02975015200000000193,
-0.05187152999999999903,
-0.08348888999999999616,
0.11974970000000000059,
0.01399784999999999918,
-0.03653209000000000317,
0.09466863999999999835,
-0.31818829999999997948,
0.12506791999999999909,
0.07455614000000000685,
0.11437880000000000269,
0.15695844999999999936,
0.02947524600000000009,
-0.05908813699999999891,
-0.05827101299999999651,
0.15245016000000000123,
-0.12628749999999999698,
-0.09858295000000000252,
-0.04502265500000000170,
0.01463411899999999925,
0.00477824449999999980,
-0.13386593999999998883,
-0.07517175400000000729,
-0.00152423200000000015,
-0.12536306999999999312,
-0.00694679300000000059,
0.04524408700000000227,
-0.06328145400000000087,
-0.00373296140000000005,
0.05073903999999999914,
0.09083038000000000223,
0.02460952500000000015,
-0.01543243499999999956,
0.02385726600000000197,
0.03045564100000000204,
-0.01282573499999999957,
0.02602881799999999871,
-0.12173077499999999940,
0.08075859000000000509,
-0.07006717499999999543,
0.02504037700000000255,
-0.03418076800000000026,
0.02688151600000000113,
0.14196369000000000349,
0.04720525999999999889,
-0.06117025000000000240,
0.15557377000000000011,
-0.06327971000000000290,
-0.00495005069999999991,
0.06326701499999999589,
-0.05109832799999999842,
-0.02813977999999999965,
-0.05644938000000000039,
-0.05511817700000000431,
0.05537065499999999779,
-0.18332994999999999153,
-0.01728769600000000170,
0.00214124079999999982,
-0.02579096299999999661,
0.06517523999999999540,
-0.00825295499999999932,
-0.09611107000000000677,
0.13023524000000000211,
-0.13301985999999998977,
-0.05331370200000000448,
-0.06928191999999999684,
-0.09217933999999999850,
0.08927557599999999538,
-0.00288935559999999991,
-0.02560900500000000066,
-0.13125127999999999795,
-0.15047012000000001275,
0.16425242000000001008,
-0.01136260199999999942,
0.02325314499999999937,
-0.03369113399999999758,
0.07176239999999999009,
-0.03626623999999999820,
-0.03962330000000000019,
-0.09067577000000000276,
-0.12007605999999999835,
-0.09740667999999999549,
-0.01231131899999999939,
0.06417757999999999796,
-0.04534023300000000062,
0.05964423700000000272,
-0.07302256999999999498,
0.16101412000000001057,
-0.17268391999999999076,
-0.19500121000000000815,
-0.06116295199999999960,
-0.05068598299999999696,
-0.01559313100000000139,
-0.09497015000000000318,
-0.06817829000000000250,
0.20067899999999999627,
-0.08861578999999999984,
-0.02431334400000000062,
0.01232712499999999954,
0.01670810600000000035,
-0.08713208000000000064,
0.04361367599999999706,
0.03715316999999999925,
0.00830549400000000007,
-0.00080112050000000006,
-0.02011367099999999963,
-0.03043021400000000057,
0.01990720399999999779,
0.05984932599999999436,
-0.06434259000000000506,
0.18488437999999998707,
-0.14503754999999998732,
-0.00971456700000000034,
-0.05699012800000000101,
-0.02639702500000000104,
0.11714048999999999989,
0.00071920240000000009,
-0.03800934999999999730,
0.21307474000000001246,
-0.09765115400000000390,
0.02301775700000000327,
-0.02856597299999999798,
0.05953479599999999400,
0.10048951999999999884,
-0.01068255699999999878,
-0.12221160500000000093,
0.05067452799999999646,
-0.12043898000000000104,
0.01403808200000000034,
0.01455411300000000047,
-0.09636251999999999318,
0.13104193000000000091,
0.02110499899999999929,
0.01363991999999999982,
-0.02740937700000000213,
-0.06756832499999999853,
-0.05844831500000000069,
-0.05237367700000000043,
0.03716309400000000068,
0.12298874599999999602,
0.02655232899999999951,
0.01977296400000000051,
-0.06169625000000000109,
0.04389004999999999990,
-0.05289962499999999873,
-0.16985933000000000281,
-0.14674244999999999650,
0.10677117999999999332,
0.01339428500000000057,
0.08630082000000000031,
-0.20997745000000000992,
0.04697479000000000238,
0.03800383599999999917,
-0.21434127000000000041,
-0.14632971999999999646,
-0.02525375600000000220,
-0.05943985999999999714,
-0.02165593799999999958,
-0.22744935999999998932,
0.09145290999999999837,
-0.04378575999999999996,
-0.13911930999999999603,
-0.06750230999999999593,
-0.05109799300000000127,
-0.09026741000000000625,
0.02489789400000000028,
0.00800554399999999985,
0.32656869999999998955,
-0.05444011499999999726,
-0.07375280599999999021,
0.03311572599999999811,
0.00650304279999999995,
0.03109669999999999795,
0.00946765949999999953,
-0.03738848000000000171,
-0.02428129000000000051,
-0.00046116507000000003,
-0.06797171000000000463,
0.05858413500000000246,
-0.02678522299999999690,
0.00513422540000000021,
0.04988632999999999956,
0.04155506600000000161,
0.03834080700000000452,
0.00316242659999999964,
-0.01148485600000000162,
0.03368535000000000279,
0.05972727799999999476,
0.04541420599999999863,
0.01960909599999999947,
0.08116958000000000506,
0.00300461599999999988,
0.00560275300000000025,
-0.09648115999999999637,
-0.10985656000000000587,
0.01508144800000000077,
0.05983654000000000056,
0.01097852399999999992,
-0.12102580999999999756,
-0.04603266000000000302,
-0.04897516200000000264,
0.08555638000000000132,
-0.00069212064000000000,
0.07880349500000000118,
0.03688679000000000263,
-0.06328187000000000395,
-0.05864187299999999714,
-0.02114313299999999798,
0.02768634999999999846,
0.04180677000000000004,
-0.01473867700000000037,
0.12067561599999999944,
-0.13401319000000000425,
-0.25976463999999999110,
0.00955822400000000058,
-0.05087751000000000079,
-0.01847238099999999952,
-0.07891933599999999271,
-0.20320535000000000680,
0.00180242940000000006,
-0.09476534000000000346,
0.04386468000000000311,
-0.11708772000000000624,
-0.07061725000000000640,
-0.02707578200000000310,
-0.07615930999999999396,
0.01097968899999999907,
-0.08837697999999999388,
0.06683612999999999360,
0.07634655399999999703,
-0.12709802000000000599,
-0.03719672200000000151,
0.09223278000000000032,
-0.07508589000000000235,
-0.02963735700000000306,
-0.01191363600000000175,
-0.06591797600000000312,
0.12393445999999999629,
0.04147046000000000066,
0.10297215999999999314,
0.00362050400000000008,
0.00249317379999999984,
0.06925766999999999340,
0.04286843500000000334,
0.01835636600000000243,
-0.03575223999999999763,
-0.01936662999999999926,
0.02470490900000000059,
0.05560927499999999968,
0.07876281999999999728,
0.03775668000000000080,
0.03720273999999999803,
0.03190704999999999930,
0.00767097099999999952,
0.04314189400000000701,
0.01487983100000000135,
0.06710306600000000288,
0.20805645000000000389,
-0.07186960000000000570,
-0.05541476199999999935,
0.04554414999999999852,
-0.02327258000000000104,
0.00277468840000000012,
-0.05114013700000000218,
0.01032916499999999953,
-0.02084822000000000064,
-0.00824264100000000020,
-0.11857983499999999455,
-0.00539263300000000084,
-0.05245460599999999390,
0.06569122500000000586,
0.03414375700000000374,
-0.04917550999999999867,
0.05494980499999999740,
0.07210477400000001036,
0.13792646999999999546,
-0.01832351800000000044,
-0.08811914999999999332,
-0.08684678400000001020,
-0.15395612999999999659,
-0.06861310499999999368,
0.16674748000000000347,
-0.01079852000000000069,
0.04908416000000000168,
-0.11234692000000000289,
-0.15160137000000001306,
0.06037758000000000014,
-0.09372780499999999737,
-0.02401955799999999641,
-0.02253599700000000206,
-0.10856999000000000510,
-0.01147584600000000135,
-0.01096150649999999907,
-0.08160760999999999710,
0.06883056499999999633,
-0.12314566000000000401,
0.24139132999999998730,
0.14480913000000000812,
-0.03026460899999999787,
-0.05891455300000000145,
0.03227815800000000124,
0.03943376200000000414,
-0.02270260500000000070,
-0.24537206000000000294,
0.20551874000000000531,
0.02265220500000000164,
-0.04535937300000000144,
-0.11457828000000000457,
-0.01486294600000000014,
0.00247989920000000032,
0.02370652999999999996,
-0.25736332000000000653,
0.13865743999999999292,
0.03932944000000000023,
-0.03567980200000000351,
0.03984574600000000133,
-0.05633484999999999882,
0.01069809300000000053,
0.00238582960000000011,
0.03949528599999999751,
-0.01136079399999999871,
0.22338167999999999913,
0.03284678600000000281,
-0.02273227299999999729,
0.02782871200000000197,
0.01516992199999999888,
0.04782768999999999909,
-0.02690000999999999851,
0.01590017800000000092,
0.21810741999999999630,
-0.04574905299999999786,
0.01294651999999999956,
0.03269271600000000361,
0.01371406950000000034,
-0.02891780799999999971,
-0.20348748999999999310,
-0.01078711000000000080,
0.11045810999999999824,
-0.06146225000000000299,
0.03437990000000000490,
-0.01346887000000000084,
-0.01536728350000000042,
0.03749770700000000512,
-0.02345131299999999794,
-0.00513319670000000026,
-0.08156711599999999507,
0.01770932000000000062,
0.06919706000000000468,
-0.09799317999999999917,
-0.00912750600000000051,
-0.16393005999999998856,
-0.11210143599999999875,
0.07132178000000000129,
0.17692202000000001316,
0.05855082299999999490,
0.07065320999999999407,
-0.08930602999999999458,
-0.01385072149999999960,
0.11476969999999998839,
-0.13092761999999999456,
0.04440969599999999851,
0.07363121999999999723,
-0.00072986410000000002,
-0.08905283999999999422,
-0.11644132399999999883,
-0.10624463000000000656,
0.02608839399999999739,
0.06036897000000000096,
0.21668723000000000845,
0.13703619000000000216,
-0.07500753999999999755,
-0.12486648999999999665,
-0.02315140100000000201,
-0.03375312999999999924,
0.13667092000000000129,
-0.10267275599999999003,
0.19364913000000000265,
0.06751598999999999795,
-0.03448835000000000095,
-0.07025839400000000179,
0.07886047999999999669,
-0.06168916400000000466,
0.07057845999999999564,
-0.27025886999999998439,
0.02044322900000000026,
0.02743241700000000061,
0.04692299999999999943,
-0.07428814000000000251,
0.05292584700000000503,
-0.02337786200000000272,
0.04389637999999999873,
-0.05753654599999999397,
0.06454925000000000246,
0.09177577500000000388,
-0.00756199329999999916,
0.02519054899999999958,
-0.08422872400000000481,
0.02550830000000000111,
-0.00846574549999999995,
-0.10693202999999999736,
0.10548515599999999659,
0.12002171000000000367,
-0.11177473500000000006,
-0.06926015000000000643,
0.08587748600000000287,
-0.02964097599999999944,
-0.05935369000000000062,
-0.11233920599999999701,
0.07304491000000000456,
0.18363356999999999597,
-0.11871990999999999794,
0.05192363599999999524,
0.01046223999999999939,
-0.02913867299999999688,
0.05772415999999999658,
-0.15360887000000000846,
-0.06601748600000000022,
0.05304578299999999913,
-0.05646148299999999981,
0.09568962000000000301,
-0.04486228999999999911,
0.00889997399999999973,
0.01037414199999999939,
-0.16709809999999999941,
-0.04492106299999999719,
0.10241933999999999760,
0.03092788299999999976,
-0.00849776250000000045,
-0.10997558400000000123,
-0.04096747200000000477,
-0.00694097800000000043,
0.03447896999999999768,
0.02462206399999999906,
0.05496477699999999939,
0.15629255999999999704,
-0.09415651999999999355,
-0.15757032000000001370,
-0.06421067599999999431,
0.16417016000000000941,
0.00567682400000000045,
0.01233056649999999914,
0.03197446000000000316,
0.07549214999999999398,
-0.12104808999999999708,
-0.00247030869999999986,
0.15940113000000000198,
0.15707271999999999901,
-0.09781887400000000010,
-0.12900436000000001235,
0.00618535500000000002,
-0.07608858000000000288,
0.02736646299999999712,
0.05663760999999999796,
0.11020630000000000703,
-0.11228622000000000603,
-0.02417354500000000114,
-0.23600916999999999035,
-0.05487800799999999896,
0.05915188999999999864,
0.03041548100000000115,
0.05052377000000000257,
-0.07790632499999999849,
0.00061382224999999996,
0.02959723799999999794,
-0.00112245949999999987,
-0.01121289100000000087,
-0.04172387300000000160,
-0.00894662400000000024,
0.03903559200000000090,
-0.00093680504000000003,
-0.05269043500000000074,
-0.06377589999999999648,
0.04854384999999999950,
-0.06593379400000000390,
0.00901560700000000013,
0.03991589300000000090,
-0.03092935499999999865,
-0.07006979000000000679,
0.00149981289999999998,
0.00028139632000000002,
-0.07335772000000000126,
-0.04410464299999999893,
0.00324785919999999971,
0.03030828600000000025,
-0.05273746700000000315,
0.00314026469999999962,
0.07167669999999999597,
-0.10326148599999999955,
-0.08269882000000000621,
0.12359631999999999563,
-0.09050424399999999758,
0.00845777099999999935,
-0.02243156500000000053,
0.06565667999999999505,
0.00388151099999999982,
-0.07978725400000000190,
0.00322143919999999962,
0.10252052999999999860,
-0.02401764500000000066,
0.04554165999999999770,
0.00533412399999999998,
0.05758548499999999876,
0.22236509999999998222,
0.08649482000000000004,
0.08087803000000000353,
-0.12593160000000000465,
0.12689573000000001213,
0.00324212739999999973,
-0.02877063499999999927,
0.19768082000000000709,
-0.11275441999999999410,
0.02712260200000000260,
-0.12484903999999999447,
-0.09241237500000000493,
-0.03203657000000000032,
0.03477671000000000234,
-0.13332836000000000687,
0.01856231100000000148,
0.01732485599999999959,
-0.02020595600000000061,
-0.16122993999999998826,
0.02610153700000000104,
-0.04823463799999999635,
-0.03096056200000000050,
0.00701620480000000012,
0.01965052999999999939,
-0.12363464000000000398,
-0.03169686000000000031,
-0.06927302500000000196,
-0.03345906700000000206,
0.06458822000000000174,
0.01841234199999999821,
-0.04148675500000000016,
-0.02112773000000000082,
0.07548936000000000535,
-0.02387306000000000150,
0.04060787299999999572,
-0.10342695600000000045,
0.01004524300000000057,
0.05942205999999999877,
0.03202795600000000326,
-0.01538240350000000083,
-0.01663662299999999969,
0.01699760200000000054,
0.05918444700000000114,
0.01892190800000000117,
-0.03598729500000000248,
-0.06504416000000000364,
-0.04516384400000000160,
0.05972188999999999970,
-0.02709450000000000053,
0.02913403700000000152,
-0.02449153399999999883,
-0.05799728599999999512,
0.04195542299999999863,
-0.01899961799999999937,
-0.06284439599999999682,
0.01352390000000000016,
0.06377526999999999502,
-0.04334571599999999941,
-0.06965441999999999467,
-0.02055072600000000180,
-0.00731534650000000009,
-0.16181155999999999318,
-0.06538193999999999950,
0.20426080999999998711,
0.01670377300000000162,
0.05147502999999999801,
-0.01897060700000000044,
0.05998035499999999909,
0.07851226000000000038,
-0.10455646999999999858,
-0.02383525100000000174,
0.05806184200000000240,
0.15416056999999999677,
0.12836552000000001073,
-0.11057044600000000278,
-0.08615936999999999901,
0.11039802399999999738,
0.02678250500000000159,
0.01997988699999999826,
0.14785101999999999967,
0.13705821000000001364,
0.11753294999999999715,
-0.11167135000000000256,
-0.14505898999999999877,
0.19852126999999999968,
-0.01448199899999999887,
0.07903815000000000146,
0.11735207000000000277,
-0.12682863999999999249,
0.14618063000000000584,
-0.11070550000000001223,
-0.09380431000000000186,
0.19939250999999999503,
0.01901199100000000239,
-0.00138110429999999985,
-0.08576594999999999358,
-0.16420134999999999592,
0.02585040400000000044,
-0.03480956999999999801,
-0.06940153999999999768,
-0.26635045000000001636,
-0.08791163600000000133,
-0.07082281999999999467,
-0.07987012999999999752,
0.16098154000000000630,
-0.07187685000000000601,
-0.08671982599999999985,
-0.02203294000000000086,
-0.17022492000000000179,
-0.09094011999999999929,
0.18856481999999999410,
0.03702617999999999882,
0.13373724000000000722,
0.05991918000000000244,
-0.12880326999999999749,
-0.05557135500000000283,
-0.05405835400000000290,
-0.03632832700000000054,
0.15118140999999998830,
0.24443845000000000156,
0.02662892999999999857,
0.20595688000000000883,
0.01283986699999999960,
-0.07870966999999999547,
0.17331738999999998785,
0.00967884249999999974,
0.14700888000000000844,
0.08524716999999999711,
0.08045219999999998761,
0.16157128000000001156,
0.06029481400000000213,
-0.04105243000000000086,
0.00480154340000000027,
0.02844828400000000077,
-0.05052885000000000015,
-0.12844548999999999550,
-0.12266510999999999387,
0.00658603569999999944,
0.10118907000000000596,
-0.04712580499999999978,
-0.12851228000000000651,
0.04748685700000000037,
-0.17787600000000000633,
-0.06443860400000001043,
-0.02434114700000000048,
0.03885749700000000473,
0.01181272199999999946,
0.10629336000000000340,
-0.09047823000000000671,
0.03588542000000000121,
-0.09287207599999999785,
0.12331008999999999720,
0.05083109000000000238,
0.07037830000000000474,
-0.07217679999999999929,
0.01481390200000000032,
-0.09443121999999999627,
-0.01200635699999999875,
-0.04346493599999999569,
-0.11087710400000000410,
0.11913469999999999616,
-0.06092329299999999642,
-0.07385459499999999511,
0.24474182999999999355,
-0.01249911000000000078,
-0.07143741000000000674,
0.01261534600000000124,
0.08453563000000000049,
0.09049334000000000544,
0.22903992000000000795,
0.10208267999999999509,
0.13864993000000000456,
-0.24894684999999999730,
-0.05797057200000000493,
0.17668958000000001274,
-0.00053374894000000005,
0.16828364000000001210,
-0.05757732000000000128,
-0.04485287999999999775,
0.01661875999999999978,
-0.25158235000000001014,
-0.11647449399999999786,
0.11264477999999999991,
-0.08314477000000000673,
0.06407308999999999921,
-0.02372648799999999697,
-0.13929994000000001098,
-0.12292690000000000561,
-0.06017288200000000392,
-0.16351797000000001248,
0.46485822999999998340,
-0.06123999000000000109,
-0.03653974000000000111,
0.05562121400000000215,
-0.11636211000000000471,
0.03737922800000000045,
-0.03757748799999999917,
-0.14676096999999999060,
0.15920388999999998680,
0.04248149299999999517,
-0.02472812700000000252,
0.18191582000000000585,
-0.00987041800000000059,
0.14548301999999999068,
-0.04720880499999999952,
-0.10202674999999999939,
0.01299098999999999914,
-0.03257880999999999971,
-0.22239195999999999964,
0.00655157599999999993,
0.03821125300000000058,
-0.06328011000000000053,
-0.13972601000000001159,
0.06099335499999999910,
0.13660298000000001273,
0.19612599999999999478,
-0.02139301799999999976,
0.15321507000000000875,
0.10515969000000000011,
-0.00675625000000000010,
-0.04190882700000000266,
-0.01665905999999999984,
0.09436715400000000864,
0.26319884999999998421,
0.06376263999999999543,
-0.02694960100000000011,
0.10894225999999999910,
-0.21467771999999998855,
-0.17110053999999999541,
-0.10750147999999999648,
0.05077282999999999796,
0.00826267699999999952,
0.04587559000000000081,
0.02820880499999999999,
-0.18910431999999999242,
-0.00417226700000000034,
-0.06628731000000000206,
-0.14385897999999999741,
0.16102774000000000254,
0.03405863799999999525,
-0.01493738399999999973,
0.08375022599999999706,
0.02785846600000000187,
-0.06752366599999999608,
-0.12823314999999999020,
-0.05887435700000000216,
0.10493806999999999441,
-0.05718306000000000083,
0.13641179999999999972,
0.00082136375999999987,
-0.04848605400000000065,
0.04740934000000000120,
0.08804012999999999423,
-0.10182381000000000071,
0.16632187000000001054,
-0.00823524800000000057,
0.06241370400000000040,
0.09122186999999999657,
-0.10117890000000000217,
0.01419700399999999918,
-0.18746478999999999226,
-0.00730611339999999963,
0.23002528999999999337,
-0.08669967000000000645,
-0.06873576000000000685,
0.03019412799999999716,
0.05448841700000000426,
-0.05336620699999999884,
-0.09766750999999999905,
0.00901584050000000040,
0.28424019999999999841,
0.02981951999999999867,
-0.10208946000000000687,
0.14800410000000002730,
0.10258311999999999986,
0.14683740000000000681,
-0.06663642999999999650,
-0.08031350400000000778,
0.11259315000000000295,
-0.18312642000000001197,
-0.11426414000000000015,
-0.07516230999999999607,
0.30586654000000002007,
0.03125431399999999832,
-0.09896549999999999792,
-0.03237904200000000371,
0.14231839999999998381,
-0.09158745399999999870,
-0.08608989400000000014,
0.09693253000000000286,
0.18079373000000001359,
0.16632777000000001366,
0.10165794999999999693,
0.06807973999999999970,
0.08724389999999999923,
0.08990583600000000286,
0.11249182400000000415,
0.12552758999999999445,
0.06037569000000000269,
-0.18395935999999998844,
-0.16102832999999999730,
-0.00553016500000000008,
0.07309578999999999382,
-0.01701901499999999845,
0.20919718000000001035,
-0.01494490799999999980,
0.12799418000000001294,
-0.08243522000000000349,
0.00025385929999999999,
-0.09094393000000000615,
-0.02074132000000000059,
-0.24589135000000000852,
-0.03431862000000000107,
0.11312777000000000249,
0.05454170700000000177,
-0.26792103000000000446,
0.09621014999999999429,
0.08663919999999999955,
0.00667265479999999949,
-0.00367654369999999980,
0.07094504999999999562,
-0.10012556999999999707,
-0.13666302999999999090,
-0.15697906999999999833,
0.14457200000000000606,
-0.02023089000000000137,
0.06687255000000000282,
0.05545570999999999834,
0.04135474199999999989,
-0.06874344999999999761,
0.05324713999999999836,
-0.45695215000000000138,
0.11013026500000000496,
-0.01712139899999999895,
0.18480346999999999746,
0.03997666400000000203,
0.11031594999999999596,
0.07771733999999999587,
0.15113684999999998926,
-0.43453376999999998587,
0.07322325600000000045,
-0.17231852999999999754,
-0.07132949999999999013,
-0.01055881199999999902,
-0.19233998999999998847,
-0.08758633000000000390,
0.07341060000000000640,
0.11796379999999999366,
-0.04344833000000000028,
0.04541732700000000039,
-0.17707022000000000039,
-0.19744913000000000047,
-0.16590304999999999636,
-0.09072436400000000178,
0.13846664000000000194,
-0.20141689999999998206,
-0.20846048000000000355,
-0.01540606500000000004,
-0.06171933200000000175,
-0.07183762999999999954,
0.18560271999999999881,
0.11792379599999999740,
-0.02647199100000000027,
-0.11550702999999999665,
-0.14135416000000000647,
-0.04923308299999999693,
-0.14847451000000000398,
0.09674232000000000664,
0.13683596000000000648,
0.05245953800000000000,
-0.07175797999999999899,
-0.04374057400000000428,
-0.12498507999999999840,
-0.03138515000000000055,
0.15555168999999999246,
-0.07331013999999999586,
0.27365900000000004111,
0.06966142999999999641,
-0.02691602499999999967,
-0.02997413000000000161,
0.05287821999999999661,
-0.02396155499999999897,
0.08864476000000000300,
-0.17122638000000001135,
-0.05647980000000000361,
0.08360268999999999340,
0.08846837999999999924,
-0.22124790999999999208,
0.07643424999999999525,
0.16250466999999998996,
0.12711954000000000309,
-0.07483619999999999162,
0.04268958800000000053,
0.09678327000000000457,
-0.09506497999999999338,
-0.18637941999999999010,
0.09944037999999999489,
0.15197314000000000656,
0.01485367100000000058,
-0.11317338999999999871,
-0.09036776000000000530,
0.01283833199999999918,
0.00590909300000000068,
0.10534910999999999581,
0.11966235999999999540,
0.00956436699999999897,
-0.12901308000000000220,
-0.09851111999999999369,
-0.00383540700000000031,
-0.02079824199999999804,
0.06374182000000000459,
0.16411605000000001331,
0.11781643999999999450,
-0.09499185999999999741,
-0.40497640000000001415,
-0.14410528999999999700,
-0.19352926000000000850,
-0.07298129999999999895,
0.06148797300000000132,
0.21229741999999998670,
-0.05046243200000000151,
0.01912998200000000024,
-0.31074776999999997873,
-0.16783896000000000925,
-0.12343432999999999489,
-0.11619896999999999865,
-0.04368219999999999742,
-0.07543126499999999734,
0.00050116015999999996,
-0.02727950399999999956,
-0.23362664999999999127,
0.00556621749999999978,
0.11815670000000000339,
-0.13158685000000000520,
-0.03743349999999999456,
-0.09489322499999999772,
-0.09541988400000001036,
-0.02629046100000000108,
-0.10428972999999999716,
0.01906076399999999740,
0.07472882000000000136,
-0.01366358399999999945,
-0.03593525300000000033,
-0.19882019000000000775,
-0.20221933999999999743,
-0.09348700999999999539,
-0.03172990299999999680,
0.02950574599999999936,
0.07669468000000000119,
-0.01190447199999999928,
-0.05426601000000000341,
-0.12393344000000000582,
0.05867068999999999757,
-0.03246836700000000492,
0.09142764000000000446,
0.00887554400000000084,
-0.03377120599999999806,
0.02723995400000000025,
0.05619761999999999674,
0.26469722000000001083,
0.22051433000000000839,
0.12886970999999999843,
-0.00387641830000000007,
0.11849531000000000647,
0.01061722000000000013,
-0.03900781999999999861,
-0.02392381600000000053,
0.17223583000000000642,
0.15984289999999998222,
0.20583485000000001364,
-0.02621556600000000264,
-0.05748165999999999692,
-0.19133543999999999552,
0.00233255329999999990,
-0.00818142399999999964,
0.10779714999999999436,
0.12854361999999999733,
0.09626417599999999297,
-0.31651323999999997350,
-0.00425163139999999978,
-0.16418788000000000826,
0.01038735300000000021,
0.01628138999999999975,
0.33019942000000002125,
0.07692411000000000387,
-0.07266852999999999507,
-0.30288035000000002039,
0.12336837500000000234,
-0.15251474000000000975,
-0.07159237599999999924,
0.10355356000000000283,
0.11849385499999999516,
0.11242557000000000245,
-0.17815054999999999086,
-0.07564468000000000580,
0.01362985799999999990,
0.07257516999999999441,
-0.13287884999999999280,
0.06663947000000000620,
0.00859161500000000036,
0.14329089999999999883,
-0.03317536799999999675,
-0.03461140000000000050,
-0.03232618999999999770,
0.34434795000000001375,
-0.00646807800000000037,
0.01583589600000000208,
-0.06756231999999999516,
-0.05885299999999999560,
-0.04885541599999999873,
0.10692016000000000020,
0.01266108600000000022,
0.16253831999999998614,
-0.05313138299999999731,
-0.03135009999999999880,
-0.14779322000000000292,
-0.05237670200000000414,
0.03453251300000000079,
0.12109353400000000267,
0.04637947700000000228,
-0.02021799999999999986,
-0.14559885999999999662,
-0.04032233699999999976,
0.05718199000000000198,
-0.06420030000000000181,
-0.04183628799999999925,
0.02962149000000000032,
0.06497453999999999730,
-0.13670212000000001029,
-0.13237698000000000520,
-0.05955343299999999590,
0.17274791000000000452,
0.19186160999999998800,
-0.06044705599999999901,
0.05282324000000000047,
0.10133999600000000163,
0.03884810600000000030,
0.04188512600000000169,
0.03351337499999999803,
0.18186660000000001713,
0.24289106999999998671,
0.01077753600000000075,
-0.05237193799999999982,
0.20941030999999998841,
-0.01811768899999999932,
-0.16085060000000001024,
0.07299511999999999667,
-0.02436552000000000162,
-0.04833727000000000162,
0.09694165999999999894,
-0.19241374999999999451,
-0.02058135499999999909,
-0.01361183699999999989,
-0.03209840500000000346,
-0.00087315720000000002,
-0.00524367400000000025,
0.03804856000000000210,
0.19458531000000001132,
-0.18912283999999998652,
0.13717587000000000530,
-0.06736330999999999569,
-0.01704404300000000178,
-0.04290788200000000135,
0.19466451000000001281,
-0.11897284499999999374,
0.06497306399999999704,
-0.08531859499999999707,
0.07867636499999999811,
0.08402774500000000091,
-0.11567467500000000458,
0.07698599999999999888,
0.01043296900000000027,
-0.04038606200000000035,
-0.06165611700000000334,
-0.00938596900000000095,
0.15284543000000000434,
0.03063126000000000043,
-0.05047698999999999936,
-0.04742658999999999764,
-0.11635443599999999165,
0.04308221000000000273,
-0.05988498800000000011,
0.07296973499999999391,
0.00213342140000000006,
-0.00779081280000000053,
0.00475859500000000001,
-0.09795541000000000664,
-0.12741499000000000574,
0.17090477000000001140,
-0.03674880999999999981,
-0.01210958100000000121,
0.00082397467000000003,
-0.26340662999999997496,
-0.06347545999999999744,
-0.11463963000000000625,
-0.01928426000000000098,
0.08418994000000000477,
-0.01752920999999999993,
-0.07399664000000000241,
0.03219879399999999586,
-0.22705902000000000029,
-0.17334308000000001049,
-0.05503386999999999862,
0.00038646667999999996,
0.02992947799999999894,
0.02558715599999999979,
-0.12051228399999999730,
0.07163194000000000505,
-0.11844760999999999485,
-0.07146893399999999785,
0.00863209099999999972,
-0.15387688999999998840,
0.10173067500000000651,
-0.00659343300000000011,
-0.05487824599999999858,
-0.15658837999999999924,
-0.15417903999999998943,
-0.04325823000000000168,
-0.03156111000000000333,
-0.05888057000000000013,
0.08341054999999999997,
-0.05390519599999999550,
-0.06326664999999999373,
-0.03152249000000000023,
0.03660226200000000346,
-0.05416083000000000008,
-0.10441259999999999430,
0.00034558747000000003,
-0.04391811799999999905,
-0.00737533350000000015,
-0.25109886999999997403,
0.03303003300000000031,
0.02114215299999999687,
0.15550295999999999563,
-0.04683070599999999972,
-0.07340201000000000364,
-0.10990978999999999333,
-0.02471665500000000057,
-0.14293549999999999311,
-0.02483532600000000132,
0.11380485399999999696,
-0.22504652999999999463,
0.01244977799999999989,
-0.08019856999999999680,
-0.01470761899999999990,
0.04685691000000000161,
0.16606181999999999888,
-0.03096908700000000278,
0.11744439999999999047,
0.03405073299999999970,
-0.11543689999999999507,
-0.09815720999999999474,
0.22244936000000001264,
0.04333678299999999678,
0.01689989899999999948,
-0.11599389499999999964,
-0.01999225500000000044,
-0.14519101000000000923,
-0.09455895999999999746,
-0.03660271699999999989,
0.22543968000000000340,
0.04389938000000000173,
-0.10009036999999999795,
-0.01438640300000000073,
-0.08549935999999999647,
-0.22601910999999999530,
-0.01816821299999999903,
0.06681326999999999405,
-0.00318743990000000012,
0.03329673400000000144,
-0.03694735999999999854,
0.00474014899999999993,
-0.11861788500000000623,
-0.11079927500000000262,
0.01608269999999999839,
0.02677083799999999819,
-0.05607668700000000006,
0.04218799000000000160,
0.05184409799999999818,
0.00910910600000000049,
-0.20720951000000001341,
0.00400343440000000030,
-0.09345175999999999483,
-0.03836983399999999850,
-0.04617611299999999780,
0.02871626999999999860,
-0.04045145600000000369,
-0.12123863399999999790,
-0.18439948999999999923,
-0.05393631000000000120,
-0.09466998999999999553,
0.25610824999999998175,
0.20189725000000000033,
0.05354199599999999448,
-0.03957324999999999732,
-0.02419856399999999880,
-0.21051539999999999142,
0.18072154000000001384,
-0.12291837999999999376,
0.04457266000000000006,
-0.00180803829999999998,
-0.03545177000000000050,
-0.16201855000000001117,
-0.06607848400000000677,
-0.14369112000000000551,
0.11448010999999999604,
-0.00799805400000000097,
0.02460859899999999836,
0.03077500500000000111,
-0.07613053000000000181,
0.05605398500000000062,
-0.25219949999999996537,
0.00744982159999999990,
-0.09749915000000000664,
-0.09004395499999999497,
-0.09323697499999999971,
0.05494176200000000510,
-0.09508392000000000233,
0.17167093999999999410,
-0.10468773500000000398,
-0.04566474300000000069,
0.01116145800000000084,
-0.18039753000000000038,
-0.08237171000000000076,
-0.23750572999999999824,
0.00478566100000000008,
0.12539587999999998735,
-0.07019656999999999980,
-0.10267260999999999749,
-0.09333449000000000606,
-0.09223238000000000270,
0.04438592999999999705,
-0.07671340999999999577,
-0.00186051339999999997,
0.04883328499999999711,
0.05637433799999999606,
0.02299968999999999972,
-0.21216530999999999585,
-0.06878703999999999374,
0.02459021999999999944,
-0.05485098799999999636,
0.04201011400000000118,
-0.11112571499999999991,
0.01124264199999999887,
0.01425795800000000113,
-0.16729972000000001287,
0.00072437996000000000,
-0.03764156600000000130,
0.05835360700000000178,
0.04246281999999999834,
0.03125249599999999767,
0.00437944500000000004,
0.03806382399999999611,
-0.01493578399999999883,
-0.06206422299999999476,
0.01343011899999999904,
0.12351913000000000475,
0.05608551200000000403,
0.00035996703000000003,
-0.03166792499999999955,
-0.04015858499999999665,
-0.06988113999999999437,
-0.00523553039999999966,
0.11316916000000000475,
0.15223839999999999595,
-0.00346167969999999986,
-0.03641722399999999804,
-0.05994138499999999981,
-0.06813805000000000556,
-0.03751795000000000130,
-0.07456321000000000476,
0.16833787999999999530,
0.24596502000000000643,
-0.01703867699999999860,
-0.01298725600000000084,
-0.07919133999999999896,
-0.06728694000000000341,
-0.02240252100000000163,
-0.10601161400000000401,
0.05302029999999999937,
-0.01735090800000000169,
0.02870413700000000110,
-0.01609336600000000131,
-0.04745451700000000161,
-0.01148338149999999884,
0.12252754999999999896,
-0.14849533000000000871,
0.01035357500000000028,
-0.02395764700000000205,
0.11801999999999999991,
-0.08174441000000000346,
-0.14698270000000002167,
-0.01761650999999999842,
0.11532315599999999611,
-0.13947641999999998985,
0.01897759499999999988,
-0.03360071399999999681,
0.09538810000000000344,
-0.07067972399999999933,
-0.01265662600000000068,
0.08077098000000000610,
-0.14538165999999999589,
-0.13776146000000000225,
0.11318749999999999645,
-0.02530113799999999732,
-0.00374243010000000018,
-0.08445624999999999660,
-0.15276689999999998326,
-0.06578375399999999984,
-0.04729791700000000182,
-0.06623468999999999884,
0.04835801599999999673,
-0.05674418400000000307,
0.04347986400000000695,
-0.00210122160000000011,
-0.02748316299999999796,
-0.02650780600000000181,
0.02745357700000000331,
-0.06078600499999999712,
0.05203426599999999569,
-0.06390452400000000421,
-0.00290397409999999974,
0.09121025000000000660,
-0.04066057000000000005,
0.12152767999999999904,
-0.07628085499999999464,
0.04977726999999999846,
0.05789580999999999894,
-0.03934991999999999657,
-0.09220045999999999797,
0.02061923400000000017,
-0.10232000000000000817,
0.04505180599999999286,
-0.07262625500000000067,
-0.12646942999999999380,
-0.07661445999999999534,
-0.03442257600000000334,
0.01058738199999999935,
-0.00725455769999999982,
-0.09331726999999999383,
0.00791506699999999959,
-0.13891145999999998661,
-0.15058815000000000395,
0.03134792700000000459,
-0.06109086400000000167,
-0.02434239200000000089,
-0.22442186999999999553,
0.04174972299999999553,
-0.08278911999999999383,
0.04855556999999999929,
-0.05617638999999999966,
0.09420509999999999995,
0.01132093899999999861,
-0.00247778670000000029,
-0.17681306999999998886,
0.06512471000000000232,
-0.16142440999999999041,
0.26592677999999997374,
-0.02561756399999999892,
-0.01541480600000000138,
-0.12815166000000000057,
0.06478210500000000649,
-0.12111263999999999363,
-0.14534669000000000061,
-0.05609693400000000107,
0.22463594000000000617,
-0.04596847700000000064,
-0.02730733499999999855,
-0.00277979400000000036,
-0.03111449799999999738,
-0.08746146400000000265,
-0.16705886999999999820,
0.03808625399999999994,
0.09880102400000000118,
-0.27565149999999999375,
-0.00331800599999999965,
-0.04793600700000000270,
-0.11287121999999999433,
-0.07314444999999999975,
-0.14049538999999999778,
-0.06712355500000000141,
0.18794595999999999525,
-0.14209041999999999506,
0.04165154000000000079,
-0.22394778000000001295,
0.02756104600000000224,
-0.05995701999999999976,
-0.01831780200000000108,
-0.14815053000000000250,
0.33433639999999997805,
-0.07317605600000000321,
0.18536695999999999729,
-0.03037397999999999834,
-0.00736846639999999987,
-0.00489778300000000017,
-0.11432364000000000415,
0.14552641999999998967,
-0.26848713000000001827,
0.03238847499999999990,
0.07435360000000000580,
0.00373729229999999980,
-0.04910241799999999490,
0.06688610000000000388,
-0.01650813400000000070,
0.06192568999999999851,
-0.14619271000000000349,
0.01078957699999999985,
-0.09778185000000000349,
0.03392202999999999885,
0.06435244499999999424,
0.08484606399999999882,
-0.12244618999999999642,
0.01840587499999999863,
0.04573276599999999414,
-0.00628981039999999998,
-0.14336166000000000187,
-0.03315333599999999853,
-0.00645889670000000023,
0.06748408999999999658,
-0.12243821500000000302,
0.15115144999999999276,
0.10853706000000000464,
0.01869056200000000084,
0.03504818700000000148,
0.01908363199999999968,
-0.04428287200000000090,
0.07786824999999999997,
0.06306673999999999614,
0.00466534640000000004,
0.00812136500000000018,
-0.00682027499999999978,
0.16816975000000000673,
-0.03268060500000000146,
0.05367337999999999970,
0.12999853000000000103,
0.05652050700000000455,
0.03937551000000000245,
0.01485048999999999918,
-0.01150656100000000022,
-0.02572824799999999870,
-0.07481878000000000140,
-0.07098462400000001005,
0.19641753000000000684,
-0.00522676700000000022,
-0.03718851000000000101,
0.15572783000000001152,
-0.11019115999999999633,
0.01638154300000000188,
-0.08701578999999999564,
0.02829896499999999884,
0.03902416699999999850,
0.11888110000000001731,
-0.17963513999999999871,
0.17104702999999998880,
-0.04956395999999999719,
0.02262556599999999973,
0.05726741599999999460,
0.04697404000000000163,
0.05222776500000000238,
0.23645189999999996489,
-0.10941084500000000657,
0.24358320000000002747,
0.02895000399999999793,
0.17297134999999999594,
-0.14341803000000000190,
-0.03366136000000000128,
0.14098410000000000108,
0.02135487799999999728,
0.16520483999999999170,
-0.08645598000000000172,
-0.05692686500000000011,
0.22832774999999999599,
0.05476132400000000705,
-0.06638022500000000103,
0.02542517000000000041,
-0.07925730999999999749,
0.09409154000000000129,
-0.00771875199999999973,
-0.06871907400000000499,
-0.03131378399999999729,
0.01073473899999999835,
-0.04994711000000000289,
-0.09718048999999999438,
-0.08214783000000000501,
0.03151009200000000343,
0.00252137920000000031,
-0.00553163839999999945,
0.04642096500000000153,
-0.06629250999999999894,
0.09605846599999999513,
0.11710864999999999470,
0.08602891999999999484,
0.01909020499999999898,
-0.02103939299999999651,
-0.12555691999999998854,
-0.05311071500000000278,
0.00142250129999999995,
0.10471602500000000424,
-0.06463686000000000431,
0.11631824000000000330,
-0.08027881000000000600,
-0.10625307000000000501,
0.04148588699999999907,
-0.06284948399999999713,
-0.01991994899999999930,
0.00333746150000000007,
-0.11801250000000000628,
-0.08131266400000000671,
0.00343325640000000012,
-0.11602089599999999836,
0.16460867000000001248,
-0.19957472000000001100,
0.07059172499999999406,
-0.00988508500000000005,
-0.00737843800000000018,
0.00440015130000000025,
-0.14468184000000000600,
-0.11551464000000000176,
0.01930816000000000129,
0.01242165500000000020,
-0.03552640600000000343,
0.04416300700000000412,
0.07772292999999999563,
0.11085879999999999346,
-0.02447875999999999871,
-0.16750007999999999564,
0.07993456999999999646,
0.12551086000000000187,
0.16832104000000000510,
-0.10036689999999999501,
0.12680383000000000626,
0.11206111000000000544,
-0.11404793000000000569,
-0.06872997399999999923,
0.09925751400000000502,
0.11335264999999999924,
-0.13403056999999998777,
-0.04697811999999999821,
0.12258340400000000692,
-0.07483789000000000413,
0.24462801000000000684,
-0.19027218000000001297,
-0.04822627000000000164,
0.23032009999999999983,
-0.07930914999999999493,
-0.12629176999999999764,
-0.03166964700000000216,
-0.13406174000000001256,
0.12680578000000000682,
-0.00612529229999999973,
-0.06606082000000000620,
0.05172593000000000329,
-0.12990299999999999070,
-0.06279229999999999534,
0.04973039799999999511,
0.06341842599999999996,
0.20696369000000000571,
0.00301314590000000037,
-0.06458007999999999804,
-0.23019727000000000938,
0.20047028000000000070,
-0.05532688999999999663,
0.08393586999999999576,
-0.03227930000000000382,
0.10711395999999999418,
0.03783695799999999693,
-0.01746067999999999926,
-0.33087680000000002645,
0.26062979999999996705,
0.06842805999999999889,
-0.06307382999999999740,
-0.15410114999999999230,
-0.06150507599999999880,
0.07780269999999998853,
-0.05600004000000000093,
0.03840104999999999907,
-0.12989887999999999435,
0.06744128000000000622,
0.02470402799999999940,
-0.15262887999999999455,
-0.01324222050000000046,
0.04738222999999999741,
0.03442319999999999408,
0.06633198999999999346,
0.02015776000000000026,
-0.01915083500000000147,
0.02665663700000000039,
-0.14943342000000001124,
-0.20765870999999999635,
-0.07067484999999999740,
-0.05421154999999999724,
0.09295351999999999781,
-0.13939145000000000008,
-0.05760888799999999699,
0.19927737000000000922,
-0.13249048999999998855,
-0.06507651999999999881,
-0.05943560599999999500,
-0.03567708700000000316,
-0.07920684000000000058,
-0.02276865200000000033,
-0.03219338499999999798,
0.03725734700000000316,
-0.29128200000000004088,
-0.11156116000000000643,
-0.05525810599999999434,
0.14737528999999999213,
-0.34212039999999999118,
-0.03208990800000000032,
0.06651084999999999636,
-0.00481128830000000004,
-0.05458884700000000284,
0.18122532999999999004,
-0.13769785000000001052,
-0.10069648999999999961,
-0.28505954000000000015,
0.03984010999999999803,
-0.01677535000000000137,
0.08730048999999999448,
-0.03544834000000000179,
-0.02343494000000000133,
0.00024793236000000000,
0.04862217200000000517,
-0.41020404999999998674,
0.02589617899999999834,
-0.07346060999999999563,
-0.09774507600000000018,
-0.07312424500000000438,
0.10370466999999999880,
0.02196891799999999700,
0.08114380399999999993,
-0.42889052999999999205,
0.22006745999999999253,
-0.14651244999999998853,
0.04964653799999999700,
0.01721086200000000038,
0.00595960860000000012,
0.03660887000000000169,
0.10413778999999999397,
0.21115421000000000884,
0.17570305999999999425,
-0.09405117500000000075,
-0.30838769999999998683,
-0.16151679999999998816,
-0.02084652700000000011,
0.03488166300000000025,
0.04176091999999999999,
0.18030959999999998655,
-0.05001350000000000240,
-0.01089935399999999825,
-0.12454046000000000560,
-0.16152464999999999185,
-0.11398117000000000665,
-0.10213414599999999510,
0.07668470599999999138,
-0.16218551999999999969,
-0.10993764999999999787,
-0.02261009599999999967,
0.01710995699999999856,
-0.03641015999999999697,
-0.02169661799999999738,
-0.09809089999999999476,
0.04211935400000000468,
-0.07998326000000000047,
-0.01575084200000000101,
-0.18361760000000001969,
0.00274775620000000014,
-0.29453299999999998926,
-0.04274753500000000317,
0.02635023200000000121,
-0.02914916000000000035,
0.14897689999999999544,
0.16386501000000000539,
-0.04720446999999999838,
0.01262295600000000115,
-0.31803103999999998708,
-0.02641552900000000009,
0.03776140499999999789,
0.06111702700000000432,
-0.30962092000000002168,
0.05843477700000000025,
0.12557446999999999360,
0.05114035299999999951,
-0.01191457300000000122,
0.12724309000000000314,
0.10791507000000000183,
0.01235228600000000052,
-0.17525998000000000965,
-0.00881799200000000019,
0.17794767000000000223,
-0.01716907999999999976,
-0.00903074300000000080,
0.02180449500000000013,
0.04893613599999999814,
0.04300908700000000140,
-0.06619014599999999138,
0.02888839700000000316,
0.07514171999999999518,
-0.02311627799999999705,
-0.09308107999999999660,
0.03637496800000000058,
0.05022352000000000066,
0.00679551899999999987,
0.03463382999999999740,
0.16298802000000001122,
0.11234315000000000273,
-0.29845905000000000351,
0.14740980000000000749,
0.19651504000000000194,
-0.13104776000000001313,
0.05187815800000000060,
0.21063988000000000156,
0.04283694599999999381,
0.01379148300000000021,
-0.46273205000000000586,
-0.03915766999999999859,
-0.10299263999999999641,
-0.22317041000000001350,
0.09656861999999999391,
0.04594949999999999729,
0.03177112299999999834,
-0.03370425999999999978,
-0.16041288000000000769,
0.02243044599999999972,
-0.19464671999999999530,
-0.06509051500000000157,
-0.03199351599999999962,
0.02089689000000000130,
0.08540704999999999825,
-0.07717366999999999977,
-0.13253256999999998844,
0.17181939999999998325,
-0.07924106000000000205,
-0.01872476199999999896,
-0.00436592200000000038,
0.13384066999999999492,
0.13430937000000001125,
-0.07790423999999999960,
-0.06718498999999999999,
-0.10996817000000000397,
0.02710352799999999826,
-0.03369907999999999931,
-0.14074896000000000629,
0.23380708999999999520,
0.08464856400000000947,
-0.00394200000000000019,
-0.03701387299999999575,
-0.12839083000000001134,
0.11046579500000000551,
-0.08601562999999999570,
0.00420622760000000009,
-0.12498720000000000663,
0.11560222000000000553,
0.07980930999999999442,
-0.07210547000000000484,
0.09264187000000000116,
0.11917289999999999828,
-0.01223352200000000015,
0.02561186299999999860,
0.07879437499999999983,
0.02355913399999999894,
0.07332979000000000580,
-0.03826560500000000115,
0.19173717000000001232,
0.09636422000000000043,
0.11884904000000000301,
-0.01386182399999999829,
0.00156598679999999995,
0.09042305500000000218,
0.14760043999999999942,
-0.09542770999999999892,
0.13858539999999999748,
0.14040060000000001428,
-0.01740047000000000121,
-0.16376082999999999612,
0.01206897850000000078,
0.04718255999999999839,
0.05670192999999999761,
-0.17909495999999999749,
0.22460376000000001340,
-0.07006687999999999805,
-0.01793074000000000057,
-0.07388181000000000609,
-0.01846270300000000045,
0.01473815300000000036,
-0.04195482700000000009,
-0.09771625999999999923,
0.18276375999999999733,
-0.36533535000000000315,
-0.06522430499999999631,
0.07416697999999999347,
0.01863939300000000063,
0.12885701999999998879,
-0.03142629200000000150,
0.09599823999999999857,
0.09820597600000000038,
-0.15415305000000001368,
0.03949895500000000226,
-0.08146632500000000610,
0.11257090399999999941,
0.29564843000000001760,
0.06996201000000000503,
0.12376191999999999749,
0.19639397000000000104,
0.16478284000000001375,
-0.02989003399999999935,
-0.21123207999999998874,
-0.01384837799999999973,
0.20074972999999998735,
-0.07550358999999999543,
0.01414575199999999928,
0.00515540199999999990,
0.06392591999999999719,
-0.12424193999999999516,
-0.07873928500000000608,
0.02379777299999999776,
0.10936065999999999843,
-0.06737914999999999877,
0.07964797999999999323,
-0.00123644500000000008,
-0.05341539499999999746,
-0.06679601000000000288,
-0.06403723999999999528,
0.14044683999999998947,
0.12462766499999999859,
0.00524325699999999943,
-0.14184245000000000880,
0.09376159000000000576,
-0.03608754599999999813,
0.03943900399999999973,
-0.07470056999999999392,
0.07903134000000000547,
0.05039750999999999953,
-0.09985241999999999729,
-0.12657367999999999397,
0.06257844999999999380,
-0.05582710700000000081,
0.07018114599999999981,
-0.06190008699999999947,
0.13312035999999999314,
0.26390559999999996244,
-0.04093731999999999926,
-0.17770605000000000429,
0.00354297369999999985,
-0.10214420999999999917,
-0.04264381999999999895,
0.03099029899999999893,
0.15066127000000001379,
-0.07166172599999999504,
-0.08571783500000000611,
-0.25664367999999998515,
-0.05675671200000000083,
-0.31235898000000000829,
-0.03878368399999999883,
0.09598447000000000229,
0.07811078999999999939,
-0.17869860000000001299,
-0.07448538999999999854,
-0.18420063000000000408,
-0.27437156000000001432,
-0.37429699999999999083,
-0.05257936200000000448,
0.06725316000000000627,
0.18489416000000000184,
0.30092928000000002120,
-0.01656525000000000011,
-0.00531718599999999979,
-0.13332716000000000012,
-0.03907946999999999810,
0.00575476329999999921,
-0.06296465499999999438,
-0.00476294299999999952,
0.15029356999999998745,
0.04450518299999999677,
-0.14444376999999999911,
-0.03812453999999999843,
-0.00081701220000000006,
-0.08295350499999999683,
-0.11582776000000000183,
-0.03898296500000000137,
0.09468812499999999799,
-0.09408450999999999620,
-0.09168415000000000592,
0.04378669999999999785,
0.00812388199999999894,
-0.18142310000000000381,
-0.15581318999999999031,
0.05922749299999999911,
0.23312657999999999991,
-0.08930711400000000688,
-0.18177076999999999818,
-0.01892766199999999788,
-0.08104337999999999820,
-0.23548351000000000699,
-0.06565733999999999460,
-0.02456627000000000116,
0.02992056499999999966,
-0.00199845399999999977,
-0.01579656299999999958,
-0.02537582399999999822,
-0.02939770400000000020,
-0.00028479975000000001,
-0.05442550400000000649,
0.00825560800000000108,
0.02340170999999999918,
0.02087274999999999894,
-0.08734329000000000398,
-0.01021308999999999932,
0.00053386619999999999,
-0.01744631500000000043,
0.04023967299999999664,
-0.04774311599999999517,
0.02512043299999999757,
0.06521372000000000280,
-0.03863828999999999875,
-0.04692624000000000101,
-0.03723960999999999938,
0.00968800949999999890,
-0.04911788000000000265,
-0.05828342000000000245,
-0.03880400000000000515,
0.04195418199999999959,
-0.07485058999999999463,
0.03124847000000000041,
-0.00711676759999999974,
-0.17082131000000000398,
-0.09551252400000000142,
0.07090106599999999870,
0.23557242999999999933,
-0.07948968599999998996,
-0.07111394999999999522,
0.04122753399999999624,
0.06092063999999999813,
-0.02180358599999999980,
0.04698196799999999895,
0.05342896299999999599,
0.11793608999999999343,
-0.07447848999999999442,
0.04560880700000000121,
0.05492925299999999733,
-0.04077186799999999584,
-0.06401790000000000258,
0.18456817999999999835,
0.10640642999999999629,
0.00088161550000000004,
-0.04945075499999999902,
-0.07979216999999999560,
-0.17815647000000001121,
-0.00228526999999999984,
-0.13054167999999999328,
-0.04226552000000000087,
0.12917511000000000965,
0.12187246999999999664,
-0.05714857200000000165,
-0.07002787000000000595,
-0.10363653999999999922,
0.05468633400000000311,
-0.16563738999999999546,
0.11923846000000000445,
0.03899803999999999771,
0.00200676850000000009,
-0.06663516999999999357,
-0.09658102999999999827,
-0.18252535000000000287,
-0.00713506500000000033,
-0.12286547000000000440,
-0.09162744000000000444,
-0.04613523599999999614,
0.04092535700000000248,
0.01872628700000000118,
0.03116293600000000219,
-0.00589892729999999966,
-0.10812715400000000310,
0.02948451799999999776,
0.06637629999999999919,
-0.01505935800000000012,
-0.02740592500000000112,
-0.02606674499999999881,
0.02784139500000000142,
0.00312807849999999959,
0.04180783799999999995,
-0.04815192000000000083,
0.02676036999999999860,
-0.08471735599999999367,
0.13460985000000000311,
0.02520439399999999802,
0.05906580000000000163,
-0.04965807500000000291,
0.10852224400000000382,
-0.02070708800000000196,
-0.08380564000000000069,
0.03098556200000000121,
0.02365988000000000119,
0.04350546000000000274,
0.16532594999999999930,
0.00576862650000000039,
0.07433221499999999315,
-0.01885485599999999970,
0.00924626400000000057,
0.00596196800000000065,
0.13667267999999999084,
-0.04083829700000000257,
0.16454579999999999207,
-0.07004783000000000537,
-0.00172395010000000017,
-0.05686132199999999887,
0.03548927000000000331,
-0.00650689699999999933,
0.04379747400000000290,
-0.02600408200000000128,
-0.05774815999999999977,
-0.07685285000000000033,
-0.06604867400000000166,
-0.08796695599999999893,
0.18111329999999997709,
0.03477631999999999945,
-0.11636639999999999484,
-0.07498087000000000502,
-0.07470303000000000360,
-0.08571342400000001027,
0.15306290999999999647,
-0.13836249999999999938,
-0.08395076499999999664,
0.08189791999999999905,
-0.00196084170000000030,
0.00431391129999999980,
0.05052503200000000444,
0.03416414999999999730,
0.17519033000000000522,
-0.16730989999999998363,
0.06804082999999999659,
0.04530103500000000338,
0.07067589000000000510,
0.05939680700000000285,
-0.00335831099999999967,
-0.06458912999999999460,
-0.03234342999999999940,
0.04441328700000000268,
-0.06629458000000000573,
-0.06685596000000000594,
-0.05757152299999999945,
-0.04770325000000000260,
0.01900513699999999834,
-0.05314916700000000410,
0.02818737600000000010,
-0.02510713799999999760,
-0.02023173300000000174,
-0.05499100299999999664,
0.01595528400000000013,
0.04337741999999999987,
0.13640425000000000466,
0.04734629799999999500,
0.07465864999999999307,
-0.02411954799999999760,
-0.02115676999999999836,
-0.11292069400000000201,
0.08549254400000000365,
-0.10666731000000000129,
0.10495952999999999533,
-0.08600845999999999492,
0.10497607000000000466,
0.07738626999999999312,
0.00534371849999999964,
0.01288911799999999976,
-0.08154683000000000070,
0.02750099500000000030,
0.14550743999999998790,
0.12640053000000001093,
0.04827694599999999420,
0.19043069000000001356,
0.04150732199999999927,
0.07545876499999999709,
0.00865131000000000060,
0.03320750199999999985,
0.07142155000000000031,
0.13644328999999999485,
0.12351613499999999912,
-0.05443470999999999727,
-0.03271773000000000042,
-0.03762893399999999583,
0.07463044000000000622,
0.02851419900000000049,
-0.03723219999999999308,
-0.04279748400000000369,
0.03909748400000000179,
-0.05437503400000000264,
0.14670360000000001732,
0.00021504418999999998,
-0.03384326000000000001,
-0.06865835000000000687,
-0.03990290999999999977,
-0.04328669000000000266,
0.20403999999999999915,
-0.05251103000000000021,
0.03483695500000000278,
-0.18823111000000000703,
0.02932736500000000107,
0.02413459899999999964,
-0.10003552999999999751,
0.03062485299999999702,
0.09134038499999999616,
-0.00585088269999999976,
-0.06875572000000000628,
-0.00759338630000000025,
0.06731803999999999566,
0.08763761000000000467,
0.07853562000000000043,
-0.08855419000000000485,
0.03586697200000000391,
-0.02118127399999999994,
-0.00546674099999999979,
0.02351683400000000035,
-0.08356687399999999932,
0.00964834399999999967,
0.05274503999999999998,
-0.02505851200000000154,
-0.06171419000000000210,
0.06404900599999999167,
0.06623284499999999853,
-0.14533394999999998953,
-0.09249040999999999513,
-0.06799837000000000242,
0.00713649800000000067,
0.00590303199999999990,
-0.01364252699999999978,
0.05930643499999999763,
-0.00959571449999999972,
-0.04171114799999999651,
-0.11636567999999999912,
0.05985641500000000309,
0.03902645400000000209,
0.02929804799999999668,
0.06969297000000000686,
0.09703296999999999617,
0.07491681999999999508,
0.01744965799999999984,
-0.11135514000000000523,
0.08113808999999999605,
0.14768766999999999312,
0.18316418000000000976,
0.07369987000000000066,
0.13732875999999999417,
-0.00402071049999999999,
-0.02827150200000000044,
-0.02850552500000000031,
0.02188168000000000057,
0.10674814000000000525,
0.04893908300000000128,
-0.06455337999999999354,
0.11336245400000000139,
-0.07413619999999999932,
-0.11456954499999999486,
-0.11599930999999999437,
-0.02590459399999999954,
-0.02467195700000000130,
0.03689010999999999679,
-0.08712512999999999508,
0.09030407000000000017,
0.02649120000000000294,
0.15963440000000000962,
-0.07747532399999999819,
0.00260943600000000013,
0.07348072499999999674,
0.06296012599999999126,
0.14468988999999998768,
0.10368784500000000071,
-0.09660581499999999766,
-0.11323915400000000853,
-0.07254233999999999682,
0.04837820999999999788,
-0.13544838000000000711,
0.16658349999999999547,
0.19254156999999999522,
0.06503788400000000414,
0.00186671320000000016,
-0.12527104999999999491,
-0.10567674000000000512,
0.06519467400000000801,
-0.11794135000000000035,
-0.02527935200000000146,
-0.03898769600000000224,
0.06320672500000000527,
-0.06414802999999999478,
0.06024096999999999785,
0.03540737000000000051,
0.03061742500000000020,
-0.01870655300000000076,
0.03490838000000000274,
-0.01585868199999999895,
0.03302540999999999810,
0.02412858000000000017,
-0.05105167599999999722,
-0.07744044999999999401,
0.01808509600000000189,
0.06196290299999999973,
-0.08169071999999999445,
0.01714606000000000116,
-0.00890182400000000089,
0.00987088099999999975,
-0.05569388000000000116,
-0.25724659999999999194,
0.08755541000000000018,
0.08890958000000000194,
0.03216479999999999340,
0.01588539999999999744,
0.10609059999999999324,
-0.07522492999999999541,
-0.03490883000000000180,
-0.07266459599999999797,
-0.01947905000000000122,
0.21278586999999998808,
0.06657936400000000199,
-0.09944560400000000688,
0.11893813999999999775,
-0.08798946000000000545,
0.04226506499999999750,
0.05869111999999999940,
0.00804577300000000085,
0.04855026700000000112,
0.02917166799999999782,
0.16810433999999999100,
0.10925152000000000474,
0.10939817000000000291,
-0.03214478999999999947,
0.02043343300000000085,
-0.06682807000000000330,
-0.00243146800000000000,
0.08090247999999999884,
0.03126331799999999828,
0.03989564599999999989,
0.08877437600000000206,
-0.17943510000000001403,
-0.16265589999999999216,
-0.00814517800000000118,
-0.08390696000000000265,
0.20388702999999999688,
-0.07880510400000000082,
0.14718486000000000069,
-0.13755079000000000611,
0.09375245000000000106,
-0.18323262000000001271,
0.00129353509999999999,
-0.02782215200000000277,
0.07214232499999999326,
0.03609137999999999930,
0.19022544999999999038,
0.11190332499999999794,
-0.10911946999999999619,
-0.08236689999999999290,
0.00518469839999999987,
-0.09972045999999999688,
0.07238898400000000344,
0.12700396999999999381,
0.13793505999999999823,
-0.06699093000000000409,
0.05474261599999999395,
-0.00770885540000000070,
0.06191809000000000202,
0.03798681500000000016,
-0.01559047100000000158,
0.05496153000000000149,
-0.03926425799999999633,
-0.01310393100000000095,
0.00360645819999999995,
0.02387997500000000120,
-0.04492765700000000278,
-0.04535625499999999810,
-0.09991783999999999388,
-0.00978652099999999942,
-0.05242731999999999948,
0.03362528600000000423,
-0.11517012999999999556,
-0.08139614000000000571,
0.18108272999999999731,
-0.05972331000000000167,
0.05277424299999999846,
-0.08680293000000000037,
-0.04150509999999999616,
0.02090480399999999905,
-0.05441741599999999623,
-0.03782839000000000340,
0.00000501314400000000,
-0.02517406799999999736,
-0.09698444999999999983,
-0.07195830000000000282,
0.03273096299999999487,
-0.04561302999999999885,
-0.04672799999999999870,
-0.07209135599999999533,
-0.03057526399999999783,
0.03202786999999999995,
-0.01155719350000000180,
0.13215108000000000410,
0.03569572000000000023,
0.05209559200000000306,
0.00437534000000000013,
0.01564186999999999869,
0.02317641299999999641,
0.02973191399999999818,
0.01107567399999999889,
-0.09521992499999999693,
0.02953783999999999924,
0.13402881999999999296,
-0.19488208000000001308,
-0.16775918000000000774,
0.00415851900000000028,
0.02391116100000000022,
0.13246653999999999374,
0.02420281799999999747,
0.12119350599999999252,
-0.14458366000000000273,
0.14063359999999999750,
-0.13563426000000000649,
-0.03327284800000000070,
0.02196810399999999872,
0.14602265000000000383,
0.03704927999999999694,
0.12175120999999999860,
-0.02410345299999999691,
0.05755927999999999739,
-0.06172661499999999857,
-0.00930228699999999936,
0.12435827400000000476,
0.15820510000000001516,
0.07482291000000000636,
0.00846024599999999939,
-0.10918495999999999757,
0.01741875899999999894,
0.10400935000000000041,
-0.00783840900000000104,
-0.01907493399999999825,
0.03288755200000000045,
0.02611109799999999925,
-0.09713866000000000167,
-0.01243894000000000076,
0.01165826800000000114,
-0.04844331400000000121,
-0.04664421500000000276,
0.04792726799999999510,
0.04755689599999999434,
0.03962519800000000036,
0.05342315000000000258,
0.07337333000000000049,
-0.10439669999999998118,
0.00205664519999999981,
0.04030282799999999888,
-0.09838716999999999602,
0.03278575999999999713,
-0.16794410000000001282,
0.04968267999999999990,
0.02388199200000000119,
-0.07151759000000000588,
-0.04840726400000000540,
-0.00833280800000000058,
-0.06570373000000000185,
-0.00029165017999999995,
-0.04355135200000000151,
-0.00344838739999999994,
-0.07260371999999999659,
0.11281179999999998986,
-0.04304845599999999883,
0.05496700999999999671,
-0.09442306000000000310,
0.03657579400000000175,
-0.04672761000000000275,
0.01371550899999999899,
0.11391426000000000329,
0.04468514400000000303,
0.13781045000000000100,
0.04977722500000000133,
0.02551225799999999946,
-0.00477817099999999946,
-0.08846642999999999868,
0.09833733999999999531,
-0.04707092799999999799,
-0.04002997999999999973,
0.03752908499999999675,
-0.02969458700000000145,
-0.08738352000000000619,
0.04137825200000000425,
-0.09090207999999999622,
-0.07978013999999999939,
-0.07619778000000000662,
0.08631542999999999854,
0.08326704999999999524,
0.11878582000000000030,
0.00466729049999999989,
0.12834822000000001285,
-0.18545447000000001014,
0.12299891999999999770,
0.09935479599999999523,
0.05518896000000000218,
-0.07066150000000000209,
0.10088908000000000598,
0.05634061200000000519,
0.17343495999999999913,
-0.08802825000000000233,
0.10386913000000000395,
-0.05013808599999999838,
-0.01050398299999999972,
0.06812811000000000561,
0.00058881109999999999,
-0.02107044299999999773,
-0.07416402499999999454,
0.03822750999999999927,
-0.06443630999999999664,
0.03704966600000000193,
-0.07001111999999999613,
0.00333562820000000027,
0.01354728800000000108,
-0.04459943200000000135,
0.06246821599999999308,
0.02546009399999999909,
0.09743290999999999757,
-0.01970966899999999911,
-0.10294836000000000265,
0.06328430000000000166,
0.04668797599999999909,
-0.03586718800000000124,
-0.01911094600000000018,
-0.07474717000000000167,
-0.04972112000000000059,
-0.04983345000000000136,
-0.00431439999999999949,
0.01219310100000000133,
-0.00426308900000000029,
0.02741396999999999931,
0.03295123200000000391,
0.02283030999999999949,
-0.01582525699999999882,
-0.02331525299999999759,
0.00186097519999999981,
-0.09266697999999999602,
-0.06062121700000000502,
0.01043375900000000078,
-0.06264838600000000035,
-0.07579681000000000612,
-0.05660001599999999605,
0.16369805000000001161,
-0.09401231999999999644,
0.02706752700000000095,
0.02490331999999999962,
0.02938182100000000241,
-0.09234264000000000361,
-0.03151523700000000150,
-0.06190000999999999837,
-0.04156273200000000501,
0.17615644999999999221,
0.02056842099999999993,
0.07602546000000000304,
0.00959338300000000047,
-0.11674676999999999971,
0.04663783999999999985,
-0.05917167300000000102,
0.02965769999999999865,
0.03609253500000000198,
0.01129018300000000051,
0.13328380000000000782,
0.07094184000000000601,
0.08532119000000000508,
-0.02885977200000000228,
0.04107716299999999987,
-0.00314461300000000010,
0.05110163999999999679,
0.04564554599999999518,
0.19738782999999998635,
-0.02346677900000000011,
-0.10177840999999999971,
-0.05448220700000000472,
-0.07409084600000000187,
-0.04037236400000000086,
0.05195725999999999817,
0.05827002599999999560,
-0.05955411000000000038,
0.08956463000000000618,
-0.00348424799999999969,
0.05030663700000000127,
-0.03390118000000000298,
-0.01779587200000000077,
-0.01229148449999999983,
-0.03268719500000000222,
0.02156574299999999833,
-0.08797850999999999588,
0.00502025099999999988,
-0.03690011799999999564,
0.04899693299999999946,
-0.05088100599999999946,
0.01522902600000000141,
0.06077326000000000256,
0.03567281399999999714,
-0.02245223000000000010,
-0.06414578999999999420,
0.02832555799999999721,
-0.02692678600000000116,
-0.02593447299999999955,
0.04234652599999999545,
-0.00826279100000000023,
-0.00857790800000000041,
0.00957188599999999994,
-0.00506628599999999971,
-0.06052822599999999748,
-0.07972510000000000707,
0.02791007799999999789,
-0.03207907000000000119,
-0.03373194999999999666,
-0.04203417999999999738,
-0.12447291000000000605,
-0.01740641000000000063,
-0.02481418000000000165,
0.02761898999999999951,
0.02934389399999999884,
-0.01213109000000000062,
-0.06067054300000000039,
-0.00350827749999999992,
-0.08244859000000000215,
0.04048743500000000217,
0.01771137899999999932,
0.09912928000000000017,
0.12000026599999999433,
0.15232429000000000108,
0.06164651700000000484,
0.05468679200000000490,
0.18692520000000001357,
-0.12225566999999999684,
0.18957534000000000884,
-0.24551961999999999398,
0.07056485999999999315,
-0.00966765399999999948,
-0.04755347599999999730,
0.08819594000000000045,
0.07384427999999999825,
0.01286719600000000088,
0.05107123999999999692,
-0.04768158000000000118,
0.13008654000000000051,
0.10824003000000000096,
-0.02289069299999999668,
0.17049438999999999567,
0.14903025000000000300,
0.01064780600000000098,
0.07319870600000000227,
-0.15820109999999998340,
0.04918629000000000057,
-0.10823257999999999490,
0.05258058799999999755,
-0.01414901199999999901,
-0.03666778700000000030,
0.08883430000000000493,
-0.05928172500000000039,
-0.14132652000000001102,
-0.04150600000000000123,
0.01113399699999999964,
-0.02063126900000000069,
0.02433971099999999999,
-0.00429554239999999955,
0.05994338500000000181,
-0.14460532000000000941,
-0.14929776000000000158,
-0.08923016500000000018,
0.02238711499999999910,
-0.02035106500000000151,
0.00906670900000000092,
-0.12185068000000000288,
0.10229543599999998960,
-0.15703485999999999834,
0.02581309000000000034,
-0.00386074120000000007,
0.02940070799999999762,
0.00631782739999999995,
-0.23625514999999999710,
-0.06143062999999999996,
0.14133945000000000536,
0.20962708999999998816,
0.04780359599999999681,
-0.08838962000000000208,
0.01579472999999999988,
-0.01603263599999999942,
-0.22864148000000000804,
0.12016200999999999965,
-0.02962101299999999812,
0.15094465000000001353,
0.16946938999999999753,
-0.20487452999999999914,
-0.33474441999999998698,
0.01833887199999999912,
-0.17992586999999998776,
0.10351974999999999372,
-0.09502117000000000202,
0.12026343000000000449,
0.14522125999999999091,
-0.05885968400000000239,
-0.24318417999999999979,
-0.05077997199999999961,
-0.08221024000000000387,
-0.07178914000000000128,
-0.05821015000000000217,
0.06258511999999999409,
0.12973457999999998824,
-0.05015142300000000053,
-0.35215592000000001116,
0.03155534700000000442,
-0.26303205000000001723,
-0.24591979999999999396,
-0.09442226599999999082,
0.05419518999999999725,
0.16673300999999998706,
-0.09353353999999999835,
-0.25669052999999997233,
-0.06646607000000000209,
-0.17065847000000000655,
-0.16667485000000001327,
-0.26809629999999995409,
0.09846335999999999977,
0.01270951600000000056,
0.03894443000000000210,
0.11930495500000000419,
0.01609428599999999931,
0.05773463000000000206,
-0.00536634699999999961,
0.13198193999999999204,
0.00361136490000000003,
-0.14186289999999998623,
-0.12097088000000000285,
0.09387056500000000303,
-0.02089097999999999997,
0.05294126599999999377,
0.20794608000000000536,
0.13009818000000000771,
-0.01155856499999999981,
-0.21485435999999999424,
-0.07102239999999999942,
0.14477967999999999393,
-0.06794554999999999345,
0.17213539999999999397,
0.05035406700000000235,
0.07781578000000000106,
-0.01261374300000000018,
-0.29994683999999999235,
-0.06060304500000000122,
0.19929620000000003444,
-0.07385453599999999841,
0.20877549000000000801,
0.05381872000000000045,
0.10361365000000000158,
0.20996180000000000399,
-0.08971169999999999145,
-0.07003464500000000648,
0.02026083000000000051,
-0.03503329700000000491,
0.08634750000000000758,
0.19753847999999998852,
0.08245747500000000230,
0.21936729999999998730,
-0.12069475999999999816,
-0.04180676500000000267,
-0.14395127999999998702,
0.01320748199999999956,
0.01960092000000000084,
0.15354316000000001186,
0.14510680000000000800,
0.01228265300000000101,
-0.01628601999999999828,
-0.15032055999999999196,
-0.25414269999999999916,
-0.01328236300000000016,
0.01235448800000000028,
-0.02054587000000000080,
0.04188841000000000092,
0.01934181700000000073,
-0.06194217999999999946,
-0.02714185600000000240,
-0.24438243000000001159,
-0.04696051799999999971,
-0.02819547600000000057,
0.07654871000000000592,
-0.03413251399999999575,
0.07472283000000000397,
-0.04079345200000000088,
0.09292213600000000240,
-0.11774722999999999440,
-0.07919025400000000159,
-0.02834023999999999918,
-0.07391889999999999572,
-0.07429489999999999705,
0.14688524999999999499,
-0.11366062999999999861,
0.02832926299999999689,
0.07121231999999999562,
0.04983508999999999856,
0.00693261949999999984,
0.06914491000000000387,
0.10021774999999999434,
0.03025558000000000067,
-0.07648682599999999387,
-0.08056154000000000093,
-0.08943083999999999756,
0.04427953400000000234,
0.02077701499999999937,
-0.02079301899999999939,
-0.12391175999999999580,
-0.08448768400000000733,
-0.20777117000000000502,
-0.04807010299999999597,
-0.04923936400000000074,
-0.01457826899999999960,
-0.00551631400000000046,
-0.04256105999999999778,
0.07318592000000000153,
0.06001559599999999745,
-0.20840914999999998747,
-0.09852453999999999379,
0.05444180599999999537,
0.05149146999999999752,
0.31082155999999999674,
0.05645400700000000049,
-0.19036895000000000899,
0.02086105599999999935,
-0.18805578000000000571,
0.02405778500000000167,
-0.08612998599999999172,
-0.00439889900000000039,
0.16837518000000001317,
-0.11434558000000000222,
0.07247855500000000006,
0.05212746000000000046,
-0.01041894500000000064,
-0.04579532000000000047,
0.11982173000000000129,
-0.00132396620000000006,
0.16834373999999999172,
0.07487908999999999538,
