static float weights[39680]=
{0.00997283399999999987,
-0.04200468999999999731,
0.00727350900000000005,
-0.01564715800000000129,
0.00506694659999999946,
0.01608061800000000138,
-0.00572398959999999984,
0.06037417999999999951,
-0.00929470999999999943,
0.02654848200000000172,
0.01658003400000000044,
-0.04590486700000000198,
0.05076825599999999772,
0.01314518399999999899,
-0.02308105299999999721,
-0.02889544299999999982,
0.04165927700000000150,
0.02336343600000000131,
0.04482291000000000053,
0.02414526200000000067,
-0.03788489500000000176,
-0.03045921799999999971,
-0.05373471999999999971,
0.03754064799999999591,
0.04271554999999999797,
-0.04759027999999999869,
-0.06159369599999999639,
-0.03248175600000000052,
-0.02552931799999999876,
-0.03370645600000000269,
-0.06171116000000000101,
0.06300084999999999713,
0.02807200299999999815,
0.02117518299999999673,
-0.00199370699999999994,
-0.05140526200000000018,
-0.01727148300000000067,
-0.04479294599999999321,
-0.01756167800000000070,
0.03529725000000000223,
-0.02341055100000000166,
-0.05655216999999999883,
-0.10914437500000000181,
-0.05947682299999999811,
-0.07116843000000000474,
-0.04680286300000000010,
0.08731086600000000086,
-0.02957455299999999648,
0.00032890250000000001,
-0.03833213399999999688,
-0.04038189999999999835,
-0.08185855000000000214,
-0.04989500000000000185,
-0.01635764399999999757,
0.06077049299999999488,
0.00774788949999999973,
0.04886493499999999823,
0.02975840500000000166,
0.03179884000000000183,
0.02886588899999999874,
-0.06362640999999999436,
0.01564282000000000172,
0.00934166649999999994,
0.01977405000000000135,
0.07058266600000000224,
-0.05174844299999999814,
-0.04648352799999999618,
0.03890586299999999886,
-0.01906755800000000181,
-0.00647001250000000042,
-0.01499122299999999970,
0.02302509499999999890,
0.02152435000000000112,
-0.04785706499999999725,
-0.01863185900000000061,
-0.01139066000000000037,
0.04174916000000000044,
0.04055459000000000147,
0.02173471000000000083,
0.00338645979999999992,
-0.01124375800000000127,
0.04862091999999999803,
-0.02143989100000000259,
-0.02419624000000000080,
-0.05566858999999999696,
-0.06206734500000000293,
-0.03010586999999999985,
0.02445764700000000250,
0.03273162599999999978,
-0.01805211600000000000,
0.04686648400000000686,
0.00634324219999999987,
0.01047542400000000054,
0.02695907999999999985,
0.04120832299999999809,
0.05144076999999999678,
-0.02475375000000000145,
-0.04955698499999999784,
0.00816481099999999925,
-0.08552384000000000375,
0.06397542999999999980,
-0.02877136299999999772,
-0.07159661999999999971,
0.00887641099999999898,
0.04093640299999999621,
0.04459126299999999904,
-0.01700634999999999994,
0.01709394499999999928,
-0.09406093499999999830,
-0.12300725999999999327,
-0.07244087000000000443,
-0.10452525000000000011,
-0.06728537400000000890,
0.11657971999999999779,
-0.21326902999999999833,
0.09543890500000000443,
-0.06406538000000000510,
-0.07210158999999999319,
-0.10187448600000000021,
-0.17834046000000000620,
0.02070378299999999991,
0.13182129000000000763,
-0.13143334000000000961,
0.09577329499999999440,
0.04526398300000000069,
-0.09224935599999999070,
-0.07288087000000000037,
-0.09463359400000000143,
-0.13774343999999999477,
0.02328432000000000071,
0.01767008999999999941,
-0.02247393700000000286,
0.03913331800000000027,
0.09548899499999999319,
0.23622777000000000358,
0.13594505000000001171,
-0.12264946999999999655,
-0.02374209799999999967,
-0.03001185899999999837,
-0.07287736000000000214,
-0.13522888999999999049,
0.14203693000000000568,
0.33932970000000001187,
0.12661369999999999569,
-0.04262280000000000235,
-0.06538588599999999029,
-0.04993298599999999865,
-0.03364257500000000095,
-0.11322295999999999749,
0.06437755000000000560,
0.09636458999999999997,
0.05698550000000000143,
-0.03994020999999999683,
0.03364089499999999705,
-0.09524868000000000223,
-0.00034805082000000001,
-0.00334530109999999978,
0.06110057599999999672,
-0.09869643000000000166,
0.00967657799999999992,
-0.01362119000000000003,
-0.00416566200000000053,
-0.00246673220000000019,
-0.04821609300000000153,
0.01493407199999999962,
-0.05241259999999999669,
0.00252363500000000020,
0.07701901999999999360,
0.12376515999999999906,
0.05983078000000000007,
-0.08953363000000000294,
0.01912544500000000133,
-0.02823798200000000175,
-0.00129595519999999996,
-0.09434984600000000110,
0.17187203000000000896,
0.03878617000000000176,
0.19523619999999999863,
-0.05587310999999999667,
0.02140249500000000055,
-0.15361143999999998799,
-0.04809249200000000057,
-0.13719370000000000176,
0.09592831999999999748,
0.05693147999999999959,
0.07186375600000000086,
-0.00693405930000000077,
0.17148693000000000963,
-0.21607281000000000404,
0.00812094699999999989,
-0.18962434999999999707,
-0.19781107000000000551,
0.04429727400000000453,
-0.13616073000000000759,
0.20407815000000001371,
0.15166914000000000784,
0.00668207040000000016,
0.12981933000000001055,
-0.05631001299999999904,
-0.50304499999999996440,
-0.01061277899999999927,
-0.19062186999999999881,
0.00120937479999999988,
0.05857245299999999655,
-0.05171192000000000150,
0.11502134999999999443,
-0.16955503999999999021,
-0.15349038000000000959,
0.09423159999999999870,
-0.09912556000000000145,
-0.03722607299999999841,
0.09162631000000000248,
0.17128616999999998760,
0.01332581000000000043,
0.07679843000000000086,
0.29250544000000000544,
-0.04807466599999999507,
-0.13909847999999999657,
0.10011396999999999657,
0.00691751339999999940,
-0.10136589000000000016,
0.00833281999999999946,
0.43223748000000000724,
0.06478538999999999826,
-0.05350763700000000372,
-0.00914283200000000004,
0.06065850299999999556,
-0.01717623000000000066,
-0.28448167000000001980,
-0.02387374600000000124,
0.16512635000000000507,
-0.02710132499999999903,
0.13470710999999999102,
-0.01584808999999999871,
-0.04783393999999999840,
0.19091025000000000356,
-0.20606779999999999542,
0.06067339000000000065,
-0.07331894999999999385,
-0.15245416999999999996,
-0.03851863399999999604,
-0.01120650100000000066,
0.07393445999999999352,
-0.03810431000000000235,
0.11163230000000000375,
-0.01082027800000000088,
-0.00568324750000000038,
0.03907480499999999718,
0.13605898999999999077,
0.06266481399999999924,
-0.02384289700000000178,
-0.07806224999999999969,
0.04985843599999999903,
-0.03204141600000000312,
-0.13515294999999999392,
0.13544495000000000839,
-0.07487114000000000269,
0.04699899599999999428,
0.00158745829999999981,
-0.00263122770000000011,
-0.02351538700000000218,
-0.04859716000000000036,
-0.03584824500000000080,
0.00864297699999999960,
-0.07704478500000000452,
0.14291997000000000728,
-0.01443030699999999986,
0.06913985999999999743,
0.04433548500000000087,
0.04303507499999999902,
0.09701326500000000130,
-0.14937020000000003628,
0.05423494999999999705,
-0.09044792000000000110,
-0.15553216999999999737,
0.02991294899999999771,
-0.08150939000000000101,
-0.01062946300000000045,
0.03969272199999999973,
-0.52504026999999997560,
0.02763308399999999873,
-0.19894228999999999385,
0.03661066999999999794,
-0.00759774729999999985,
-0.07761974000000000651,
0.06550754999999999773,
-0.08663141000000000591,
0.01909508600000000070,
0.01928712600000000166,
-0.20559083000000000219,
0.06314643500000000076,
0.03256366799999999700,
0.25119766999999998403,
0.11660857500000000597,
-0.15500379999999996938,
0.25212136000000001657,
-0.01399159999999999987,
-0.16934963000000000100,
0.16187830000000000275,
0.14737110000000000487,
-0.12526220000000001797,
0.06685436999999999630,
0.15621725999999999668,
-0.16111732000000000831,
0.02950507799999999708,
-0.05863204599999999322,
0.05685669000000000139,
-0.05698751299999999659,
-0.19474936000000001024,
-0.01736728499999999967,
0.41597906000000001159,
-0.16804004000000000163,
0.13925791000000001252,
-0.01216416300000000041,
0.06727721999999999869,
0.12001335600000000159,
-0.09926849000000000089,
-0.05514138999999999846,
0.14407612000000000196,
-0.06819186000000000691,
-0.02544627000000000000,
-0.07332583500000000587,
0.01511917399999999911,
-0.02734205700000000294,
0.02266686600000000079,
-0.03251449999999999479,
0.03972827300000000145,
0.05354719999999999619,
0.03604760799999999488,
-0.07212862999999999913,
0.19240092000000000305,
-0.11838020400000000276,
0.03043713200000000216,
-0.10966766000000000014,
-0.00347596059999999993,
0.07306873999999999314,
-0.02832006499999999843,
-0.01257647800000000031,
0.03402661500000000311,
0.05405807499999999710,
0.06141805599999999865,
-0.08791554000000000035,
-0.13294369000000000325,
0.01680020399999999914,
-0.09341346500000000108,
0.00455417499999999972,
0.00751224800000000088,
0.19225143999999999567,
-0.02956915499999999974,
0.09411474000000000228,
0.05217159500000000116,
0.20077639999999999376,
0.05156422400000000572,
0.05895717400000000108,
0.14446143999999999652,
0.03983131399999999961,
0.01097781100000000051,
0.14219690000000001495,
-0.01404680199999999886,
-0.32949932999999997918,
-0.04682704400000000516,
0.14379315000000000846,
0.04291580200000000289,
0.01396632699999999887,
0.16602363000000000537,
0.00401221500000000040,
-0.01626754199999999942,
-0.07838074999999999903,
0.14742245000000001043,
0.05400610700000000458,
-0.02200744299999999806,
0.04348312000000000010,
0.34797270000000002366,
0.04446793999999999747,
-0.06196153000000000077,
0.15335030999999998969,
0.03109421200000000302,
0.04626881000000000049,
-0.00886973999999999922,
0.04339481500000000325,
-0.26054990000000000094,
-0.04938979000000000286,
0.02022862599999999955,
-0.15193175999999999903,
0.05317300000000000498,
-0.02200107799999999683,
0.06549971000000000265,
-0.17629649999999999488,
-0.26491670000000000496,
-0.00463167599999999950,
0.26376334000000001279,
-0.13683475999999999972,
0.08459943999999999797,
-0.03444864999999999733,
-0.01882988199999999918,
0.09023539999999999339,
-0.03067842900000000012,
0.05503408200000000500,
0.25976126999999998857,
-0.07204680000000000806,
0.00367331099999999985,
-0.01830959299999999901,
0.10607143500000000558,
-0.07830861000000000072,
0.00761551100000000016,
0.03827727000000000213,
-0.07231548000000000143,
-0.08463476999999999806,
0.15572818999999998857,
-0.03762247800000000086,
0.01070104899999999894,
-0.04062558700000000467,
-0.14807973999999998749,
-0.02364223299999999861,
-0.08764489000000000307,
0.05099648999999999849,
0.01411654100000000155,
-0.03779922000000000143,
0.02495402299999999879,
-0.04687303300000000145,
-0.05549330300000000077,
-0.04358599700000000132,
-0.06003264700000000148,
0.05125334000000000140,
-0.12623844000000000731,
-0.03937799499999999897,
0.12660875999999998687,
0.03276512399999999964,
-0.03190702000000000121,
-0.03038195700000000110,
0.01081976699999999923,
0.08829742999999999620,
0.01720391599999999965,
-0.16180272000000001098,
0.02395782399999999909,
0.07139138999999999902,
-0.03121824200000000021,
-0.18230764999999998777,
0.00387191909999999974,
-0.06087823200000000434,
0.03769059999999999772,
0.03758094000000000018,
-0.33315172999999997927,
0.02404115700000000050,
0.25753294999999998272,
-0.22767692999999999959,
-0.01821146699999999855,
-0.02440073499999999979,
0.02708035899999999829,
0.13945970000000001976,
-0.08441471999999999865,
-0.09081857000000000124,
0.10360893599999999870,
-0.00278227800000000001,
-0.16272749999999999715,
0.04641123999999999944,
-0.08137233000000000660,
0.03215189699999999873,
-0.07561939999999998940,
0.07263266999999999640,
-0.25883546000000001719,
0.07936603000000000407,
-0.06050659700000000224,
-0.10180432999999999844,
-0.10422718999999999734,
-0.06050842000000000026,
-0.09765725999999999574,
-0.05136688799999999944,
0.08916411500000000212,
0.38992189999999998795,
0.01279446499999999966,
-0.07102464000000000000,
0.10101665999999999423,
0.02068690200000000007,
-0.21326735999999998916,
0.03026623700000000139,
0.13513906000000000529,
0.07618357000000000601,
0.16637305999999998929,
0.00018608509999999998,
0.03876266600000000118,
-0.02826593000000000161,
0.01139431500000000035,
0.01350144100000000118,
-0.04986504499999999673,
-0.05527337999999999696,
0.01400789700000000006,
-0.06707185000000000230,
0.10056563000000000307,
-0.00384180150000000033,
-0.15815793000000000212,
-0.03614539299999999789,
-0.10363944599999999618,
-0.08647629599999999417,
0.01929877099999999929,
0.03185023399999999810,
0.08637819400000000536,
-0.09225664000000000087,
0.04929330999999999990,
-0.11334837000000000384,
-0.15265290000000000803,
0.05065519400000000061,
0.07553005000000000135,
0.13862103000000000619,
-0.03101403999999999966,
-0.03399018000000000178,
0.11414360000000001172,
0.05209637999999999769,
-0.04636722799999999645,
-0.06377105400000000757,
-0.00904976949999999891,
-0.02901870399999999933,
-0.10103834400000000215,
0.11025733000000000061,
-0.27128009999999996849,
0.11069113999999999343,
0.01808996499999999952,
-0.16654005999999998977,
-0.07049577999999999400,
-0.23905028000000000388,
-0.15457251999999999104,
0.15604201000000000876,
-0.20294281999999999599,
-0.05771395599999999682,
0.19801018000000000785,
0.07642996999999999985,
-0.12455960000000000643,
0.04768925999999999721,
-0.03868664000000000130,
-0.06803447999999999440,
0.00553615439999999986,
-0.21166718000000001032,
0.06376196000000000641,
0.11524194499999999841,
-0.17445754999999998902,
0.17393633999999999484,
-0.15219599000000000322,
0.01087202100000000081,
-0.11280540999999999485,
-0.07402607999999999411,
-0.08084863000000000466,
-0.01854490100000000252,
0.06173940700000000309,
0.07766273599999999611,
-0.11559073599999999948,
0.10891186999999999396,
-0.22717513000000000289,
-0.00680917869999999974,
0.07859053000000000566,
-0.02090069799999999881,
0.12247690999999999439,
0.01785724399999999781,
0.16799916000000000849,
0.01125582299999999987,
-0.25799704000000001081,
0.15509408999999999001,
0.16526851000000000735,
-0.28573087000000002567,
0.12162807600000000163,
0.05830250299999999858,
0.04855798599999999743,
-0.09654125599999999197,
-0.02080999899999999916,
-0.02974506999999999846,
0.03653610499999999928,
0.03014500999999999986,
-0.01556409300000000107,
0.11595397000000000343,
0.00637300300000000035,
-0.11812040000000000040,
-0.10345653999999999961,
0.06285617500000000024,
0.00521627399999999991,
-0.02361930200000000174,
0.00636690800000000012,
0.12929658999999998903,
0.00772748000000000011,
-0.06072680999999999912,
-0.12159274999999999944,
-0.02956060500000000021,
-0.05263719999999999510,
-0.13522699999999998610,
0.03172880799999999724,
0.20834284000000000137,
-0.11725531000000000148,
0.12261611999999999512,
-0.25672405999999997617,
-0.15493919000000000441,
-0.09947052000000000671,
-0.00544804849999999934,
-0.03422964399999999657,
-0.09947047000000000527,
-0.13854976999999998877,
0.19444216999999999751,
-0.39886813999999998215,
0.02436259399999999783,
0.12193821999999999994,
0.24906917000000000639,
-0.13397345999999998867,
-0.15470995000000001274,
-0.00019550930000000001,
-0.12360472999999999599,
0.12643378999999999035,
0.09564701999999999926,
0.16991732000000001057,
0.18852657000000000442,
0.06738204500000000152,
0.08009028999999999454,
-0.14970613999999998756,
-0.03793247999999999759,
0.20604622000000000215,
-0.12708126000000000144,
0.03845355000000000301,
0.00030702061000000003,
-0.03604385999999999701,
0.06059385500000000202,
-0.15325185999999998976,
0.06939027000000000389,
-0.01143940899999999934,
-0.08974556999999999674,
-0.00426160640000000038,
-0.14787965999999999611,
-0.07357861999999999736,
0.01518899500000000027,
-0.06733403999999999778,
-0.00779291430000000028,
-0.05259333599999999748,
-0.03010768999999999945,
-0.03279765700000000089,
-0.11667283999999999988,
-0.09962398999999999560,
0.00922659199999999874,
0.19206970000000000987,
0.04936116000000000115,
-0.00557361869999999961,
0.01640787299999999990,
0.18986425000000001218,
-0.21240506000000000664,
0.01227297899999999983,
0.16429904000000000730,
0.06458310000000000439,
-0.08771296000000000648,
-0.09353988600000000264,
-0.02721712999999999910,
-0.05511038799999999627,
-0.04613706000000000057,
-0.05025389000000000245,
0.06756982000000000266,
0.04431235799999999614,
-0.12616086000000001355,
-0.26309904000000000623,
0.10865402999999999867,
-0.07411740999999999469,
-0.19414400000000001101,
0.02352323599999999945,
0.00582592560000000023,
0.04089256399999999930,
-0.03016098999999999863,
-0.39809632000000000351,
0.06514375999999999500,
-0.18125187000000000936,
-0.08614851499999999496,
0.07309250500000000206,
-0.11358627999999999780,
-0.00147185290000000015,
0.11413573500000000205,
-0.27865029999999996191,
0.05672908000000000117,
-0.07002213999999999661,
-0.12795189000000001256,
-0.05510965400000000097,
-0.15418214999999999004,
0.04276598999999999678,
-0.04136169999999999430,
0.01794511000000000023,
0.01087069499999999966,
0.05451074200000000092,
0.12645551999999998793,
-0.04872545999999999822,
-0.15740572999999999371,
0.02091041000000000080,
-0.05198494000000000032,
0.07012305400000000410,
-0.15724283000000000010,
0.00182256749999999993,
-0.04381423400000000051,
-0.03124684499999999879,
0.05617752000000000162,
-0.08625153000000000680,
0.04093588000000000088,
0.11127169400000000432,
-0.12892688999999998845,
-0.11618040500000000048,
-0.30352824999999999944,
-0.10631285599999999725,
0.03512035299999999999,
-0.09658783999999999426,
-0.09341621999999999426,
0.08305701999999999530,
0.02951763799999999882,
-0.12485696000000000294,
-0.00676557000000000026,
0.05232035000000000158,
-0.11621183999999999681,
0.07150816000000000117,
-0.14380379999999998164,
-0.02991958100000000065,
-0.07973610600000000104,
-0.06485554000000000319,
0.07965493999999999353,
0.07680497000000000019,
-0.07090580000000000493,
0.21891566000000001191,
0.00558973800000000035,
0.00115056500000000009,
-0.05742412400000000694,
0.04928138499999999700,
-0.14430803000000000380,
0.07882793000000000438,
0.01686204999999999996,
0.08723147000000000539,
-0.08360588599999999038,
-0.13827939999999999676,
-0.04658636499999999764,
0.02133878700000000142,
0.06384069000000000549,
-0.00398454860000000029,
-0.02783451399999999770,
0.01746686000000000072,
-0.18462044999999999151,
-0.12785921999999999565,
0.03033736700000000050,
-0.07760551999999999728,
0.05241612299999999502,
0.12067862000000000033,
-0.08690966999999999443,
0.10650972000000000217,
0.03022456200000000343,
-0.23466930999999999208,
0.02493353599999999920,
-0.05155700400000000350,
-0.32811760000000000925,
0.00514264960000000021,
-0.21603195000000000037,
0.05131600400000000534,
-0.00843270900000000004,
0.00255493980000000027,
0.09492079000000000488,
0.03884805999999999676,
-0.58205090000000003769,
-0.02764424299999999890,
-0.07590428000000000452,
0.05833655199999999985,
0.01965545700000000118,
0.30180984999999999063,
0.01651210999999999998,
0.01660440699999999811,
-0.62129630000000002354,
-0.11117895999999999335,
0.00261269179999999972,
-0.05157590299999999933,
0.02924139599999999936,
0.17950687000000001281,
-0.20732324999999998671,
-0.05650603800000000149,
-0.21718232000000001203,
-0.04348646999999999929,
0.00115788929999999994,
-0.12211770599999999254,
0.04883570599999999956,
0.15913963000000000414,
0.02672812200000000346,
-0.02511364599999999989,
0.03867392000000000052,
-0.01978099999999999997,
0.05429819999999999786,
-0.02417732400000000004,
-0.01668969000000000008,
0.03036977399999999869,
0.03999757799999999891,
0.02917273000000000088,
0.10320493000000000028,
-0.01949363399999999927,
0.08561689999999999579,
0.06621623000000000092,
-0.08869406999999999985,
0.09762042999999999415,
-0.18040143000000000151,
-0.06527138999999999858,
0.07075144999999999351,
-0.08982453499999999702,
0.06907446000000000419,
0.15574946000000000623,
-0.01795341599999999982,
-0.02055558000000000038,
-0.18658148999999998874,
-0.08056607000000000351,
-0.06925971000000000211,
-0.07818047000000000191,
0.08629373999999999378,
0.05083223799999999487,
0.03504058000000000173,
-0.00008154737000000000,
0.03627350000000000019,
-0.05035451999999999984,
-0.04423248999999999931,
-0.00448630000000000036,
-0.02289731399999999847,
-0.00685202500000000030,
0.03269538300000000147,
-0.04650043999999999705,
-0.01470470200000000005,
0.05296646799999999572,
0.01830464399999999839,
0.01649510300000000054,
0.00923494599999999909,
-0.03898048399999999580,
0.03593646400000000130,
0.03820333000000000062,
0.04711890000000000522,
-0.02314813799999999866,
0.04082859700000000119,
0.02279709499999999986,
-0.04892910599999999305,
-0.00518494600000000017,
0.02761705799999999641,
-0.01876935000000000062,
-0.03851679000000000214,
-0.02219929500000000083,
0.02061262399999999953,
-0.03159669799999999945,
-0.04349734999999999713,
-0.00816070900000000037,
0.02510390000000000191,
-0.00357677599999999983,
-0.02995441000000000076,
-0.01009621800000000055,
-0.03219960599999999867,
0.03490544000000000285,
-0.01003280500000000054,
-0.01656163100000000027,
0.00449707960000000039,
0.00382557840000000019,
-0.03276501600000000097,
0.05301812700000000517,
0.03121987000000000026,
0.04108175600000000399,
0.01578068200000000074,
0.00821596800000000058,
-0.01704718399999999995,
0.02887631799999999804,
-0.02662056499999999881,
0.00980393799999999989,
0.02077658100000000230,
0.00916796899999999977,
0.01069690899999999924,
0.00270305760000000023,
0.04895147999999999860,
0.03970437999999999745,
-0.01151949800000000128,
0.04223559799999999920,
0.00364858380000000022,
0.04309387499999999677,
-0.03139257799999999737,
-0.04038212399999999841,
0.04676224999999999826,
0.04236947700000000261,
0.00845047399999999949,
-0.05423497799999999619,
0.00772394240000000027,
0.02744602799999999732,
0.01592789399999999800,
0.01153643399999999992,
0.00282721059999999991,
0.01919333299999999992,
0.03788648499999999752,
-0.01470515499999999927,
-0.04882870200000000160,
0.04491842000000000057,
-0.03372325699999999954,
-0.01804954599999999965,
0.03922947499999999976,
0.04267774500000000304,
0.05673762000000000250,
-0.03848787399999999831,
-0.01412914499999999920,
0.02005902999999999853,
-0.03958974399999999616,
0.03010669499999999929,
-0.02374383200000000291,
0.05129839499999999664,
0.02001939299999999991,
0.01395086600000000100,
0.04292972999999999928,
-0.05471666000000000030,
0.01877872600000000253,
0.01257191000000000038,
0.04732123400000000368,
0.02788513000000000103,
-0.01953656800000000068,
0.01742045199999999947,
0.05492745300000000108,
0.03357871600000000151,
0.04763117799999999624,
-0.03535528000000000282,
0.05667226000000000208,
0.02290622499999999881,
-0.05531371000000000204,
-0.05018021000000000287,
0.04656798400000000671,
0.04769763700000000106,
0.01546904600000000019,
-0.02208709200000000261,
-0.04111596600000000379,
-0.06951683000000000168,
0.00453386100000000014,
0.00169538879999999999,
0.01141204399999999966,
0.06306821999999999429,
0.03737068000000000334,
-0.03896260299999999843,
-0.02604878299999999897,
0.02394577100000000111,
0.02759019700000000033,
0.02175836600000000121,
-0.03817823000000000050,
-0.00632324259999999996,
-0.06198716499999999685,
-0.00351982540000000000,
-0.01329007699999999910,
-0.05180193999999999771,
-0.05181473000000000328,
-0.02630184200000000236,
-0.05356032000000000154,
0.01652467600000000203,
-0.02904611799999999924,
-0.04013379000000000252,
0.02962025299999999917,
-0.01600988000000000064,
-0.03019809200000000277,
-0.04480225000000000180,
-0.00231346140000000030,
0.01037313599999999982,
-0.00783580799999999966,
0.03959060500000000093,
0.01643481000000000108,
-0.04254186499999999815,
-0.05762884000000000062,
-0.04236683200000000010,
0.05686266000000000237,
-0.05721226000000000089,
-0.03337001399999999646,
0.04008449000000000040,
-0.04144231200000000198,
-0.05901457999999999704,
0.02551563600000000126,
0.04721814800000000145,
0.01896769400000000022,
-0.05202733999999999831,
-0.00951303799999999970,
-0.03300690700000000199,
0.01533113399999999973,
0.00097278564000000004,
0.05256965999999999722,
-0.03256146600000000418,
0.00972160700000000016,
-0.02171978399999999892,
0.00629688599999999980,
0.03359655699999999912,
0.04276615000000000277,
0.05933542499999999720,
0.00147858499999999993,
0.03570964599999999767,
-0.00927770099999999931,
-0.03410232399999999636,
-0.03399691700000000150,
-0.03272168999999999772,
-0.01989473800000000209,
0.00452040800000000006,
0.01059367699999999926,
0.06675491000000000064,
0.04702161299999999683,
-0.04041909999999999947,
0.02173898000000000150,
0.01601864399999999855,
-0.01269168700000000011,
-0.00853432099999999923,
0.00711437800000000019,
-0.01344609199999999977,
0.01321721300000000023,
0.02369011200000000275,
0.03127386000000000055,
0.01890733500000000081,
-0.00565349640000000018,
0.01814881900000000006,
-0.04725308000000000286,
-0.04423647700000000321,
-0.01994616000000000097,
-0.03128049000000000107,
-0.08745682000000000456,
0.04330123599999999295,
0.06180435799999999674,
-0.01374290300000000076,
0.05643285799999999547,
0.10049648999999999388,
0.00971857100000000050,
-0.05692190700000000075,
-0.09943261999999999934,
-0.01260946800000000041,
0.01619885700000000053,
0.02278828399999999893,
-0.00702684699999999926,
0.04837919400000000036,
-0.03345269000000000020,
-0.00943854099999999994,
-0.00365536960000000010,
-0.09261139999999999650,
0.00071704889999999995,
0.02301463499999999857,
0.05644028300000000081,
0.01106697399999999852,
0.07231255999999999795,
0.07501323999999999492,
0.08909891000000000338,
0.03504258999999999846,
-0.05390861599999999948,
-0.05153449300000000066,
0.02863208999999999893,
-0.09110533400000001003,
0.04876705599999999613,
0.01623872999999999983,
0.05008333499999999966,
0.01490125999999999951,
0.00081163000000000003,
-0.06380726400000000242,
-0.02965968000000000077,
-0.06410169000000000283,
0.08399049000000000098,
-0.02774090700000000215,
0.06044135999999999953,
0.01863344999999999932,
0.00696017999999999984,
-0.01398454399999999979,
-0.05640417299999999495,
-0.02345416100000000115,
0.04616417400000000226,
0.04052924399999999899,
0.03382969999999999727,
0.04251321999999999740,
0.02034489299999999931,
0.05614261000000000251,
-0.01128490499999999959,
-0.04550813000000000080,
0.00151614859999999992,
0.04189016699999999899,
-0.04025059200000000170,
0.03788462299999999922,
0.01437411000000000071,
-0.03204777500000000057,
-0.03307515999999999928,
-0.02174067899999999887,
0.02174625399999999958,
-0.00148633130000000013,
0.04942806400000000072,
-0.01382715500000000070,
-0.06858069399999999760,
0.06142873700000000409,
0.02016164699999999782,
-0.01615420700000000029,
-0.05381236200000000247,
0.03183069000000000176,
-0.10990096000000000587,
0.00394366259999999989,
0.04161877600000000316,
-0.02606919799999999829,
0.02427173399999999967,
0.03885279200000000405,
0.01505332199999999919,
0.02444320200000000068,
-0.09128265000000000684,
0.02694445499999999910,
-0.06245159700000000452,
-0.00021829928000000000,
0.02450368600000000022,
-0.10868782000000000443,
-0.01035539100000000025,
-0.03383364500000000247,
-0.17241126000000001062,
0.05689503299999999764,
-0.02161421399999999965,
-0.02790308700000000350,
-0.02074254000000000028,
-0.08151180000000000925,
-0.03119491200000000172,
0.03843745200000000389,
0.10098841000000000068,
-0.02929041500000000020,
-0.07460677599999999965,
-0.02029730600000000107,
0.02877841899999999953,
-0.00120415530000000004,
0.02508660200000000298,
-0.00412761139999999992,
0.05869113000000000108,
-0.04451846999999999749,
-0.07493120400000000125,
0.01493865249999999992,
0.06471602599999999594,
-0.05388751599999999642,
-0.03754306200000000204,
-0.09128187599999999791,
-0.05086033999999999694,
0.04287980999999999737,
-0.06384496400000000405,
-0.07058839499999999822,
0.00250996950000000009,
-0.05068361799999999973,
-0.01453401399999999961,
-0.02402101299999999731,
-0.07028987999999999903,
0.02145897799999999661,
0.04597268000000000188,
0.01312485700000000019,
-0.00521994659999999982,
-0.00590757300000000016,
0.05579557000000000266,
0.04404443000000000247,
0.02000800499999999885,
0.00388538159999999959,
-0.02056286300000000067,
0.00962352800000000098,
0.01893583700000000050,
0.04147987399999999991,
0.07053362600000000204,
0.01073788500000000083,
0.00576655660000000014,
0.06178835400000000366,
0.01239316600000000060,
-0.00049505169999999995,
-0.00936737800000000086,
0.04834485799999999750,
0.02929309600000000111,
-0.00961325000000000027,
0.01351777399999999976,
-0.07527662999999999716,
-0.04514483700000000016,
0.03103854299999999830,
-0.04783545400000000641,
0.05850691000000000225,
0.03710432999999999787,
-0.03236168600000000062,
-0.03967180000000000012,
-0.03156339699999999998,
-0.02734119399999999922,
-0.00630276099999999961,
-0.04594747299999999562,
-0.03546440199999999904,
-0.03648632400000000053,
-0.03197372299999999556,
-0.03171162999999999760,
-0.03562573700000000454,
-0.04735305499999999806,
0.02021193699999999926,
0.03135623399999999672,
-0.01757871500000000170,
0.03101979999999999668,
0.00778723499999999999,
-0.05682742599999999339,
-0.07444575000000000498,
0.02355136200000000277,
0.00561799199999999960,
-0.04056231700000000051,
0.04037152199999999996,
0.09185117499999999324,
0.01420849699999999875,
0.00646028800000000066,
-0.04152929999999999816,
-0.06140468599999999305,
-0.03475857499999999989,
-0.01369391699999999990,
0.11596296999999999855,
0.09693900499999999476,
-0.07304259999999999919,
0.02881954600000000144,
0.01079477899999999914,
0.02490349899999999908,
0.00303390800000000009,
0.01570776800000000042,
-0.05499823000000000212,
-0.02612485399999999944,
-0.05055438000000000293,
-0.04354857000000000172,
-0.04594082400000000510,
-0.05432412999999999825,
0.05041787400000000141,
-0.04009003200000000461,
-0.05938806799999999525,
-0.06866983999999999588,
-0.02036403900000000045,
0.00069568945999999999,
0.02756374899999999850,
-0.02861756299999999864,
0.04692987700000000179,
0.04676280000000000714,
0.02664380100000000168,
-0.01895954000000000042,
-0.00387415080000000009,
-0.05451063999999999909,
-0.01706050699999999906,
-0.00712245600000000010,
0.04303595000000000337,
-0.05457508200000000392,
0.03350768999999999970,
-0.04006835999999999731,
0.04745218999999999826,
-0.04583500700000000400,
0.03811093399999999909,
0.03566999700000000190,
0.07107539000000000218,
-0.03639496500000000134,
0.00545828560000000042,
0.00712099999999999973,
0.00563948300000000069,
-0.05548139999999999322,
0.02976944999999999938,
0.03683312999999999865,
-0.00612360560000000092,
-0.04049586000000000158,
0.06301365000000000438,
-0.03799382200000000348,
0.06901593000000000311,
0.10140243000000000173,
0.04260728999999999905,
-0.03596944700000000161,
0.02551452799999999813,
-0.01854621799999999973,
0.04658157000000000270,
0.04184865599999999797,
0.01502940800000000104,
0.02049606500000000081,
-0.07475749400000000766,
0.01963683000000000095,
-0.03960612799999999739,
0.00871601600000000004,
-0.07311679000000000095,
0.01000218200000000009,
0.01183805699999999905,
-0.05650396599999999575,
0.03246293199999999990,
0.06894714400000000187,
-0.03465453999999999757,
-0.04619736199999999876,
-0.00489493900000000006,
-0.04004679200000000466,
0.02968699500000000074,
0.07297584000000000015,
-0.00264590979999999995,
0.07040377000000000440,
-0.02452492899999999740,
0.00842952999999999932,
-0.03422294600000000409,
0.05238605299999999493,
0.00457221800000000029,
0.01333458899999999912,
0.00881637000000000046,
-0.00507383230000000001,
0.04552260400000000123,
-0.04181600700000000226,
-0.04134480299999999942,
-0.05294197999999999960,
-0.02171872700000000017,
-0.01161337100000000080,
0.02465297799999999900,
-0.07245303000000000160,
0.03870447999999999944,
-0.04545698700000000425,
0.00784195199999999926,
0.02377573200000000081,
-0.03009962700000000033,
-0.02765629299999999846,
-0.00996460900000000101,
0.01942338799999999976,
-0.01894190000000000110,
0.00579064339999999997,
0.01853972699999999890,
-0.06166468199999999844,
-0.01678223200000000109,
-0.03933877499999999944,
0.04950551699999999888,
0.00456357399999999993,
-0.01612611100000000200,
0.03391036399999999840,
-0.02900085000000000163,
-0.04424857299999999938,
-0.03314351000000000103,
0.01243146000000000008,
0.05815820000000000017,
0.03823295599999999850,
0.00348993650000000008,
0.03777637699999999987,
-0.05751922000000000285,
0.01613507800000000061,
0.03476028999999999924,
-0.02853962799999999744,
0.00984981400000000014,
-0.06432119999999999505,
-0.05724626799999999599,
0.00613853939999999942,
0.02163385599999999992,
0.03740142999999999940,
-0.07007228000000000068,
0.02033211299999999888,
-0.03351023799999999775,
-0.03814850000000000185,
0.05285731999999999930,
-0.02384444700000000125,
-0.02254858799999999788,
-0.02065285899999999911,
0.03473857400000000123,
-0.05413971499999999798,
-0.03794485000000000219,
0.02990871700000000133,
-0.12998756999999999673,
-0.02437724399999999930,
0.00723064199999999980,
-0.02033207799999999996,
-0.02570299200000000089,
-0.07353310000000000402,
-0.00531764699999999913,
0.03011790100000000248,
-0.00402266860000000028,
-0.08229614000000000373,
0.05904368700000000442,
0.11308023999999999853,
-0.03838087600000000127,
-0.06840873000000000093,
-0.00694112249999999983,
-0.02696390499999999982,
0.00878171099999999934,
0.01187057399999999832,
-0.04022112500000000340,
-0.00208440980000000001,
0.00778830050000000034,
0.06216737599999999642,
0.01919565699999999792,
0.05264709000000000055,
-0.04736873500000000209,
0.04462900999999999674,
0.00600975199999999928,
-0.01226908500000000075,
0.06337713999999999848,
-0.03570196999999999954,
-0.08073243500000000517,
0.06044362500000000082,
-0.02947972700000000071,
-0.02438357000000000024,
0.00902172900000000090,
0.04547083999999999848,
0.05102509599999999895,
-0.02557148799999999986,
0.01306951100000000067,
0.05088757700000000328,
-0.03605183600000000377,
0.03074876399999999788,
0.00377227270000000036,
-0.00626325600000000003,
-0.05471101400000000226,
-0.01856905799999999940,
-0.02731766999999999876,
0.00373009150000000022,
0.05105438000000000337,
0.03045557000000000125,
-0.04989591200000000060,
-0.01121183100000000023,
-0.02182945600000000055,
0.05646494999999999986,
0.03838526500000000174,
-0.05190599700000000233,
0.02755932700000000152,
-0.07314318000000000208,
0.00518626349999999972,
-0.05868607799999999569,
0.00545429499999999963,
0.07044528399999999690,
0.04679594200000000009,
0.03886528700000000530,
0.08236255000000000659,
0.06964134400000000780,
-0.05374448999999999893,
-0.06762651000000000079,
0.01026124400000000096,
0.06097439699999999962,
-0.00853365300000000042,
0.00716793350000000020,
-0.02106117299999999901,
-0.06764062999999999326,
-0.04940532499999999994,
-0.06812453000000000258,
0.01307878600000000023,
-0.00797682100000000026,
-0.05249139299999999730,
0.06046842799999999768,
-0.13765466000000001201,
0.06426384999999999736,
-0.01703558900000000029,
-0.01040383800000000032,
-0.07742020500000000582,
-0.02772188399999999872,
-0.04526953999999999700,
-0.03567278000000000115,
0.07674860999999999489,
0.01244651500000000001,
-0.01952726200000000009,
-0.01143649399999999844,
0.05354707300000000059,
0.02876411599999999930,
-0.07218937000000000270,
-0.05506019999999999665,
-0.06822150000000000436,
-0.11900992000000000515,
-0.03372585000000000166,
-0.00190436619999999985,
0.00918859300000000011,
-0.01758281999999999901,
-0.05374945700000000048,
0.03729763299999999671,
-0.02766305000000000153,
0.04297702400000000256,
0.02205746600000000127,
-0.02029562700000000011,
0.04551655999999999758,
-0.00250027859999999965,
0.00623510959999999930,
0.00126979669999999992,
-0.07565766000000000158,
0.00451642000000000016,
0.02091997899999999827,
-0.02879204200000000033,
0.00195769220000000009,
-0.01954464399999999991,
-0.03243735999999999842,
0.00547474400000000014,
-0.03348050299999999480,
0.03029460600000000170,
-0.00970650649999999990,
0.03574615700000000063,
0.05208959800000000084,
-0.02426899200000000312,
-0.00233963130000000010,
-0.01184730199999999879,
-0.02204452000000000148,
0.04991421000000000052,
-0.01944972199999999915,
0.02280059299999999747,
0.02331485600000000186,
-0.02970417600000000227,
-0.05070214299999999813,
-0.03736650600000000072,
0.01300720000000000001,
0.04154847999999999875,
0.02067396999999999985,
-0.04527976000000000223,
-0.00800340300000000095,
-0.00674404860000000009,
-0.06546292500000000514,
-0.02485968499999999942,
0.01321054399999999941,
0.00230616899999999984,
-0.06716797500000000476,
-0.00585457300000000007,
0.04227642700000000531,
0.07517211000000000032,
-0.06027965200000000301,
-0.00117791699999999990,
-0.08267093000000000358,
0.01107961699999999994,
0.03265764599999999851,
0.00526523870000000001,
0.05186201000000000005,
-0.08501306000000000140,
-0.04617658300000000021,
0.03201192200000000515,
0.00795043999999999959,
0.00026493982000000004,
-0.02337257600000000254,
0.12116907000000000372,
0.04490871400000000235,
0.03973092999999999764,
0.03264553500000000330,
0.05340786700000000470,
-0.03659330000000000221,
-0.00317197479999999999,
0.02173476299999999722,
0.05687822400000000500,
0.03415867999999999682,
-0.07216306000000000109,
-0.01187759100000000158,
0.06669743999999999673,
-0.07805243000000000597,
-0.05197800699999999968,
-0.05580592000000000191,
-0.02364735999999999921,
-0.00426919759999999995,
0.04987804599999999533,
-0.00917608400000000102,
0.00429592049999999968,
-0.00441641599999999940,
-0.04166570700000000321,
-0.05008481000000000044,
0.01095757399999999944,
-0.01241851000000000066,
0.00970864300000000117,
0.01856342899999999935,
-0.04178809399999999785,
0.00308431799999999996,
0.05008309700000000003,
-0.02509735899999999964,
-0.06322510500000000366,
0.03246923499999999907,
0.04736876999999999754,
0.00288564740000000000,
-0.05365489799999999948,
-0.05628757999999999678,
-0.03337012999999999785,
0.02450304299999999866,
0.03670114700000000341,
-0.03802515199999999956,
-0.01246781399999999894,
-0.05887246000000000146,
0.02898577999999999918,
0.00358119770000000018,
0.03055866999999999958,
-0.01640803199999999948,
-0.07658887999999999807,
-0.01531781300000000130,
-0.00085957910000000000,
0.00127395450000000006,
0.00399364949999999989,
-0.01129786500000000068,
-0.07020666999999999880,
-0.05169850000000000140,
0.03047786499999999982,
-0.05302804700000000176,
0.04046185000000000059,
0.01541779600000000097,
-0.01510772500000000067,
-0.05490333599999999703,
-0.03046780799999999900,
-0.02707704700000000339,
-0.00580187930000000077,
-0.09657926999999999484,
0.00574557000000000019,
0.04227474999999999983,
0.03927043000000000200,
-0.00754584050000000044,
-0.00372907819999999989,
0.08069835999999999676,
-0.05472286999999999985,
0.02617525999999999881,
-0.03832389399999999724,
0.01445915799999999973,
-0.02850307700000000166,
-0.05517674999999999663,
-0.03693601500000000259,
0.04794797299999999790,
-0.03936269999999999353,
0.05808144400000000290,
-0.04087541599999999775,
-0.00928332800000000041,
0.05360200999999999855,
-0.04361080400000000301,
-0.03906246299999999866,
-0.05938780000000000447,
-0.03206511199999999978,
0.04521061500000000261,
-0.05130181000000000324,
-0.01428469899999999966,
-0.07192071499999999618,
0.02404565200000000069,
-0.00626728900000000054,
-0.02176633700000000018,
-0.03199169000000000318,
0.02698836299999999785,
-0.00490873260000000006,
0.03263878399999999708,
-0.00334315260000000005,
0.04638242700000000385,
-0.01522445499999999959,
-0.04055163600000000201,
0.06196648599999999424,
0.08569893000000000649,
-0.05169602000000000225,
0.03371274999999999966,
-0.07110323999999999811,
-0.01991560699999999837,
0.05509645500000000251,
-0.00871326300000000060,
-0.04816125999999999741,
-0.01880806900000000018,
-0.01211076300000000008,
0.00541573699999999946,
0.04904126699999999950,
-0.02618825799999999898,
0.03790522000000000336,
0.01567261899999999875,
0.01208048300000000123,
0.00036067856000000000,
-0.01553116799999999971,
-0.04612459000000000003,
0.05278893999999999948,
-0.03129454300000000105,
-0.03019992799999999741,
0.03143637299999999662,
0.03259049700000000299,
-0.04320460599999999957,
-0.05205958299999999955,
0.02625716299999999656,
0.00073850030000000000,
0.03023884299999999789,
0.05455295000000000283,
0.01816736999999999866,
0.05294627699999999992,
0.02785654200000000150,
0.05156954799999999978,
0.05062429000000000234,
-0.04549006700000000208,
-0.00808083899999999938,
0.05943416799999999556,
0.01597519000000000022,
0.00651403939999999938,
-0.06281572600000000228,
-0.00089766184000000012,
-0.01465385999999999946,
-0.05013212200000000118,
0.04700469000000000175,
-0.01524338800000000008,
0.02190562299999999907,
0.02913089799999999882,
0.04318889000000000061,
-0.01939166999999999974,
0.05152959400000000495,
-0.04743900000000000200,
-0.00480461729999999941,
0.03731869000000000158,
-0.02044057300000000008,
0.02509795000000000081,
-0.03259470700000000054,
-0.00398360749999999986,
0.00434048469999999929,
-0.05315297000000000077,
0.05340757000000000143,
0.04230747400000000463,
-0.00883447900000000098,
0.03868491599999999975,
0.05322771500000000183,
-0.04525373500000000326,
-0.01563959600000000214,
-0.01704468399999999745,
-0.04961971200000000332,
-0.04972295499999999924,
-0.04404577200000000387,
0.05420334000000000263,
-0.01359356999999999926,
-0.00890369100000000004,
-0.02833433299999999974,
0.00527239959999999987,
-0.04934199499999999960,
0.00080302749999999995,
-0.01590510000000000188,
-0.03224293000000000298,
-0.05225223299999999516,
-0.02542420000000000097,
0.00511124400000000003,
0.05392173000000000105,
0.04014413799999999588,
0.03222642500000000298,
0.05053072799999999698,
-0.04065171599999999746,
-0.04422216500000000078,
-0.01784994300000000006,
-0.02561577599999999982,
0.00911641499999999924,
0.05209314000000000305,
0.03257849399999999951,
0.04241914700000000427,
0.02303049299999999910,
0.00268577319999999987,
0.05736042599999999908,
-0.01888740400000000000,
-0.01764218700000000015,
0.00934916499999999956,
-0.02950706700000000141,
-0.01466601699999999994,
-0.04322919000000000067,
-0.04970817999999999764,
-0.00004693928700000000,
-0.03819406399999999979,
0.02650890700000000169,
-0.01794816399999999909,
-0.02920420799999999886,
0.03655259300000000128,
0.04210819699999999999,
-0.03821340000000000153,
0.01374542299999999967,
0.02487262299999999648,
0.02123366299999999984,
0.03423070999999999753,
-0.04835622400000000320,
-0.03567620999999999987,
-0.04510209299999999588,
0.04554687400000000108,
0.06371955599999999664,
0.04110006199999999971,
0.01165144399999999865,
-0.04877580299999999952,
-0.04138893299999999581,
-0.04300620400000000620,
-0.02761593999999999854,
-0.05504386499999999738,
-0.03435001000000000027,
-0.02158559700000000151,
-0.01290385699999999948,
0.01677689100000000211,
-0.03528101700000000479,
0.05269680000000000891,
0.03309627999999999876,
0.06348017599999999927,
0.02288591299999999731,
-0.00780157300000000088,
-0.03590149000000000118,
0.01630840299999999909,
0.04860378400000000404,
-0.04229598999999999859,
0.02885953299999999971,
0.05717015999999999765,
0.04707442200000000465,
0.05483827400000000629,
0.04099649999999999822,
-0.04621908999999999740,
-0.02171843099999999985,
0.04488066000000000277,
0.02373082200000000211,
-0.01725251200000000110,
0.02171734999999999985,
-0.01467797800000000125,
-0.03006273899999999805,
0.01798363999999999865,
-0.01488892600000000024,
-0.04703649000000000024,
-0.03322681999999999719,
0.00413764550000000030,
0.05529520999999999742,
0.03967302699999999960,
-0.00901579949999999943,
-0.05210332000000000158,
-0.03211625700000000222,
-0.02279232799999999712,
0.00822016199999999961,
-0.00520517399999999991,
0.05729188400000000125,
0.02197795200000000199,
-0.05049418299999999804,
-0.03697114399999999745,
-0.04201301000000000341,
0.04547378800000000110,
-0.05312688299999999975,
-0.04419706999999999802,
-0.00481055700000000003,
0.00506271200000000046,
-0.05430149299999999929,
0.03260601999999999945,
0.03796789400000000203,
-0.02978542600000000026,
-0.05230302400000000351,
0.02156569799999999773,
-0.01513157600000000075,
-0.04345031500000000324,
-0.03442643199999999987,
0.01299983799999999967,
-0.04759301999999999977,
-0.00664263900000000053,
0.01461761350000000126,
0.04767630000000000479,
0.04258857700000000246,
-0.00405423440000000045,
0.02180197999999999858,
0.01917073999999999862,
-0.00976727399999999940,
0.04472697500000000215,
0.02131562700000000019,
-0.08778988999999999543,
-0.04855666000000000149,
0.06887949999999999628,
0.06968619999999998982,
-0.01923007100000000136,
-0.01111134800000000006,
0.05450101000000000251,
0.00990332699999999996,
-0.10283411000000000635,
-0.05513827000000000311,
0.02628107000000000013,
0.08485119000000000689,
-0.01624379999999999921,
-0.05979437799999999525,
0.06447724000000000510,
0.05469168400000000430,
0.02646113200000000179,
-0.06351718000000000641,
-0.04376342500000000163,
-0.05736546199999999901,
-0.02078421000000000088,
0.02967581700000000017,
-0.05484990000000000004,
0.03306109999999999605,
0.10903702999999999312,
-0.00953826199999999874,
-0.03036346299999999679,
-0.02846113600000000146,
0.03050570999999999838,
-0.03865567999999999782,
-0.05129023299999999758,
-0.01128090999999999990,
0.06739642999999999329,
-0.05505514000000000241,
0.00064127610000000001,
0.05439668500000000018,
-0.02295884299999999961,
0.07166809000000000374,
0.06401742000000000543,
0.02049190199999999934,
0.06647771599999999226,
-0.02993207399999999949,
-0.02543584999999999943,
0.03864092000000000221,
0.04975742999999999833,
0.01545730499999999931,
0.05115873400000000432,
0.00052617240000000002,
-0.03527703499999999825,
-0.02882884399999999930,
-0.00648298949999999950,
-0.01672076000000000118,
0.05148847000000000146,
-0.01884023500000000031,
0.02435885999999999954,
0.01166296199999999894,
-0.04953025700000000114,
0.06945619000000000098,
0.00595596400000000022,
-0.02197488400000000008,
-0.01506155100000000115,
0.02028215499999999963,
0.04313872800000000118,
-0.05096129299999999779,
0.01917010699999999873,
0.07910468400000000844,
-0.05031771200000000055,
0.07235996399999999884,
0.05152825299999999609,
-0.03404958500000000027,
-0.01524645899999999867,
-0.08930072000000000010,
-0.00361451999999999997,
0.03974861999999999840,
0.03510246000000000199,
0.02678747100000000020,
-0.03019463799999999934,
0.02588417200000000043,
0.05946676799999999624,
0.07519755999999999663,
0.03955010299999999618,
0.02129403299999999694,
-0.02926714200000000293,
-0.00014878021000000000,
-0.00804396999999999925,
0.00823799499999999969,
-0.03874749000000000249,
-0.06009912500000000324,
-0.04623824400000000473,
0.03690372399999999886,
0.00418547350000000005,
0.01807626999999999845,
-0.06236925700000000433,
-0.02463824899999999749,
-0.09963373000000000368,
-0.01162551700000000014,
-0.05190871700000000005,
0.14258708000000000493,
-0.03040752200000000280,
0.00594960569999999911,
0.04147798200000000352,
0.08026411999999999436,
0.02739614200000000180,
-0.03940939499999999984,
0.02079434299999999985,
-0.03028310500000000113,
0.05062154299999999801,
-0.02229027600000000123,
0.03532435700000000067,
0.04987898999999999805,
-0.00436318530000000000,
0.06123745400000000366,
-0.00323444700000000010,
-0.05775229599999999464,
0.01529595399999999876,
-0.02244126600000000138,
-0.03000099399999999958,
0.00368727099999999978,
-0.04144434300000000154,
0.04211601599999999918,
0.07450510000000000466,
-0.01443845100000000145,
0.02418951700000000066,
0.04652442999999999856,
-0.04149188499999999918,
0.02994983299999999862,
-0.03668890999999999819,
0.00022317112999999998,
0.05611925000000000247,
-0.00287492200000000024,
0.05674237799999999610,
-0.03714138000000000162,
0.03098887799999999748,
-0.03980061000000000015,
0.03308973500000000206,
-0.04210557400000000672,
0.00451816700000000002,
0.07215796400000000499,
0.01285201399999999841,
-0.03140965999999999897,
-0.00676879939999999909,
-0.05413791999999999910,
0.05674225499999999839,
0.03857705000000000162,
-0.01823653700000000058,
0.08789661999999999475,
-0.07831266000000000616,
0.05705639299999999692,
-0.01188313600000000074,
-0.00308885289999999988,
0.07605175999999999603,
-0.01029714299999999992,
-0.00384851239999999982,
0.05189727999999999702,
-0.02912315999999999863,
0.04270419999999999772,
-0.08570856999999999781,
0.06672604999999999509,
-0.05664656700000000183,
0.01973306999999999839,
-0.02787580200000000161,
-0.03378211999999999882,
-0.02589190599999999925,
0.02552951700000000157,
0.01935315699999999930,
-0.00264355679999999987,
-0.02423655799999999833,
-0.04202000000000000179,
-0.03833588000000000273,
-0.02299146200000000070,
-0.05416997500000000215,
-0.03178324999999999900,
0.04201080700000000417,
0.02242816799999999833,
-0.05824762599999999679,
-0.03628843699999999978,
-0.08227906999999999582,
0.11083276000000000239,
0.03270581000000000182,
-0.01734280399999999986,
0.00835249799999999987,
0.06468215599999999066,
-0.01833023899999999817,
0.02821873000000000090,
-0.10157990499999999812,
0.09585760499999999851,
0.01472187199999999870,
0.04657105000000000272,
-0.04043142000000000263,
-0.05438543500000000280,
-0.00564206400000000045,
0.04373394299999999735,
-0.04345622700000000005,
-0.02744237500000000149,
-0.01553099100000000093,
0.06445101999999999776,
0.01368971100000000024,
0.01422004800000000076,
0.02291144000000000167,
-0.03647932400000000047,
0.02604783299999999940,
0.01891280500000000128,
0.02098030999999999854,
-0.05996946999999999695,
0.00751199599999999995,
0.05984645300000000084,
-0.04059279299999999507,
-0.03120844600000000080,
-0.01635699900000000054,
0.00242922640000000018,
-0.01381132199999999914,
-0.03339097299999999741,
0.01965009399999999989,
-0.06992281000000000191,
-0.03040468299999999832,
-0.01247165699999999884,
-0.01676263500000000142,
0.01285964399999999994,
-0.03169299999999999895,
0.00663275640000000020,
-0.01910185799999999934,
-0.04637185499999999655,
0.04876416000000000084,
-0.03661596799999999874,
0.02058479400000000001,
-0.02755315399999999984,
0.01544411700000000026,
0.06854325999999999475,
-0.07023243599999999531,
0.06372590999999999672,
-0.05205222200000000216,
-0.01278066699999999903,
0.04145846000000000253,
0.09905767999999999518,
-0.05537397400000000636,
-0.05210467400000000360,
-0.00620063069999999932,
0.01961289299999999930,
-0.05830381400000000242,
-0.03419578399999999990,
0.04478462999999999888,
0.08197836599999999696,
-0.02346163000000000068,
-0.05630348300000000139,
-0.10062148399999999715,
0.04600036999999999876,
0.06917471999999999510,
0.02892203799999999714,
0.01526656800000000119,
0.04531916599999999407,
0.00867355700000000014,
0.05696381599999999351,
0.01627846000000000154,
0.09581216400000000522,
-0.07769740999999999453,
-0.13610120000000000551,
0.02343165999999999999,
0.00687477400000000016,
-0.00014711305000000000,
0.03358198299999999581,
-0.01139160899999999872,
0.03405224500000000182,
-0.06160593999999999792,
-0.10249703400000000075,
-0.02644687700000000058,
-0.00229700839999999983,
0.01865738399999999908,
-0.07132837999999999679,
-0.04577115999999999824,
-0.01809799299999999972,
-0.07331210999999999978,
0.01239350000000000000,
-0.09750938400000000450,
0.00779261199999999911,
0.00428714999999999999,
0.02673983599999999947,
0.02503359299999999982,
-0.02662853299999999937,
0.03053712799999999672,
-0.04823100999999999777,
0.01046978999999999965,
0.00416664099999999957,
0.04001491499999999812,
-0.04637559999999999599,
0.04011758799999999570,
0.05561528999999999778,
-0.02538124500000000019,
-0.02461993000000000167,
-0.00187222030000000006,
0.00488069999999999910,
-0.02390257600000000177,
-0.01155662899999999882,
0.01760358500000000145,
-0.04445165999999999701,
-0.01195120000000000036,
-0.00578220899999999996,
-0.01270843899999999846,
-0.08021179000000000503,
-0.01506534399999999961,
0.05830926400000000648,
-0.09548355000000000037,
-0.03435041999999999957,
0.01886643799999999926,
-0.01080162800000000062,
-0.07953082000000000207,
0.03599464000000000136,
-0.02947348200000000223,
-0.04907805500000000237,
0.03612056699999999926,
-0.05065387999999999835,
0.00286359179999999981,
0.01016670199999999968,
-0.03379114299999999571,
-0.01118971300000000044,
0.01173132399999999957,
-0.04018065700000000157,
0.06763144999999999574,
0.08598282000000000147,
0.04703534000000000187,
-0.07220445000000000335,
-0.10287767999999999913,
0.09539583000000000090,
-0.00017798093999999998,
-0.04629340800000000117,
-0.03121196899999999913,
0.02576248299999999922,
-0.03640511299999999589,
-0.07404468999999999634,
0.01363492100000000123,
-0.03136777000000000315,
0.02162600299999999781,
0.02398389799999999655,
-0.01194056899999999984,
-0.06535863000000000089,
0.03779993599999999926,
-0.08076735599999999848,
0.06002744000000000135,
0.06529477000000000197,
-0.01255976800000000067,
0.06088778000000000246,
-0.05767703400000000202,
0.08501153999999999655,
-0.02196328700000000148,
0.05865021799999999702,
-0.01371585300000000007,
0.07024884000000000683,
0.05089895400000000319,
-0.03916375299999999560,
0.05112982499999999680,
0.06217444999999999916,
0.06292913999999999453,
0.04585934400000000327,
-0.07788212599999999597,
-0.00653354400000000050,
0.03584309299999999948,
0.01656590600000000177,
0.01945343799999999998,
0.01663764600000000246,
0.03886037299999999667,
-0.08092955999999999761,
-0.06517233999999999527,
0.06732140500000000083,
0.01226732199999999891,
-0.02645940000000000097,
0.00141565790000000016,
0.02829835399999999779,
-0.04236002299999999665,
0.03136397500000000227,
0.00622107699999999934,
0.03753832700000000328,
-0.01972567299999999912,
-0.03162858600000000020,
0.04855716000000000199,
0.02994167000000000009,
-0.04337563400000000319,
-0.01931445999999999857,
0.02637675600000000120,
0.01710168800000000031,
-0.05387883599999999940,
-0.02387824799999999775,
0.00632392569999999914,
-0.06229778999999999872,
0.02064250200000000007,
0.02250357299999999894,
0.00953232799999999963,
-0.01305935699999999887,
-0.01894909900000000050,
0.02330847499999999864,
0.07495271000000000572,
0.02399074500000000082,
-0.01968918399999999846,
-0.05076258300000000001,
-0.05221020400000000311,
-0.03116855799999999899,
-0.01733483199999999794,
-0.00142860540000000003,
0.04019415399999999583,
-0.03395803600000000394,
0.06529643000000000252,
0.00114587239999999996,
-0.07032895000000000119,
-0.07992367999999999695,
-0.05484494200000000069,
-0.01234595200000000031,
-0.01533690899999999926,
0.04147747000000000239,
0.05588280400000000120,
0.06775965999999999934,
-0.06924639000000000488,
-0.00094622583000000013,
-0.00302906240000000004,
0.02556325899999999790,
-0.05610425000000000134,
-0.01511770299999999970,
-0.00232757880000000012,
-0.00242079749999999988,
-0.04420899200000000251,
0.05489278000000000213,
0.02039929099999999995,
-0.00865436600000000014,
0.04378847000000000295,
0.00905745199999999882,
0.02073113799999999965,
0.07220798999999999968,
0.00216460719999999988,
0.05606096199999999891,
0.04639966799999999808,
0.00309282679999999975,
0.06764699500000000143,
-0.02209189299999999787,
0.00755070239999999955,
-0.02676647500000000138,
0.02427978000000000081,
0.00003581601400000000,
-0.00888381300000000082,
-0.03713403299999999685,
-0.01030090300000000014,
0.04672492000000000312,
0.06442114999999999647,
0.05602615299999999521,
0.02535403700000000288,
-0.02510829799999999765,
-0.03184511999999999760,
0.03495002999999999999,
-0.02772655700000000237,
-0.00947754500000000041,
0.03654414799999999852,
-0.05684487500000000304,
-0.04405621800000000116,
0.04939663999999999860,
-0.00360222860000000006,
-0.03952244299999999738,
-0.06165106199999999953,
0.01220416199999999930,
-0.04953810599999999842,
-0.04391081599999999835,
0.02632607299999999845,
-0.03216957700000000475,
0.05096002000000000171,
-0.06812959000000000376,
-0.01819050300000000023,
0.01407800600000000055,
0.04176190000000000457,
0.02441107500000000083,
-0.04384881300000000037,
-0.00638361930000000063,
0.00009468382600000001,
-0.06881146999999999958,
0.02129850200000000041,
0.02356056499999999859,
-0.07074115000000000264,
0.04509240800000000049,
0.06050292799999999749,
-0.01195960899999999952,
0.03380268399999999951,
0.01497705199999999938,
0.00027599697999999997,
-0.00210842420000000030,
0.01635622200000000012,
-0.00169019240000000000,
0.04131074600000000235,
-0.02949803700000000126,
0.01372741499999999976,
0.02768605399999999814,
-0.05724800400000000511,
0.09527533000000000529,
-0.00176782529999999988,
-0.00913690199999999883,
-0.04080162600000000056,
-0.03936053999999999942,
-0.01233917999999999994,
-0.01419514600000000050,
-0.08940905000000000380,
-0.04491133200000000519,
-0.09060480999999999396,
0.14622107000000000854,
-0.06303778000000000159,
0.06577168999999999377,
0.02159333600000000117,
-0.00334446620000000000,
0.03457955000000000056,
0.05980489400000000427,
-0.07230868000000000018,
0.08732254999999999878,
-0.02236872000000000166,
0.04350028200000000123,
0.01455188449999999904,
-0.06822982400000000835,
-0.02241030100000000053,
-0.05748813599999999524,
0.00095399419999999996,
0.04691174299999999880,
-0.03758525000000000060,
0.02870588700000000285,
0.05321384200000000425,
0.02557733700000000207,
0.02734718700000000197,
-0.00558697800000000026,
0.00943402599999999987,
-0.05252636000000000110,
-0.00862475599999999905,
0.05087987700000000391,
-0.01023379900000000002,
-0.01220358100000000154,
0.01292935500000000001,
0.01528082000000000051,
0.04528470299999999560,
0.03262920299999999552,
0.01208032100000000150,
0.03656412299999999699,
-0.02674467999999999984,
0.03628361599999999770,
0.02786584799999999862,
0.01030796699999999948,
0.01381121800000000011,
0.02379653200000000218,
-0.05968994999999999856,
0.04285874200000000522,
0.01799411000000000066,
-0.02437915299999999716,
-0.01455288199999999962,
-0.01604938100000000145,
-0.02291253000000000040,
0.06756072999999999940,
-0.05174449500000000146,
0.02292231700000000108,
0.07283807000000000476,
0.01552681499999999937,
-0.07082293000000000616,
0.06418764600000000098,
-0.02271961200000000014,
0.03136560000000000042,
0.03138940800000000059,
0.03424842700000000489,
-0.00562267800000000074,
0.06773814999999999698,
-0.02248935399999999959,
-0.02236742899999999770,
0.07576521499999999687,
0.08844133999999999329,
0.00625781949999999927,
-0.07036404000000000269,
-0.03790990999999999805,
0.02789941200000000190,
-0.13401903000000001120,
0.01375914399999999919,
-0.00482305470000000003,
0.12289482999999999657,
0.03912666799999999639,
-0.07801616000000000106,
0.04612167999999999823,
0.07382231999999999683,
-0.00939241599999999892,
0.04304858000000000295,
-0.00794289100000000053,
-0.03164882000000000112,
0.04654424299999999903,
-0.02777339100000000144,
-0.00281862539999999965,
0.04514683400000000374,
0.02927063400000000024,
-0.05287480700000000283,
-0.00870538700000000019,
-0.02297510999999999998,
0.03034880200000000111,
-0.00099056369999999988,
-0.02000169300000000094,
0.03014587200000000064,
-0.00102514090000000000,
-0.02956531200000000331,
0.03701635000000000342,
-0.01290515499999999975,
0.01021277400000000085,
0.02219671799999999723,
-0.03787269999999999526,
-0.00341720799999999970,
0.04116404399999999686,
0.00879931899999999989,
-0.05057123000000000174,
0.01154381699999999962,
0.03465272500000000228,
0.01463396399999999931,
-0.01615267199999999986,
0.05266627700000000439,
-0.04407520999999999661,
-0.01917162700000000011,
-0.07355053999999999759,
0.02515653299999999828,
0.03493999299999999558,
0.02139459200000000047,
-0.04024819300000000155,
0.03293612600000000307,
-0.03300547000000000203,
-0.04830261699999999908,
-0.04614205999999999863,
0.00612538900000000018,
-0.04440042699999999926,
-0.01383319600000000073,
0.06428375000000000061,
0.05716195000000000304,
0.00387844419999999962,
0.04044275700000000279,
0.02332314499999999999,
0.04320542000000000132,
-0.03069158799999999881,
0.04837875800000000087,
0.03922835000000000211,
0.01969653199999999924,
-0.02723994899999999941,
-0.05293795500000000182,
-0.02707140100000000188,
0.03121811500000000114,
-0.03311966000000000215,
-0.03351280499999999968,
0.09867547999999999597,
-0.08712005000000000443,
0.03833512199999999925,
-0.06361914999999999931,
-0.05955216299999999824,
0.06537091999999999903,
-0.05346116799999999641,
0.04631826299999999841,
0.14698849999999999416,
-0.06383552000000000670,
0.02590527799999999686,
-0.00727753339999999936,
-0.00122661899999999997,
-0.02868279799999999893,
-0.07059667999999999499,
-0.01247492300000000061,
0.08879447000000000034,
-0.05101411400000000623,
-0.11456486999999999921,
0.00887034699999999891,
-0.04393244999999999789,
0.02195108499999999865,
-0.07364421000000000161,
-0.05394193500000000335,
0.06191376200000000413,
-0.06166610499999999884,
-0.05384810300000000133,
0.05683909400000000667,
0.04299161199999999849,
0.00752879540000000059,
-0.02014198199999999925,
-0.08121289999999999065,
0.00002121490000000000,
-0.03862460999999999672,
0.04557402799999999560,
0.10229955000000000298,
0.04230216500000000268,
-0.03272839999999999777,
0.07973149000000000208,
-0.03396793499999999771,
0.02316984000000000057,
0.00539856900000000063,
0.04658647299999999630,
0.03644876999999999839,
0.00062146839999999994,
0.05166217299999999873,
0.01734873699999999949,
-0.03219964399999999949,
0.03487771399999999716,
-0.00608071270000000007,
0.06359968000000000565,
-0.02422996399999999967,
0.03949050600000000161,
-0.05582003700000000290,
-0.00652219699999999954,
0.02555991900000000039,
0.00728119770000000034,
0.01222042899999999967,
-0.02631422500000000012,
0.03877535499999999746,
0.04454990999999999812,
-0.03221075000000000327,
-0.01569683300000000031,
-0.04456341599999999459,
0.06425425999999999360,
0.01519923899999999981,
0.04043482200000000221,
-0.06684613999999999834,
-0.03210029400000000144,
-0.02329029900000000042,
0.03273393200000000031,
0.03665010299999999638,
0.04367722000000000271,
0.03381834599999999913,
-0.03084381700000000254,
-0.01210796300000000110,
-0.07254652999999999796,
-0.04788551499999999655,
-0.04822897999999999769,
-0.06053604599999999614,
0.03856898000000000271,
-0.08221289999999999154,
-0.06220827300000000143,
-0.08080605999999999900,
-0.11478167000000000231,
-0.01891260800000000089,
-0.03029383299999999918,
-0.11280938000000000077,
0.04048895500000000008,
-0.06799110999999999350,
-0.12214240400000000997,
0.00616250400000000007,
-0.04639222500000000221,
-0.06167741999999999669,
-0.09608220000000000649,
-0.11540013000000000354,
0.19776346999999999676,
-0.12906326000000001297,
-0.23882872999999998909,
0.03313521999999999995,
0.03400254600000000155,
-0.03456955800000000023,
-0.10446323500000000151,
-0.11693451600000000223,
-0.03065531999999999979,
-0.20329800000000000648,
0.00522329799999999948,
0.07575492600000000021,
-0.02715906700000000201,
0.03755265499999999729,
0.02132415600000000036,
-0.05476090299999999966,
-0.17751095000000000068,
-0.01522597399999999976,
0.06105559700000000312,
0.09798411999999999400,
-0.00930219499999999921,
0.02352454500000000087,
0.04061577000000000243,
-0.15127941999999999778,
-0.18670260999999999108,
0.08119123999999999786,
0.01792568699999999918,
0.13059107999999999827,
0.05878188000000000163,
0.01267604299999999969,
-0.11032529999999998727,
-0.09278106999999999327,
-0.12643032000000001269,
0.04288494599999999324,
0.04021605999999999792,
0.05593647999999999676,
0.03838119999999999726,
-0.01407298799999999982,
0.02459236600000000092,
-0.07642052000000000567,
0.01406516399999999979,
-0.02082986600000000244,
-0.04967606799999999684,
0.04130004999999999787,
-0.06256675999999999904,
-0.00529357050000000065,
-0.03212011199999999927,
-0.00800008999999999963,
-0.02768705399999999914,
0.11813602599999999121,
0.03538222200000000484,
-0.06857896599999999121,
-0.09060202000000000533,
0.00033993774999999999,
-0.05997774700000000486,
-0.06785692000000000113,
0.02615484200000000106,
0.09839048000000000238,
-0.06206371299999999952,
-0.10832173400000000285,
-0.06365808000000000577,
-0.02464092299999999860,
-0.06118356999999999962,
-0.10312619000000000646,
-0.07046921600000000119,
0.04543985999999999859,
-0.18691999000000000808,
-0.02929311799999999646,
0.01926590100000000194,
-0.08274165999999999466,
0.06600103499999999956,
-0.10326625000000000387,
-0.04009853299999999870,
0.03493284799999999551,
-0.17314655000000001017,
0.00441852700000000022,
0.12158921000000000312,
0.01034722499999999983,
0.04993833200000000194,
-0.17528822999999998933,
-0.08532476399999999739,
-0.12830627000000000004,
0.00690000099999999936,
-0.02990552600000000172,
0.18482952999999999188,
0.08722589000000000037,
-0.03114432299999999806,
-0.07414829000000000558,
-0.27441785000000001871,
-0.36876859999999994644,
-0.08047649999999999249,
-0.18270437000000000483,
0.32550454000000000887,
-0.04648772000000000321,
-0.08534155000000000213,
-0.01301605699999999928,
-0.27395940000000001957,
-0.09638436999999999699,
-0.00761175800000000059,
-0.01086533350000000106,
0.19092463000000001183,
-0.04431397499999999851,
-0.17357937000000001060,
-0.07347599000000000491,
-0.25453134999999998955,
0.19460063999999999140,
0.12646646999999999750,
0.29282196999999998699,
0.10858261599999999292,
0.07240133999999999459,
-0.18133304000000000089,
-0.04831607000000000263,
-0.24440799999999998637,
0.19342142000000001056,
0.09201684999999999726,
0.23427041000000001225,
-0.03033638200000000201,
0.07171677999999999387,
0.05202967700000000334,
0.03785860499999999657,
0.03164654000000000078,
-0.08210509000000000557,
0.00491093560000000016,
-0.02917983000000000035,
-0.07883326000000000222,
-0.07530977599999999494,
-0.03035858599999999990,
0.06295794999999999864,
0.01013288799999999962,
-0.09358027599999999002,
0.02374786700000000236,
0.01462625000000000036,
-0.16043078999999998979,
-0.13741913000000000045,
-0.18099755000000000704,
-0.01207879000000000071,
-0.03939034400000000075,
-0.00914737099999999963,
-0.04521543000000000090,
-0.04232374200000000447,
0.01854084599999999972,
0.04610155999999999976,
-0.06248652599999999363,
-0.10308788000000000673,
0.04301383699999999921,
-0.02679125200000000151,
-0.22244438999999999185,
-0.07185613000000000417,
0.10072876999999999525,
0.04449784799999999957,
-0.08626862600000000103,
-0.17553288999999999698,
-0.00559235300000000043,
0.11562799999999999467,
-0.24269481000000001081,
-0.09361737000000000530,
0.13672154999999999725,
-0.05217676599999999942,
0.06441475000000000672,
-0.20298650000000001414,
-0.23340599000000000762,
-0.23123561000000000809,
-0.02296450400000000017,
0.05613306500000000282,
0.25866017000000002257,
0.00866158399999999995,
-0.05779581999999999775,
-0.18875827000000000577,
-0.20949748000000001369,
-0.41325857999999998649,
0.05754261499999999835,
0.03112231200000000267,
-0.01394139500000000052,
0.27065032999999999452,
-0.16312331999999998833,
0.01440540600000000081,
-0.21962441999999998687,
0.02239995299999999676,
0.02590755999999999962,
-0.21171016000000000834,
-0.13441787999999998959,
0.08585173000000000110,
-0.08056762000000000645,
0.16210737999999999537,
-0.00139382109999999977,
0.21285708000000000406,
0.04064419500000000102,
-0.02374604500000000035,
-0.08543159999999999643,
0.01689966999999999858,
0.12323523000000000116,
0.07259901000000000548,
-0.16930258000000000806,
0.17977910999999999198,
0.15576154999999999862,
0.28910114999999997343,
0.00347007039999999971,
0.06867004000000000163,
0.09969601999999999631,
0.11286709999999999798,
0.04975982400000000111,
-0.06222031299999999931,
0.05376954700000000087,
-0.07035813000000000483,
-0.09770278999999999769,
-0.00643160099999999946,
-0.06168103599999999465,
-0.03528678799999999949,
-0.02051652199999999884,
-0.06445857000000000669,
-0.03495830999999999938,
-0.02965643999999999919,
-0.13060093999999999870,
-0.12492572500000000135,
-0.03345458600000000143,
-0.02961876999999999913,
0.05298480400000000340,
0.03947872000000000187,
-0.09911665000000000059,
0.03075127899999999942,
-0.00676387040000000009,
-0.00869165799999999968,
0.17601939999999999253,
-0.09185686999999999325,
0.01093695300000000099,
-0.02763808700000000215,
-0.16340931000000000206,
0.05060072599999999865,
-0.17157209000000001042,
-0.07778220599999999263,
-0.01897048999999999958,
-0.13976874999999999716,
-0.09005027000000000170,
0.27151229999999998421,
-0.26102849999999999664,
-0.04619771599999999284,
-0.43445358000000000587,
-0.06779400000000000703,
0.13763647000000001075,
-0.09588591000000000475,
-0.11762532000000000543,
-0.20057769000000000292,
0.01447162300000000117,
0.02783701600000000262,
-0.52065539999999999043,
-0.07227778999999999454,
0.08258691399999999738,
-0.07466770000000000351,
0.00732120099999999940,
-0.25760579999999999590,
0.00089966399999999989,
-0.13160900999999999850,
-0.23814838999999998759,
-0.06238858799999999483,
0.05011470200000000402,
0.24442859999999999587,
0.06464037999999999728,
0.14139982000000000939,
-0.19301077999999999291,
-0.18015408999999998896,
0.04577313000000000215,
0.04751419299999999624,
-0.12047721999999999598,
0.19373117000000000809,
0.13492998000000000491,
0.26343359999999998999,
-0.19682816000000000201,
-0.02350580299999999873,
0.05119995000000000102,
0.10453033400000000253,
-0.15038946000000000258,
0.08269279999999999686,
0.07732874000000000692,
-0.06133077299999999815,
-0.08168224000000000318,
0.28249590000000002199,
0.06490279000000000187,
0.07033976000000000117,
-0.11152106999999999992,
0.07459011999999999587,
-0.08998927499999999358,
0.00601059699999999947,
-0.00024660932999999999,
-0.01078806199999999930,
-0.05266319599999999546,
0.04924624400000000152,
-0.09435823599999999811,
0.01322259699999999913,
-0.04719973699999999855,
-0.08643805000000000238,
-0.03512126000000000137,
-0.09993055500000000424,
-0.20744214999999999183,
-0.10251894599999999969,
-0.04455090000000000439,
-0.02564678499999999833,
0.08875423999999999813,
0.09478105600000000242,
-0.09347258499999999692,
0.04596550799999999520,
-0.11344080000000000830,
0.01141579499999999942,
0.10191479000000000510,
-0.03581422199999999972,
0.09438398500000000357,
-0.10875422999999999341,
-0.23939194999999999225,
-0.06261184999999999667,
-0.20727190000000000891,
0.04518947000000000241,
0.16285647000000000317,
0.01242979899999999832,
-0.08707673999999999970,
0.03667456700000000513,
-0.14659328999999998722,
0.01414315300000000032,
-0.28365024999999999267,
0.09218471999999999777,
0.24247056000000000164,
-0.02114555200000000149,
-0.08750969999999999582,
-0.09581084500000000559,
0.18739447000000000743,
0.00056822627000000002,
-0.01307627199999999990,
-0.24186829000000001355,
0.09590877600000000114,
0.16394486999999999255,
-0.00320337039999999979,
-0.04355978200000000522,
-0.01516626699999999890,
-0.10383277999999999952,
0.23075466000000000033,
-0.33951870000000000660,
-0.08284745999999999777,
0.10785814999999999986,
-0.06996512000000000564,
0.21637296999999999780,
-0.00249744599999999995,
-0.18828680999999999890,
-0.00890580800000000117,
0.06187351400000000445,
-0.08284446599999999161,
0.18000167999999999724,
0.04788745999999999975,
-0.16227101999999998805,
-0.13583389000000001268,
-0.23283903000000000239,
0.02619238799999999701,
0.01264223699999999888,
-0.11358358000000000343,
-0.01775503699999999782,
0.22904031999999999170,
-0.15134645999999998822,
-0.04649201400000000511,
0.01035310199999999944,
-0.06683244000000000684,
0.03698601199999999867,
-0.09432506999999999697,
0.02326419000000000056,
0.02034041699999999953,
-0.03597187300000000143,
-0.04084528999999999938,
-0.02197259700000000343,
-0.05381486599999999593,
-0.02238299100000000139,
0.00415633700000000040,
0.02379163200000000353,
-0.00783134899999999960,
-0.09671296999999999533,
-0.00210663899999999999,
0.04317100000000000104,
-0.11885761000000000243,
0.00854456400000000102,
-0.01236128899999999926,
-0.01418589299999999977,
0.17157683000000001350,
-0.07741180000000000283,
-0.08910482999999999598,
-0.04522498700000000121,
-0.02187969000000000025,
0.06561305400000000398,
0.09411560000000000759,
0.06003510599999999781,
-0.07202838999999999769,
-0.15327470000000001371,
-0.08823591999999999547,
0.05101221999999999701,
-0.10348517000000000132,
0.18187754000000000421,
0.17187172000000000560,
-0.06488530000000000686,
-0.11890840499999999480,
-0.05913249799999999862,
-0.01003122050000000015,
0.02809634799999999669,
-0.01050459600000000146,
-0.10906011000000000177,
0.03207116000000000133,
-0.02204938000000000037,
0.08622875000000000678,
0.04531816000000000316,
0.09351060499999999664,
-0.12452660000000000118,
0.19510788000000001130,
-0.37221742000000002104,
0.10100139999999999119,
0.14276855999999998881,
0.12833415000000000794,
0.13716095999999999844,
0.09598455000000000181,
-0.21550270999999998622,
0.01815399200000000074,
-0.02237058600000000133,
0.03875805999999999696,
-0.04927239599999999609,
-0.01780761600000000180,
0.04246736300000000103,
0.00272948570000000005,
-0.15482599999999999141,
0.12808548000000000155,
0.07063144400000000156,
-0.07557584000000000524,
0.00574860260000000043,
-0.08991575999999999735,
0.02196535799999999733,
-0.07522932000000000230,
-0.06651074400000001052,
-0.15821831000000000089,
0.07340968400000000282,
-0.14727707000000000992,
-0.17989393000000000744,
0.22319581999999998922,
-0.00439148700000000034,
-0.08865464500000000414,
0.09099912000000000278,
-0.17787068999999999797,
0.03976933299999999699,
-0.25304028000000000631,
-0.04891611299999999718,
-0.00141009549999999984,
-0.00258880849999999990,
0.06280441600000000180,
0.01745488499999999985,
0.12948817000000001354,
-0.04704835300000000109,
0.17501749999999999252,
0.01046299099999999961,
0.05120874000000000259,
0.00118765970000000000,
-0.02549960999999999894,
0.09071755400000000580,
0.12714026999999999967,
0.04463160000000000044,
0.02270132000000000053,
0.03028376399999999774,
0.04002622000000000124,
-0.10130722000000000338,
0.01484464899999999969,
0.08930662000000000322,
-0.07845454999999999790,
0.15049997000000001068,
0.07220603999999999911,
-0.07978862999999999928,
0.05030691000000000329,
-0.10094720999999999556,
-0.07550861999999999852,
0.05804693999999999826,
-0.15803812000000000415,
-0.06001586999999999894,
0.12909880000000001354,
-0.03749121400000000187,
0.02911441600000000060,
-0.01323309500000000027,
0.00560966800000000081,
-0.12662075000000000413,
0.12723485000000001044,
-0.26916226999999998126,
0.26159655999999997800,
0.01556893999999999986,
0.02338003399999999746,
0.13543211999999998918,
0.09460986400000000185,
-0.06730300999999999645,
0.09724153599999998954,
-0.26884383000000000585,
0.22905116999999999838,
-0.02479439399999999738,
0.02704464499999999910,
0.03821832700000000332,
0.11966889999999998084,
-0.07341058999999999779,
0.11586417999999999717,
0.09151122000000000423,
0.06929225999999999441,
-0.00122390960000000001,
0.00330827800000000000,
0.04216584200000000199,
-0.10467617999999999367,
0.00417730000000000011,
-0.03979863200000000045,
0.08249594999999999845,
-0.18241313000000000666,
-0.01588691999999999882,
-0.04178895399999999621,
0.14599340999999999013,
-0.08638215999999999950,
0.02178480000000000000,
-0.15432250000000000134,
0.13757262000000000657,
-0.14459411999999999265,
-0.11657619499999999357,
0.03781660600000000261,
0.05787134000000000028,
-0.09374209499999999751,
0.06750630600000000203,
-0.16150228999999999280,
-0.06764042400000000455,
-0.17037216999999998945,
-0.07195026000000000199,
-0.02155928299999999853,
-0.06141669300000000137,
0.01514454649999999979,
-0.02768651600000000129,
0.14517828999999998763,
-0.01064471800000000093,
0.03175991999999999704,
0.00505279140000000019,
-0.04927791299999999958,
-0.10667081999999999953,
-0.01105525100000000031,
0.05896527000000000018,
0.06209325000000000261,
0.03940362000000000031,
0.00996707500000000059,
-0.11935236000000000456,
-0.00074744073000000005,
-0.06111049699999999973,
-0.04213188599999999340,
0.13343161000000000604,
0.02797791700000000145,
0.06574982000000000049,
0.09965426500000000576,
-0.04863884000000000263,
0.03386621499999999813,
-0.02098897299999999758,
0.00481512159999999967,
0.05344199999999999645,
-0.02064101200000000025,
-0.08800779000000000241,
0.22877022999999999109,
0.07762439499999999881,
-0.12787414999999999199,
0.02015934700000000107,
0.01956144199999999833,
-0.08206592499999999790,
-0.17036450000000000204,
-0.26859074999999998923,
0.14024737000000001008,
0.07995359600000000178,
0.10485121999999999498,
0.08434790999999999817,
-0.03836486499999999800,
0.03266341999999999857,
0.10820884999999999532,
0.03554726400000000203,
0.03261647000000000157,
-0.05919614400000000609,
0.12805648000000000031,
0.03361017599999999855,
0.04192384999999999862,
-0.04703026299999999577,
0.05027659200000000189,
-0.01081315100000000175,
-0.01543991300000000129,
-0.13594070000000002540,
0.16155085999999999058,
0.19283258999999999816,
-0.12448579999999999368,
-0.00321307219999999961,
-0.10701559999999998851,
0.12968836999999999726,
-0.15061936000000000768,
-0.20123478999999999672,
-0.02324243600000000173,
0.01725938200000000020,
-0.05212048999999999849,
0.00822248100000000023,
0.06838237499999999525,
-0.07193222999999999978,
-0.01583707999999999991,
-0.15860613000000001183,
0.11350029000000000368,
-0.03732827299999999515,
-0.10627854999999999941,
0.10445879999999999055,
-0.07639472999999999403,
-0.09649432500000000579,
0.08329812999999999801,
-0.07599106399999999706,
-0.03943440700000000465,
-0.06722042999999999768,
-0.02895148999999999986,
0.07220927600000000279,
-0.02014478499999999839,
0.04699917499999999720,
0.03330547700000000000,
-0.03864138599999999979,
-0.08267512999999999945,
-0.08082122999999999391,
-0.04064956000000000125,
0.07777312000000000114,
0.05803900599999999715,
-0.04262017500000000320,
-0.05409952999999999984,
0.00818011349999999901,
0.02236221999999999863,
0.07923487999999999365,
-0.05022406199999999987,
0.02278360399999999897,
0.13580534999999999135,
-0.00935726100000000040,
-0.28164345000000001740,
0.07533808999999999645,
0.05192768599999999374,
-0.05211367499999999819,
0.03220781699999999970,
0.05175963400000000575,
-0.03184079399999999865,
-0.16892171000000000269,
-0.45959359999999999102,
0.10255126000000000519,
-0.08786842999999999737,
0.01282310399999999836,
0.15387866000000000044,
-0.06828000400000000525,
-0.10783820599999999201,
-0.02484473200000000132,
-0.69805974000000003965,
0.06781816999999999707,
-0.03498359799999999770,
0.04694560999999999873,
0.11402133000000000407,
-0.09774330999999999992,
-0.03504165600000000436,
-0.06918963999999999670,
-0.56948100000000001497,
-0.07460762599999999634,
0.06543770000000000142,
0.02374162200000000042,
0.14667825000000001001,
0.04430027000000000270,
-0.12186097999999999375,
-0.21872483000000000897,
-0.09961992000000000069,
-0.21598813999999999513,
0.00123856990000000000,
-0.02884755299999999800,
0.12696685999999998695,
-0.01156317800000000034,
-0.05047656599999999355,
-0.11805769000000000679,
-0.00899218000000000066,
-0.21970992000000000299,
-0.01552932600000000128,
0.04123178499999999996,
-0.07684000600000000236,
-0.02677389600000000189,
0.17613523000000000374,
-0.21880706999999999240,
-0.13401513000000001008,
-0.09730817399999999728,
-0.00695408829999999943,
-0.02482445700000000116,
-0.09479034000000000071,
-0.00565168260000000009,
-0.12801522000000001289,
-0.08973754999999999926,
0.06891716999999999982,
-0.06496280000000000110,
-0.05489730000000000998,
-0.02820801200000000106,
0.03673591500000000093,
-0.03947231500000000087,
-0.04877315000000000123,
-0.05742721599999999621,
0.03565669999999999257,
-0.02327645399999999851,
-0.01233368550000000022,
-0.00971840300000000046,
0.04821028200000000014,
0.03756036000000000097,
-0.02217573100000000061,
-0.05257922999999999764,
0.02814131799999999850,
-0.00366752640000000008,
-0.01869406399999999982,
0.02973969799999999844,
-0.04391302500000000136,
-0.02681489700000000073,
0.05067161500000000318,
-0.03672004999999999714,
0.00255884860000000006,
0.02586975000000000038,
-0.03149761999999999701,
0.00210893199999999999,
-0.01320416500000000035,
0.02732219399999999757,
0.03493700000000000278,
0.00856328200000000019,
-0.03938442500000000068,
-0.00692676100000000003,
0.05710097799999999668,
0.00210592519999999988,
-0.02696308500000000122,
-0.00042744449999999998,
0.01549622600000000010,
0.03141451600000000344,
0.02242338100000000264,
0.01105207199999999959,
0.04436037000000000313,
0.02805976799999999882,
0.02549578599999999945,
-0.03530952999999999870,
-0.00503291380000000024,
-0.01721879999999999938,
-0.00727756459999999959,
-0.04107439000000000229,
-0.00806954499999999915,
0.04378703999999999930,
0.00216081599999999987,
0.01498975899999999833,
-0.04769915999999999739,
0.02490413600000000033,
-0.05726486400000000559,
-0.03815525000000000166,
-0.03621963799999999845,
0.02381099000000000063,
0.00891804599999999892,
-0.05360060999999999992,
-0.04514338400000000168,
0.05686351700000000231,
-0.04127631999999999829,
0.04537702700000000033,
0.01102403199999999958,
0.05613998299999999747,
-0.02096871000000000151,
0.01797800100000000040,
-0.00020155621999999999,
0.01032225399999999946,
0.01743555800000000031,
0.03454912999999999734,
-0.01598016999999999840,
-0.03638431999999999777,
0.00042421865999999993,
-0.00716137650000000028,
0.04823726400000000192,
-0.02559900500000000106,
0.01544485800000000054,
0.01898327799999999926,
-0.01190545999999999965,
0.05289696499999999718,
0.02963303000000000118,
-0.00368551650000000040,
-0.05840064599999999356,
0.03310488500000000056,
0.04554431999999999925,
0.04839798400000000500,
0.02337962999999999847,
-0.03607160599999999911,
-0.03238517800000000058,
0.04204952299999999837,
-0.03908172199999999930,
-0.04442799499999999790,
0.02268803900000000012,
0.01593245199999999973,
0.04372173499999999768,
-0.05523554599999999648,
-0.05420769999999999755,
-0.00376100400000000008,
0.02958702700000000185,
-0.04914818299999999807,
0.01835309199999999794,
0.00716945599999999940,
0.06258305999999999591,
0.04503459499999999671,
-0.05324490000000000473,
-0.02337081200000000122,
0.03498813499999999660,
0.06020599999999999563,
-0.00955646699999999905,
0.00331670650000000016,
0.05121940400000000310,
-0.02065556300000000178,
-0.05039705299999999721,
0.01637385200000000124,
0.05929561700000000185,
0.01096780800000000076,
-0.01420948749999999955,
0.05056335400000000480,
-0.00329536460000000005,
0.02675608399999999942,
-0.00491407599999999986,
-0.03954135999999999762,
-0.04284633300000000034,
-0.03093790999999999902,
-0.07746637000000000661,
-0.05124080599999999291,
0.03247425000000000311,
-0.06210357700000000009,
0.01499161199999999965,
0.05319048999999999999,
0.01553475500000000079,
-0.05252408000000000077,
-0.02397514899999999768,
0.02177308099999999969,
-0.01778323799999999982,
-0.05184083800000000020,
0.00397654900000000023,
-0.02220708700000000035,
-0.02352387799999999807,
0.04863090800000000047,
0.01060756899999999898,
-0.06574357000000000117,
-0.04234730500000000175,
-0.02999525499999999845,
-0.00936531500000000079,
-0.01153860100000000076,
0.02879302799999999829,
-0.04603219400000000544,
0.03314936500000000008,
0.01744955999999999938,
-0.04515968599999999750,
0.03767080600000000112,
0.03092812399999999781,
-0.05098385400000000206,
0.03788159399999999760,
-0.02879146100000000083,
-0.04356463000000000002,
0.02403717899999999880,
-0.04706644299999999947,
-0.00141139579999999981,
-0.02504647700000000102,
0.00905193600000000001,
-0.03895952999999999916,
0.04969076799999999627,
0.03462827200000000161,
-0.05170463799999999721,
0.06077446400000000026,
0.00786277199999999878,
0.05102290599999999288,
-0.03776600199999999991,
0.02161302399999999804,
0.04390302000000000093,
0.01687882100000000218,
-0.04796700999999999743,
0.03600408000000000081,
0.03026024999999999895,
0.01611842999999999956,
0.03813020500000000035,
0.04369404000000000343,
-0.02498589799999999944,
0.01768480199999999947,
0.00789793949999999939,
0.07033124999999999793,
-0.00544570060000000057,
-0.04455700499999999675,
0.03501901000000000319,
-0.02365855999999999862,
-0.00930858199999999927,
-0.00540830849999999943,
0.01650274499999999922,
-0.05167380000000000584,
-0.01708621000000000098,
0.01799417000000000030,
0.01802504199999999807,
0.01012269499999999926,
-0.02015197800000000095,
-0.02177226499999999898,
0.01611251600000000034,
0.06232148800000000127,
-0.03545684999999999809,
-0.09534475000000000589,
-0.02377517700000000150,
0.05970273000000000246,
0.02719577000000000105,
0.04230109599999999637,
-0.07337577000000000682,
-0.05433472599999999292,
-0.08019566999999999668,
-0.02338373499999999924,
0.03454282499999999922,
0.00698834839999999940,
-0.02229595200000000083,
0.02694893299999999783,
-0.00309702989999999971,
-0.06678555999999999382,
-0.08157493000000000383,
-0.02549159000000000147,
-0.01321334600000000081,
0.04437169800000000108,
-0.01680185500000000096,
-0.02676290599999999950,
0.00312866400000000018,
0.02191962000000000077,
0.03710287999999999781,
-0.01601247999999999908,
-0.00147862519999999997,
0.04175443200000000105,
-0.04238519000000000314,
-0.05246801300000000085,
-0.07435592000000000590,
0.00070036499999999999,
0.05234921000000000019,
0.01835567499999999838,
0.07639357400000000575,
0.03226431999999999911,
-0.01999497999999999900,
-0.01180989199999999892,
0.00531139800000000016,
0.02630467499999999959,
-0.02352439599999999950,
-0.01068834399999999893,
-0.05484914400000000245,
0.03573217600000000438,
0.05164984599999999926,
0.04854747300000000071,
-0.05196167499999999884,
-0.06147612999999999689,
-0.05110449699999999873,
-0.01743975500000000123,
0.05571693599999999469,
0.01333913699999999918,
0.01869231000000000018,
-0.04220429800000000120,
0.03868172300000000119,
0.00119209529999999989,
-0.01784160699999999891,
-0.04758256699999999922,
0.03635440999999999673,
-0.05581119699999999989,
0.01265088399999999939,
0.03794506200000000162,
-0.03897945200000000471,
0.05251047799999999932,
-0.01327382700000000020,
-0.02627699000000000007,
0.03088012700000000027,
-0.02159368999999999872,
-0.00964302400000000004,
0.03100735700000000275,
-0.05582911000000000123,
-0.02647492499999999985,
-0.05976534599999999697,
0.00457432799999999990,
0.04050440999999999764,
0.10003906499999999646,
-0.03578032999999999908,
0.04691294000000000020,
-0.03330646500000000038,
0.00161076850000000001,
0.05537560999999999872,
0.01544897800000000036,
-0.02691642799999999919,
0.05201950299999999472,
-0.06595091999999999621,
0.04686130000000000850,
0.02783187499999999898,
-0.06623677999999999511,
-0.11467215399999999836,
0.03222595500000000057,
-0.02114270999999999859,
0.11208630999999999456,
0.01995116499999999987,
0.04676887999999999879,
-0.09881292999999999327,
-0.00441652500000000014,
-0.11631956000000000240,
0.01117772799999999962,
0.02258435599999999988,
0.04821806799999999588,
0.02137435999999999850,
-0.04862353200000000403,
0.01471562899999999917,
-0.05190367599999999582,
0.09183481999999999756,
-0.02576580299999999685,
-0.03605041299999999643,
-0.05052579599999999782,
0.05926460799999999640,
-0.06463318999999999315,
-0.03017190299999999645,
0.02014858800000000200,
0.09813070000000000126,
-0.01385135899999999885,
0.03551273799999999509,
-0.03925007999999999969,
-0.00225419599999999998,
0.01865217599999999948,
-0.00658724269999999990,
0.03656906299999999888,
-0.01794853399999999863,
0.04215374000000000204,
0.02068222000000000116,
0.01505791399999999863,
0.01230249100000000047,
-0.01254216300000000027,
0.00322804699999999995,
-0.03674705000000000332,
0.01205592500000000032,
-0.03424379599999999996,
-0.00379070799999999984,
-0.03377026999999999807,
-0.07267047000000000090,
0.03500054799999999938,
-0.01286546000000000044,
0.03959704199999999896,
-0.03298455499999999874,
0.01244709600000000124,
0.00585206740000000000,
-0.01526705800000000002,
-0.03610438500000000273,
0.03047657200000000038,
-0.05591604499999999756,
0.05720738699999999843,
-0.04118110600000000204,
0.04674278200000000355,
-0.04103633799999999859,
-0.01345674300000000018,
-0.02477480299999999802,
0.01550392500000000000,
-0.06657143999999999562,
-0.00572089660000000069,
0.08342283999999999811,
-0.08871579999999999744,
0.01104247100000000162,
-0.01662623499999999963,
-0.08076753999999999878,
-0.04668281599999999504,
-0.06573497500000000104,
-0.04312145299999999709,
0.06498296600000000312,
-0.06048277400000000303,
0.04930030599999999513,
-0.02414467399999999792,
0.00325445440000000008,
0.00564320699999999991,
-0.04600989999999999941,
0.02634587299999999882,
-0.03675857200000000324,
0.08161293000000000020,
0.05898933499999999691,
-0.02348001700000000233,
0.00254483660000000018,
-0.01545949300000000123,
0.01046805099999999905,
0.03263925399999999949,
0.00543264949999999920,
0.03463421399999999650,
-0.05117928000000000061,
-0.13533252000000001170,
-0.07037333400000000960,
-0.08250385500000000094,
0.05524121599999999577,
0.03127657999999999827,
-0.01990427399999999958,
-0.00008320602500000001,
-0.01749410699999999833,
-0.03846196000000000337,
0.02573106799999999930,
-0.04292697000000000179,
0.01508418100000000033,
-0.02012863800000000078,
0.09047879999999999812,
0.01602145100000000252,
-0.03210438799999999759,
0.04457849599999999524,
0.06634033000000000291,
-0.03853676500000000060,
-0.05053321999999999675,
0.02340442700000000195,
0.01720248300000000105,
-0.04978919999999999874,
-0.03618485999999999925,
0.01256056100000000134,
-0.03859193600000000030,
-0.04768478000000000300,
0.05813586700000000079,
-0.00722593899999999980,
0.01528149300000000016,
0.04142707000000000334,
0.03800010300000000035,
0.00886443099999999901,
-0.04930597999999999925,
-0.01830651200000000048,
0.02312659100000000190,
-0.04543076499999999796,
-0.05549998599999999421,
0.01293336200000000033,
-0.00713186520000000032,
-0.01757406800000000172,
-0.05059816300000000155,
0.06658319000000000043,
-0.02800873899999999778,
-0.00106559880000000012,
0.00516705599999999973,
0.01220814800000000026,
0.05288256999999999680,
-0.07303213000000000066,
-0.03911765999999999854,
-0.02410757700000000156,
-0.04380937299999999868,
-0.04870905400000000163,
-0.03778228000000000142,
0.00355158580000000017,
0.04629421200000000125,
0.06407840500000000494,
0.00533288699999999970,
0.07028929000000000427,
0.07188351499999999505,
0.00053741043999999997,
0.05434512700000000002,
-0.09166103999999999918,
0.06195918499999999995,
-0.08327353999999999312,
0.07741341000000000194,
0.06034853299999999587,
-0.10315483000000000291,
0.08153818000000000177,
-0.13021379999999999066,
-0.02919907999999999879,
0.04034076299999999476,
0.02311724999999999891,
-0.01241200200000000010,
0.03814035699999999973,
-0.04179779399999999923,
0.00789277599999999892,
0.03213479000000000335,
-0.02192517999999999898,
-0.02536174299999999909,
0.02392361100000000088,
-0.00159190940000000000,
0.01637046199999999882,
-0.06789222999999999786,
0.08165524999999999867,
0.04660314000000000123,
-0.03937819999999999515,
-0.04110001399999999722,
0.04609487000000000306,
0.04448621700000000151,
0.02457922899999999758,
0.00828441699999999878,
0.07733885000000000065,
-0.04062077399999999838,
-0.07970440400000000647,
-0.01051043200000000011,
0.04368516000000000066,
0.02637514299999999673,
0.00144953680000000002,
-0.03487340700000000210,
-0.00772379939999999921,
0.02668977999999999975,
0.00221062660000000003,
0.02049480999999999872,
-0.03952898500000000259,
-0.03295481199999999999,
-0.02772879399999999758,
-0.03272897400000000095,
0.02491196200000000277,
0.00836313399999999950,
-0.01475924500000000070,
0.01510175199999999954,
-0.07580647999999999553,
-0.01617530199999999904,
0.01699589599999999992,
-0.04508685999999999944,
-0.03264882000000000201,
0.01198477799999999975,
-0.04778298400000000057,
0.07020837000000000605,
-0.06791701999999999462,
0.00286917060000000008,
0.06280488500000000474,
0.00435917640000000033,
0.03657615000000000172,
-0.02794552999999999968,
0.03590648200000000345,
-0.04511165000000000314,
0.02173413500000000165,
-0.00873367100000000014,
0.05821304799999999641,
0.04523764000000000257,
0.02659066399999999997,
-0.06774439000000000155,
-0.00177309989999999986,
-0.01479001800000000026,
-0.00922516400000000097,
0.06980397599999998981,
0.08879173999999999400,
0.01268239600000000029,
-0.03763197399999999859,
0.01883562299999999926,
-0.00299539559999999986,
0.03276378299999999771,
-0.11370265999999999706,
0.05533845999999999904,
-0.00781610899999999990,
0.01223420000000000063,
0.00160734230000000020,
-0.05443303000000000030,
-0.00461817530000000007,
0.00227161100000000020,
0.05430797500000000139,
-0.06202781599999999951,
-0.01458786100000000058,
-0.02810064500000000048,
0.00715734699999999967,
0.02916819200000000251,
-0.00355879539999999972,
-0.05262657999999999919,
-0.07654565599999998970,
0.01158416999999999954,
0.01212304399999999949,
-0.05205756400000000061,
-0.05523844799999999555,
0.02337470000000000173,
0.00000018371281000000,
-0.05604097999999999719,
0.02662542999999999854,
-0.05381724999999999703,
0.02232848700000000103,
0.05283014999999999933,
-0.01111661199999999967,
-0.06131724300000000044,
-0.00188475859999999982,
0.01712306400000000034,
0.04003311999999999843,
0.07222561500000000689,
-0.05326251299999999744,
-0.06673685999999999507,
-0.03418275700000000111,
-0.05318645000000000317,
-0.00921242000000000068,
-0.03878940000000000166,
-0.05809832700000000516,
0.00649532199999999955,
0.00875846800000000016,
0.05259870400000000307,
0.02238088799999999809,
-0.02110551899999999967,
0.03139418399999999859,
0.06176572699999999944,
0.05216621599999999442,
-0.01108955100000000131,
0.01097632699999999926,
0.04444140200000000485,
0.04422032000000000046,
-0.03985015299999999927,
0.00733087600000000006,
-0.03022480599999999989,
0.07399609000000000048,
0.01030253300000000087,
0.01635516799999999979,
-0.03002735600000000157,
0.06136122000000000104,
0.04380500999999999839,
0.02606361200000000336,
0.05366204299999999955,
-0.01902577999999999908,
0.12172803999999999569,
-0.00053886685000000001,
-0.06103853000000000056,
-0.06040645000000000042,
-0.05348174299999999826,
-0.04840110999999999719,
0.03236385799999999535,
-0.06852882999999999891,
0.02086360799999999877,
-0.04692866999999999872,
-0.03049421899999999949,
-0.00234667579999999973,
-0.04002889600000000131,
-0.05174315000000000164,
-0.00701195899999999990,
-0.05649281999999999915,
-0.05026012700000000166,
0.07047995999999999428,
-0.02718354200000000151,
0.01193748800000000131,
0.01123903899999999928,
0.02306683700000000323,
-0.06354304400000000685,
-0.00290604200000000017,
-0.02261604000000000045,
0.07614410000000000622,
-0.02124217499999999856,
-0.05320942400000000516,
-0.05423727999999999883,
-0.00327869900000000037,
-0.03656116499999999964,
0.01534293999999999936,
-0.00000153443690000000,
0.02306943799999999767,
0.06244973499999999927,
0.01793808499999999945,
0.01205861850000000159,
0.01811451000000000033,
-0.01883777600000000052,
-0.02667759399999999892,
0.01683451199999999939,
-0.01046410300000000064,
-0.04835847000000000062,
0.02206221400000000013,
0.01310624899999999864,
0.03436364199999999980,
-0.01242503149999999931,
0.02857345700000000349,
0.00297556999999999986,
-0.08999198999999999393,
-0.01371631699999999870,
-0.04903600000000000320,
-0.05650590400000000263,
0.00237774309999999990,
-0.04363192999999999933,
0.00141810769999999985,
0.01972774999999999876,
0.02686450399999999739,
-0.04849127000000000298,
0.04562850999999999713,
0.01431804799999999989,
-0.00003992178200000000,
0.01322666600000000151,
0.02491217500000000168,
0.02678129999999999747,
-0.01034063099999999943,
0.00864439699999999984,
-0.03287492999999999665,
0.03545504799999999596,
0.01631646399999999927,
-0.02022031100000000123,
0.00614338650000000042,
-0.03341831299999999810,
0.01294843100000000156,
-0.06267314400000000008,
0.03503447999999999979,
-0.01758438199999999910,
0.01043991099999999964,
0.01044513000000000039,
-0.01034792600000000035,
-0.01880643499999999982,
0.06331430999999999865,
-0.01035281199999999943,
0.03507173400000000024,
-0.02038809700000000086,
-0.00998162900000000054,
0.05740318400000000293,
0.01862383000000000094,
-0.02107832200000000350,
0.12592464999999999908,
-0.00926047699999999960,
-0.06799624999999999420,
-0.03961720700000000150,
-0.00186962350000000012,
-0.05247919999999998975,
0.05455957000000000168,
-0.08658225999999999423,
0.07564448999999999479,
-0.03392799600000000193,
0.04440607500000000318,
-0.01061493699999999964,
-0.01350513499999999971,
-0.03481516999999999945,
0.08367898000000000003,
-0.01528094100000000101,
0.05453613400000000694,
0.01029711500000000078,
-0.02060963000000000031,
-0.03698628799999999911,
-0.04130162999999999890,
-0.00038497508000000003,
0.00246110190000000013,
-0.05977489799999999992,
-0.08148602400000000412,
0.07455377000000000531,
0.01985952300000000045,
0.05795899000000000190,
-0.01596032799999999932,
-0.01900553699999999943,
-0.07794995999999999869,
0.02674276999999999904,
0.00507694299999999956,
-0.02375620600000000193,
0.01616163699999999953,
0.02347563000000000080,
-0.05157065400000000049,
0.06592551000000000661,
-0.00161400220000000008,
-0.03800317599999999962,
-0.02083618599999999960,
-0.05784810299999999794,
0.00369796760000000013,
-0.05212100599999999750,
0.05145421599999999707,
-0.04676658300000000046,
0.00269054320000000017,
0.05467795000000000294,
-0.00818338199999999946,
-0.02065813199999999919,
-0.04208636999999999795,
-0.01586887000000000020,
0.00708476300000000087,
-0.04108887499999999693,
0.05197142999999999902,
0.04284041000000000238,
0.02201801999999999926,
-0.07463211999999999624,
-0.02834365499999999885,
-0.01559907100000000081,
0.03722869599999999862,
0.01103528999999999968,
0.01601498800000000083,
0.05101138700000000525,
-0.00282929280000000045,
-0.02619219600000000092,
0.02484961799999999693,
0.09187540400000000773,
-0.00974941399999999965,
0.06747080400000000922,
-0.02600878499999999954,
0.02368351999999999957,
-0.01913946299999999892,
-0.00893197499999999998,
0.02617472600000000232,
-0.12516446000000000516,
0.01069526899999999857,
-0.04947988999999999860,
-0.01588897400000000015,
-0.00108528079999999994,
0.00224960299999999976,
0.02433375999999999942,
0.01563700499999999896,
0.01069488700000000014,
0.01339219899999999873,
-0.00527159900000000008,
0.05841696999999999862,
-0.02219182399999999888,
0.01111371000000000060,
-0.05995548500000000280,
-0.01418012500000000002,
-0.06326964000000000199,
0.01542044300000000069,
0.05123971000000000081,
0.07397919000000000023,
0.07403563000000000505,
0.04828006400000000448,
-0.00517867230000000015,
0.07127736499999999531,
-0.03064168000000000100,
0.03007204999999999948,
0.04262421999999999739,
-0.04984855299999999684,
0.01614742400000000050,
0.06576051599999999109,
-0.01739879299999999920,
0.03471924399999999633,
0.03233859700000000365,
0.01041941000000000048,
-0.02136820399999999828,
-0.08682942999999999911,
-0.04479154599999999459,
0.00236095839999999994,
-0.05683103200000000355,
0.07439553999999999612,
-0.05382992299999999480,
-0.03413557299999999545,
0.00561007759999999998,
-0.02305297400000000038,
0.01676814600000000113,
0.04111242999999999842,
0.04941204999999999903,
-0.03580303499999999695,
0.01953726299999999916,
0.04319014999999999660,
-0.05672597499999999793,
0.01079766399999999849,
0.00181829619999999991,
-0.05705053700000000533,
0.05248421799999999915,
-0.01080300699999999989,
0.02530149999999999760,
0.05185430500000000331,
0.05275836200000000309,
-0.03768805399999999861,
-0.05426824499999999968,
0.05027819400000000521,
-0.04545989300000000122,
0.02358223899999999790,
0.05730243400000000625,
-0.00109757100000000009,
-0.03188539299999999799,
-0.00285795729999999961,
0.05251681999999999878,
-0.04279448500000000016,
0.01049491800000000065,
0.01552928999999999941,
0.05188206199999999962,
-0.01742088799999999896,
-0.02797514599999999935,
-0.02754745000000000110,
0.01748744600000000024,
-0.00232352200000000017,
-0.03799213500000000326,
0.04173980000000000051,
-0.05794824700000000134,
-0.01177469499999999995,
0.04597221299999999788,
-0.03828277399999999858,
-0.05016848400000000624,
0.03732380600000000104,
0.00206918499999999986,
0.01075287899999999991,
0.03079162499999999955,
0.05413250299999999848,
0.02115879600000000055,
-0.04113548000000000204,
-0.01765946100000000130,
-0.03427634400000000026,
0.01378183199999999907,
0.00254071390000000031,
-0.03837139999999999995,
0.02865558700000000319,
-0.01599658099999999930,
-0.02694568399999999753,
0.04770257299999999812,
0.05576480000000000325,
-0.03730800000000000088,
-0.03823941000000000145,
-0.04739650299999999955,
0.04218083599999999933,
0.01967297700000000121,
0.01227483100000000167,
-0.02695806100000000191,
0.02794004200000000174,
0.02889095399999999994,
0.04811697999999999670,
0.03345896699999999918,
0.05635415800000000142,
-0.03503691400000000233,
0.00770966480000000003,
-0.02432227000000000000,
-0.03744436799999999871,
-0.03274901599999999885,
-0.05715850400000000581,
0.04525782999999999889,
0.01334966800000000030,
-0.02455157999999999993,
-0.03692001000000000310,
